{
  "layer_path": "model.layers.0.mlp",
  "layer_id": 0,
  "token_pos": 8,
  "target_token_id": 13,
  "target_token_text": ",",
  "next_token_id": 16030,
  "next_token_text": " inspect",
  "router_logits": [
    -2.30859375,
    -0.67431640625,
    -0.6767578125,
    -0.5869140625,
    -1.34765625,
    -0.77978515625,
    0.79638671875,
    -0.73095703125,
    -1.060546875,
    -3.529296875,
    1.0322265625,
    -1.0205078125,
    -4.7578125,
    -1.4482421875,
    -0.49853515625,
    -0.7412109375,
    -1.158203125,
    -1.0380859375,
    -1.6435546875,
    -1.177734375,
    -2.962890625,
    0.31689453125,
    0.2587890625,
    -0.576171875,
    -0.06414794921875,
    -0.6943359375,
    -0.66064453125,
    -0.445556640625,
    -3.30859375,
    -0.7607421875,
    -0.85205078125,
    -0.77099609375,
    -0.480224609375,
    -0.52294921875,
    -1.8076171875,
    -0.61767578125,
    0.34375,
    -0.306884765625,
    -0.78564453125,
    -0.6162109375,
    -1.185546875,
    -3.296875,
    -0.9208984375,
    -0.6708984375,
    -0.78076171875,
    -0.98779296875,
    -1.5419921875,
    -0.802734375,
    -0.73486328125,
    -0.380615234375,
    -0.72998046875,
    -2.134765625,
    -1.138671875,
    -0.884765625,
    -0.97705078125,
    -0.8193359375,
    -0.73095703125,
    -1.5458984375,
    -3.45703125,
    -0.1121826171875,
    -0.041595458984375,
    -0.634765625,
    -0.52880859375,
    0.09417724609375
  ],
  "router_probabilities": [
    0.002897001802921295,
    0.014849313534796238,
    0.014813105575740337,
    0.01620558649301529,
    0.007573185488581657,
    0.013362936675548553,
    0.06462857872247696,
    0.014031616039574146,
    0.010091799311339855,
    0.000854681187774986,
    0.08181794732809067,
    0.010504063218832016,
    0.0002501880517229438,
    0.006848488003015518,
    0.017703013494610786,
    0.013888471759855747,
    0.009152865037322044,
    0.010321035981178284,
    0.005633412394672632,
    0.008975832723081112,
    0.0015058829449117184,
    0.04001140594482422,
    0.03775278106331825,
    0.016380608081817627,
    0.02733374759554863,
    0.014554993249475956,
    0.01505372580140829,
    0.018666181713342667,
    0.0010657473467290401,
    0.013619843870401382,
    0.01243132259696722,
    0.013480900786817074,
    0.01803015172481537,
    0.017276044934988022,
    0.00478101521730423,
    0.01571466401219368,
    0.04110049083828926,
    0.021442722529172897,
    0.013284866698086262,
    0.01573770120739937,
    0.008905981667339802,
    0.0010783100733533502,
    0.011604252271354198,
    0.014900155365467072,
    0.013349892571568489,
    0.010853386484086514,
    0.006235618609935045,
    0.013059758581221104,
    0.013976912014186382,
    0.019918616861104965,
    0.014045325107872486,
    0.0034470006357878447,
    0.00933338887989521,
    0.01203121431171894,
    0.010970603674650192,
    0.012844736687839031,
    0.014031616039574146,
    0.006211308762431145,
    0.0009187316754832864,
    0.02605181746184826,
    0.027957193553447723,
    0.015448384918272495,
    0.017175113782286644,
    0.03202277421951294
  ],
  "selected_expert_ids": [
    10,
    6,
    36,
    21,
    22,
    63,
    60,
    24
  ],
  "effective_gate_weights": [
    0.08181794732809067,
    0.06462857872247696,
    0.04110049083828926,
    0.04001140594482422,
    0.03775278106331825,
    0.03202277421951294,
    0.027957193553447723,
    0.02733374759554863
  ],
  "topk_ranks": [
    0,
    1,
    2,
    3,
    4,
    5,
    6,
    7
  ],
  "top1_top2_gap": 0.01718936860561371,
  "routing_entropy": 3.8645782470703125,
  "sample_id": "layer_0_sample_021",
  "microbatch_id": null,
  "sequence_length": 10,
  "all_expert_count": 64,
  "selected_destination_ids": [
    10,
    6,
    36,
    21,
    22,
    63,
    60,
    24
  ],
  "expert_to_destination_map": {},
  "layer_name": "model.layers.0.mlp",
  "run_id": null,
  "mode": "real",
  "all_token_selected_expert_ids": [
    [
      57,
      59,
      61,
      24,
      17,
      21,
      33,
      60
    ],
    [
      59,
      57,
      24,
      39,
      61,
      63,
      17,
      14
    ],
    [
      24,
      63,
      6,
      22,
      21,
      17,
      59,
      49
    ],
    [
      53,
      18,
      21,
      6,
      40,
      41,
      15,
      54
    ],
    [
      59,
      6,
      41,
      21,
      33,
      1,
      53,
      15
    ],
    [
      6,
      59,
      24,
      63,
      21,
      22,
      36,
      60
    ],
    [
      21,
      36,
      40,
      6,
      41,
      53,
      11,
      15
    ],
    [
      21,
      59,
      33,
      41,
      6,
      60,
      31,
      46
    ],
    [
      10,
      6,
      36,
      21,
      22,
      63,
      60,
      24
    ],
    [
      21,
      36,
      41,
      40,
      6,
      20,
      11,
      53
    ]
  ]
}