{
  "layer_path": "model.layers.0.mlp",
  "layer_id": 0,
  "token_pos": 8,
  "target_token_id": 2262,
  "target_token_text": "):",
  "next_token_id": 1091,
  "next_token_text": " return",
  "router_logits": [
    -1.0791015625,
    -0.396484375,
    -0.48291015625,
    -0.654296875,
    -1.169921875,
    -1.09765625,
    1.1259765625,
    -0.1324462890625,
    -1.037109375,
    -4.26953125,
    0.5205078125,
    -1.5361328125,
    -2.978515625,
    -1.208984375,
    -0.6513671875,
    -0.73583984375,
    -0.55078125,
    -0.62451171875,
    -1.130859375,
    -0.322021484375,
    -1.830078125,
    -0.181396484375,
    -0.95703125,
    -0.6904296875,
    -0.60498046875,
    -0.50634765625,
    -0.90478515625,
    -0.9619140625,
    -2.806640625,
    -1.2607421875,
    -0.61669921875,
    -0.8203125,
    -0.68994140625,
    -1.0791015625,
    -1.865234375,
    -0.279541015625,
    -0.54052734375,
    0.1026611328125,
    -0.56884765625,
    -0.84814453125,
    -1.1416015625,
    -2.708984375,
    -1.10546875,
    -0.360107421875,
    -0.7333984375,
    -0.45849609375,
    -1.3515625,
    -0.7197265625,
    -0.642578125,
    -0.7001953125,
    -0.280029296875,
    -0.83447265625,
    -1.46875,
    -1.0107421875,
    -1.146484375,
    -0.83447265625,
    -0.6318359375,
    -0.63525390625,
    -3.02734375,
    -1.05078125,
    -1.0556640625,
    -0.51708984375,
    -0.6298828125,
    -0.88818359375
  ],
  "router_probabilities": [
    0.010528430342674255,
    0.020836295560002327,
    0.01911112666130066,
    0.016101039946079254,
    0.00961437076330185,
    0.010334880091249943,
    0.09550297260284424,
    0.027132561430335045,
    0.010979956015944481,
    0.00043328898027539253,
    0.05212729051709175,
    0.006666186731308699,
    0.0015756457578390837,
    0.009246050380170345,
    0.0161482822149992,
    0.014840219169855118,
    0.01785707101225853,
    0.01658782735466957,
    0.00999736413359642,
    0.022447051480412483,
    0.0049684238620102406,
    0.02583640068769455,
    0.011895373463630676,
    0.015529649332165718,
    0.016914991661906242,
    0.018668416887521744,
    0.012533382512629032,
    0.011837432160973549,
    0.001871125539764762,
    0.008779668249189854,
    0.016717927530407906,
    0.013638113625347614,
    0.015537234954535961,
    0.010528430342674255,
    0.004796787165105343,
    0.023421157151460648,
    0.01804111711680889,
    0.03432390093803406,
    0.017537355422973633,
    0.013263770379126072,
    0.009890545159578323,
    0.0020630727522075176,
    0.010254453867673874,
    0.02160821110010147,
    0.01487649418413639,
    0.0195834469050169,
    0.008017432875931263,
    0.015081280842423439,
    0.016290834173560143,
    0.015378732234239578,
    0.023409724235534668,
    0.013446356169879436,
    0.007130852900445461,
    0.011273317039012909,
    0.00984236877411604,
    0.013446356169879436,
    0.01646677777171135,
    0.016410591080784798,
    0.0015005579916760325,
    0.010830860584974289,
    0.01077810488641262,
    0.01846895180642605,
    0.016498969867825508,
    0.012743192724883556
  ],
  "selected_expert_ids": [
    6,
    10,
    37,
    7,
    21,
    35,
    50,
    19
  ],
  "effective_gate_weights": [
    0.09550297260284424,
    0.05212729051709175,
    0.03432390093803406,
    0.027132561430335045,
    0.02583640068769455,
    0.023421157151460648,
    0.023409724235534668,
    0.022447051480412483
  ],
  "topk_ranks": [
    0,
    1,
    2,
    3,
    4,
    5,
    6,
    7
  ],
  "top1_top2_gap": 0.04337568208575249,
  "routing_entropy": 3.926494598388672,
  "sample_id": "layer_0_sample_024",
  "microbatch_id": null,
  "sequence_length": 10,
  "all_expert_count": 64,
  "selected_destination_ids": [
    6,
    10,
    37,
    7,
    21,
    35,
    50,
    19
  ],
  "expert_to_destination_map": {},
  "layer_name": "model.layers.0.mlp",
  "run_id": null,
  "mode": "real",
  "all_token_selected_expert_ids": [
    [
      57,
      55,
      33,
      35,
      43,
      7,
      51,
      22
    ],
    [
      21,
      55,
      57,
      33,
      35,
      46,
      39,
      52
    ],
    [
      6,
      7,
      60,
      57,
      49,
      43,
      22,
      1
    ],
    [
      27,
      21,
      41,
      49,
      40,
      60,
      6,
      0
    ],
    [
      6,
      10,
      7,
      27,
      1,
      57,
      60,
      43
    ],
    [
      54,
      21,
      41,
      40,
      6,
      0,
      13,
      53
    ],
    [
      6,
      21,
      10,
      36,
      63,
      54,
      39,
      53
    ],
    [
      21,
      36,
      6,
      40,
      41,
      0,
      53,
      11
    ],
    [
      6,
      10,
      37,
      7,
      21,
      35,
      50,
      19
    ],
    [
      53,
      6,
      21,
      41,
      40,
      15,
      18,
      49
    ]
  ]
}