{
  "layer_path": "model.layers.0.mlp",
  "layer_id": 0,
  "token_pos": 4,
  "target_token_id": 11576,
  "target_token_text": " doctors",
  "next_token_id": 4271,
  "next_token_text": " identify",
  "router_logits": [
    -2.462890625,
    -0.37353515625,
    -0.4755859375,
    -0.483154296875,
    -0.90380859375,
    -1.607421875,
    -0.222900390625,
    -2.01953125,
    -0.054351806640625,
    0.246337890625,
    0.677734375,
    -1.076171875,
    -3.419921875,
    -0.77197265625,
    -0.6611328125,
    -0.374267578125,
    0.04901123046875,
    -1.1396484375,
    -1.513671875,
    -1.146484375,
    -1.2001953125,
    -2.1796875,
    -1.94921875,
    -0.88427734375,
    -0.1612548828125,
    -0.37353515625,
    -0.75537109375,
    -0.26416015625,
    -4.22265625,
    -0.7158203125,
    -1.95703125,
    -0.89453125,
    -0.285400390625,
    1.388671875,
    -0.4609375,
    1.4951171875,
    -0.759765625,
    -0.54296875,
    -0.2498779296875,
    -0.673828125,
    -0.6201171875,
    -0.95703125,
    -0.74853515625,
    -1.3349609375,
    -0.814453125,
    -1.423828125,
    -0.31005859375,
    -0.1783447265625,
    -0.33544921875,
    -0.54833984375,
    -0.375732421875,
    -1.056640625,
    -0.78466796875,
    -0.33447265625,
    -0.2393798828125,
    -0.83837890625,
    -0.91357421875,
    1.326171875,
    -2.744140625,
    0.489990234375,
    -1.00390625,
    -0.370849609375,
    -0.399658203125,
    -0.77880859375
  ],
  "router_probabilities": [
    0.0018778704106807709,
    0.015172639861702919,
    0.013700646348297596,
    0.013597345910966396,
    0.008928249590098858,
    0.004417646676301956,
    0.017639286816120148,
    0.0029255945701152086,
    0.02087760716676712,
    0.028201265260577202,
    0.0434131920337677,
    0.00751467002555728,
    0.0007211609627120197,
    0.01018642820417881,
    0.011380440555512905,
    0.015161531046032906,
    0.023151051253080368,
    0.007052488159388304,
    0.004851835314184427,
    0.007004442624747753,
    0.006638152524828911,
    0.00249263783916831,
    0.003138704923912883,
    0.009104344062507153,
    0.018760884180665016,
    0.015172639861702919,
    0.01035695057362318,
    0.016926303505897522,
    0.0003231536829844117,
    0.010774784721434116,
    0.0031142791267484426,
    0.0090114651247859,
    0.016570575535297394,
    0.08838487416505814,
    0.01390281692147255,
    0.09831200540065765,
    0.010311536490917206,
    0.012807874009013176,
    0.017169782891869545,
    0.011236876249313354,
    0.011856921948492527,
    0.008465488441288471,
    0.010427992790937424,
    0.005801219027489424,
    0.009762766771018505,
    0.005307924002408981,
    0.016166971996426582,
    0.018442988395690918,
    0.01576164923608303,
    0.012739267200231552,
    0.015139338560402393,
    0.007662883028388023,
    0.010057926177978516,
    0.015777049586176872,
    0.017350981011986732,
    0.009531957097351551,
    0.008841483853757381,
    0.08302990347146988,
    0.0014174908865243196,
    0.03598201274871826,
    0.008077825419604778,
    0.015213442035019398,
    0.014781417325139046,
    0.010117032565176487
  ],
  "selected_expert_ids": [
    35,
    33,
    57,
    10,
    59,
    9,
    16,
    8
  ],
  "effective_gate_weights": [
    0.09831200540065765,
    0.08838487416505814,
    0.08302990347146988,
    0.0434131920337677,
    0.03598201274871826,
    0.028201265260577202,
    0.023151051253080368,
    0.02087760716676712
  ],
  "topk_ranks": [
    0,
    1,
    2,
    3,
    4,
    5,
    6,
    7
  ],
  "top1_top2_gap": 0.009927131235599518,
  "routing_entropy": 3.739574670791626,
  "sample_id": "layer_0_sample_017",
  "microbatch_id": null,
  "sequence_length": 6,
  "all_expert_count": 64,
  "selected_destination_ids": [
    35,
    33,
    57,
    10,
    59,
    9,
    16,
    8
  ],
  "expert_to_destination_map": {},
  "layer_name": "model.layers.0.mlp",
  "run_id": null,
  "mode": "real",
  "all_token_selected_expert_ids": [
    [
      44,
      57,
      30,
      24,
      17,
      22,
      60,
      61
    ],
    [
      44,
      57,
      30,
      39,
      24,
      63,
      52,
      60
    ],
    [
      22,
      57,
      44,
      24,
      46,
      63,
      39,
      59
    ],
    [
      57,
      35,
      50,
      16,
      31,
      56,
      6,
      48
    ],
    [
      35,
      33,
      57,
      10,
      59,
      9,
      16,
      8
    ],
    [
      57,
      10,
      22,
      37,
      30,
      7,
      39,
      44
    ]
  ]
}