{
  "layer_path": "model.layers.0.mlp",
  "layer_id": 0,
  "token_pos": 5,
  "target_token_id": 5281,
  "target_token_text": " shape",
  "next_token_id": 326,
  "next_token_text": " that",
  "router_logits": [
    -0.31689453125,
    -0.6640625,
    -0.33544921875,
    -0.60595703125,
    1.2314453125,
    0.08331298828125,
    1.1005859375,
    -2.443359375,
    -0.90478515625,
    0.87744140625,
    -0.8564453125,
    -1.8779296875,
    -2.048828125,
    0.359130859375,
    -0.231201171875,
    -0.52978515625,
    -0.677734375,
    -1.3193359375,
    -0.52783203125,
    -0.94189453125,
    -2.255859375,
    -1.5400390625,
    -2.775390625,
    -0.25830078125,
    -1.5732421875,
    -0.35107421875,
    0.475830078125,
    -0.6064453125,
    -2.74609375,
    -0.8720703125,
    -0.90185546875,
    0.01152801513671875,
    1.3583984375,
    -0.8330078125,
    1.3017578125,
    -0.81201171875,
    -0.413330078125,
    -0.87890625,
    -0.30078125,
    -2.09375,
    -0.705078125,
    0.978515625,
    -0.880859375,
    -1.9267578125,
    -0.8701171875,
    -0.763671875,
    -1.388671875,
    -0.72705078125,
    -0.375732421875,
    -0.2244873046875,
    -0.84130859375,
    -1.4599609375,
    -0.685546875,
    -0.783203125,
    -0.388916015625,
    -0.5693359375,
    -0.5205078125,
    -2.404296875,
    -1.1669921875,
    -1.0234375,
    -0.81103515625,
    -0.19775390625,
    -0.11676025390625,
    -1.076171875
  ],
  "router_probabilities": [
    0.01510112639516592,
    0.010671763680875301,
    0.014823513105511665,
    0.011310221627354622,
    0.07103049010038376,
    0.022532908245921135,
    0.06231796741485596,
    0.0018009323393926024,
    0.008388643153011799,
    0.049854326993227005,
    0.008804108947515488,
    0.003170008072629571,
    0.0026720226742327213,
    0.02968953736126423,
    0.016452256590127945,
    0.012205403298139572,
    0.010526853613555431,
    0.005541847553104162,
    0.012229264713823795,
    0.008083050139248371,
    0.0021723390091210604,
    0.004444310907274485,
    0.0012921056477352977,
    0.016012394800782204,
    0.004299168474972248,
    0.014593695290386677,
    0.03336454927921295,
    0.011304699815809727,
    0.0013305202592164278,
    0.008667613379657269,
    0.008413255214691162,
    0.020972074940800667,
    0.08064544200897217,
    0.009012891910970211,
    0.07620459049940109,
    0.009204128757119179,
    0.013712855987250805,
    0.008608564734458923,
    0.015346425585448742,
    0.002554646460339427,
    0.010242910124361515,
    0.05515676736831665,
    0.008591767400503159,
    0.0030189407989382744,
    0.008684558793902397,
    0.009659983217716217,
    0.005170616786926985,
    0.01002030074596405,
    0.014238241128623486,
    0.016563087701797485,
    0.008938387967646122,
    0.004814840387552977,
    0.01044493354856968,
    0.009473143145442009,
    0.014051762409508228,
    0.011732091195881367,
    0.012319163419306278,
    0.001872673281468451,
    0.0064538163132965565,
    0.007450092118233442,
    0.009213121607899666,
    0.017011845484375954,
    0.018447034060955048,
    0.007067395374178886
  ],
  "selected_expert_ids": [
    32,
    34,
    4,
    6,
    41,
    9,
    26,
    13
  ],
  "effective_gate_weights": [
    0.08064544200897217,
    0.07620459049940109,
    0.07103049010038376,
    0.06231796741485596,
    0.05515676736831665,
    0.049854326993227005,
    0.03336454927921295,
    0.02968953736126423
  ],
  "topk_ranks": [
    0,
    1,
    2,
    3,
    4,
    5,
    6,
    7
  ],
  "top1_top2_gap": 0.0044408515095710754,
  "routing_entropy": 3.7205586433410645,
  "sample_id": "layer_0_sample_016",
  "microbatch_id": null,
  "sequence_length": 7,
  "all_expert_count": 64,
  "selected_destination_ids": [
    32,
    34,
    4,
    6,
    41,
    9,
    26,
    13
  ],
  "expert_to_destination_map": {},
  "layer_name": "model.layers.0.mlp",
  "run_id": null,
  "mode": "real",
  "all_token_selected_expert_ids": [
    [
      5,
      14,
      61,
      18,
      38,
      6,
      0,
      19
    ],
    [
      5,
      14,
      18,
      6,
      41,
      38,
      61,
      9
    ],
    [
      30,
      34,
      22,
      41,
      60,
      9,
      24,
      44
    ],
    [
      59,
      6,
      55,
      46,
      9,
      50,
      8,
      54
    ],
    [
      6,
      26,
      38,
      13,
      16,
      34,
      47,
      27
    ],
    [
      32,
      34,
      4,
      6,
      41,
      9,
      26,
      13
    ],
    [
      22,
      6,
      48,
      60,
      32,
      4,
      5,
      3
    ]
  ]
}