{
  "layer_path": "model.layers.0.mlp",
  "layer_id": 0,
  "token_pos": 5,
  "target_token_id": 4536,
  "target_token_text": " sometimes",
  "next_token_id": 10313,
  "next_token_text": " reveal",
  "router_logits": [
    0.0178680419921875,
    -0.775390625,
    -1.0703125,
    -0.83447265625,
    -0.4169921875,
    -0.98828125,
    0.80224609375,
    -0.69921875,
    -0.4677734375,
    -0.99560546875,
    -0.572265625,
    -0.63330078125,
    -4.1875,
    -1.0263671875,
    -0.340087890625,
    -0.6015625,
    -0.85302734375,
    -0.96826171875,
    -1.412109375,
    0.0272979736328125,
    -3.033203125,
    -0.86181640625,
    -0.42236328125,
    -0.424560546875,
    -0.92236328125,
    -0.9462890625,
    -0.327392578125,
    -0.427978515625,
    -4.1171875,
    -0.4375,
    -0.388427734375,
    -0.7490234375,
    -0.6162109375,
    -0.442138671875,
    -0.83251953125,
    1.2724609375,
    -0.79150390625,
    -0.55322265625,
    -0.7041015625,
    -0.34326171875,
    -0.7607421875,
    -1.5859375,
    -0.91650390625,
    -0.481201171875,
    -0.487060546875,
    -0.74267578125,
    -1.27734375,
    -0.394287109375,
    1.365234375,
    -0.8037109375,
    -0.6376953125,
    -0.236328125,
    -0.60693359375,
    -0.865234375,
    -0.53857421875,
    -0.91357421875,
    -1.26171875,
    0.59423828125,
    -2.591796875,
    -0.19873046875,
    -0.7421875,
    -0.5634765625,
    -0.4912109375,
    -0.198974609375
  ],
  "router_probabilities": [
    0.02434372901916504,
    0.011012330651283264,
    0.008199668489396572,
    0.010380547493696213,
    0.01575903780758381,
    0.008900655433535576,
    0.053338177502155304,
    0.011883934959769249,
    0.01497875526547432,
    0.008835704065859318,
    0.013492590747773647,
    0.012693695724010468,
    0.0003630939172580838,
    0.008568041026592255,
    0.017018795013427734,
    0.013103033415973186,
    0.010189714841544628,
    0.009080639109015465,
    0.0058258031494915485,
    0.02457437291741371,
    0.001151658478192985,
    0.010100549086928368,
    0.015674622729420662,
    0.015640219673514366,
    0.009507139213383198,
    0.009282372891902924,
    0.01723623089492321,
    0.0155868511646986,
    0.0003895428963005543,
    0.015439147129654884,
    0.016215678304433823,
    0.01130655687302351,
    0.012912494130432606,
    0.01536769513040781,
    0.010400841943919659,
    0.0853591114282608,
    0.010836307890713215,
    0.013751990161836147,
    0.011826049536466599,
    0.0169648677110672,
    0.011174831539392471,
    0.004896245896816254,
    0.009563008323311806,
    0.014778967946767807,
    0.014692626893520355,
    0.011378554627299309,
    0.006666283123195171,
    0.016120942309498787,
    0.09365713596343994,
    0.010704833082854748,
    0.012638035230338573,
    0.01887952722609043,
    0.013032845221459866,
    0.010066085495054722,
    0.013954918831586838,
    0.009591066278517246,
    0.006771261803805828,
    0.04332130402326584,
    0.0017907049041241407,
    0.01960286684334278,
    0.01138411182910204,
    0.01361169945448637,
    0.014631771482527256,
    0.019598081707954407
  ],
  "selected_expert_ids": [
    48,
    35,
    6,
    57,
    19,
    0,
    59,
    63
  ],
  "effective_gate_weights": [
    0.09365713596343994,
    0.0853591114282608,
    0.053338177502155304,
    0.04332130402326584,
    0.02457437291741371,
    0.02434372901916504,
    0.01960286684334278,
    0.019598081707954407
  ],
  "topk_ranks": [
    0,
    1,
    2,
    3,
    4,
    5,
    6,
    7
  ],
  "top1_top2_gap": 0.008298024535179138,
  "routing_entropy": 3.851269483566284,
  "sample_id": "layer_0_sample_006",
  "microbatch_id": null,
  "sequence_length": 7,
  "all_expert_count": 64,
  "selected_destination_ids": [
    48,
    35,
    6,
    57,
    19,
    0,
    59,
    63
  ],
  "expert_to_destination_map": {},
  "layer_name": "model.layers.0.mlp",
  "run_id": null,
  "mode": "real",
  "all_token_selected_expert_ids": [
    [
      14,
      4,
      32,
      5,
      17,
      3,
      11,
      61
    ],
    [
      14,
      3,
      4,
      32,
      6,
      17,
      39,
      22
    ],
    [
      25,
      50,
      4,
      61,
      0,
      6,
      17,
      16
    ],
    [
      44,
      50,
      34,
      42,
      6,
      0,
      57,
      30
    ],
    [
      30,
      6,
      22,
      60,
      57,
      11,
      44,
      55
    ],
    [
      48,
      35,
      6,
      57,
      19,
      0,
      59,
      63
    ],
    [
      49,
      35,
      48,
      6,
      16,
      0,
      31,
      57
    ]
  ]
}