{
  "layer_path": "model.layers.0.mlp",
  "layer_id": 0,
  "token_pos": 4,
  "target_token_id": 27,
  "target_token_text": ":",
  "next_token_id": 1509,
  "next_token_text": " pass",
  "router_logits": [
    -1.8818359375,
    -0.477783203125,
    -0.5107421875,
    -1.0595703125,
    -1.1376953125,
    -0.890625,
    1.15234375,
    0.6044921875,
    -0.88427734375,
    -5.015625,
    -0.39208984375,
    -1.31640625,
    -3.57421875,
    -1.4033203125,
    -0.71875,
    -0.481689453125,
    -0.7138671875,
    0.80517578125,
    -0.48095703125,
    -1.4462890625,
    -4.0078125,
    1.150390625,
    0.6484375,
    -0.61865234375,
    -0.28271484375,
    -0.427734375,
    -0.5390625,
    0.048919677734375,
    -3.25390625,
    -1.4052734375,
    1.556640625,
    -0.71337890625,
    -0.91455078125,
    -0.91943359375,
    -1.7099609375,
    -0.58203125,
    -0.837890625,
    -0.050537109375,
    -0.3896484375,
    0.43017578125,
    -1.193359375,
    -2.5078125,
    -1.271484375,
    -0.0196685791015625,
    -0.460205078125,
    -0.59326171875,
    -1.2138671875,
    -0.362060546875,
    -0.63525390625,
    -0.72607421875,
    -0.66162109375,
    0.0313720703125,
    -0.475341796875,
    -0.71630859375,
    -1.017578125,
    -0.304443359375,
    -1.029296875,
    0.54296875,
    -4.58984375,
    -0.260009765625,
    -0.253173828125,
    -0.2998046875,
    -0.73583984375,
    0.337646484375
  ],
  "router_probabilities": [
    0.003176992991939187,
    0.012935660779476166,
    0.01251626294106245,
    0.007229723501950502,
    0.006686401087790728,
    0.008560393005609512,
    0.06603037565946579,
    0.03817814588546753,
    0.008614904247224331,
    0.00013836586731486022,
    0.014093042351305485,
    0.005592155735939741,
    0.0005848220898769796,
    0.005126641597598791,
    0.010165718384087086,
    0.012885228730738163,
    0.010215476155281067,
    0.04666278138756752,
    0.01289466954767704,
    0.0049110217951238155,
    0.0003790673508774489,
    0.06590153276920319,
    0.03989330679178238,
    0.01123595330864191,
    0.01572192646563053,
    0.013599550351500511,
    0.012166771106421947,
    0.021904470399022102,
    0.0008056264487095177,
    0.005116638261824846,
    0.09892991930246353,
    0.010220466181635857,
    0.008358010090887547,
    0.00831729918718338,
    0.0037727723829448223,
    0.011655053123831749,
    0.009023935534060001,
    0.019830754026770592,
    0.014127491973340511,
    0.0320708304643631,
    0.006324377842247486,
    0.0016988619463518262,
    0.005849093664437532,
    0.02045244723558426,
    0.013165055774152279,
    0.011524894274771214,
    0.0061959996819496155,
    0.014522665180265903,
    0.011050958186388016,
    0.01009153388440609,
    0.010763383470475674,
    0.021523451432585716,
    0.012967280112206936,
    0.010190567001700401,
    0.0075397794134914875,
    0.01538399513810873,
    0.0074519384652376175,
    0.035900089889764786,
    0.00021180852490942925,
    0.016082976013422012,
    0.016193294897675514,
    0.015455522574484348,
    0.00999346375465393,
    0.02923648990690708
  ],
  "selected_expert_ids": [
    30,
    6,
    21,
    17,
    22,
    7,
    57,
    39
  ],
  "effective_gate_weights": [
    0.09892991930246353,
    0.06603037565946579,
    0.06590153276920319,
    0.04666278138756752,
    0.03989330679178238,
    0.03817814588546753,
    0.035900089889764786,
    0.0320708304643631
  ],
  "topk_ranks": [
    0,
    1,
    2,
    3,
    4,
    5,
    6,
    7
  ],
  "top1_top2_gap": 0.03289954364299774,
  "routing_entropy": 3.745204448699951,
  "sample_id": "layer_0_sample_027",
  "microbatch_id": null,
  "sequence_length": 6,
  "all_expert_count": 64,
  "selected_destination_ids": [
    30,
    6,
    21,
    17,
    22,
    7,
    57,
    39
  ],
  "expert_to_destination_map": {},
  "layer_name": "model.layers.0.mlp",
  "run_id": null,
  "mode": "real",
  "all_token_selected_expert_ids": [
    [
      55,
      57,
      22,
      30,
      7,
      43,
      19,
      61
    ],
    [
      21,
      55,
      57,
      19,
      30,
      22,
      44,
      51
    ],
    [
      57,
      21,
      59,
      24,
      47,
      35,
      27,
      60
    ],
    [
      57,
      17,
      22,
      16,
      51,
      50,
      19,
      21
    ],
    [
      30,
      6,
      21,
      17,
      22,
      7,
      57,
      39
    ],
    [
      53,
      21,
      18,
      40,
      15,
      41,
      6,
      13
    ]
  ]
}