{
  "layer_path": "model.layers.0.mlp",
  "layer_id": 0,
  "token_pos": 5,
  "target_token_id": 19414,
  "target_token_text": " engineers",
  "next_token_id": 4080,
  "next_token_text": " measured",
  "router_logits": [
    -0.796875,
    -0.6142578125,
    -0.79541015625,
    -0.77197265625,
    -1.1923828125,
    -1.59375,
    1.32421875,
    -3.283203125,
    -0.51806640625,
    -1.59765625,
    -0.6787109375,
    -1.12109375,
    -1.1220703125,
    -0.45458984375,
    -0.69189453125,
    0.0202789306640625,
    -1.294921875,
    -1.064453125,
    -1.236328125,
    -1.5498046875,
    0.21826171875,
    0.434326171875,
    -3.146484375,
    -0.53857421875,
    -0.67724609375,
    -0.66748046875,
    -0.853515625,
    -0.35498046875,
    -1.458984375,
    -0.322265625,
    -0.82958984375,
    -0.5458984375,
    -0.394775390625,
    -0.92041015625,
    -1.8876953125,
    -0.46484375,
    1.529296875,
    -0.31787109375,
    -1.2041015625,
    -1.603515625,
    0.84619140625,
    1.02734375,
    -0.591796875,
    -3.21875,
    -0.93017578125,
    -0.8486328125,
    -0.95849609375,
    -0.5537109375,
    -0.8369140625,
    -0.14306640625,
    -0.63818359375,
    -0.1746826171875,
    -0.6962890625,
    0.393798828125,
    -0.339599609375,
    -0.57666015625,
    -0.71142578125,
    -2.0234375,
    -0.93505859375,
    -0.69189453125,
    -0.5693359375,
    -1.349609375,
    -0.74755859375,
    -1.33203125
  ],
  "router_probabilities": [
    0.010440042242407799,
    0.012531754560768604,
    0.01045534573495388,
    0.01070328801870346,
    0.007029677275568247,
    0.0047056954354047775,
    0.08707261085510254,
    0.0008687676745466888,
    0.013797082006931305,
    0.0046873497776687145,
    0.01174952369183302,
    0.007549111731350422,
    0.007541743107140064,
    0.014701267704367638,
    0.011595639400184155,
    0.023636747151613235,
    0.0063445852138102055,
    0.007989038713276386,
    0.006727445404976606,
    0.0049171000719070435,
    0.028811810538172722,
    0.03576071187853813,
    0.0009960471652448177,
    0.013517017476260662,
    0.011766746640205383,
    0.011882219463586807,
    0.00986514613032341,
    0.01624106988310814,
    0.005384579300880432,
    0.01678117923438549,
    0.010104023851454258,
    0.013418377377092838,
    0.015607448294758797,
    0.009226811118423939,
    0.0035072360187768936,
    0.014551292173564434,
    0.1068921610713005,
    0.016855087131261826,
    0.006947779096662998,
    0.004659965634346008,
    0.05398547276854515,
    0.06470686942338943,
    0.0128164142370224,
    0.0009266064735129476,
    0.009137144312262535,
    0.009913433343172073,
    0.008882006630301476,
    0.013313953764736652,
    0.01003029104322195,
    0.020074637606739998,
    0.012235481292009354,
    0.019449882209300995,
    0.011544792912900448,
    0.03434039652347565,
    0.016492800787091255,
    0.013011888600885868,
    0.01137135922908783,
    0.0030620545148849487,
    0.009092637337744236,
    0.011595639400184155,
    0.013107541017234325,
    0.006006932817399502,
    0.010967814363539219,
    0.006113456562161446
  ],
  "selected_expert_ids": [
    36,
    6,
    41,
    40,
    21,
    53,
    20,
    15
  ],
  "effective_gate_weights": [
    0.1068921610713005,
    0.08707261085510254,
    0.06470686942338943,
    0.05398547276854515,
    0.03576071187853813,
    0.03434039652347565,
    0.028811810538172722,
    0.023636747151613235
  ],
  "topk_ranks": [
    0,
    1,
    2,
    3,
    4,
    5,
    6,
    7
  ],
  "top1_top2_gap": 0.019819550216197968,
  "routing_entropy": 3.7451162338256836,
  "sample_id": "layer_0_sample_007",
  "microbatch_id": null,
  "sequence_length": 7,
  "all_expert_count": 64,
  "selected_destination_ids": [
    36,
    6,
    41,
    40,
    21,
    53,
    20,
    15
  ],
  "expert_to_destination_map": {},
  "layer_name": "model.layers.0.mlp",
  "run_id": null,
  "mode": "real",
  "all_token_selected_expert_ids": [
    [
      33,
      16,
      57,
      14,
      61,
      49,
      17,
      6
    ],
    [
      16,
      33,
      49,
      57,
      14,
      21,
      17,
      6
    ],
    [
      6,
      38,
      59,
      7,
      46,
      39,
      57,
      44
    ],
    [
      6,
      38,
      5,
      41,
      18,
      21,
      15,
      46
    ],
    [
      6,
      22,
      5,
      30,
      36,
      60,
      24,
      37
    ],
    [
      36,
      6,
      41,
      40,
      21,
      53,
      20,
      15
    ],
    [
      10,
      6,
      41,
      37,
      30,
      22,
      51,
      44
    ]
  ]
}