{
  "layer_path": "model.layers.0.mlp",
  "layer_id": 0,
  "token_pos": 6,
  "target_token_id": 2098,
  "target_token_text": " plan",
  "next_token_id": 323,
  "next_token_text": " for",
  "router_logits": [
    -2.21875,
    -1.1787109375,
    -0.260009765625,
    -0.9169921875,
    -0.33056640625,
    -0.440673828125,
    0.837890625,
    -1.3701171875,
    -0.4765625,
    -2.703125,
    -1.13671875,
    -1.1337890625,
    0.037200927734375,
    -0.4697265625,
    1.78515625,
    -0.61865234375,
    0.11041259765625,
    -1.0712890625,
    -0.451416015625,
    -0.5400390625,
    -2.3125,
    -1.2705078125,
    -2.60546875,
    -0.591796875,
    -1.59765625,
    1.51171875,
    -0.2283935546875,
    -0.3662109375,
    -1.0087890625,
    -0.460693359375,
    -1.044921875,
    -0.96630859375,
    -0.08258056640625,
    -1.3623046875,
    -1.931640625,
    -1.4453125,
    -0.7197265625,
    -0.94970703125,
    -0.4580078125,
    -0.97802734375,
    -0.732421875,
    0.92529296875,
    -1.068359375,
    -0.60107421875,
    -0.56103515625,
    -0.03546142578125,
    -0.71533203125,
    -0.68115234375,
    -0.6650390625,
    -0.69091796875,
    0.73779296875,
    -0.73388671875,
    -0.34033203125,
    -0.79052734375,
    -0.5224609375,
    -0.6767578125,
    -0.75732421875,
    -1.7666015625,
    -1.9052734375,
    -0.86669921875,
    -1.7138671875,
    1.5263671875,
    -0.197998046875,
    -1.689453125
  ],
  "router_probabilities": [
    0.002203028416261077,
    0.00623308913782239,
    0.015620328485965729,
    0.008097787387669086,
    0.014556193724274635,
    0.013038533739745617,
    0.046827640384435654,
    0.0051472666673362255,
    0.01257889624685049,
    0.0013572464231401682,
    0.006500403396785259,
    0.006519475020468235,
    0.021026507019996643,
    0.012665178626775742,
    0.12075204402208328,
    0.01091273594647646,
    0.022623645141720772,
    0.00693994527682662,
    0.012899220921099186,
    0.011805244721472263,
    0.002005880232900381,
    0.0056863874197006226,
    0.0014964777510613203,
    0.01120977383106947,
    0.004099752753973007,
    0.09186331182718277,
    0.01612207479774952,
    0.014046482741832733,
    0.007387533318251371,
    0.012780104763805866,
    0.007125366013497114,
    0.007708120625466108,
    0.018652915954589844,
    0.005187636706978083,
    0.002935689641162753,
    0.004774410277605057,
    0.009863651357591152,
    0.007837154902517796,
    0.012814472429454327,
    0.007618317846208811,
    0.009739221073687077,
    0.051104672253131866,
    0.006960307247936726,
    0.011106258258223534,
    0.011559965088963509,
    0.019552860409021378,
    0.009907092899084091,
    0.01025156769901514,
    0.010418091900646687,
    0.010151942260563374,
    0.04236726462841034,
    0.009724965319037437,
    0.014414734207093716,
    0.009189445525407791,
    0.012014593929052353,
    0.010296718217432499,
    0.00949968583881855,
    0.003462467109784484,
    0.0030141249299049377,
    0.008515463210642338,
    0.0036499586421996355,
    0.09321887046098709,
    0.016619635745882988,
    0.0037401653826236725
  ],
  "selected_expert_ids": [
    14,
    61,
    25,
    41,
    6,
    50,
    16,
    12
  ],
  "effective_gate_weights": [
    0.12075204402208328,
    0.09321887046098709,
    0.09186331182718277,
    0.051104672253131866,
    0.046827640384435654,
    0.04236726462841034,
    0.022623645141720772,
    0.021026507019996643
  ],
  "topk_ranks": [
    0,
    1,
    2,
    3,
    4,
    5,
    6,
    7
  ],
  "top1_top2_gap": 0.02753317356109619,
  "routing_entropy": 3.6258368492126465,
  "sample_id": "layer_0_sample_002",
  "microbatch_id": null,
  "sequence_length": 8,
  "all_expert_count": 64,
  "selected_destination_ids": [
    14,
    61,
    25,
    41,
    6,
    50,
    16,
    12
  ],
  "expert_to_destination_map": {},
  "layer_name": "model.layers.0.mlp",
  "run_id": null,
  "mode": "real",
  "all_token_selected_expert_ids": [
    [
      5,
      14,
      61,
      18,
      38,
      6,
      0,
      19
    ],
    [
      5,
      14,
      18,
      6,
      41,
      38,
      39,
      15
    ],
    [
      30,
      37,
      41,
      49,
      60,
      17,
      6,
      29
    ],
    [
      37,
      22,
      51,
      41,
      55,
      30,
      60,
      6
    ],
    [
      6,
      59,
      38,
      7,
      50,
      43,
      39,
      24
    ],
    [
      32,
      6,
      4,
      43,
      46,
      57,
      50,
      3
    ],
    [
      14,
      61,
      25,
      41,
      6,
      50,
      16,
      12
    ],
    [
      22,
      6,
      46,
      24,
      43,
      7,
      8,
      60
    ]
  ]
}