{
  "layer_path": "model.layers.0.mlp",
  "layer_id": 0,
  "token_pos": 9,
  "target_token_id": 3708,
  "target_token_text": " status",
  "next_token_id": 13,
  "next_token_text": ",",
  "router_logits": [
    -0.2391357421875,
    -0.5458984375,
    -0.69775390625,
    -0.88720703125,
    -1.2646484375,
    -2.08203125,
    0.728515625,
    -1.7333984375,
    -0.703125,
    -1.681640625,
    -0.59912109375,
    -0.5380859375,
    -3.3359375,
    -0.9169921875,
    -0.64501953125,
    0.06439208984375,
    -1.5546875,
    -1.8212890625,
    -1.62890625,
    -1.9912109375,
    -0.16552734375,
    1.3857421875,
    -3.251953125,
    -0.7158203125,
    -1.0546875,
    -0.65869140625,
    -0.7353515625,
    -0.47412109375,
    -3.0078125,
    -0.396728515625,
    -1.08203125,
    -0.475830078125,
    -0.57470703125,
    -0.71044921875,
    -0.88330078125,
    -0.42431640625,
    1.68359375,
    -0.54541015625,
    -1.1357421875,
    -1.3212890625,
    0.8759765625,
    0.86376953125,
    -0.5322265625,
    -2.12109375,
    -0.92919921875,
    -1.2099609375,
    -0.84521484375,
    -0.67822265625,
    -0.74462890625,
    -0.040008544921875,
    -0.90625,
    -1.1220703125,
    -0.94482421875,
    0.10174560546875,
    -0.43603515625,
    -0.68896484375,
    -0.75634765625,
    -2.38671875,
    -1.0234375,
    -0.69384765625,
    -0.75146484375,
    -1.5390625,
    -0.439453125,
    -1.458984375
  ],
  "router_probabilities": [
    0.018710201606154442,
    0.01376743707805872,
    0.01182777713984251,
    0.009786438196897507,
    0.006709713488817215,
    0.0029629145283252,
    0.04924068599939346,
    0.004198831040412188,
    0.01176441926509142,
    0.004421875812113285,
    0.01305385585874319,
    0.013875416480004787,
    0.0008455796632915735,
    0.009499246254563332,
    0.012468246743083,
    0.025345386937260628,
    0.005020437762141228,
    0.003845545928925276,
    0.004661318846046925,
    0.003244605381041765,
    0.020139383152127266,
    0.09500663727521896,
    0.0009196625323966146,
    0.011616010218858719,
    0.008277302607893944,
    0.012298941612243652,
    0.011391336098313332,
    0.014791956171393394,
    0.0011739712208509445,
    0.015982208773493767,
    0.008054036647081375,
    0.014766698703169823,
    0.013376475311815739,
    0.011678568087518215,
    0.009824741631746292,
    0.015547318384051323,
    0.12797032296657562,
    0.013774162158370018,
    0.007632858585566282,
    0.006340233143419027,
    0.05706444010138512,
    0.05637209117412567,
    0.013956956565380096,
    0.002849406795576215,
    0.009383993223309517,
    0.007086869329214096,
    0.01020614244043827,
    0.012061059474945068,
    0.011286144144833088,
    0.022832753136754036,
    0.009601838886737823,
    0.007737930864095688,
    0.009238507598638535,
    0.0263100303709507,
    0.015366187319159508,
    0.011932190507650375,
    0.011154656298458576,
    0.0021847160533070564,
    0.00854005292057991,
    0.011874069459736347,
    0.011209255084395409,
    0.005099498201161623,
    0.015313755720853806,
    0.005524652078747749
  ],
  "selected_expert_ids": [
    36,
    21,
    40,
    41,
    6,
    53,
    15,
    49
  ],
  "effective_gate_weights": [
    0.12797032296657562,
    0.09500663727521896,
    0.05706444010138512,
    0.05637209117412567,
    0.04924068599939346,
    0.0263100303709507,
    0.025345386937260628,
    0.022832753136754036
  ],
  "topk_ranks": [
    0,
    1,
    2,
    3,
    4,
    5,
    6,
    7
  ],
  "top1_top2_gap": 0.03296368569135666,
  "routing_entropy": 3.6717817783355713,
  "sample_id": "layer_0_sample_020",
  "microbatch_id": null,
  "sequence_length": 11,
  "all_expert_count": 64,
  "selected_destination_ids": [
    36,
    21,
    40,
    41,
    6,
    53,
    15,
    49
  ],
  "expert_to_destination_map": {},
  "layer_name": "model.layers.0.mlp",
  "run_id": null,
  "mode": "real",
  "all_token_selected_expert_ids": [
    [
      57,
      24,
      60,
      30,
      22,
      63,
      39,
      55
    ],
    [
      24,
      57,
      60,
      63,
      30,
      21,
      52,
      39
    ],
    [
      57,
      10,
      22,
      60,
      21,
      24,
      63,
      49
    ],
    [
      57,
      13,
      21,
      59,
      33,
      8,
      54,
      48
    ],
    [
      30,
      57,
      6,
      61,
      1,
      19,
      22,
      63
    ],
    [
      27,
      53,
      30,
      40,
      6,
      21,
      59,
      13
    ],
    [
      6,
      36,
      53,
      27,
      21,
      59,
      42,
      48
    ],
    [
      36,
      41,
      6,
      21,
      40,
      56,
      20,
      0
    ],
    [
      6,
      36,
      21,
      49,
      60,
      22,
      63,
      62
    ],
    [
      36,
      21,
      40,
      41,
      6,
      53,
      15,
      49
    ],
    [
      6,
      36,
      21,
      60,
      63,
      10,
      22,
      47
    ]
  ]
}