{
  "layer_path": "model.layers.0.mlp",
  "layer_id": 0,
  "token_pos": 12,
  "target_token_id": 2605,
  "target_token_text": " structure",
  "next_token_id": 32,
  "next_token_text": "?",
  "router_logits": [
    -0.56396484375,
    -0.386474609375,
    -0.87646484375,
    -0.66015625,
    -0.76123046875,
    -2.09375,
    0.198486328125,
    -0.8544921875,
    -0.6298828125,
    -1.46875,
    -0.814453125,
    -0.286376953125,
    -3.208984375,
    -0.59765625,
    -1.2587890625,
    -0.74609375,
    -1.169921875,
    -1.216796875,
    -1.9794921875,
    -1.306640625,
    -1.8662109375,
    0.591796875,
    -1.15234375,
    -0.98681640625,
    0.447265625,
    -1.2705078125,
    -1.048828125,
    -0.2548828125,
    -2.841796875,
    -0.37060546875,
    -0.9765625,
    -0.89794921875,
    -0.9326171875,
    -1.0224609375,
    -1.638671875,
    -0.84814453125,
    -1.1396484375,
    -1.5224609375,
    -0.62109375,
    -0.716796875,
    -0.82177734375,
    0.6298828125,
    -0.4326171875,
    -1.45703125,
    0.8837890625,
    -0.92529296875,
    -0.0794677734375,
    -0.87939453125,
    -1.240234375,
    -0.1201171875,
    -0.99267578125,
    0.51318359375,
    -0.796875,
    -0.62548828125,
    -0.76220703125,
    -0.896484375,
    -1.15625,
    -0.9423828125,
    -1.39453125,
    -0.2381591796875,
    1.001953125,
    -1.2333984375,
    -1.26171875,
    -1.1396484375
  ],
  "router_probabilities": [
    0.01553639117628336,
    0.01855381391942501,
    0.011366667225956917,
    0.014111551456153393,
    0.012754950672388077,
    0.0033649057149887085,
    0.03330262750387192,
    0.011619186028838158,
    0.014545288868248463,
    0.006286471616476774,
    0.012093846686184406,
    0.02050713822245598,
    0.0011031454196199775,
    0.015021668747067451,
    0.0077551789581775665,
    0.012949487194418907,
    0.008475910872220993,
    0.008087770082056522,
    0.0037721977569162846,
    0.0073928204365074635,
    0.0042246608063578606,
    0.049350447952747345,
    0.008626218885183334,
    0.010179068893194199,
    0.04270925372838974,
    0.007664828561246395,
    0.00956702046096325,
    0.021163269877433777,
    0.0015925763873383403,
    0.018850594758987427,
    0.010283981449902058,
    0.011125065386295319,
    0.01074599102139473,
    0.009822631254792213,
    0.005304089281708002,
    0.011693175882101059,
    0.008736428804695606,
    0.00595772685483098,
    0.014673692174255848,
    0.013334478251636028,
    0.012005592696368694,
    0.05126625671982765,
    0.017717143520712852,
    0.006360574625432491,
    0.06608481705188751,
    0.010824986733496189,
    0.02522113174200058,
    0.011333415284752846,
    0.007900416851043701,
    0.024216463789343834,
    0.010119601152837276,
    0.0456194207072258,
    0.012308314442634583,
    0.014609348960220814,
    0.012742500752210617,
    0.011141374707221985,
    0.008592587895691395,
    0.010641559958457947,
    0.00677079614251852,
    0.02152017317712307,
    0.0743737518787384,
    0.007954608649015427,
    0.0077324919402599335,
    0.008736428804695606
  ],
  "selected_expert_ids": [
    60,
    44,
    41,
    21,
    51,
    24,
    6,
    46
  ],
  "effective_gate_weights": [
    0.0743737518787384,
    0.06608481705188751,
    0.05126625671982765,
    0.049350447952747345,
    0.0456194207072258,
    0.04270925372838974,
    0.03330262750387192,
    0.02522113174200058
  ],
  "topk_ranks": [
    0,
    1,
    2,
    3,
    4,
    5,
    6,
    7
  ],
  "top1_top2_gap": 0.008288934826850891,
  "routing_entropy": 3.857090950012207,
  "sample_id": "layer_0_sample_040",
  "microbatch_id": null,
  "sequence_length": 14,
  "all_expert_count": 64,
  "selected_destination_ids": [
    60,
    44,
    41,
    21,
    51,
    24,
    6,
    46
  ],
  "expert_to_destination_map": {},
  "layer_name": "model.layers.0.mlp",
  "run_id": null,
  "mode": "real",
  "all_token_selected_expert_ids": [
    [
      57,
      37,
      61,
      14,
      17,
      25,
      48,
      6
    ],
    [
      37,
      57,
      14,
      25,
      52,
      61,
      55,
      48
    ],
    [
      6,
      7,
      22,
      43,
      60,
      16,
      39,
      27
    ],
    [
      56,
      31,
      6,
      48,
      57,
      7,
      53,
      43
    ],
    [
      16,
      25,
      4,
      6,
      48,
      31,
      61,
      56
    ],
    [
      50,
      6,
      19,
      61,
      25,
      4,
      7,
      2
    ],
    [
      53,
      40,
      6,
      41,
      15,
      20,
      18,
      9
    ],
    [
      61,
      41,
      16,
      6,
      0,
      49,
      8,
      51
    ],
    [
      60,
      41,
      46,
      55,
      6,
      24,
      49,
      21
    ],
    [
      22,
      6,
      62,
      60,
      55,
      24,
      3,
      21
    ],
    [
      2,
      41,
      21,
      54,
      0,
      58,
      6,
      9
    ],
    [
      41,
      44,
      59,
      24,
      60,
      21,
      51,
      0
    ],
    [
      60,
      44,
      41,
      21,
      51,
      24,
      6,
      46
    ],
    [
      6,
      60,
      22,
      63,
      24,
      56,
      39,
      19
    ]
  ]
}