{
  "layer_path": "model.layers.0.mlp",
  "layer_id": 0,
  "token_pos": 6,
  "target_token_id": 2926,
  "target_token_text": " story",
  "next_token_id": 273,
  "next_token_text": " of",
  "router_logits": [
    -0.314208984375,
    -0.369384765625,
    -0.197998046875,
    -0.068115234375,
    1.4384765625,
    -0.319091796875,
    1.2490234375,
    -1.2470703125,
    -0.442138671875,
    -2.74609375,
    -0.77197265625,
    -2.15234375,
    -0.403076171875,
    -0.08306884765625,
    -0.39501953125,
    -0.20361328125,
    -1.26953125,
    -1.001953125,
    -0.6474609375,
    -0.5361328125,
    -1.7626953125,
    -2.048828125,
    -3.001953125,
    -0.034698486328125,
    -1.2939453125,
    -0.492919921875,
    0.050384521484375,
    -0.2255859375,
    -2.205078125,
    -0.281982421875,
    -0.982421875,
    1.9775390625,
    1.6337890625,
    -0.62939453125,
    -1.5341796875,
    -0.505859375,
    -0.09783935546875,
    -0.97314453125,
    -0.51513671875,
    -0.473388671875,
    -0.59033203125,
    1.0283203125,
    -0.5947265625,
    -0.177734375,
    -0.8701171875,
    -0.2452392578125,
    -1.1240234375,
    -0.54833984375,
    0.7568359375,
    -0.401611328125,
    -0.87109375,
    -0.86328125,
    -0.276611328125,
    -0.2252197265625,
    -0.0070037841796875,
    -0.58251953125,
    0.42138671875,
    -2.572265625,
    -3.927734375,
    -1.015625,
    -0.8330078125,
    -0.63134765625,
    -0.048004150390625,
    -1.07421875
  ],
  "router_probabilities": [
    0.012737013399600983,
    0.012053275480866432,
    0.014306630939245224,
    0.01629088819026947,
    0.07349356263875961,
    0.012674973346292973,
    0.0608094185590744,
    0.005011077504605055,
    0.011207492090761662,
    0.0011192149249836802,
    0.008058669976890087,
    0.0020266363862901926,
    0.011653948575258255,
    0.016049092635512352,
    0.011748219840228558,
    0.014226521365344524,
    0.00489977840334177,
    0.006403009407222271,
    0.009127212688326836,
    0.010202046483755112,
    0.0029922507237643003,
    0.0022476676385849714,
    0.000866553105879575,
    0.016844475641846657,
    0.004781603347510099,
    0.010652570985257626,
    0.01834039017558098,
    0.013917336240410805,
    0.001922532101161778,
    0.013154169544577599,
    0.006529297214001417,
    0.12599727511405945,
    0.08934544771909714,
    0.009293606504797935,
    0.003760460764169693,
    0.01051562000066042,
    0.015813780948519707,
    0.006590154021978378,
    0.010418514721095562,
    0.010862674564123154,
    0.009663821198046207,
    0.048766400665044785,
    0.009621446952223778,
    0.014599493704736233,
    0.007305328734219074,
    0.013646485283970833,
    0.005667214747518301,
    0.010078267194330692,
    0.03717205300927162,
    0.011671031825244427,
    0.007298198062926531,
    0.00735543854534626,
    0.013225012458860874,
    0.01392243430018425,
    0.017317498102784157,
    0.009739615954458714,
    0.026578640565276146,
    0.0013316990807652473,
    0.0003433471720200032,
    0.006316063925623894,
    0.007581517565995455,
    0.009275472722947598,
    0.01662183180451393,
    0.005956615786999464
  ],
  "selected_expert_ids": [
    31,
    32,
    4,
    6,
    41,
    48,
    56,
    26
  ],
  "effective_gate_weights": [
    0.12599727511405945,
    0.08934544771909714,
    0.07349356263875961,
    0.0608094185590744,
    0.048766400665044785,
    0.03717205300927162,
    0.026578640565276146,
    0.01834039017558098
  ],
  "topk_ranks": [
    0,
    1,
    2,
    3,
    4,
    5,
    6,
    7
  ],
  "top1_top2_gap": 0.03665182739496231,
  "routing_entropy": 3.634282350540161,
  "sample_id": "layer_0_sample_000",
  "microbatch_id": null,
  "sequence_length": 8,
  "all_expert_count": 64,
  "selected_destination_ids": [
    31,
    32,
    4,
    6,
    41,
    48,
    56,
    26
  ],
  "expert_to_destination_map": {},
  "layer_name": "model.layers.0.mlp",
  "run_id": null,
  "mode": "real",
  "all_token_selected_expert_ids": [
    [
      5,
      14,
      61,
      18,
      38,
      6,
      0,
      19
    ],
    [
      5,
      14,
      18,
      6,
      38,
      41,
      39,
      52
    ],
    [
      8,
      46,
      5,
      6,
      49,
      39,
      3,
      23
    ],
    [
      18,
      55,
      41,
      6,
      13,
      49,
      26,
      12
    ],
    [
      6,
      30,
      44,
      22,
      16,
      63,
      18,
      55
    ],
    [
      31,
      6,
      56,
      38,
      48,
      39,
      63,
      43
    ],
    [
      31,
      32,
      4,
      6,
      41,
      48,
      56,
      26
    ],
    [
      8,
      46,
      49,
      6,
      32,
      24,
      39,
      54
    ]
  ]
}