{
  "layer_path": "model.layers.0.mlp",
  "layer_id": 0,
  "token_pos": 12,
  "target_token_id": 12240,
  "target_token_text": " completion",
  "next_token_id": 32,
  "next_token_text": "?",
  "router_logits": [
    -0.38818359375,
    -1.1572265625,
    -1.326171875,
    -1.2255859375,
    -1.2568359375,
    -1.9462890625,
    0.1510009765625,
    -1.6904296875,
    -1.546875,
    0.78076171875,
    1.5615234375,
    -1.0849609375,
    -1.0068359375,
    -0.83203125,
    -1.1826171875,
    -1.0634765625,
    -0.92626953125,
    -0.94482421875,
    -1.568359375,
    -1.2431640625,
    -1.4609375,
    -0.2008056640625,
    -1.0439453125,
    -0.49853515625,
    -0.492431640625,
    -0.40234375,
    -0.970703125,
    -1.0703125,
    -2.001953125,
    -1.0654296875,
    -0.63720703125,
    -1.4111328125,
    -0.8212890625,
    -0.68994140625,
    -1.859375,
    -1.07421875,
    -1.5400390625,
    -0.32080078125,
    -1.673828125,
    -2.388671875,
    -1.0556640625,
    0.94384765625,
    -0.828125,
    -3.19921875,
    -0.8662109375,
    -0.9111328125,
    -0.97412109375,
    -0.71630859375,
    -1.09765625,
    -0.31201171875,
    -1.076171875,
    -0.98095703125,
    -0.98828125,
    -1.1044921875,
    -1.173828125,
    0.49658203125,
    -1.0595703125,
    -1.333984375,
    0.2037353515625,
    -0.2427978515625,
    0.7041015625,
    -0.99072265625,
    -1.0498046875,
    -1.244140625
  ],
  "router_probabilities": [
    0.018504437059164047,
    0.008576000109314919,
    0.007242904044687748,
    0.00800933875143528,
    0.007762916851788759,
    0.0038958233781158924,
    0.031727857887744904,
    0.005031732842326164,
    0.005808481480926275,
    0.059558309614658356,
    0.1300238072872162,
    0.009218691848218441,
    0.009967782534658909,
    0.011871765367686749,
    0.00836099125444889,
    0.009418893605470657,
    0.010804087854921818,
    0.010605470277369022,
    0.005685020703822374,
    0.007869779132306576,
    0.006329723633825779,
    0.02231788821518421,
    0.009604664519429207,
    0.016571080312132835,
    0.01667253114283085,
    0.01824425719678402,
    0.010334533639252186,
    0.009354725480079651,
    0.0036848911549896,
    0.009400513954460621,
    0.014425350353121758,
    0.006652956362813711,
    0.011999980546534061,
    0.0136843491345644,
    0.004249576013535261,
    0.009318255819380283,
    0.005848323460668325,
    0.019794287160038948,
    0.005115964915603399,
    0.00250308052636683,
    0.009492767043411732,
    0.0701083391904831,
    0.011918229050934315,
    0.0011129069607704878,
    0.011472848244011402,
    0.010968870483338833,
    0.010299270041286945,
    0.013328245840966702,
    0.009102397598326206,
    0.019969027489423752,
    0.00930007267743349,
    0.01022910512983799,
    0.010154458694159985,
    0.00904038641601801,
    0.008434800431132317,
    0.04482545331120491,
    0.009455757215619087,
    0.007186539471149445,
    0.03344590961933136,
    0.02140011452138424,
    0.0551631785929203,
    0.010129697620868683,
    0.00954855140298605,
    0.007862097583711147
  ],
  "selected_expert_ids": [
    10,
    41,
    9,
    60,
    55,
    58,
    6,
    21
  ],
  "effective_gate_weights": [
    0.1300238072872162,
    0.0701083391904831,
    0.059558309614658356,
    0.0551631785929203,
    0.04482545331120491,
    0.03344590961933136,
    0.031727857887744904,
    0.02231788821518421
  ],
  "topk_ranks": [
    0,
    1,
    2,
    3,
    4,
    5,
    6,
    7
  ],
  "top1_top2_gap": 0.05991546809673309,
  "routing_entropy": 3.7275390625,
  "sample_id": "layer_0_sample_038",
  "microbatch_id": null,
  "sequence_length": 14,
  "all_expert_count": 64,
  "selected_destination_ids": [
    10,
    41,
    9,
    60,
    55,
    58,
    6,
    21
  ],
  "expert_to_destination_map": {},
  "layer_name": "model.layers.0.mlp",
  "run_id": null,
  "mode": "real",
  "all_token_selected_expert_ids": [
    [
      57,
      14,
      61,
      62,
      7,
      43,
      39,
      17
    ],
    [
      14,
      62,
      57,
      39,
      52,
      61,
      8,
      7
    ],
    [
      59,
      48,
      1,
      10,
      16,
      6,
      8,
      49
    ],
    [
      6,
      38,
      14,
      3,
      27,
      1,
      35,
      37
    ],
    [
      6,
      41,
      5,
      18,
      16,
      14,
      35,
      53
    ],
    [
      25,
      50,
      41,
      61,
      6,
      4,
      16,
      51
    ],
    [
      6,
      22,
      7,
      16,
      43,
      39,
      60,
      25
    ],
    [
      56,
      31,
      6,
      48,
      39,
      7,
      53,
      43
    ],
    [
      62,
      38,
      56,
      6,
      35,
      4,
      31,
      3
    ],
    [
      5,
      41,
      18,
      6,
      9,
      35,
      62,
      21
    ],
    [
      22,
      6,
      5,
      60,
      42,
      48,
      55,
      39
    ],
    [
      37,
      41,
      6,
      9,
      58,
      20,
      35,
      15
    ],
    [
      10,
      41,
      9,
      60,
      55,
      58,
      6,
      21
    ],
    [
      6,
      24,
      60,
      47,
      19,
      63,
      39,
      7
    ]
  ]
}