{
  "layer_path": "model.layers.0.mlp",
  "layer_id": 0,
  "token_pos": 8,
  "target_token_id": 374,
  "target_token_text": " 2",
  "next_token_id": 27,
  "next_token_text": ":",
  "router_logits": [
    -0.71923828125,
    -0.1319580078125,
    -0.337646484375,
    -0.72705078125,
    -1.3798828125,
    -0.96728515625,
    0.91943359375,
    -0.06280517578125,
    -0.70849609375,
    -1.5078125,
    -0.62109375,
    -1.7939453125,
    -4.1953125,
    -1.87109375,
    -0.9716796875,
    -1.0205078125,
    -1.4619140625,
    0.2119140625,
    -2.037109375,
    -2.34375,
    -1.71484375,
    0.6240234375,
    -0.2371826171875,
    -0.724609375,
    1.2998046875,
    -0.6494140625,
    -1.109375,
    -0.229248046875,
    -2.34375,
    -1.6943359375,
    -1.3935546875,
    -0.65966796875,
    -0.92529296875,
    -0.47802734375,
    -1.8408203125,
    -0.87109375,
    -1.017578125,
    -0.74267578125,
    -0.129150390625,
    -0.048126220703125,
    -1.1123046875,
    -0.4638671875,
    -0.81005859375,
    -0.212890625,
    -0.94775390625,
    -0.7783203125,
    0.71630859375,
    0.65869140625,
    -0.8017578125,
    1.994140625,
    -0.435302734375,
    -2.248046875,
    -0.64599609375,
    -1.146484375,
    -1.056640625,
    -0.5087890625,
    -1.27734375,
    -0.7587890625,
    -1.5966796875,
    -0.1585693359375,
    1.212890625,
    -1.0673828125,
    -0.94580078125,
    -0.31689453125
  ],
  "router_probabilities": [
    0.010022474452853203,
    0.018031321465969086,
    0.014679058454930782,
    0.00994447898119688,
    0.005176791921257973,
    0.00782077107578516,
    0.05159898102283478,
    0.019322363659739494,
    0.010130718350410461,
    0.004555137827992439,
    0.011056014336645603,
    0.0034216505009680986,
    0.00030998102738521993,
    0.003167601302266121,
    0.007786477915942669,
    0.007415411528199911,
    0.004769084043800831,
    0.02543134242296219,
    0.002683062804862857,
    0.001974506303668022,
    0.0037033010739833117,
    0.038401320576667786,
    0.016230395063757896,
    0.009968787431716919,
    0.0754804015159607,
    0.01074729673564434,
    0.006784857716411352,
    0.016359688714146614,
    0.001974506303668022,
    0.0037800315767526627,
    0.005106496624648571,
    0.010637657716870308,
    0.008156174793839455,
    0.012756500393152237,
    0.003264961764216423,
    0.008610432967543602,
    0.007437168620526791,
    0.00979030504822731,
    0.018082017078995705,
    0.019608087837696075,
    0.006765009369701147,
    0.012938419356942177,
    0.00915234163403511,
    0.01662949100136757,
    0.007975022308528423,
    0.009447479620575905,
    0.042113859206438065,
    0.03975595906376839,
    0.009228629060089588,
    0.15114036202430725,
    0.01331332791596651,
    0.0021728104911744595,
    0.010784093290567398,
    0.006537690293043852,
    0.007152254693210125,
    0.012370062991976738,
    0.0057357847690582275,
    0.009633814916014671,
    0.004167801234871149,
    0.017557812854647636,
    0.06919709593057632,
    0.007075835485011339,
    0.007990613579750061,
    0.014986859634518623
  ],
  "selected_expert_ids": [
    49,
    24,
    60,
    6,
    46,
    47,
    21,
    17
  ],
  "effective_gate_weights": [
    0.15114036202430725,
    0.0754804015159607,
    0.06919709593057632,
    0.05159898102283478,
    0.042113859206438065,
    0.03975595906376839,
    0.038401320576667786,
    0.02543134242296219
  ],
  "topk_ranks": [
    0,
    1,
    2,
    3,
    4,
    5,
    6,
    7
  ],
  "top1_top2_gap": 0.07565996050834656,
  "routing_entropy": 3.6071181297302246,
  "sample_id": "layer_0_sample_019",
  "microbatch_id": null,
  "sequence_length": 10,
  "all_expert_count": 64,
  "selected_destination_ids": [
    49,
    24,
    60,
    6,
    46,
    47,
    21,
    17
  ],
  "expert_to_destination_map": {},
  "layer_name": "model.layers.0.mlp",
  "run_id": null,
  "mode": "real",
  "all_token_selected_expert_ids": [
    [
      57,
      49,
      60,
      24,
      22,
      17,
      47,
      46
    ],
    [
      57,
      49,
      46,
      39,
      24,
      60,
      7,
      22
    ],
    [
      6,
      25,
      24,
      29,
      39,
      7,
      49,
      43
    ],
    [
      53,
      18,
      41,
      6,
      40,
      15,
      20,
      21
    ],
    [
      38,
      6,
      59,
      21,
      63,
      11,
      24,
      39
    ],
    [
      21,
      41,
      6,
      5,
      18,
      0,
      38,
      61
    ],
    [
      6,
      22,
      63,
      60,
      5,
      55,
      39,
      56
    ],
    [
      21,
      6,
      53,
      40,
      41,
      0,
      56,
      15
    ],
    [
      49,
      24,
      60,
      6,
      46,
      47,
      21,
      17
    ],
    [
      25,
      6,
      29,
      24,
      49,
      21,
      2,
      43
    ]
  ]
}