{
  "layer_path": "model.layers.0.mlp",
  "layer_id": 0,
  "token_pos": 5,
  "target_token_id": 984,
  "target_token_text": " because",
  "next_token_id": 253,
  "next_token_text": " the",
  "router_logits": [
    -1.4091796875,
    -0.564453125,
    -0.70947265625,
    -0.82666015625,
    -1.11328125,
    -0.89306640625,
    0.5400390625,
    -0.62353515625,
    -0.8876953125,
    -2.73046875,
    -0.74462890625,
    -1.8623046875,
    -4.6171875,
    -0.25927734375,
    -0.437744140625,
    -0.5986328125,
    1.0322265625,
    -1.1259765625,
    -1.416015625,
    -0.6806640625,
    -2.224609375,
    -0.60595703125,
    -0.7734375,
    -0.708984375,
    -0.99072265625,
    -0.5,
    -0.491943359375,
    -0.14453125,
    -5.33203125,
    -0.64990234375,
    -0.892578125,
    -1.154296875,
    -0.7421875,
    -0.9462890625,
    -1.201171875,
    -1.48046875,
    -1.1669921875,
    -0.654296875,
    -0.8603515625,
    -0.59716796875,
    -0.9267578125,
    -2.375,
    -0.6904296875,
    -0.4453125,
    -0.4140625,
    -0.37255859375,
    -0.78955078125,
    -0.61962890625,
    -0.63720703125,
    -0.96533203125,
    -0.312255859375,
    -1.869140625,
    -1.1962890625,
    -0.36767578125,
    -0.64404296875,
    -0.96826171875,
    -0.70947265625,
    0.394287109375,
    -3.53125,
    0.876953125,
    -0.66015625,
    -0.51318359375,
    -0.5830078125,
    -0.6337890625
  ],
  "router_probabilities": [
    0.007084919139742851,
    0.016489025205373764,
    0.014263096265494823,
    0.012685859575867653,
    0.009524495340883732,
    0.011870802380144596,
    0.04975879192352295,
    0.015543040819466114,
    0.011934732086956501,
    0.0018901939038187265,
    0.013770371675491333,
    0.004503448493778706,
    0.0002864935086108744,
    0.02237335592508316,
    0.018716473132371902,
    0.015934957191348076,
    0.08139995485544205,
    0.009404342621564865,
    0.007036651950329542,
    0.01467997208237648,
    0.0031347167678177357,
    0.015818674117326736,
    0.013379326090216637,
    0.014270062558352947,
    0.010766349732875824,
    0.01758679188787937,
    0.017729055136442184,
    0.025093702599406242,
    0.00014017226931173354,
    0.015138570219278336,
    0.011876599863171577,
    0.009141745045781136,
    0.013804030604660511,
    0.011255525052547455,
    0.008723113685846329,
    0.006597424391657114,
    0.00902642123401165,
    0.015072188340127468,
    0.012265576049685478,
    0.01595831848680973,
    0.011477519758045673,
    0.002697021933272481,
    0.014537310227751732,
    0.018575355410575867,
    0.019164999946951866,
    0.019977157935500145,
    0.013165469281375408,
    0.015603874810039997,
    0.015331984497606754,
    0.011043214239180088,
    0.02121889963746071,
    0.004472768399864435,
    0.00876581110060215,
    0.020074941217899323,
    0.015227533876895905,
    0.011010908521711826,
    0.014263096265494823,
    0.04301011189818382,
    0.0008486555889248848,
    0.06969309598207474,
    0.01498413272202015,
    0.017356455326080322,
    0.016185898333787918,
    0.015384478494524956
  ],
  "selected_expert_ids": [
    16,
    59,
    6,
    57,
    27,
    13,
    50,
    53
  ],
  "effective_gate_weights": [
    0.08139995485544205,
    0.06969309598207474,
    0.04975879192352295,
    0.04301011189818382,
    0.025093702599406242,
    0.02237335592508316,
    0.02121889963746071,
    0.020074941217899323
  ],
  "topk_ranks": [
    0,
    1,
    2,
    3,
    4,
    5,
    6,
    7
  ],
  "top1_top2_gap": 0.01170685887336731,
  "routing_entropy": 3.8900654315948486,
  "sample_id": "layer_0_sample_010",
  "microbatch_id": null,
  "sequence_length": 7,
  "all_expert_count": 64,
  "selected_destination_ids": [
    16,
    59,
    6,
    57,
    27,
    13,
    50,
    53
  ],
  "expert_to_destination_map": {},
  "layer_name": "model.layers.0.mlp",
  "run_id": null,
  "mode": "real",
  "all_token_selected_expert_ids": [
    [
      5,
      14,
      61,
      18,
      38,
      6,
      0,
      19
    ],
    [
      5,
      14,
      18,
      6,
      41,
      38,
      15,
      52
    ],
    [
      60,
      41,
      30,
      6,
      29,
      24,
      34,
      51
    ],
    [
      60,
      21,
      41,
      24,
      22,
      51,
      42,
      29
    ],
    [
      59,
      50,
      44,
      21,
      57,
      46,
      6,
      27
    ],
    [
      16,
      59,
      6,
      57,
      27,
      13,
      50,
      53
    ],
    [
      6,
      38,
      53,
      15,
      14,
      20,
      27,
      13
    ]
  ]
}