{
  "layer_path": "model.layers.0.mlp",
  "layer_id": 0,
  "token_pos": 6,
  "target_token_id": 846,
  "target_token_text": " after",
  "next_token_id": 47327,
  "next_token_text": " retry",
  "router_logits": [
    -1.8740234375,
    -0.677734375,
    -0.515625,
    -0.474609375,
    -0.6513671875,
    -0.7705078125,
    0.5283203125,
    -0.26513671875,
    0.1480712890625,
    -4.40234375,
    -0.87890625,
    -0.1639404296875,
    -4.39453125,
    -0.74658203125,
    -0.89599609375,
    -0.505859375,
    -0.54736328125,
    -1.0673828125,
    -1.4013671875,
    -1.6494140625,
    -3.0625,
    1.6083984375,
    -1.12890625,
    -0.92578125,
    -0.4140625,
    -0.1409912109375,
    -1.3447265625,
    -0.1859130859375,
    -2.953125,
    -0.63134765625,
    -1.193359375,
    -1.3896484375,
    -0.5087890625,
    -0.392578125,
    -1.021484375,
    -0.4482421875,
    -1.205078125,
    -0.6962890625,
    -0.57568359375,
    -0.544921875,
    -0.8056640625,
    -2.189453125,
    -0.50634765625,
    -0.117431640625,
    1.55078125,
    -1.052734375,
    -0.30419921875,
    -0.400146484375,
    -0.8583984375,
    -0.5185546875,
    -0.152587890625,
    -0.1749267578125,
    -0.98291015625,
    -0.44189453125,
    -0.451416015625,
    -0.97314453125,
    -0.50830078125,
    -0.18115234375,
    -3.91796875,
    1.1474609375,
    -1.0361328125,
    -0.41796875,
    -0.2313232421875,
    -0.732421875
  ],
  "router_probabilities": [
    0.003447948722168803,
    0.011405190452933311,
    0.01341237686574459,
    0.013973930850625038,
    0.011709912680089474,
    0.010394690558314323,
    0.038096532225608826,
    0.017230244353413582,
    0.026046261191368103,
    0.0002751219435594976,
    0.009326843544840813,
    0.019065160304307938,
    0.00027727975975722075,
    0.010646390728652477,
    0.009168803691864014,
    0.013543998822569847,
    0.012993375770747662,
    0.007724677678197622,
    0.005531371105462313,
    0.004316258244216442,
    0.001050538499839604,
    0.112190842628479,
    0.007263753563165665,
    0.00889973621815443,
    0.014846147038042545,
    0.019507749006152153,
    0.005853714421391487,
    0.01865081489086151,
    0.0011719604954123497,
    0.011946702376008034,
    0.006810350343585014,
    0.005596572998911142,
    0.01350437756627798,
    0.015168558806180954,
    0.008087490685284138,
    0.014347285032272339,
    0.006731007248163223,
    0.011195521801710129,
    0.01263056043535471,
    0.013025135733187199,
    0.010035601444542408,
    0.002515193773433566,
    0.013537387363612652,
    0.019972799345850945,
    0.10590942203998566,
    0.007838664576411247,
    0.016570163890719414,
    0.015054191462695599,
    0.00952009204775095,
    0.013373141176998615,
    0.019282829016447067,
    0.018856849521398544,
    0.008405555039644241,
    0.014438645914196968,
    0.01430182158946991,
    0.008488042280077934,
    0.013510972261428833,
    0.018739819526672363,
    0.0004465669917408377,
    0.07075788080692291,
    0.007969886064529419,
    0.014788269065320492,
    0.01782282069325447,
    0.010798217728734016
  ],
  "selected_expert_ids": [
    21,
    44,
    59,
    6,
    8,
    43,
    25,
    50
  ],
  "effective_gate_weights": [
    0.112190842628479,
    0.10590942203998566,
    0.07075788080692291,
    0.038096532225608826,
    0.026046261191368103,
    0.019972799345850945,
    0.019507749006152153,
    0.019282829016447067
  ],
  "topk_ranks": [
    0,
    1,
    2,
    3,
    4,
    5,
    6,
    7
  ],
  "top1_top2_gap": 0.006281420588493347,
  "routing_entropy": 3.716919183731079,
  "sample_id": "layer_0_sample_023",
  "microbatch_id": null,
  "sequence_length": 8,
  "all_expert_count": 64,
  "selected_destination_ids": [
    21,
    44,
    59,
    6,
    8,
    43,
    25,
    50
  ],
  "expert_to_destination_map": {},
  "layer_name": "model.layers.0.mlp",
  "run_id": null,
  "mode": "real",
  "all_token_selected_expert_ids": [
    [
      57,
      60,
      49,
      22,
      24,
      44,
      17,
      39
    ],
    [
      39,
      57,
      21,
      24,
      60,
      49,
      22,
      44
    ],
    [
      24,
      6,
      60,
      59,
      22,
      49,
      63,
      8
    ],
    [
      53,
      6,
      40,
      41,
      18,
      21,
      15,
      8
    ],
    [
      41,
      21,
      24,
      55,
      49,
      60,
      30,
      6
    ],
    [
      21,
      44,
      24,
      41,
      29,
      22,
      6,
      60
    ],
    [
      21,
      44,
      59,
      6,
      8,
      43,
      25,
      50
    ],
    [
      21,
      41,
      49,
      33,
      13,
      16,
      54,
      6
    ]
  ]
}