{
  "layer_path": "model.layers.0.mlp",
  "layer_id": 0,
  "token_pos": 6,
  "target_token_id": 22780,
  "target_token_text": " researcher",
  "next_token_id": 8344,
  "next_token_text": " noticed",
  "router_logits": [
    0.032135009765625,
    -0.487060546875,
    -0.3212890625,
    -0.7119140625,
    -0.8369140625,
    1.3330078125,
    1.21484375,
    -3.9140625,
    -0.787109375,
    0.6025390625,
    -0.484130859375,
    -1.140625,
    -0.95703125,
    -0.640625,
    -0.60498046875,
    -0.318115234375,
    -0.94970703125,
    -1.0166015625,
    1.244140625,
    -1.119140625,
    -1.314453125,
    -1.361328125,
    -2.599609375,
    -0.485107421875,
    -1.2666015625,
    -0.71533203125,
    -0.422607421875,
    -0.62890625,
    -1.068359375,
    -0.34375,
    -1.3271484375,
    -0.0885009765625,
    -0.57470703125,
    -1.0224609375,
    0.3154296875,
    -0.52783203125,
    0.1492919921875,
    -0.5927734375,
    0.053863525390625,
    -1.7783203125,
    -0.254638671875,
    1.1201171875,
    -0.54541015625,
    -2.658203125,
    -0.88330078125,
    -0.681640625,
    -2.033203125,
    -0.42431640625,
    -0.28515625,
    -0.156982421875,
    -0.73583984375,
    -0.8544921875,
    -0.50927734375,
    -0.5,
    -0.341796875,
    -0.061859130859375,
    -0.1116943359375,
    -2.474609375,
    -1.484375,
    -0.67578125,
    -0.83935546875,
    -0.58056640625,
    -0.5390625,
    -1.1474609375
  ],
  "router_probabilities": [
    0.022053830325603485,
    0.013122006319463253,
    0.01548794750124216,
    0.010479669086635113,
    0.009248276241123676,
    0.0809926986694336,
    0.07196608185768127,
    0.00042625764035619795,
    0.009720546193420887,
    0.03901281580328941,
    0.013160505332052708,
    0.006825913675129414,
    0.008201523683965206,
    0.011254028417170048,
    0.011662408709526062,
    0.015537180937826633,
    0.008261813782155514,
    0.007727223914116621,
    0.0741056501865387,
    0.00697415042668581,
    0.005736779887229204,
    0.005474073812365532,
    0.0015868354821577668,
    0.013147659599781036,
    0.006017968058586121,
    0.010443911887705326,
    0.013995611108839512,
    0.011386688798666,
    0.007337453309446573,
    0.015143951401114464,
    0.005664410535246134,
    0.019547555595636368,
    0.012020868249237537,
    0.007682079449295998,
    0.029276376590132713,
    0.012597762048244476,
    0.02479502744972706,
    0.011805644258856773,
    0.02253826893866062,
    0.003607557388022542,
    0.01655540242791176,
    0.0654619038105011,
    0.012378252111375332,
    0.0014965285081416368,
    0.008829076774418354,
    0.010801776312291622,
    0.0027958834543824196,
    0.013971713371574879,
    0.016057804226875305,
    0.018253717571496964,
    0.010231910273432732,
    0.00908712949603796,
    0.012833692133426666,
    0.012953308410942554,
    0.015173557214438915,
    0.02007533796131611,
    0.0190993994474411,
    0.001798120210878551,
    0.004840297624468803,
    0.010865253396332264,
    0.009225725196301937,
    0.011950639076530933,
    0.012457074597477913,
    0.006779411341995001
  ],
  "selected_expert_ids": [
    5,
    18,
    6,
    41,
    9,
    34,
    36,
    38
  ],
  "effective_gate_weights": [
    0.0809926986694336,
    0.0741056501865387,
    0.07196608185768127,
    0.0654619038105011,
    0.03901281580328941,
    0.029276376590132713,
    0.02479502744972706,
    0.02253826893866062
  ],
  "topk_ranks": [
    0,
    1,
    2,
    3,
    4,
    5,
    6,
    7
  ],
  "top1_top2_gap": 0.0068870484828948975,
  "routing_entropy": 3.7927005290985107,
  "sample_id": "layer_0_sample_001",
  "microbatch_id": null,
  "sequence_length": 8,
  "all_expert_count": 64,
  "selected_destination_ids": [
    5,
    18,
    6,
    41,
    9,
    34,
    36,
    38
  ],
  "expert_to_destination_map": {},
  "layer_name": "model.layers.0.mlp",
  "run_id": null,
  "mode": "real",
  "all_token_selected_expert_ids": [
    [
      26,
      14,
      61,
      17,
      0,
      6,
      19,
      16
    ],
    [
      26,
      6,
      14,
      39,
      17,
      38,
      52,
      45
    ],
    [
      4,
      6,
      32,
      5,
      26,
      14,
      48,
      62
    ],
    [
      50,
      44,
      6,
      59,
      47,
      17,
      4,
      16
    ],
    [
      6,
      22,
      30,
      49,
      36,
      44,
      55,
      19
    ],
    [
      6,
      38,
      36,
      40,
      53,
      11,
      49,
      54
    ],
    [
      5,
      18,
      6,
      41,
      9,
      34,
      36,
      38
    ],
    [
      41,
      6,
      24,
      30,
      51,
      22,
      34,
      37
    ]
  ]
}