{
  "layer_path": "model.layers.0.mlp",
  "layer_id": 0,
  "token_pos": 5,
  "target_token_id": 26830,
  "target_token_text": " gradual",
  "next_token_id": 2572,
  "next_token_text": " increase",
  "router_logits": [
    0.61474609375,
    -0.63525390625,
    -0.28173828125,
    -0.59375,
    1.205078125,
    0.260498046875,
    0.47216796875,
    -2.25390625,
    -0.5556640625,
    -0.71484375,
    -0.7265625,
    -1.2041015625,
    -0.58203125,
    -0.15087890625,
    -0.02606201171875,
    -0.4326171875,
    -0.9453125,
    -1.1640625,
    -0.183349609375,
    -1.09765625,
    -2.314453125,
    -1.25390625,
    -1.234375,
    -0.2152099609375,
    -1.251953125,
    0.056060791015625,
    -0.5908203125,
    -0.5673828125,
    -2.73828125,
    -0.4921875,
    -0.72265625,
    0.05145263671875,
    1.3974609375,
    -1.0478515625,
    -0.06536865234375,
    -0.42626953125,
    -0.5244140625,
    -0.51318359375,
    -1.392578125,
    -2.154296875,
    -0.98583984375,
    1.060546875,
    -0.57470703125,
    -2.111328125,
    -0.8330078125,
    -0.77392578125,
    -2.427734375,
    -0.77001953125,
    -0.2010498046875,
    -0.86083984375,
    -0.1270751953125,
    -0.364990234375,
    -0.6259765625,
    -0.90380859375,
    -0.7294921875,
    -0.708984375,
    -0.34619140625,
    -1.048828125,
    -2.1640625,
    -0.358642578125,
    -0.93798828125,
    -0.212646484375,
    -0.338623046875,
    -0.6953125
  ],
  "router_probabilities": [
    0.041194669902324677,
    0.01180246938019991,
    0.01680748723447323,
    0.012302625924348831,
    0.0743393823504448,
    0.028906336054205894,
    0.035720713436603546,
    0.002338843187317252,
    0.012780220247805119,
    0.010899522341787815,
    0.010772539302706718,
    0.006682293023914099,
    0.012447644956409931,
    0.019157299771904945,
    0.021704088896512985,
    0.014453629031777382,
    0.008655978366732597,
    0.006955273915082216,
    0.0185452401638031,
    0.0074328286573290825,
    0.002201435388997197,
    0.006357635371387005,
    0.006483028177171946,
    0.017963694408535957,
    0.006370064336806536,
    0.02356172539293766,
    0.012338721193373203,
    0.012631325982511044,
    0.0014409194700419903,
    0.01361776515841484,
    0.01081470213830471,
    0.023453399538993835,
    0.09010932594537735,
    0.007812391966581345,
    0.020867522805929184,
    0.014545667916536331,
    0.01318590808659792,
    0.013334826566278934,
    0.005534408148378134,
    0.002583811990916729,
    0.00831218808889389,
    0.06433536857366562,
    0.012539150193333626,
    0.0026972549967467785,
    0.009684773162007332,
    0.010274210944771767,
    0.0019656606018543243,
    0.01031442265957594,
    0.018219873309135437,
    0.009418942965567112,
    0.01961878500878811,
    0.01546489354223013,
    0.011912474408745766,
    0.009022794663906097,
    0.01074102520942688,
    0.010963574051856995,
    0.015758363530039787,
    0.00780476676300168,
    0.0025587023701518774,
    0.01556337159126997,
    0.00871960911899805,
    0.01800980418920517,
    0.015878083184361458,
    0.011114495806396008
  ],
  "selected_expert_ids": [
    32,
    4,
    41,
    0,
    6,
    5,
    25,
    31
  ],
  "effective_gate_weights": [
    0.09010932594537735,
    0.0743393823504448,
    0.06433536857366562,
    0.041194669902324677,
    0.035720713436603546,
    0.028906336054205894,
    0.02356172539293766,
    0.023453399538993835
  ],
  "topk_ranks": [
    0,
    1,
    2,
    3,
    4,
    5,
    6,
    7
  ],
  "top1_top2_gap": 0.015769943594932556,
  "routing_entropy": 3.8280158042907715,
  "sample_id": "layer_0_sample_013",
  "microbatch_id": null,
  "sequence_length": 7,
  "all_expert_count": 64,
  "selected_destination_ids": [
    32,
    4,
    41,
    0,
    6,
    5,
    25,
    31
  ],
  "expert_to_destination_map": {},
  "layer_name": "model.layers.0.mlp",
  "run_id": null,
  "mode": "real",
  "all_token_selected_expert_ids": [
    [
      5,
      14,
      61,
      18,
      38,
      6,
      0,
      19
    ],
    [
      5,
      18,
      14,
      6,
      41,
      38,
      61,
      52
    ],
    [
      44,
      51,
      60,
      41,
      6,
      31,
      30,
      49
    ],
    [
      22,
      60,
      41,
      30,
      51,
      24,
      49,
      44
    ],
    [
      6,
      59,
      38,
      39,
      7,
      50,
      43,
      30
    ],
    [
      32,
      4,
      41,
      0,
      6,
      5,
      25,
      31
    ],
    [
      50,
      41,
      51,
      6,
      47,
      49,
      44,
      46
    ]
  ]
}