{
  "layer_path": "model.layers.0.mlp",
  "layer_id": 0,
  "token_pos": 6,
  "target_token_id": 14900,
  "target_token_text": " conserved",
  "next_token_id": 672,
  "next_token_text": " when",
  "router_logits": [
    1.4052734375,
    -0.59814453125,
    -0.4814453125,
    -0.626953125,
    -0.303955078125,
    -1.2060546875,
    0.88525390625,
    -2.365234375,
    -0.5087890625,
    -1.091796875,
    -0.1378173828125,
    -0.673828125,
    -0.05230712890625,
    -0.8994140625,
    -0.5927734375,
    -0.438720703125,
    -1.0498046875,
    -0.5302734375,
    -0.65380859375,
    -1.326171875,
    -0.861328125,
    -1.0,
    -1.4853515625,
    -0.65576171875,
    -0.7802734375,
    -0.38525390625,
    -0.6650390625,
    -0.36669921875,
    -1.64453125,
    -0.759765625,
    -1.005859375,
    1.7001953125,
    -0.4951171875,
    0.09381103515625,
    -1.2939453125,
    -0.56298828125,
    -0.315185546875,
    -0.348388671875,
    -1.8408203125,
    -2.240234375,
    -0.44921875,
    1.08984375,
    -0.8662109375,
    -3.15625,
    -0.677734375,
    -0.80224609375,
    -1.67578125,
    -0.3505859375,
    0.473876953125,
    -0.44873046875,
    -0.197509765625,
    -0.060943603515625,
    -0.525390625,
    -0.67236328125,
    -0.79345703125,
    -0.36279296875,
    1.3837890625,
    -1.09765625,
    -0.68994140625,
    -0.6982421875,
    -0.3671875,
    -1.0029296875,
    -0.1116943359375,
    -0.923828125
  ],
  "router_probabilities": [
    0.08085928112268448,
    0.010905775241553783,
    0.012255706824362278,
    0.010596077889204025,
    0.014635966159403324,
    0.005938058719038963,
    0.048071566969156265,
    0.0018630269914865494,
    0.01192512921988964,
    0.006656808312982321,
    0.01728120632469654,
    0.010110847651958466,
    0.01882394775748253,
    0.008068946190178394,
    0.010964508168399334,
    0.012790673412382603,
    0.0069422940723598,
    0.011671658605337143,
    0.010315301828086376,
    0.005265968386083841,
    0.008382187224924564,
    0.007296808063983917,
    0.004491045139729977,
    0.010295174084603786,
    0.009089896455407143,
    0.013493162579834461,
    0.010200104676187038,
    0.013745861127972603,
    0.003830156521871686,
    0.009278235025703907,
    0.007254178170114756,
    0.10859575122594833,
    0.012089287862181664,
    0.021785574033856392,
    0.005438436754047871,
    0.011296000331640244,
    0.014472516253590584,
    0.013999873772263527,
    0.0031475257128477097,
    0.002111086156219244,
    0.012657098472118378,
    0.05898485705256462,
    0.008341358043253422,
    0.0008446667925454676,
    0.01007142849266529,
    0.008892345242202282,
    0.0037123148795217276,
    0.013969145715236664,
    0.03185880929231644,
    0.012663280591368675,
    0.016279835253953934,
    0.018662074580788612,
    0.011728787794709206,
    0.010125669650733471,
    0.008970845490694046,
    0.013799660839140415,
    0.07914060354232788,
    0.006617917213588953,
    0.009949234314262867,
    0.009866990149021149,
    0.013739150017499924,
    0.007275461684912443,
    0.017738593742251396,
    0.00787433609366417
  ],
  "selected_expert_ids": [
    31,
    0,
    56,
    41,
    6,
    48,
    33,
    12
  ],
  "effective_gate_weights": [
    0.10859575122594833,
    0.08085928112268448,
    0.07914060354232788,
    0.05898485705256462,
    0.048071566969156265,
    0.03185880929231644,
    0.021785574033856392,
    0.01882394775748253
  ],
  "topk_ranks": [
    0,
    1,
    2,
    3,
    4,
    5,
    6,
    7
  ],
  "top1_top2_gap": 0.027736470103263855,
  "routing_entropy": 3.724175453186035,
  "sample_id": "layer_0_sample_015",
  "microbatch_id": null,
  "sequence_length": 8,
  "all_expert_count": 64,
  "selected_destination_ids": [
    31,
    0,
    56,
    41,
    6,
    48,
    33,
    12
  ],
  "expert_to_destination_map": {},
  "layer_name": "model.layers.0.mlp",
  "run_id": null,
  "mode": "real",
  "all_token_selected_expert_ids": [
    [
      26,
      14,
      61,
      17,
      0,
      6,
      19,
      16
    ],
    [
      26,
      14,
      0,
      6,
      17,
      51,
      52,
      45
    ],
    [
      50,
      0,
      44,
      13,
      30,
      6,
      61,
      51
    ],
    [
      6,
      10,
      44,
      22,
      30,
      37,
      50,
      63
    ],
    [
      36,
      40,
      6,
      41,
      0,
      20,
      10,
      49
    ],
    [
      6,
      22,
      60,
      0,
      16,
      49,
      44,
      10
    ],
    [
      31,
      0,
      56,
      41,
      6,
      48,
      33,
      12
    ],
    [
      0,
      59,
      6,
      50,
      44,
      56,
      48,
      39
    ]
  ]
}