{
  "layer_path": "model.layers.0.mlp",
  "layer_id": 0,
  "token_pos": 5,
  "target_token_id": 9762,
  "target_token_text": " requests",
  "next_token_id": 403,
  "next_token_text": " are",
  "router_logits": [
    -0.96826171875,
    -0.6552734375,
    -0.457763671875,
    -0.806640625,
    -0.4169921875,
    -1.0673828125,
    0.453125,
    -1.970703125,
    -0.775390625,
    -2.4453125,
    -0.9287109375,
    -1.5224609375,
    -2.865234375,
    -0.431396484375,
    1.798828125,
    -0.24609375,
    -0.64892578125,
    -1.34765625,
    -0.06964111328125,
    -1.3291015625,
    -0.300048828125,
    -0.2783203125,
    -3.525390625,
    -0.68701171875,
    -1.4609375,
    -0.5556640625,
    -0.720703125,
    -0.294677734375,
    -4.26953125,
    -0.95263671875,
    -1.1572265625,
    -0.96435546875,
    -0.446044921875,
    -0.3349609375,
    -0.76708984375,
    -0.274658203125,
    -0.666015625,
    -0.306884765625,
    -0.63525390625,
    -1.2626953125,
    -0.94384765625,
    1.03515625,
    -1.1171875,
    -2.015625,
    -0.6806640625,
    -0.55517578125,
    -1.669921875,
    -0.990234375,
    -0.7314453125,
    -0.8251953125,
    -0.5537109375,
    -1.1796875,
    -0.546875,
    -0.58984375,
    0.07061767578125,
    -0.6171875,
    -0.75634765625,
    -1.34375,
    -0.2109375,
    -0.71044921875,
    -0.69677734375,
    0.04388427734375,
    -0.24560546875,
    -1.3095703125
  ],
  "router_probabilities": [
    0.009577714838087559,
    0.013097578659653664,
    0.015957631170749664,
    0.01125778816640377,
    0.01662169210612774,
    0.00867389515042305,
    0.0396791473031044,
    0.0035148528404533863,
    0.011615147814154625,
    0.0021866883616894484,
    0.009964111261069775,
    0.005502705462276936,
    0.001436868915334344,
    0.016383983194828033,
    0.1524030864238739,
    0.019719481468200684,
    0.013180981390178204,
    0.006553796585649252,
    0.023524906486272812,
    0.006676535587757826,
    0.01868370920419693,
    0.01909412071108818,
    0.0007425316143780947,
    0.0126884113997221,
    0.005851881578564644,
    0.014469409361481667,
    0.01226804219186306,
    0.018784329295158386,
    0.00035280827432870865,
    0.009728542529046535,
    0.007928581908345222,
    0.009615201503038406,
    0.01614573411643505,
    0.018042676150798798,
    0.011711964383721352,
    0.019164172932505608,
    0.012957635335624218,
    0.018556423485279083,
    0.013362427242100239,
    0.007134951651096344,
    0.009814424440264702,
    0.07101257890462875,
    0.008252476342022419,
    0.003360453061759472,
    0.01276920922100544,
    0.014476476237177849,
    0.00474826293066144,
    0.00936956238001585,
    0.01213696226477623,
    0.011050828732550144,
    0.014497697353363037,
    0.007752483244985342,
    0.014597143046557903,
    0.013983204960823059,
    0.027067087590694427,
    0.01360603328794241,
    0.011838454753160477,
    0.006579447537660599,
    0.02042507380247116,
    0.012394484132528305,
    0.012565103359520435,
    0.026353076100349426,
    0.019729111343622208,
    0.0068082185462117195
  ],
  "selected_expert_ids": [
    14,
    41,
    6,
    54,
    61,
    18,
    58,
    62
  ],
  "effective_gate_weights": [
    0.1524030864238739,
    0.07101257890462875,
    0.0396791473031044,
    0.027067087590694427,
    0.026353076100349426,
    0.023524906486272812,
    0.02042507380247116,
    0.019729111343622208
  ],
  "topk_ranks": [
    0,
    1,
    2,
    3,
    4,
    5,
    6,
    7
  ],
  "top1_top2_gap": 0.08139050751924515,
  "routing_entropy": 3.7588040828704834,
  "sample_id": "layer_0_sample_008",
  "microbatch_id": null,
  "sequence_length": 7,
  "all_expert_count": 64,
  "selected_destination_ids": [
    14,
    41,
    6,
    54,
    61,
    18,
    58,
    62
  ],
  "expert_to_destination_map": {},
  "layer_name": "model.layers.0.mlp",
  "run_id": null,
  "mode": "real",
  "all_token_selected_expert_ids": [
    [
      5,
      14,
      61,
      18,
      38,
      6,
      0,
      19
    ],
    [
      5,
      14,
      18,
      6,
      38,
      41,
      61,
      15
    ],
    [
      30,
      60,
      41,
      24,
      6,
      29,
      44,
      22
    ],
    [
      24,
      59,
      41,
      29,
      16,
      60,
      22,
      21
    ],
    [
      59,
      57,
      6,
      61,
      44,
      16,
      21,
      45
    ],
    [
      14,
      41,
      6,
      54,
      61,
      18,
      58,
      62
    ],
    [
      10,
      6,
      33,
      16,
      7,
      43,
      14,
      21
    ]
  ]
}