{
  "layer_path": "model.layers.0.mlp",
  "layer_id": 0,
  "token_pos": 5,
  "target_token_id": 432,
  "target_token_text": " from",
  "next_token_id": 247,
  "next_token_text": " a",
  "router_logits": [
    -0.7392578125,
    -0.38037109375,
    -0.5732421875,
    -0.375244140625,
    -0.98095703125,
    -0.6005859375,
    0.5107421875,
    -0.0855712890625,
    -0.47509765625,
    -0.88916015625,
    -1.2158203125,
    -1.2060546875,
    -3.498046875,
    -1.4404296875,
    -1.2255859375,
    -0.5234375,
    -0.697265625,
    -0.26513671875,
    -1.73828125,
    -0.328369140625,
    -2.306640625,
    -1.8837890625,
    1.2109375,
    -0.6640625,
    -0.021392822265625,
    -0.05377197265625,
    -0.434326171875,
    -0.42919921875,
    -1.6259765625,
    -0.59228515625,
    -0.294921875,
    -0.98095703125,
    -0.0089569091796875,
    -2.046875,
    -2.3359375,
    -0.73974609375,
    -0.93408203125,
    -0.69677734375,
    -0.57177734375,
    -0.289794921875,
    -0.80419921875,
    -2.302734375,
    -0.190185546875,
    -0.0440673828125,
    0.93310546875,
    -0.185302734375,
    0.8310546875,
    -0.33203125,
    -1.0986328125,
    -0.63037109375,
    0.1177978515625,
    -2.193359375,
    -0.67529296875,
    -0.7646484375,
    -0.486083984375,
    -0.70654296875,
    -0.94091796875,
    0.27294921875,
    -3.2421875,
    -0.703125,
    0.365234375,
    -0.578125,
    -0.06732177734375,
    -0.66845703125
  ],
  "router_probabilities": [
    0.011216450482606888,
    0.01605898141860962,
    0.013242046348750591,
    0.01614152453839779,
    0.008808192797005177,
    0.012884865514934063,
    0.03914925828576088,
    0.021564921364188194,
    0.014607596211135387,
    0.009655031375586987,
    0.006964452564716339,
    0.007032798137515783,
    0.0007107691490091383,
    0.005563401151448488,
    0.006896771490573883,
    0.013918261975049973,
    0.011697483249008656,
    0.01802036724984646,
    0.004130333196371794,
    0.016916172578930855,
    0.002339643891900778,
    0.0035710162483155727,
    0.0788523256778717,
    0.01209239661693573,
    0.022994302213191986,
    0.022261692211031914,
    0.015215476974844933,
    0.015293686650693417,
    0.004621238447725773,
    0.012992264702916145,
    0.017491541802883148,
    0.008808192797005177,
    0.023282043635845184,
    0.0030336433555930853,
    0.002272093901410699,
    0.011210975237190723,
    0.009230907075107098,
    0.011703195981681347,
    0.013261458836495876,
    0.017581449821591377,
    0.01051118690520525,
    0.002348800888285041,
    0.019422918558120728,
    0.02247878536581993,
    0.05972464382648468,
    0.019517989829182625,
    0.0539303794503212,
    0.016854336485266685,
    0.007830345071852207,
    0.01250674668699503,
    0.026428347453475,
    0.0026202767621725798,
    0.011957352049648762,
    0.010935242287814617,
    0.01444799080491066,
    0.01158946380019188,
    0.009168019518256187,
    0.030863940715789795,
    0.0009180089109577239,
    0.011629142798483372,
    0.03384779021143913,
    0.013177545741200447,
    0.021962085738778114,
    0.012039372697472572
  ],
  "selected_expert_ids": [
    22,
    44,
    46,
    6,
    60,
    57,
    50,
    32
  ],
  "effective_gate_weights": [
    0.0788523256778717,
    0.05972464382648468,
    0.0539303794503212,
    0.03914925828576088,
    0.03384779021143913,
    0.030863940715789795,
    0.026428347453475,
    0.023282043635845184
  ],
  "topk_ranks": [
    0,
    1,
    2,
    3,
    4,
    5,
    6,
    7
  ],
  "top1_top2_gap": 0.019127681851387024,
  "routing_entropy": 3.873901844024658,
  "sample_id": "layer_0_sample_014",
  "microbatch_id": null,
  "sequence_length": 7,
  "all_expert_count": 64,
  "selected_destination_ids": [
    22,
    44,
    46,
    6,
    60,
    57,
    50,
    32
  ],
  "expert_to_destination_map": {},
  "layer_name": "model.layers.0.mlp",
  "run_id": null,
  "mode": "real",
  "all_token_selected_expert_ids": [
    [
      5,
      14,
      61,
      18,
      38,
      6,
      0,
      19
    ],
    [
      5,
      18,
      14,
      41,
      6,
      0,
      9,
      61
    ],
    [
      22,
      60,
      41,
      9,
      6,
      51,
      0,
      17
    ],
    [
      59,
      41,
      0,
      9,
      60,
      33,
      6,
      13
    ],
    [
      50,
      46,
      41,
      59,
      16,
      44,
      6,
      43
    ],
    [
      22,
      44,
      46,
      6,
      60,
      57,
      50,
      32
    ],
    [
      13,
      6,
      38,
      26,
      8,
      32,
      54,
      53
    ]
  ]
}