{
  "layer_path": "model.layers.0.mlp",
  "layer_id": 0,
  "token_pos": 7,
  "target_token_id": 9629,
  "target_token_text": "request",
  "next_token_id": 10,
  "next_token_text": ")",
  "router_logits": [
    -1.349609375,
    -0.736328125,
    -0.5390625,
    -0.1519775390625,
    -0.78515625,
    -1.380859375,
    0.671875,
    -2.66015625,
    -0.580078125,
    -1.9033203125,
    -0.93408203125,
    -1.2216796875,
    -1.69921875,
    -0.028778076171875,
    -0.45947265625,
    -0.765625,
    -1.80078125,
    -1.6171875,
    -1.0087890625,
    -2.419921875,
    0.1964111328125,
    -0.06927490234375,
    -3.021484375,
    -0.9423828125,
    -0.61572265625,
    -0.473388671875,
    -0.434326171875,
    -0.20849609375,
    -1.7919921875,
    -0.366943359375,
    -1.060546875,
    -0.62890625,
    -0.34130859375,
    -0.134765625,
    -1.3740234375,
    -0.466064453125,
    -0.64111328125,
    -0.625,
    -1.1884765625,
    -2.146484375,
    0.391845703125,
    1.142578125,
    -0.203369140625,
    -3.21875,
    -0.2388916015625,
    -0.609375,
    -1.65234375,
    -0.431396484375,
    -0.69140625,
    -0.8427734375,
    -0.455078125,
    -1.1552734375,
    -0.6650390625,
    -0.375,
    1.7548828125,
    -0.29052734375,
    -0.450439453125,
    -1.736328125,
    -1.306640625,
    0.0025424957275390625,
    -0.26123046875,
    -0.994140625,
    -0.7412109375,
    -1.8359375
  ],
  "router_probabilities": [
    0.006264523137360811,
    0.011567317880690098,
    0.014089774340391159,
    0.02074975147843361,
    0.011016075499355793,
    0.006071783602237701,
    0.04729416221380234,
    0.0016893699066713452,
    0.013523564673960209,
    0.0036009277682751417,
    0.009491815231740475,
    0.007119461428374052,
    0.004416259471327066,
    0.023470252752304077,
    0.015257011167705059,
    0.011233347468078136,
    0.0039897579699754715,
    0.0047938041388988495,
    0.00880854856222868,
    0.002148113213479519,
    0.029397891834378242,
    0.022538769990205765,
    0.0011770689161494374,
    0.00941335130482912,
    0.013050013221800327,
    0.015046165324747562,
    0.01564553566277027,
    0.01960952952504158,
    0.00402497872710228,
    0.0167361069470644,
    0.008364235050976276,
    0.012879096902906895,
    0.017170678824186325,
    0.021109985187649727,
    0.006113432347774506,
    0.015156771056354046,
    0.012722836807370186,
    0.012929503805935383,
    0.007359818089753389,
    0.0028236417565494776,
    0.0357431061565876,
    0.07572360336780548,
    0.019710326567292213,
    0.000966341292951256,
    0.01902245543897152,
    0.013133114203810692,
    0.004628200549632311,
    0.01569143868982792,
    0.012098792009055614,
    0.01039929874241352,
    0.015324206091463566,
    0.007608288899064064,
    0.012422045692801476,
    0.016601812094449997,
    0.13968566060066223,
    0.01806514523923397,
    0.015395455062389374,
    0.004255378153175116,
    0.006539568305015564,
    0.024216987192630768,
    0.01860222779214382,
    0.008938530460000038,
    0.011510973796248436,
    0.0038519299123436213
  ],
  "selected_expert_ids": [
    54,
    41,
    6,
    40,
    20,
    59,
    13,
    21
  ],
  "effective_gate_weights": [
    0.13968566060066223,
    0.07572360336780548,
    0.04729416221380234,
    0.0357431061565876,
    0.029397891834378242,
    0.024216987192630768,
    0.023470252752304077,
    0.022538769990205765
  ],
  "topk_ranks": [
    0,
    1,
    2,
    3,
    4,
    5,
    6,
    7
  ],
  "top1_top2_gap": 0.06396205723285675,
  "routing_entropy": 3.7387945652008057,
  "sample_id": "layer_0_sample_025",
  "microbatch_id": null,
  "sequence_length": 9,
  "all_expert_count": 64,
  "selected_destination_ids": [
    54,
    41,
    6,
    40,
    20,
    59,
    13,
    21
  ],
  "expert_to_destination_map": {},
  "layer_name": "model.layers.0.mlp",
  "run_id": null,
  "mode": "real",
  "all_token_selected_expert_ids": [
    [
      26,
      33,
      16,
      61,
      51,
      21,
      41,
      28
    ],
    [
      21,
      33,
      26,
      41,
      6,
      51,
      11,
      17
    ],
    [
      21,
      6,
      33,
      24,
      22,
      8,
      11,
      46
    ],
    [
      26,
      21,
      41,
      6,
      33,
      51,
      59,
      29
    ],
    [
      6,
      55,
      19,
      60,
      21,
      42,
      25,
      24
    ],
    [
      53,
      21,
      41,
      6,
      18,
      40,
      15,
      20
    ],
    [
      6,
      24,
      60,
      59,
      19,
      33,
      44,
      61
    ],
    [
      54,
      41,
      6,
      40,
      20,
      59,
      13,
      21
    ],
    [
      6,
      24,
      33,
      54,
      63,
      21,
      60,
      1
    ]
  ]
}