{
  "layer_path": "model.layers.0.mlp",
  "layer_id": 0,
  "token_pos": 5,
  "target_token_id": 6888,
  "target_token_text": " discovered",
  "next_token_id": 247,
  "next_token_text": " a",
  "router_logits": [
    -0.2296142578125,
    -0.69970703125,
    -0.81884765625,
    -0.92822265625,
    -1.0478515625,
    -0.09307861328125,
    1.0859375,
    -0.98583984375,
    -0.9443359375,
    -0.337890625,
    -0.5673828125,
    -1.4970703125,
    -1.4072265625,
    -0.8427734375,
    -1.0068359375,
    -0.41357421875,
    -0.6953125,
    -0.488037109375,
    -0.693359375,
    -0.73681640625,
    -2.9609375,
    -0.14404296875,
    0.958984375,
    -0.701171875,
    -0.07781982421875,
    -0.779296875,
    -0.6826171875,
    -0.60888671875,
    -2.162109375,
    -0.443603515625,
    0.9404296875,
    -1.044921875,
    -0.771484375,
    -1.5166015625,
    -0.681640625,
    -1.240234375,
    -1.14453125,
    -0.482421875,
    -0.380615234375,
    -0.9521484375,
    -0.99462890625,
    0.8212890625,
    -0.1795654296875,
    -0.9365234375,
    -0.1910400390625,
    -0.45654296875,
    0.092041015625,
    -0.90576171875,
    -1.486328125,
    -0.39794921875,
    -0.432861328125,
    0.40673828125,
    -0.85205078125,
    -0.9638671875,
    -0.6484375,
    -0.54052734375,
    -0.86669921875,
    -1.599609375,
    -1.5341796875,
    -0.712890625,
    -0.302001953125,
    -1.2724609375,
    -0.53857421875,
    -0.84130859375
  ],
  "router_probabilities": [
    0.019304566085338593,
    0.01206427812576294,
    0.010709254071116447,
    0.009599713608622551,
    0.008517341688275337,
    0.022128742188215256,
    0.07194438576698303,
    0.009062237106263638,
    0.00944626983255148,
    0.01732352189719677,
    0.013771112076938152,
    0.005435141269117594,
    0.005946063436567783,
    0.010456067509949207,
    0.008873949758708477,
    0.016060803085565567,
    0.012117411941289902,
    0.014908310025930405,
    0.012141101993620396,
    0.011624785140156746,
    0.0012573652202263474,
    0.021029220893979073,
    0.06336681544780731,
    0.01204661838710308,
    0.022468987852334976,
    0.01114130113273859,
    0.012272225692868233,
    0.013211255893111229,
    0.002795040374621749,
    0.015585677698254585,
    0.06220190227031708,
    0.008542331866919994,
    0.011228683404624462,
    0.00533001683652401,
    0.012284217402338982,
    0.0070267305709421635,
    0.007732441183179617,
    0.01499225851148367,
    0.01659896969795227,
    0.00937275867909193,
    0.008982937783002853,
    0.05521557107567787,
    0.02029532380402088,
    0.009520357474684715,
    0.020063772797584534,
    0.015385306440293789,
    0.026628896594047546,
    0.00981777161359787,
    0.005493841599673033,
    0.016313722357153893,
    0.015754004940390587,
    0.03647744655609131,
    0.010359511710703373,
    0.009263562969863415,
    0.012698938138782978,
    0.01414595264941454,
    0.010208867490291595,
    0.0049054487608373165,
    0.005237143486738205,
    0.011906271800398827,
    0.017956532537937164,
    0.006803893018513918,
    0.01417360920459032,
    0.010471396148204803
  ],
  "selected_expert_ids": [
    6,
    22,
    30,
    41,
    51,
    46,
    24,
    5
  ],
  "effective_gate_weights": [
    0.07194438576698303,
    0.06336681544780731,
    0.06220190227031708,
    0.05521557107567787,
    0.03647744655609131,
    0.026628896594047546,
    0.022468987852334976,
    0.022128742188215256
  ],
  "topk_ranks": [
    0,
    1,
    2,
    3,
    4,
    5,
    6,
    7
  ],
  "top1_top2_gap": 0.00857757031917572,
  "routing_entropy": 3.8936028480529785,
  "sample_id": "layer_0_sample_011",
  "microbatch_id": null,
  "sequence_length": 7,
  "all_expert_count": 64,
  "selected_destination_ids": [
    6,
    22,
    30,
    41,
    51,
    46,
    24,
    5
  ],
  "expert_to_destination_map": {},
  "layer_name": "model.layers.0.mlp",
  "run_id": null,
  "mode": "real",
  "all_token_selected_expert_ids": [
    [
      57,
      26,
      33,
      16,
      61,
      49,
      17,
      14
    ],
    [
      26,
      49,
      57,
      16,
      13,
      33,
      14,
      6
    ],
    [
      6,
      44,
      59,
      60,
      22,
      5,
      26,
      27
    ],
    [
      6,
      38,
      36,
      40,
      53,
      3,
      15,
      37
    ],
    [
      6,
      5,
      41,
      18,
      38,
      0,
      8,
      31
    ],
    [
      6,
      22,
      30,
      41,
      51,
      46,
      24,
      5
    ],
    [
      6,
      59,
      39,
      38,
      7,
      30,
      45,
      43
    ]
  ]
}