{
  "layer_path": "model.layers.0.mlp",
  "layer_id": 0,
  "token_pos": 6,
  "target_token_id": 253,
  "target_token_text": " the",
  "next_token_id": 5024,
  "next_token_text": " edge",
  "router_logits": [
    -1.408203125,
    -0.953125,
    -0.51220703125,
    -0.334716796875,
    -0.95068359375,
    -0.630859375,
    1.2119140625,
    0.01395416259765625,
    -0.223388671875,
    -3.16796875,
    -0.431640625,
    -1.1259765625,
    -2.787109375,
    -0.947265625,
    -1.0478515625,
    -0.69921875,
    -0.9794921875,
    -0.72021484375,
    -1.1572265625,
    -0.640625,
    -2.73828125,
    -0.429443359375,
    -0.783203125,
    -0.52587890625,
    -1.2958984375,
    -0.8330078125,
    -1.1650390625,
    -0.4169921875,
    -1.654296875,
    -0.2705078125,
    -1.0126953125,
    -0.334716796875,
    -0.48583984375,
    0.022613525390625,
    -1.2138671875,
    -0.697265625,
    -1.4091796875,
    -0.544921875,
    1.2275390625,
    -0.0007266998291015625,
    -1.35546875,
    -2.703125,
    -1.1923828125,
    -0.2147216796875,
    -1.181640625,
    -0.02886962890625,
    -0.126220703125,
    -0.129150390625,
    -0.56005859375,
    -0.286865234375,
    -1.228515625,
    -1.619140625,
    -0.71630859375,
    -0.630859375,
    -0.6015625,
    -1.2001953125,
    -0.76806640625,
    -0.400146484375,
    -3.298828125,
    1.1240234375,
    -1.0888671875,
    -1.0146484375,
    -0.92138671875,
    -0.3642578125
  ],
  "router_probabilities": [
    0.0062084742821753025,
    0.009786396287381649,
    0.015209362842142582,
    0.018163271248340607,
    0.009810317307710648,
    0.013507685624063015,
    0.08528786897659302,
    0.025740675628185272,
    0.02030220627784729,
    0.0010683864820748568,
    0.016485439613461494,
    0.008232926949858665,
    0.0015636282041668892,
    0.00984390638768673,
    0.00890191737562418,
    0.012615161947906017,
    0.009531727991998196,
    0.01235305517911911,
    0.007979626767337322,
    0.013376417569816113,
    0.0016418718732893467,
    0.016521703451871872,
    0.011598956771194935,
    0.015002836473286152,
    0.0069463737308979034,
    0.01103542372584343,
    0.007917528972029686,
    0.016728704795241356,
    0.004854088649153709,
    0.019367771223187447,
    0.009220441803336143,
    0.018163271248340607,
    0.015615724958479404,
    0.025964541360735893,
    0.007540217600762844,
    0.012639826163649559,
    0.00620241416618228,
    0.014719842001795769,
    0.08663096278905869,
    0.025365538895130157,
    0.006544659845530987,
    0.0017006206326186657,
    0.007703967392444611,
    0.020478930324316025,
    0.007787170819938183,
    0.024661630392074585,
    0.022373953834176064,
    0.022308502346277237,
    0.014498709701001644,
    0.019053542986512184,
    0.00743057020008564,
    0.005027775187045336,
    0.012401402927935123,
    0.013507685624063015,
    0.01390927191823721,
    0.007644014433026314,
    0.011775861494243145,
    0.01701289787888527,
    0.0009373393841087818,
    0.07811184227466583,
    0.00854418519884348,
    0.009202450513839722,
    0.010101980529725552,
    0.01763455756008625
  ],
  "selected_expert_ids": [
    38,
    6,
    59,
    33,
    7,
    39,
    45,
    46
  ],
  "effective_gate_weights": [
    0.08663096278905869,
    0.08528786897659302,
    0.07811184227466583,
    0.025964541360735893,
    0.025740675628185272,
    0.025365538895130157,
    0.024661630392074585,
    0.022373953834176064
  ],
  "topk_ranks": [
    0,
    1,
    2,
    3,
    4,
    5,
    6,
    7
  ],
  "top1_top2_gap": 0.0013430938124656677,
  "routing_entropy": 3.812915563583374,
  "sample_id": "layer_0_sample_005",
  "microbatch_id": null,
  "sequence_length": 8,
  "all_expert_count": 64,
  "selected_destination_ids": [
    38,
    6,
    59,
    33,
    7,
    39,
    45,
    46
  ],
  "expert_to_destination_map": {},
  "layer_name": "model.layers.0.mlp",
  "run_id": null,
  "mode": "real",
  "all_token_selected_expert_ids": [
    [
      26,
      14,
      33,
      17,
      57,
      61,
      16,
      6
    ],
    [
      26,
      14,
      33,
      17,
      28,
      29,
      45,
      16
    ],
    [
      6,
      49,
      17,
      26,
      22,
      42,
      16,
      5
    ],
    [
      6,
      38,
      36,
      40,
      53,
      11,
      39,
      42
    ],
    [
      5,
      6,
      18,
      41,
      28,
      12,
      36,
      31
    ],
    [
      51,
      6,
      22,
      41,
      60,
      49,
      24,
      5
    ],
    [
      38,
      6,
      59,
      33,
      7,
      39,
      45,
      46
    ],
    [
      5,
      28,
      41,
      6,
      18,
      38,
      12,
      31
    ]
  ]
}