{
  "layer_path": "model.layers.0.mlp",
  "layer_id": 0,
  "token_pos": 7,
  "target_token_id": 13,
  "target_token_text": ",",
  "next_token_id": 253,
  "next_token_text": " the",
  "router_logits": [
    -1.408203125,
    -0.5546875,
    -0.377197265625,
    -0.48779296875,
    -1.1923828125,
    0.49267578125,
    1.4423828125,
    -0.3525390625,
    -0.57568359375,
    -2.490234375,
    -0.62109375,
    -2.263671875,
    -2.3203125,
    -0.890625,
    -0.6630859375,
    -0.77001953125,
    -0.426513671875,
    -0.578125,
    -0.79541015625,
    -0.1683349609375,
    -2.970703125,
    -0.638671875,
    0.1531982421875,
    -0.7255859375,
    -0.60302734375,
    -0.7890625,
    -0.73876953125,
    -0.225341796875,
    -1.330078125,
    -0.794921875,
    -0.94580078125,
    -1.0126953125,
    -0.62548828125,
    -0.73095703125,
    -1.28515625,
    -0.734375,
    0.2255859375,
    -0.70947265625,
    -0.33642578125,
    -0.423095703125,
    -0.986328125,
    -2.7734375,
    -0.7392578125,
    -0.01534271240234375,
    -0.6611328125,
    -0.70654296875,
    -0.6865234375,
    -0.6123046875,
    -0.71728515625,
    -0.36328125,
    -0.908203125,
    -1.873046875,
    -0.78369140625,
    -0.744140625,
    -0.416748046875,
    -0.57958984375,
    -0.52490234375,
    -1.462890625,
    -2.7421875,
    0.00811004638671875,
    -0.1669921875,
    -0.5888671875,
    -0.28466796875,
    -0.60205078125
  ],
  "router_probabilities": [
    0.006508619990199804,
    0.015281502157449722,
    0.018249420449137688,
    0.016338719055056572,
    0.008076411671936512,
    0.04355420917272568,
    0.11258555203676224,
    0.018705012276768684,
    0.014963995665311813,
    0.002205813070759177,
    0.014299675822257996,
    0.002766709541901946,
    0.0026143568102270365,
    0.010921197012066841,
    0.01371163409203291,
    0.012321073561906815,
    0.01737125590443611,
    0.014927506446838379,
    0.012012171559035778,
    0.022488310933113098,
    0.0013642809353768826,
    0.014050510711967945,
    0.031016796827316284,
    0.01288088783621788,
    0.014560366980731487,
    0.012088663876056671,
    0.012712186202406883,
    0.021242178976535797,
    0.007037496194243431,
    0.012018037959933281,
    0.01033493410795927,
    0.00966620072722435,
    0.014236973598599434,
    0.012811888940632343,
    0.007360841613262892,
    0.012768172658979893,
    0.033345289528369904,
    0.013090122491121292,
    0.019008852541446686,
    0.017430732026696205,
    0.00992446020245552,
    0.0016617863439023495,
    0.012705979868769646,
    0.026205986738204956,
    0.013738440349698067,
    0.01312852930277586,
    0.013394003733992577,
    0.014425909146666527,
    0.012988254427909851,
    0.01850515604019165,
    0.01073089987039566,
    0.00408893171697855,
    0.012153767049312592,
    0.012644090689718723,
    0.017541728913784027,
    0.014905656687915325,
    0.01574350893497467,
    0.006162237375974655,
    0.0017145370366051793,
    0.026827853173017502,
    0.022518526762723923,
    0.014768010005354881,
    0.02001861482858658,
    0.014574592933058739
  ],
  "selected_expert_ids": [
    6,
    5,
    36,
    22,
    59,
    43,
    60,
    19
  ],
  "effective_gate_weights": [
    0.11258555203676224,
    0.04355420917272568,
    0.033345289528369904,
    0.031016796827316284,
    0.026827853173017502,
    0.026205986738204956,
    0.022518526762723923,
    0.022488310933113098
  ],
  "topk_ranks": [
    0,
    1,
    2,
    3,
    4,
    5,
    6,
    7
  ],
  "top1_top2_gap": 0.06903134286403656,
  "routing_entropy": 3.90313458442688,
  "sample_id": "layer_0_sample_003",
  "microbatch_id": null,
  "sequence_length": 9,
  "all_expert_count": 64,
  "selected_destination_ids": [
    6,
    5,
    36,
    22,
    59,
    43,
    60,
    19
  ],
  "expert_to_destination_map": {},
  "layer_name": "model.layers.0.mlp",
  "run_id": null,
  "mode": "real",
  "all_token_selected_expert_ids": [
    [
      57,
      26,
      33,
      16,
      61,
      49,
      17,
      14
    ],
    [
      6,
      49,
      38,
      26,
      14,
      39,
      45,
      13
    ],
    [
      6,
      5,
      41,
      38,
      18,
      26,
      49,
      16
    ],
    [
      47,
      6,
      61,
      50,
      41,
      5,
      51,
      25
    ],
    [
      46,
      6,
      49,
      8,
      10,
      25,
      47,
      29
    ],
    [
      6,
      38,
      55,
      18,
      25,
      10,
      49,
      3
    ],
    [
      18,
      6,
      38,
      5,
      41,
      55,
      13,
      26
    ],
    [
      6,
      5,
      36,
      22,
      59,
      43,
      60,
      19
    ],
    [
      6,
      36,
      38,
      40,
      21,
      53,
      15,
      3
    ]
  ]
}