{
  "layer_path": "model.layers.0.mlp",
  "layer_id": 0,
  "token_pos": 8,
  "target_token_id": 10727,
  "target_token_text": " FROM",
  "next_token_id": 15050,
  "next_token_text": " routes",
  "router_logits": [
    -1.201171875,
    -1.091796875,
    -0.9638671875,
    -1.9072265625,
    -0.60205078125,
    -1.2197265625,
    0.4794921875,
    -2.6171875,
    -0.98828125,
    -3.119140625,
    -1.048828125,
    -1.2099609375,
    -2.189453125,
    -0.7666015625,
    -1.369140625,
    -0.7119140625,
    -1.2734375,
    -1.3466796875,
    -0.98583984375,
    -1.5048828125,
    -1.5947265625,
    0.99462890625,
    -2.005859375,
    -1.2890625,
    -1.1240234375,
    -0.99609375,
    -1.37109375,
    -0.9130859375,
    -3.03515625,
    -1.0087890625,
    -1.2763671875,
    -0.798828125,
    -0.77197265625,
    -1.376953125,
    -2.0625,
    -0.51416015625,
    -0.8623046875,
    -0.56591796875,
    -1.583984375,
    -2.611328125,
    0.85009765625,
    -1.5380859375,
    -1.1015625,
    -2.201171875,
    -1.109375,
    -1.96484375,
    -0.95703125,
    -0.7021484375,
    -1.4873046875,
    0.85107421875,
    -0.81201171875,
    -1.505859375,
    -1.013671875,
    0.7548828125,
    0.04022216796875,
    -0.517578125,
    -0.91552734375,
    -1.4296875,
    -0.65673828125,
    -1.1337890625,
    -1.5302734375,
    -1.21484375,
    -1.009765625,
    -2.412109375
  ],
  "router_probabilities": [
    0.010064651258289814,
    0.011227929964661598,
    0.012760240584611893,
    0.0049677882343530655,
    0.018322879448533058,
    0.009879626333713531,
    0.05403832346200943,
    0.0024424795992672443,
    0.012452482245862484,
    0.0014785481616854668,
    0.011720895767211914,
    0.009976580739021301,
    0.003746223170310259,
    0.015542834997177124,
    0.00850845780223608,
    0.016416504979133606,
    0.009362981654703617,
    0.008701727725565434,
    0.012482921592891216,
    0.007428459357470274,
    0.006790161598473787,
    0.09045298397541046,
    0.00450119050219655,
    0.00921782199293375,
    0.010871860198676586,
    0.012355577200651169,
    0.00849185511469841,
    0.013424955308437347,
    0.0016080866334959865,
    0.012199710123240948,
    0.009335591457784176,
    0.015049927867949009,
    0.015459575690329075,
    0.008442244492471218,
    0.00425332598388195,
    0.020006177946925163,
    0.01412429753690958,
    0.01899704337120056,
    0.006863496266305447,
    0.002456833142787218,
    0.07828053086996078,
    0.007185861002653837,
    0.011118815280497074,
    0.0037025786004960537,
    0.011032288894057274,
    0.0046896482817828655,
    0.012847768142819405,
    0.01657760702073574,
    0.0075601921416819096,
    0.07835701107978821,
    0.014852817170321941,
    0.007421208545565605,
    0.012140287086367607,
    0.07117090374231339,
    0.0348280631005764,
    0.019937913864850998,
    0.013392220251262188,
    0.008008582517504692,
    0.017347754910588264,
    0.010766207240521908,
    0.00724222045391798,
    0.00992798525840044,
    0.012187803164124489,
    0.0029984391294419765
  ],
  "selected_expert_ids": [
    21,
    49,
    40,
    53,
    6,
    54,
    35,
    55
  ],
  "effective_gate_weights": [
    0.09045298397541046,
    0.07835701107978821,
    0.07828053086996078,
    0.07117090374231339,
    0.05403832346200943,
    0.0348280631005764,
    0.020006177946925163,
    0.019937913864850998
  ],
  "topk_ranks": [
    0,
    1,
    2,
    3,
    4,
    5,
    6,
    7
  ],
  "top1_top2_gap": 0.012095972895622253,
  "routing_entropy": 3.7288424968719482,
  "sample_id": "layer_0_sample_028",
  "microbatch_id": null,
  "sequence_length": 10,
  "all_expert_count": 64,
  "selected_destination_ids": [
    21,
    49,
    40,
    53,
    6,
    54,
    35,
    55
  ],
  "expert_to_destination_map": {},
  "layer_name": "model.layers.0.mlp",
  "run_id": null,
  "mode": "real",
  "all_token_selected_expert_ids": [
    [
      57,
      59,
      51,
      33,
      3,
      22,
      61,
      24
    ],
    [
      57,
      59,
      21,
      3,
      24,
      33,
      46,
      39
    ],
    [
      50,
      6,
      24,
      57,
      30,
      44,
      22,
      61
    ],
    [
      27,
      53,
      40,
      6,
      30,
      21,
      50,
      13
    ],
    [
      6,
      53,
      36,
      27,
      21,
      59,
      42,
      48
    ],
    [
      36,
      40,
      41,
      21,
      6,
      42,
      20,
      1
    ],
    [
      6,
      59,
      3,
      17,
      44,
      60,
      7,
      27
    ],
    [
      54,
      6,
      13,
      40,
      21,
      53,
      2,
      26
    ],
    [
      21,
      49,
      40,
      53,
      6,
      54,
      35,
      55
    ],
    [
      3,
      21,
      26,
      41,
      13,
      6,
      14,
      8
    ]
  ]
}