{
  "layer_path": "model.layers.0.mlp",
  "layer_id": 0,
  "token_pos": 5,
  "target_token_id": 407,
  "target_token_text": " by",
  "next_token_id": 4886,
  "next_token_text": " moving",
  "router_logits": [
    -0.2607421875,
    -0.394775390625,
    -0.447509765625,
    -0.1534423828125,
    -0.76318359375,
    0.29345703125,
    1.1728515625,
    -0.6298828125,
    -0.422119140625,
    -2.3984375,
    -0.666015625,
    -1.9287109375,
    -4.14453125,
    -0.8720703125,
    -0.343994140625,
    -0.380615234375,
    -0.36376953125,
    -0.361328125,
    -0.6416015625,
    -0.5546875,
    -2.80859375,
    0.263427734375,
    1.2333984375,
    -0.380126953125,
    -0.417236328125,
    -0.3974609375,
    -0.386962890625,
    -0.233642578125,
    -1.2216796875,
    -0.62939453125,
    -0.7646484375,
    -0.91748046875,
    -0.62548828125,
    -1.283203125,
    -1.8759765625,
    -0.273681640625,
    -0.9267578125,
    -0.2242431640625,
    -0.188232421875,
    -0.23779296875,
    -1.0078125,
    -2.45703125,
    0.10107421875,
    0.04315185546875,
    -0.62158203125,
    -0.56396484375,
    0.6123046875,
    -0.1656494140625,
    -0.75146484375,
    -0.06610107421875,
    -0.775390625,
    -1.42578125,
    -0.94970703125,
    -0.375244140625,
    -0.51708984375,
    0.70458984375,
    -0.5634765625,
    -0.2208251953125,
    -3.494140625,
    -0.79541015625,
    0.328857421875,
    -0.82373046875,
    -0.42236328125,
    -0.5986328125
  ],
  "router_probabilities": [
    0.016810143366456032,
    0.014701497741043568,
    0.013946310617029667,
    0.018714195117354393,
    0.010171006433665752,
    0.029258839786052704,
    0.07049743086099625,
    0.011621326208114624,
    0.014304948970675468,
    0.0019823582842946053,
    0.011208911426365376,
    0.003170894691720605,
    0.0003458305145613849,
    0.009121684357523918,
    0.015467338263988495,
    0.014911153353750706,
    0.015164470300078392,
    0.015201537869870663,
    0.011485934257507324,
    0.012528890743851662,
    0.0013153869658708572,
    0.028393279761075974,
    0.07489769905805588,
    0.014918436296284199,
    0.014374968595802784,
    0.014662068337202072,
    0.01481680292636156,
    0.017271921038627625,
    0.00643045362085104,
    0.011627002619206905,
    0.01015611831098795,
    0.008716730400919914,
    0.011672508902847767,
    0.006046753842383623,
    0.0033425975125283003,
    0.01659403182566166,
    0.008636236190795898,
    0.01743503287434578,
    0.01807432249188423,
    0.01720038615167141,
    0.007963847368955612,
    0.0018695419421419501,
    0.024138279259204865,
    0.022779855877161026,
    0.011718194000422955,
    0.01241319254040718,
    0.04024675488471985,
    0.01848714053630829,
    0.010290899313986301,
    0.02042222209274769,
    0.010047603398561478,
    0.005243260413408279,
    0.008440298959612846,
    0.014991458505392075,
    0.01300891488790512,
    0.04413771256804466,
    0.012419255450367928,
    0.017494726926088333,
    0.0006627112743444741,
    0.009848454967141151,
    0.030313165858387947,
    0.009573455899953842,
    0.014301457442343235,
    0.011990227736532688
  ],
  "selected_expert_ids": [
    22,
    6,
    55,
    46,
    60,
    5,
    21,
    42
  ],
  "effective_gate_weights": [
    0.07489769905805588,
    0.07049743086099625,
    0.04413771256804466,
    0.04024675488471985,
    0.030313165858387947,
    0.029258839786052704,
    0.028393279761075974,
    0.024138279259204865
  ],
  "topk_ranks": [
    0,
    1,
    2,
    3,
    4,
    5,
    6,
    7
  ],
  "top1_top2_gap": 0.004400268197059631,
  "routing_entropy": 3.8932113647460938,
  "sample_id": "layer_0_sample_009",
  "microbatch_id": null,
  "sequence_length": 7,
  "all_expert_count": 64,
  "selected_destination_ids": [
    22,
    6,
    55,
    46,
    60,
    5,
    21,
    42
  ],
  "expert_to_destination_map": {},
  "layer_name": "model.layers.0.mlp",
  "run_id": null,
  "mode": "real",
  "all_token_selected_expert_ids": [
    [
      5,
      14,
      61,
      18,
      38,
      6,
      0,
      19
    ],
    [
      5,
      14,
      18,
      41,
      6,
      61,
      15,
      55
    ],
    [
      22,
      41,
      30,
      60,
      21,
      51,
      6,
      37
    ],
    [
      6,
      38,
      59,
      50,
      46,
      44,
      3,
      22
    ],
    [
      5,
      41,
      18,
      6,
      21,
      38,
      61,
      26
    ],
    [
      22,
      6,
      55,
      46,
      60,
      5,
      21,
      42
    ],
    [
      13,
      21,
      29,
      41,
      26,
      6,
      0,
      8
    ]
  ]
}