{
  "layer_path": "model.layers.0.mlp",
  "layer_id": 0,
  "token_pos": 5,
  "target_token_id": 1818,
  "target_token_text": " change",
  "next_token_id": 275,
  "next_token_text": " in",
  "router_logits": [
    -0.89892578125,
    -1.0830078125,
    -0.517578125,
    -0.5703125,
    -0.11761474609375,
    -1.0361328125,
    0.87890625,
    -1.171875,
    -0.95361328125,
    -0.77734375,
    -0.8056640625,
    -1.0888671875,
    -1.6455078125,
    -0.728515625,
    -0.576171875,
    -0.576171875,
    -0.27294921875,
    -0.83349609375,
    -1.4482421875,
    -0.67919921875,
    -1.5107421875,
    -1.7236328125,
    -2.111328125,
    -0.58740234375,
    -1.8740234375,
    -0.33642578125,
    -0.55322265625,
    -0.61865234375,
    -1.1962890625,
    -1.29296875,
    -1.19140625,
    -0.2313232421875,
    -0.267822265625,
    -1.107421875,
    0.29931640625,
    -1.2822265625,
    -0.60302734375,
    -0.3916015625,
    -0.6318359375,
    -1.1611328125,
    -0.2342529296875,
    0.95947265625,
    0.10723876953125,
    -0.90673828125,
    -0.65576171875,
    -0.7197265625,
    0.00936126708984375,
    -0.1649169921875,
    -0.0257110595703125,
    2.103515625,
    1.5263671875,
    -0.20458984375,
    -0.7783203125,
    -0.8115234375,
    -0.7783203125,
    -0.79248046875,
    -0.41015625,
    -1.8662109375,
    -2.296875,
    -0.95263671875,
    -0.98681640625,
    -0.286865234375,
    -0.603515625,
    -1.77734375
  ],
  "router_probabilities": [
    0.008464719168841839,
    0.007041525095701218,
    0.01239451952278614,
    0.011757837608456612,
    0.0184897743165493,
    0.007379455026239157,
    0.05008586496114731,
    0.006442763842642307,
    0.008014234714210033,
    0.009559054858982563,
    0.009292136877775192,
    0.007000386249274015,
    0.004012139979749918,
    0.010037388652563095,
    0.011689146049320698,
    0.011689146049320698,
    0.015829628333449364,
    0.009037083014845848,
    0.004887057468295097,
    0.010544804856181145,
    0.004590965807437897,
    0.003710622899234295,
    0.0025180994998663664,
    0.01155860535800457,
    0.0031925153452903032,
    0.014856044203042984,
    0.01196050364524126,
    0.011202984489500523,
    0.006287374068051577,
    0.005707971751689911,
    0.006318149156868458,
    0.016502458602190018,
    0.01591099426150322,
    0.006871694698929787,
    0.02805449813604355,
    0.0057696192525327206,
    0.011379405856132507,
    0.014058553613722324,
    0.011056259274482727,
    0.006512346211820841,
    0.0164541807025671,
    0.0542881116271019,
    0.02315177209675312,
    0.008398845791816711,
    0.010794867761433125,
    0.010125996544957161,
    0.020993100479245186,
    0.01763552986085415,
    0.02026958577334881,
    0.17043401300907135,
    0.09569822251796722,
    0.016949575394392014,
    0.00954972393810749,
    0.009237849153578281,
    0.00954972393810749,
    0.009415451437234879,
    0.013800106011331081,
    0.0032175546512007713,
    0.0020916592329740524,
    0.0080220652744174,
    0.00775250606238842,
    0.015610868111252785,
    0.0113738514482975,
    0.003516579745337367
  ],
  "selected_expert_ids": [
    49,
    50,
    41,
    6,
    34,
    42,
    46,
    48
  ],
  "effective_gate_weights": [
    0.17043401300907135,
    0.09569822251796722,
    0.0542881116271019,
    0.05008586496114731,
    0.02805449813604355,
    0.02315177209675312,
    0.020993100479245186,
    0.02026958577334881
  ],
  "topk_ranks": [
    0,
    1,
    2,
    3,
    4,
    5,
    6,
    7
  ],
  "top1_top2_gap": 0.07473579049110413,
  "routing_entropy": 3.6248509883880615,
  "sample_id": "layer_0_sample_012",
  "microbatch_id": null,
  "sequence_length": 7,
  "all_expert_count": 64,
  "selected_destination_ids": [
    49,
    50,
    41,
    6,
    34,
    42,
    46,
    48
  ],
  "expert_to_destination_map": {},
  "layer_name": "model.layers.0.mlp",
  "run_id": null,
  "mode": "real",
  "all_token_selected_expert_ids": [
    [
      5,
      14,
      61,
      18,
      38,
      6,
      0,
      19
    ],
    [
      5,
      14,
      6,
      41,
      18,
      38,
      39,
      61
    ],
    [
      30,
      41,
      22,
      6,
      34,
      51,
      39,
      50
    ],
    [
      6,
      59,
      38,
      7,
      39,
      45,
      8,
      34
    ],
    [
      32,
      41,
      4,
      6,
      34,
      59,
      13,
      5
    ],
    [
      49,
      50,
      41,
      6,
      34,
      42,
      46,
      48
    ],
    [
      46,
      6,
      22,
      59,
      8,
      49,
      61,
      14
    ]
  ]
}