{
  "layer_path": "model.layers.0.mlp",
  "layer_id": 0,
  "token_pos": 7,
  "target_token_id": 5204,
  "target_token_text": " ->",
  "next_token_id": 9933,
  "next_token_text": " regional",
  "router_logits": [
    -2.55078125,
    -0.78271484375,
    -0.736328125,
    -0.46044921875,
    -0.9130859375,
    -1.0830078125,
    0.765625,
    -0.52587890625,
    -1.240234375,
    -3.146484375,
    -0.74853515625,
    -0.82861328125,
    -2.859375,
    -1.4423828125,
    -1.2353515625,
    -0.857421875,
    -0.38671875,
    -0.270751953125,
    -1.0390625,
    -0.323486328125,
    -2.646484375,
    -0.75048828125,
    -0.297119140625,
    -1.087890625,
    -0.9716796875,
    -0.81298828125,
    -1.2646484375,
    -0.478515625,
    -4.07421875,
    -0.70068359375,
    -0.358642578125,
    -1.2919921875,
    -1.431640625,
    -1.712890625,
    -2.59765625,
    -0.880859375,
    -1.1044921875,
    0.1634521484375,
    -0.919921875,
    -0.70263671875,
    -1.130859375,
    -1.3876953125,
    -0.361328125,
    -0.76806640625,
    -0.578125,
    -0.47900390625,
    0.24853515625,
    -0.763671875,
    -1.6591796875,
    -0.7197265625,
    -1.2548828125,
    -0.81787109375,
    -1.13671875,
    -1.0126953125,
    -0.389404296875,
    -0.311767578125,
    -1.1572265625,
    -0.391357421875,
    -1.9013671875,
    -1.1669921875,
    0.385009765625,
    -1.3125,
    -1.1435546875,
    -1.2275390625
  ],
  "router_probabilities": [
    0.0026005643885582685,
    0.015238040126860142,
    0.015961533412337303,
    0.02103232592344284,
    0.013375489041209221,
    0.011285310611128807,
    0.07167448103427887,
    0.019700240343809128,
    0.009643415920436382,
    0.0014333658618852496,
    0.01576787605881691,
    0.014554445631802082,
    0.001910060178488493,
    0.007878417149186134,
    0.009690618142485619,
    0.014141134917736053,
    0.02264164760708809,
    0.025425631552934647,
    0.01179230585694313,
    0.02411956898868084,
    0.0023632205557078123,
    0.015737108886241913,
    0.024763992056250572,
    0.011230341158807278,
    0.012614287436008453,
    0.014783644117414951,
    0.009410832077264786,
    0.020655758678913116,
    0.0005668225348927081,
    0.016540735960006714,
    0.023286346346139908,
    0.009156989865005016,
    0.007963504642248154,
    0.006011168472468853,
    0.0024814759381115437,
    0.013813555240631104,
    0.011045439168810844,
    0.03925040736794472,
    0.013284366577863693,
    0.01650846190750599,
    0.010758007876574993,
    0.008321265690028667,
    0.023223895579576492,
    0.015462895855307579,
    0.018697407096624374,
    0.02064567618072033,
    0.04273613914847374,
    0.015530997887253761,
    0.006342862267047167,
    0.016228731721639633,
    0.00950318481773138,
    0.014711635187268257,
    0.010695157572627068,
    0.012107371352612972,
    0.02258092351257801,
    0.024403881281614304,
    0.010478056035935879,
    0.022536862641572952,
    0.004978569690138102,
    0.010376229882240295,
    0.04898526519536972,
    0.00897111278027296,
    0.010622295551002026,
    0.009766622446477413
  ],
  "selected_expert_ids": [
    6,
    60,
    46,
    37,
    17,
    22,
    55,
    19
  ],
  "effective_gate_weights": [
    0.07167448103427887,
    0.04898526519536972,
    0.04273613914847374,
    0.03925040736794472,
    0.025425631552934647,
    0.024763992056250572,
    0.024403881281614304,
    0.02411956898868084
  ],
  "topk_ranks": [
    0,
    1,
    2,
    3,
    4,
    5,
    6,
    7
  ],
  "top1_top2_gap": 0.02268921583890915,
  "routing_entropy": 3.9382824897766113,
  "sample_id": "layer_0_sample_022",
  "microbatch_id": null,
  "sequence_length": 9,
  "all_expert_count": 64,
  "selected_destination_ids": [
    6,
    60,
    46,
    37,
    17,
    22,
    55,
    19
  ],
  "expert_to_destination_map": {},
  "layer_name": "model.layers.0.mlp",
  "run_id": null,
  "mode": "real",
  "all_token_selected_expert_ids": [
    [
      57,
      60,
      22,
      17,
      51,
      3,
      24,
      21
    ],
    [
      57,
      60,
      22,
      49,
      21,
      17,
      46,
      39
    ],
    [
      22,
      6,
      60,
      24,
      7,
      57,
      17,
      1
    ],
    [
      53,
      21,
      18,
      40,
      6,
      11,
      15,
      8
    ],
    [
      47,
      59,
      60,
      21,
      6,
      54,
      3,
      5
    ],
    [
      6,
      51,
      17,
      46,
      19,
      62,
      3,
      60
    ],
    [
      21,
      53,
      54,
      6,
      40,
      11,
      33,
      13
    ],
    [
      6,
      60,
      46,
      37,
      17,
      22,
      55,
      19
    ],
    [
      53,
      21,
      54,
      41,
      40,
      6,
      11,
      58
    ]
  ]
}