{
  "layer_path": "model.layers.0.mlp",
  "layer_id": 0,
  "token_pos": 5,
  "target_token_id": 470,
  "target_token_text": " 0",
  "next_token_id": 27,
  "next_token_text": ":",
  "router_logits": [
    -1.3447265625,
    -1.0185546875,
    0.05157470703125,
    -1.12109375,
    -1.541015625,
    -0.966796875,
    1.34375,
    -0.5322265625,
    1.1875,
    -3.255859375,
    -0.80224609375,
    -1.43359375,
    -1.73828125,
    0.0151824951171875,
    -0.250732421875,
    -1.166015625,
    0.1416015625,
    -1.7001953125,
    0.5576171875,
    -1.1298828125,
    -0.31298828125,
    -1.1396484375,
    -1.4169921875,
    -0.2171630859375,
    -0.276611328125,
    -1.1240234375,
    -0.61669921875,
    -1.1103515625,
    -2.5859375,
    -1.2080078125,
    -1.4140625,
    -0.8251953125,
    -0.59130859375,
    -0.57763671875,
    -2.7890625,
    -0.317626953125,
    -0.96142578125,
    -1.7587890625,
    0.05029296875,
    -0.7998046875,
    -0.175537109375,
    -0.51123046875,
    -1.42578125,
    -0.814453125,
    -0.7119140625,
    -1.2587890625,
    0.32861328125,
    -0.98486328125,
    -1.3310546875,
    1.474609375,
    -0.445556640625,
    -1.25390625,
    -0.286376953125,
    1.0546875,
    0.6669921875,
    -0.58837890625,
    -0.888671875,
    -0.417724609375,
    -1.8984375,
    -1.3125,
    -1.6240234375,
    -1.396484375,
    -0.441650390625,
    -0.47607421875
  ],
  "router_probabilities": [
    0.0057513476349413395,
    0.00796937569975853,
    0.02323676086962223,
    0.007192703429609537,
    0.004726311657577753,
    0.008392713963985443,
    0.08459801971912384,
    0.012960863299667835,
    0.07236051559448242,
    0.0008506976300850511,
    0.009893863461911678,
    0.005262293852865696,
    0.0038801725022494793,
    0.02240632474422455,
    0.01717454567551613,
    0.006876743398606777,
    0.025425748899579048,
    0.0040308027528226376,
    0.038543134927749634,
    0.007129762787371874,
    0.016137931495904922,
    0.007060475647449493,
    0.0053503853268921375,
    0.0177608709782362,
    0.01673578843474388,
    0.007171661127358675,
    0.011910991743206978,
    0.007270385045558214,
    0.0016623351257294416,
    0.006593952886760235,
    0.005366083700209856,
    0.009669393301010132,
    0.012217291630804539,
    0.012385470792651176,
    0.0013567584101110697,
    0.016063246876001358,
    0.008437912911176682,
    0.0038014089222997427,
    0.02320699580013752,
    0.009918048046529293,
    0.01851578801870346,
    0.013235867023468018,
    0.005303566809743643,
    0.00977382343262434,
    0.010829206556081772,
    0.00626746378839016,
    0.030654335394501686,
    0.008242449723184109,
    0.005830519367009401,
    0.09642545133829117,
    0.014134296216070652,
    0.006298141088336706,
    0.01657314971089363,
    0.06336098909378052,
    0.042997974902391434,
    0.01225313637405634,
    0.009074687026441097,
    0.01453320775181055,
    0.003305948106572032,
    0.00593971274793148,
    0.004349832888692617,
    0.0054612429812550545,
    0.014189614914357662,
    0.01370946690440178
  ],
  "selected_expert_ids": [
    49,
    6,
    8,
    53,
    54,
    18,
    46,
    16
  ],
  "effective_gate_weights": [
    0.09642545133829117,
    0.08459801971912384,
    0.07236051559448242,
    0.06336098909378052,
    0.042997974902391434,
    0.038543134927749634,
    0.030654335394501686,
    0.025425748899579048
  ],
  "topk_ranks": [
    0,
    1,
    2,
    3,
    4,
    5,
    6,
    7
  ],
  "top1_top2_gap": 0.011827431619167328,
  "routing_entropy": 3.7021899223327637,
  "sample_id": "layer_0_sample_029",
  "microbatch_id": null,
  "sequence_length": 7,
  "all_expert_count": 64,
  "selected_destination_ids": [
    49,
    6,
    8,
    53,
    54,
    18,
    46,
    16
  ],
  "expert_to_destination_map": {},
  "layer_name": "model.layers.0.mlp",
  "run_id": null,
  "mode": "real",
  "all_token_selected_expert_ids": [
    [
      57,
      49,
      16,
      21,
      61,
      14,
      33,
      17
    ],
    [
      21,
      49,
      57,
      33,
      16,
      14,
      20,
      0
    ],
    [
      21,
      6,
      22,
      55,
      62,
      63,
      43,
      7
    ],
    [
      2,
      21,
      6,
      41,
      0,
      20,
      35,
      15
    ],
    [
      6,
      19,
      46,
      7,
      51,
      44,
      22,
      60
    ],
    [
      49,
      6,
      8,
      53,
      54,
      18,
      46,
      16
    ],
    [
      6,
      29,
      62,
      25,
      8,
      3,
      53,
      54
    ]
  ]
}