{
  "layer_path": "model.layers.0.mlp",
  "layer_id": 0,
  "token_pos": 11,
  "target_token_id": 12672,
  "target_token_text": " computing",
  "next_token_id": 32,
  "next_token_text": "?",
  "router_logits": [
    -0.49755859375,
    -0.2447509765625,
    -0.66845703125,
    -0.6533203125,
    -0.451904296875,
    -1.0869140625,
    0.31640625,
    -0.55419921875,
    -0.36962890625,
    -1.4833984375,
    -0.74853515625,
    -0.986328125,
    -1.556640625,
    -1.638671875,
    -1.1826171875,
    -1.044921875,
    0.2476806640625,
    -0.666015625,
    -1.115234375,
    -0.455078125,
    -1.8203125,
    -1.169921875,
    -1.2353515625,
    -0.77783203125,
    -0.351318359375,
    -0.1893310546875,
    -0.9560546875,
    -0.625,
    -2.798828125,
    -0.64013671875,
    -0.97216796875,
    0.10662841796875,
    -0.95947265625,
    1.6533203125,
    -0.90087890625,
    -0.2376708984375,
    -0.6142578125,
    -0.8623046875,
    -0.66552734375,
    -0.79150390625,
    -0.8125,
    -0.96142578125,
    -0.66015625,
    -0.81201171875,
    -1.0546875,
    -0.495361328125,
    -0.4619140625,
    0.7490234375,
    -0.62060546875,
    -0.51953125,
    -0.7177734375,
    -0.1153564453125,
    -0.45849609375,
    -1.0595703125,
    -0.61376953125,
    -0.096923828125,
    -0.24462890625,
    1.39453125,
    -1.654296875,
    0.20703125,
    -1.0263671875,
    -0.466552734375,
    -0.38330078125,
    -0.93017578125
  ],
  "router_probabilities": [
    0.013774489052593708,
    0.01773652248084545,
    0.011610615998506546,
    0.011787699535489082,
    0.014417930506169796,
    0.007640498224645853,
    0.031086795032024384,
    0.013015978038311005,
    0.015654336661100388,
    0.005139616318047047,
    0.010717111639678478,
    0.008449004963040352,
    0.004776634741574526,
    0.0044004423543810844,
    0.006943178828805685,
    0.007968171499669552,
    0.02902209758758545,
    0.011638997122645378,
    0.007427151780575514,
    0.014372242614626884,
    0.00366953294724226,
    0.007031886372715235,
    0.006586521398276091,
    0.010407689027488232,
    0.01594361662864685,
    0.018747227266430855,
    0.008708696812391281,
    0.012126303277909756,
    0.001379262306727469,
    0.011944131925702095,
    0.008569495752453804,
    0.025204064324498177,
    0.0086789820343256,
    0.11835601925849915,
    0.009202709421515465,
    0.01786254346370697,
    0.012257268652319908,
    0.009564632549881935,
    0.011644681915640831,
    0.010266364552080631,
    0.010053058154881,
    0.008662046864628792,
    0.011707394383847713,
    0.010057968087494373,
    0.007890735752880573,
    0.013804788701236248,
    0.014274329878389835,
    0.04791364446282387,
    0.01217970997095108,
    0.013475127518177032,
    0.011051911860704422,
    0.02018662914633751,
    0.014323202893137932,
    0.007852301001548767,
    0.012263254262506962,
    0.020562171936035156,
    0.017738686874508858,
    0.09136916697025299,
    0.004332219250500202,
    0.027866022661328316,
    0.008117398247122765,
    0.01420826930552721,
    0.015441769734025002,
    0.008937010541558266
  ],
  "selected_expert_ids": [
    33,
    57,
    47,
    6,
    16,
    59,
    31,
    55
  ],
  "effective_gate_weights": [
    0.11835601925849915,
    0.09136916697025299,
    0.04791364446282387,
    0.031086795032024384,
    0.02902209758758545,
    0.027866022661328316,
    0.025204064324498177,
    0.020562171936035156
  ],
  "topk_ranks": [
    0,
    1,
    2,
    3,
    4,
    5,
    6,
    7
  ],
  "top1_top2_gap": 0.026986852288246155,
  "routing_entropy": 3.807746410369873,
  "sample_id": "layer_0_sample_039",
  "microbatch_id": null,
  "sequence_length": 13,
  "all_expert_count": 64,
  "selected_destination_ids": [
    33,
    57,
    47,
    6,
    16,
    59,
    31,
    55
  ],
  "expert_to_destination_map": {},
  "layer_name": "model.layers.0.mlp",
  "run_id": null,
  "mode": "real",
  "all_token_selected_expert_ids": [
    [
      57,
      14,
      35,
      48,
      17,
      33,
      61,
      4
    ],
    [
      35,
      14,
      6,
      39,
      17,
      38,
      63,
      48
    ],
    [
      4,
      32,
      6,
      5,
      21,
      0,
      48,
      31
    ],
    [
      50,
      6,
      46,
      44,
      55,
      57,
      17,
      42
    ],
    [
      50,
      24,
      44,
      30,
      57,
      6,
      22,
      46
    ],
    [
      22,
      60,
      57,
      55,
      24,
      6,
      49,
      30
    ],
    [
      59,
      57,
      6,
      33,
      45,
      38,
      46,
      27
    ],
    [
      57,
      24,
      60,
      22,
      44,
      51,
      6,
      7
    ],
    [
      60,
      22,
      6,
      24,
      57,
      44,
      63,
      39
    ],
    [
      16,
      49,
      33,
      57,
      6,
      38,
      0,
      47
    ],
    [
      57,
      10,
      22,
      30,
      39,
      6,
      7,
      63
    ],
    [
      33,
      57,
      47,
      6,
      16,
      59,
      31,
      55
    ],
    [
      6,
      59,
      19,
      63,
      44,
      30,
      56,
      57
    ]
  ]
}