{
  "layer_path": "model.layers.0.mlp",
  "layer_id": 0,
  "token_pos": 9,
  "target_token_id": 13,
  "target_token_text": ",",
  "next_token_id": 285,
  "next_token_text": " and",
  "router_logits": [
    -2.390625,
    -0.70849609375,
    -0.7490234375,
    -0.329345703125,
    -0.89404296875,
    -0.8818359375,
    0.96533203125,
    -0.81103515625,
    -0.8779296875,
    -2.640625,
    1.0361328125,
    -0.810546875,
    -3.890625,
    -1.1875,
    -0.60595703125,
    -0.603515625,
    -1.36328125,
    -0.84423828125,
    -1.3662109375,
    -0.81494140625,
    -1.9775390625,
    -0.9111328125,
    0.264404296875,
    -0.3583984375,
    -0.7822265625,
    -0.619140625,
    -0.685546875,
    -0.466796875,
    -1.9345703125,
    -0.6533203125,
    -0.239990234375,
    -0.60791015625,
    -0.334228515625,
    -1.1318359375,
    -1.19921875,
    -0.310791015625,
    0.787109375,
    -0.1982421875,
    -0.78271484375,
    -0.42333984375,
    -0.8505859375,
    -2.951171875,
    -0.2113037109375,
    -0.8974609375,
    -0.310302734375,
    -0.57861328125,
    -1.0732421875,
    -0.68017578125,
    -0.7294921875,
    -0.666015625,
    -0.488037109375,
    -2.26953125,
    -0.84326171875,
    -0.6787109375,
    -0.74072265625,
    -0.37939453125,
    -0.469482421875,
    -1.7998046875,
    -2.876953125,
    -0.6376953125,
    -0.149169921875,
    -1.1044921875,
    -0.1944580078125,
    0.117919921875
  ],
  "router_probabilities": [
    0.002458052011206746,
    0.013216922990977764,
    0.012691985815763474,
    0.019310489296913147,
    0.01097863633185625,
    0.011113474145531654,
    0.07047980278730392,
    0.011928840540349483,
    0.011156970635056496,
    0.0019143328536301851,
    0.07565072178840637,
    0.011934666894376278,
    0.0005484655266627669,
    0.008186563849449158,
    0.014644094742834568,
    0.014679891057312489,
    0.006866901181638241,
    0.011539268307387829,
    0.006846813019365072,
    0.01188233308494091,
    0.003715283703058958,
    0.010792606510221958,
    0.03496677801012993,
    0.018757538869976997,
    0.012277491390705109,
    0.014452300034463406,
    0.013523748144507408,
    0.016830576583743095,
    0.0038784046191722155,
    0.013966672122478485,
    0.02111542597413063,
    0.01461552083492279,
    0.019216429442167282,
    0.008655182085931301,
    0.008091187104582787,
    0.019672133028507233,
    0.05897440388798714,
    0.022015614435076714,
    0.012271497398614883,
    0.017578108236193657,
    0.011466252617537975,
    0.0014032939216122031,
    0.021729927510023117,
    0.010941175743937492,
    0.019681742414832115,
    0.015050043351948261,
    0.009177474305033684,
    0.013596581295132637,
    0.01294231228530407,
    0.01379048079252243,
    0.016476862132549286,
    0.002774478867650032,
    0.011550543829798698,
    0.013616512529551983,
    0.01279777754098177,
    0.018367808312177658,
    0.01678543910384178,
    0.004437936469912529,
    0.00151140708476305,
    0.014186614193022251,
    0.023122917860746384,
    0.008895112201571465,
    0.0220990851521492,
    0.03020218014717102
  ],
  "selected_expert_ids": [
    10,
    6,
    36,
    22,
    63,
    60,
    62,
    37
  ],
  "effective_gate_weights": [
    0.07565072178840637,
    0.07047980278730392,
    0.05897440388798714,
    0.03496677801012993,
    0.03020218014717102,
    0.023122917860746384,
    0.0220990851521492,
    0.022015614435076714
  ],
  "topk_ranks": [
    0,
    1,
    2,
    3,
    4,
    5,
    6,
    7
  ],
  "top1_top2_gap": 0.0051709190011024475,
  "routing_entropy": 3.8858213424682617,
  "sample_id": "layer_0_sample_018",
  "microbatch_id": null,
  "sequence_length": 11,
  "all_expert_count": 64,
  "selected_destination_ids": [
    10,
    6,
    36,
    22,
    63,
    60,
    62,
    37
  ],
  "expert_to_destination_map": {},
  "layer_name": "model.layers.0.mlp",
  "run_id": null,
  "mode": "real",
  "all_token_selected_expert_ids": [
    [
      57,
      17,
      46,
      3,
      60,
      22,
      4,
      59
    ],
    [
      55,
      39,
      24,
      63,
      57,
      17,
      52,
      35
    ],
    [
      59,
      17,
      24,
      46,
      57,
      63,
      55,
      39
    ],
    [
      24,
      6,
      22,
      63,
      49,
      55,
      59,
      18
    ],
    [
      53,
      18,
      6,
      41,
      40,
      20,
      15,
      13
    ],
    [
      10,
      6,
      63,
      36,
      42,
      22,
      53,
      30
    ],
    [
      36,
      20,
      40,
      41,
      6,
      58,
      53,
      11
    ],
    [
      36,
      6,
      42,
      37,
      63,
      22,
      44,
      30
    ],
    [
      36,
      41,
      20,
      40,
      6,
      11,
      58,
      42
    ],
    [
      10,
      6,
      36,
      22,
      63,
      60,
      62,
      37
    ],
    [
      6,
      62,
      36,
      14,
      21,
      63,
      40,
      8
    ]
  ]
}