{
  "layer_path": "model.layers.0.mlp",
  "layer_id": 0,
  "token_pos": 4,
  "target_token_id": 15296,
  "target_token_text": " preserved",
  "next_token_id": 3304,
  "next_token_text": " inside",
  "router_logits": [
    -0.451171875,
    -0.50732421875,
    -0.367431640625,
    -0.9140625,
    0.01546478271484375,
    -1.126953125,
    0.9296875,
    -2.03515625,
    -0.67236328125,
    -2.087890625,
    -0.453369140625,
    -1.671875,
    -0.673828125,
    -0.21630859375,
    -0.64599609375,
    -0.416015625,
    -0.935546875,
    -0.59765625,
    -0.77783203125,
    -1.25,
    -1.857421875,
    -1.623046875,
    -1.3935546875,
    -0.630859375,
    -0.8330078125,
    -0.1719970703125,
    -0.48828125,
    -0.59423828125,
    0.1893310546875,
    -0.2578125,
    -0.6689453125,
    1.3720703125,
    -0.39453125,
    -0.04852294921875,
    -0.19873046875,
    -0.86328125,
    -0.45166015625,
    -0.24072265625,
    -1.833984375,
    -1.8828125,
    -0.3466796875,
    1.1279296875,
    -0.467529296875,
    -2.52734375,
    -0.625,
    -0.09185791015625,
    -2.412109375,
    -0.477783203125,
    0.51513671875,
    -0.0273590087890625,
    -0.31884765625,
    0.090087890625,
    -0.4501953125,
    -0.389892578125,
    -0.351806640625,
    -0.311767578125,
    1.0556640625,
    -0.875,
    -2.58984375,
    -0.525390625,
    -0.1507568359375,
    -0.70263671875,
    0.05865478515625,
    -0.69140625
  ],
  "router_probabilities": [
    0.01345066912472248,
    0.012716196477413177,
    0.014625536277890205,
    0.008466677740216255,
    0.021448731422424316,
    0.006843145936727524,
    0.05351104959845543,
    0.0027594862040132284,
    0.010781561955809593,
    0.002617736579850316,
    0.013421147130429745,
    0.003968251869082451,
    0.01076577976346016,
    0.01701154187321663,
    0.011069622822105885,
    0.01393195427954197,
    0.008286716416478157,
    0.0116178710013628,
    0.009702355600893497,
    0.006050861906260252,
    0.003296228125691414,
    0.0041668228805065155,
    0.005241700913757086,
    0.011238453909754753,
    0.009181520901620388,
    0.0177823007106781,
    0.01296067051589489,
    0.011657647788524628,
    0.025521768257021904,
    0.01631994917988777,
    0.010818475857377052,
    0.08328521251678467,
    0.01423451118171215,
    0.020119264721870422,
    0.017313217744231224,
    0.008907729759812355,
    0.013444102369248867,
    0.01660125143826008,
    0.0033743958920240402,
    0.0032135883811861277,
    0.014932215213775635,
    0.06524375826120377,
    0.013232439756393433,
    0.0016868399688974023,
    0.011304497718811035,
    0.01926601678133011,
    0.0018928645877167583,
    0.013097450137138367,
    0.035351380705833435,
    0.020549604669213295,
    0.01535364706069231,
    0.023110534995794296,
    0.01346381101757288,
    0.0143006956204772,
    0.014855855144560337,
    0.015462737530469894,
    0.060695208609104156,
    0.008803951554000378,
    0.0015846395399421453,
    0.012488523498177528,
    0.01816404238343239,
    0.01046005729585886,
    0.02239539660513401,
    0.010578191839158535
  ],
  "selected_expert_ids": [
    31,
    41,
    56,
    6,
    48,
    28,
    51,
    62
  ],
  "effective_gate_weights": [
    0.08328521251678467,
    0.06524375826120377,
    0.060695208609104156,
    0.05351104959845543,
    0.035351380705833435,
    0.025521768257021904,
    0.023110534995794296,
    0.02239539660513401
  ],
  "topk_ranks": [
    0,
    1,
    2,
    3,
    4,
    5,
    6,
    7
  ],
  "top1_top2_gap": 0.018041454255580902,
  "routing_entropy": 3.848095417022705,
  "sample_id": "layer_0_sample_004",
  "microbatch_id": null,
  "sequence_length": 6,
  "all_expert_count": 64,
  "selected_destination_ids": [
    31,
    41,
    56,
    6,
    48,
    28,
    51,
    62
  ],
  "expert_to_destination_map": {},
  "layer_name": "model.layers.0.mlp",
  "run_id": null,
  "mode": "real",
  "all_token_selected_expert_ids": [
    [
      5,
      14,
      61,
      18,
      38,
      6,
      0,
      19
    ],
    [
      5,
      14,
      18,
      6,
      41,
      38,
      15,
      52
    ],
    [
      50,
      44,
      41,
      51,
      16,
      6,
      28,
      17
    ],
    [
      22,
      6,
      16,
      30,
      60,
      24,
      57,
      29
    ],
    [
      31,
      41,
      56,
      6,
      48,
      28,
      51,
      62
    ],
    [
      59,
      41,
      6,
      50,
      44,
      46,
      40,
      56
    ]
  ]
}