{
  "layer_path": "model.layers.0.mlp",
  "layer_id": 0,
  "token_pos": 7,
  "target_token_id": 7887,
  "target_token_text": " threshold",
  "next_token_id": 27,
  "next_token_text": ":",
  "router_logits": [
    -0.281005859375,
    -1.095703125,
    -0.305908203125,
    -0.7353515625,
    -1.33984375,
    -1.6328125,
    1.0400390625,
    -2.30859375,
    1.4443359375,
    -1.8291015625,
    -0.9453125,
    -0.59326171875,
    -1.5439453125,
    0.386474609375,
    -0.368896484375,
    -0.58154296875,
    -0.43603515625,
    -1.6396484375,
    0.37890625,
    -2.828125,
    0.06707763671875,
    1.37109375,
    -2.87890625,
    -0.45703125,
    0.1181640625,
    -0.75341796875,
    -0.625,
    -0.7958984375,
    -1.974609375,
    -0.41943359375,
    -1.216796875,
    -0.89794921875,
    -0.783203125,
    -0.283935546875,
    -1.076171875,
    -0.469482421875,
    -0.603515625,
    -1.7421875,
    -1.267578125,
    -2.154296875,
    0.409912109375,
    1.1591796875,
    -1.2646484375,
    -3.3984375,
    -0.908203125,
    -1.2353515625,
    -1.41796875,
    -0.95166015625,
    -1.6025390625,
    1.5927734375,
    -0.58203125,
    -0.60107421875,
    -0.415771484375,
    1.546875,
    0.83642578125,
    -0.58837890625,
    -0.7177734375,
    -1.6728515625,
    -0.484375,
    -1.2626953125,
    -1.30078125,
    -1.7470703125,
    -0.354736328125,
    -0.89013671875
  ],
  "router_probabilities": [
    0.014161507599055767,
    0.00627033831551671,
    0.013813207857310772,
    0.008990620262920856,
    0.0049120415933430195,
    0.003664606250822544,
    0.05306791514158249,
    0.0018644006922841072,
    0.07950893044471741,
    0.0030114806722849607,
    0.007287940010428429,
    0.01036331057548523,
    0.004005178343504667,
    0.02760530635714531,
    0.01296997256577015,
    0.010485469363629818,
    0.012127775698900223,
    0.0036396407522261143,
    0.027397168800234795,
    0.001108944183215499,
    0.020057659596204758,
    0.07389367371797562,
    0.0010540366638451815,
    0.011875794269144535,
    0.02110895700752735,
    0.008829650469124317,
    0.010039561428129673,
    0.008462417870759964,
    0.002603675238788128,
    0.012330794706940651,
    0.005555211566388607,
    0.007641425356268883,
    0.00857053603976965,
    0.014120080508291721,
    0.006394009571522474,
    0.011728842742741108,
    0.01025758869946003,
    0.003284931881353259,
    0.005280154291540384,
    0.0021754521876573563,
    0.028259947896003723,
    0.05978250876069069,
    0.005295645911246538,
    0.00062694022199139,
    0.007563471328467131,
    0.005453086923807859,
    0.004542896058410406,
    0.007241825107485056,
    0.0037772429641336203,
    0.09223197400569916,
    0.010480350814759731,
    0.010282661765813828,
    0.012376034632325172,
    0.08809435367584229,
    0.04329162463545799,
    0.010414035990834236,
    0.009150056168437004,
    0.0035207774490118027,
    0.011555464006960392,
    0.0053059994243085384,
    0.005107715260237455,
    0.003268931061029434,
    0.013154936023056507,
    0.007701358757913113
  ],
  "selected_expert_ids": [
    49,
    53,
    8,
    21,
    41,
    6,
    54,
    40
  ],
  "effective_gate_weights": [
    0.09223197400569916,
    0.08809435367584229,
    0.07950893044471741,
    0.07389367371797562,
    0.05978250876069069,
    0.05306791514158249,
    0.04329162463545799,
    0.028259947896003723
  ],
  "topk_ranks": [
    0,
    1,
    2,
    3,
    4,
    5,
    6,
    7
  ],
  "top1_top2_gap": 0.0041376203298568726,
  "routing_entropy": 3.5807442665100098,
  "sample_id": "layer_0_sample_026",
  "microbatch_id": null,
  "sequence_length": 9,
  "all_expert_count": 64,
  "selected_destination_ids": [
    49,
    53,
    8,
    21,
    41,
    6,
    54,
    40
  ],
  "expert_to_destination_map": {},
  "layer_name": "model.layers.0.mlp",
  "run_id": null,
  "mode": "real",
  "all_token_selected_expert_ids": [
    [
      14,
      57,
      51,
      16,
      35,
      33,
      21,
      28
    ],
    [
      14,
      21,
      51,
      35,
      33,
      57,
      55,
      17
    ],
    [
      6,
      60,
      19,
      57,
      22,
      7,
      43,
      61
    ],
    [
      21,
      27,
      41,
      40,
      6,
      60,
      55,
      53
    ],
    [
      6,
      21,
      59,
      62,
      27,
      53,
      11,
      42
    ],
    [
      2,
      21,
      6,
      41,
      20,
      59,
      15,
      0
    ],
    [
      6,
      19,
      49,
      44,
      61,
      51,
      7,
      46
    ],
    [
      49,
      53,
      8,
      21,
      41,
      6,
      54,
      40
    ],
    [
      6,
      49,
      60,
      8,
      16,
      22,
      7,
      21
    ]
  ]
}