{
  "layer_path": "model.layers.15.mlp",
  "layer_id": 15,
  "token_pos": 6,
  "target_token_id": 22780,
  "target_token_text": " researcher",
  "next_token_id": 8344,
  "next_token_text": " noticed",
  "router_logits": [
    -1.6005859375,
    -1.783203125,
    -2.5,
    -1.521484375,
    -0.8388671875,
    -1.431640625,
    -1.50390625,
    -2.080078125,
    -1.91015625,
    -1.3818359375,
    0.68798828125,
    -0.484130859375,
    -1.2666015625,
    0.8017578125,
    -2.208984375,
    -1.529296875,
    0.363525390625,
    -1.578125,
    -1.5341796875,
    -2.5859375,
    -3.01171875,
    -3.466796875,
    -1.7373046875,
    -1.9248046875,
    -0.9326171875,
    -2.50390625,
    -2.53515625,
    -1.9091796875,
    0.61962890625,
    -0.96533203125,
    -2.076171875,
    -1.716796875,
    -2.80859375,
    -2.109375,
    -0.1080322265625,
    -2.138671875,
    -2.24609375,
    -2.625,
    -1.2294921875,
    -0.33740234375,
    0.499755859375,
    -1.7744140625,
    -2.037109375,
    -1.734375,
    -2.740234375,
    0.290771484375,
    0.70556640625,
    -2.140625,
    -1.4033203125,
    -1.767578125,
    -1.4560546875,
    -1.91796875,
    -1.3603515625,
    -2.302734375,
    0.91943359375,
    -3.44921875,
    -1.9951171875,
    -1.9072265625,
    -3.349609375,
    -1.484375,
    -0.72021484375,
    -3.67578125,
    -1.0712890625,
    -1.845703125
  ],
  "router_probabilities": [
    0.007637727539986372,
    0.006362891290336847,
    0.0031070879194885492,
    0.008266421034932137,
    0.016359664499759674,
    0.009043492376804352,
    0.008413014002144337,
    0.004728499334305525,
    0.0056042755022645,
    0.00950530543923378,
    0.07531462609767914,
    0.023325687274336815,
    0.010666249319911003,
    0.0843895673751831,
    0.004156617913395166,
    0.008202090859413147,
    0.054446108639240265,
    0.007811218500137329,
    0.008162138983607292,
    0.0028512245044112206,
    0.0018625885713845491,
    0.001181623199954629,
    0.0066617438569664955,
    0.005522780120372772,
    0.014895644038915634,
    0.0030949749052524567,
    0.002999752527102828,
    0.005609751213341951,
    0.0703381896018982,
    0.014416220597922802,
    0.004747006110846996,
    0.006799772381782532,
    0.0022820914164185524,
    0.004591978620737791,
    0.033975981175899506,
    0.004459399729967117,
    0.00400519510731101,
    0.002741995733231306,
    0.01106950268149376,
    0.027012065052986145,
    0.062392301857471466,
    0.006419062148779631,
    0.004936105106025934,
    0.006681289058178663,
    0.00244354922324419,
    0.05062560364603996,
    0.0766502171754837,
    0.004450698383152485,
    0.009303268045186996,
    0.006463092286139727,
    0.008825376629829407,
    0.005560662597417831,
    0.009711730293929577,
    0.003784643253311515,
    0.0949280858039856,
    0.0012025776086375117,
    0.005147797055542469,
    0.005620718467980623,
    0.0013285347959026694,
    0.008578944951295853,
    0.01842062920331955,
    0.000958778487984091,
    0.012966861017048359,
    0.005977382883429527
  ],
  "selected_expert_ids": [
    54,
    13,
    46,
    10,
    28,
    40,
    16,
    45
  ],
  "effective_gate_weights": [
    0.0949280858039856,
    0.0843895673751831,
    0.0766502171754837,
    0.07531462609767914,
    0.0703381896018982,
    0.062392301857471466,
    0.054446108639240265,
    0.05062560364603996
  ],
  "topk_ranks": [
    0,
    1,
    2,
    3,
    4,
    5,
    6,
    7
  ],
  "top1_top2_gap": 0.01053851842880249,
  "routing_entropy": 3.478367805480957,
  "sample_id": "layer_15_sample_001",
  "microbatch_id": null,
  "sequence_length": 8,
  "all_expert_count": 64,
  "selected_destination_ids": [
    54,
    13,
    46,
    10,
    28,
    40,
    16,
    45
  ],
  "expert_to_destination_map": {},
  "layer_name": "model.layers.15.mlp",
  "run_id": null,
  "mode": "real",
  "all_token_selected_expert_ids": [
    [
      61,
      31,
      63,
      48,
      56,
      0,
      22,
      20
    ],
    [
      20,
      7,
      55,
      21,
      34,
      3,
      27,
      49
    ],
    [
      20,
      7,
      55,
      21,
      14,
      63,
      27,
      26
    ],
    [
      23,
      54,
      45,
      48,
      15,
      26,
      34,
      40
    ],
    [
      34,
      38,
      7,
      56,
      26,
      48,
      49,
      47
    ],
    [
      55,
      38,
      7,
      21,
      34,
      26,
      49,
      27
    ],
    [
      54,
      13,
      46,
      10,
      28,
      40,
      16,
      45
    ],
    [
      38,
      61,
      56,
      39,
      7,
      34,
      26,
      21
    ]
  ]
}