{
  "layer_path": "model.layers.15.mlp",
  "layer_id": 15,
  "token_pos": 5,
  "target_token_id": 9762,
  "target_token_text": " requests",
  "next_token_id": 403,
  "next_token_text": " are",
  "router_logits": [
    -1.6611328125,
    -2.224609375,
    -1.3857421875,
    -2.068359375,
    0.1676025390625,
    -1.853515625,
    -1.4658203125,
    -3.31640625,
    -0.404296875,
    -1.8642578125,
    0.12396240234375,
    -1.9248046875,
    -2.1171875,
    0.14404296875,
    -4.31640625,
    -1.0498046875,
    -1.8564453125,
    -1.1513671875,
    -1.658203125,
    -2.65625,
    -2.712890625,
    -4.125,
    -1.4541015625,
    -1.431640625,
    -1.720703125,
    -2.1484375,
    -2.763671875,
    -2.009765625,
    0.0966796875,
    -1.4345703125,
    -0.3427734375,
    -1.59765625,
    -2.68359375,
    -2.583984375,
    -1.90234375,
    -1.5400390625,
    -2.41796875,
    -2.70703125,
    -3.037109375,
    -2.564453125,
    -2.537109375,
    -2.62890625,
    -1.3271484375,
    -1.916015625,
    -2.3046875,
    -2.130859375,
    0.0222930908203125,
    -2.986328125,
    -2.19921875,
    -3.447265625,
    -2.333984375,
    -1.2978515625,
    -2.296875,
    -1.7646484375,
    0.65771484375,
    -4.5078125,
    -2.857421875,
    -2.259765625,
    -2.380859375,
    -2.2421875,
    -3.65625,
    -4.8203125,
    -1.3759765625,
    -2.71875
  ],
  "router_probabilities": [
    0.011770996265113354,
    0.006700364872813225,
    0.01550293155014515,
    0.007833519950509071,
    0.07328630983829498,
    0.009710965678095818,
    0.014309891499578953,
    0.0022487288806587458,
    0.04136662930250168,
    0.009607207030057907,
    0.07015686482191086,
    0.009042779915034771,
    0.007460212334990501,
    0.07157989591360092,
    0.0008272610721178353,
    0.02169250138103962,
    0.009682556614279747,
    0.01959754340350628,
    0.011805531568825245,
    0.004351502750068903,
    0.004111881367862225,
    0.0010017729364335537,
    0.014478571712970734,
    0.01480745431035757,
    0.011090271174907684,
    0.00723068555817008,
    0.003908288199454546,
    0.0083062294870615,
    0.06826867908239365,
    0.014764136634767056,
    0.0439915657043457,
    0.012542402371764183,
    0.0042341286316514015,
    0.004677608143538237,
    0.009248187765479088,
    0.013286284171044827,
    0.0055223447270691395,
    0.004136045463383198,
    0.0029732687398791313,
    0.0047698658891022205,
    0.004902091342955828,
    0.004472131375223398,
    0.016438446938991547,
    0.009122607298195362,
    0.006184733007103205,
    0.007358910981565714,
    0.06337467581033707,
    0.0031281544361263514,
    0.006872669328004122,
    0.0019729023333638906,
    0.0060061682015657425,
    0.016927165910601616,
    0.006233240477740765,
    0.010613459162414074,
    0.11963987350463867,
    0.0006831497885286808,
    0.0035585369914770126,
    0.006468897685408592,
    0.005731125362217426,
    0.006583614274859428,
    0.0016008286038413644,
    0.0004998030490241945,
    0.015655068680644035,
    0.004087858833372593
  ],
  "selected_expert_ids": [
    54,
    4,
    13,
    10,
    28,
    46,
    30,
    8
  ],
  "effective_gate_weights": [
    0.11963987350463867,
    0.07328630983829498,
    0.07157989591360092,
    0.07015686482191086,
    0.06826867908239365,
    0.06337467581033707,
    0.0439915657043457,
    0.04136662930250168
  ],
  "topk_ranks": [
    0,
    1,
    2,
    3,
    4,
    5,
    6,
    7
  ],
  "top1_top2_gap": 0.04635356366634369,
  "routing_entropy": 3.5215911865234375,
  "sample_id": "layer_15_sample_008",
  "microbatch_id": null,
  "sequence_length": 7,
  "all_expert_count": 64,
  "selected_destination_ids": [
    54,
    4,
    13,
    10,
    28,
    46,
    30,
    8
  ],
  "expert_to_destination_map": {},
  "layer_name": "model.layers.15.mlp",
  "run_id": null,
  "mode": "real",
  "all_token_selected_expert_ids": [
    [
      55,
      21,
      20,
      63,
      7,
      14,
      52,
      40
    ],
    [
      54,
      28,
      30,
      42,
      23,
      13,
      10,
      27
    ],
    [
      54,
      28,
      13,
      10,
      46,
      23,
      30,
      27
    ],
    [
      27,
      7,
      56,
      22,
      61,
      21,
      26,
      30
    ],
    [
      27,
      56,
      7,
      21,
      61,
      26,
      20,
      30
    ],
    [
      54,
      4,
      13,
      10,
      28,
      46,
      30,
      8
    ],
    [
      13,
      62,
      46,
      10,
      15,
      30,
      8,
      63
    ]
  ]
}