{
  "layer_path": "model.layers.15.mlp",
  "layer_id": 15,
  "token_pos": 7,
  "target_token_id": 13,
  "target_token_text": ",",
  "next_token_id": 253,
  "next_token_text": " the",
  "router_logits": [
    -2.466796875,
    -2.01953125,
    -3.072265625,
    -0.444091796875,
    -1.4990234375,
    -3.572265625,
    -1.673828125,
    0.1722412109375,
    -2.203125,
    -1.701171875,
    -2.568359375,
    -2.806640625,
    -1.6474609375,
    -2.69140625,
    -1.154296875,
    -2.232421875,
    0.2841796875,
    -2.109375,
    -1.4912109375,
    -2.529296875,
    -1.921875,
    -0.58642578125,
    -1.6650390625,
    -3.201171875,
    -1.46875,
    -1.1474609375,
    -0.336669921875,
    -1.3056640625,
    -1.18359375,
    -1.3662109375,
    -2.15625,
    -3.162109375,
    -1.88671875,
    -1.255859375,
    -1.865234375,
    -2.583984375,
    -3.234375,
    -1.4833984375,
    -1.4375,
    -1.58203125,
    -1.7626953125,
    -2.43359375,
    -2.234375,
    -2.96875,
    -2.326171875,
    -2.36328125,
    -2.787109375,
    -0.884765625,
    -0.346435546875,
    0.2330322265625,
    -2.28515625,
    -1.798828125,
    -1.2392578125,
    -2.388671875,
    -2.515625,
    -1.7041015625,
    0.54736328125,
    -2.123046875,
    -1.6533203125,
    1.01171875,
    -1.1669921875,
    -0.478759765625,
    -2.447265625,
    -2.62890625
  ],
  "router_probabilities": [
    0.004284551367163658,
    0.006701165344566107,
    0.00233858753927052,
    0.03238582983613014,
    0.011277271434664726,
    0.001418425003066659,
    0.00946863368153572,
    0.05998256802558899,
    0.005577205214649439,
    0.00921323336660862,
    0.0038707696367055178,
    0.003050093073397875,
    0.009721615351736546,
    0.0034226204734295607,
    0.015919039025902748,
    0.005416180472820997,
    0.06708714365959167,
    0.006125361192971468,
    0.011365720070898533,
    0.004024963825941086,
    0.007388595957309008,
    0.02808924950659275,
    0.009552220813930035,
    0.0020557502284646034,
    0.011623892933130264,
    0.016028234735131264,
    0.03605850413441658,
    0.013682925142347813,
    0.015459426678717136,
    0.01287904754281044,
    0.005844860337674618,
    0.0021376421209424734,
    0.007652971427887678,
    0.014381654560565948,
    0.007819170132279396,
    0.003810758935287595,
    0.0019886137451976538,
    0.011454862542450428,
    0.011992874555289745,
    0.010378967970609665,
    0.008663488551974297,
    0.004429199732840061,
    0.005405612289905548,
    0.0025936411693692207,
    0.004931488074362278,
    0.004751837812364101,
    0.003110250923782587,
    0.02084360457956791,
    0.03570808842778206,
    0.06374207884073257,
    0.005137961823493242,
    0.008356040343642235,
    0.014622404240071774,
    0.004632704425603151,
    0.00408037006855011,
    0.009186280891299248,
    0.08728477358818054,
    0.0060421861708164215,
    0.009664819575846195,
    0.13886906206607819,
    0.01571821980178356,
    0.03128231689333916,
    0.004369056783616543,
    0.003643360687419772
  ],
  "selected_expert_ids": [
    59,
    56,
    16,
    49,
    7,
    26,
    48,
    3
  ],
  "effective_gate_weights": [
    0.13886906206607819,
    0.08728477358818054,
    0.06708714365959167,
    0.06374207884073257,
    0.05998256802558899,
    0.03605850413441658,
    0.03570808842778206,
    0.03238582983613014
  ],
  "topk_ranks": [
    0,
    1,
    2,
    3,
    4,
    5,
    6,
    7
  ],
  "top1_top2_gap": 0.051584288477897644,
  "routing_entropy": 3.539299726486206,
  "sample_id": "layer_15_sample_003",
  "microbatch_id": null,
  "sequence_length": 9,
  "all_expert_count": 64,
  "selected_destination_ids": [
    59,
    56,
    16,
    49,
    7,
    26,
    48,
    3
  ],
  "expert_to_destination_map": {},
  "layer_name": "model.layers.15.mlp",
  "run_id": null,
  "mode": "real",
  "all_token_selected_expert_ids": [
    [
      61,
      56,
      63,
      48,
      38,
      22,
      31,
      49
    ],
    [
      55,
      48,
      21,
      7,
      49,
      3,
      59,
      26
    ],
    [
      63,
      20,
      48,
      59,
      55,
      7,
      21,
      49
    ],
    [
      59,
      54,
      2,
      16,
      23,
      53,
      15,
      62
    ],
    [
      61,
      59,
      48,
      56,
      3,
      7,
      49,
      27
    ],
    [
      59,
      55,
      48,
      21,
      7,
      3,
      49,
      20
    ],
    [
      59,
      54,
      23,
      49,
      7,
      2,
      16,
      48
    ],
    [
      59,
      56,
      16,
      49,
      7,
      26,
      48,
      3
    ],
    [
      59,
      55,
      21,
      7,
      49,
      26,
      48,
      3
    ]
  ]
}