{
  "layer_path": "model.layers.15.mlp",
  "layer_id": 15,
  "token_pos": 5,
  "target_token_id": 5281,
  "target_token_text": " shape",
  "next_token_id": 326,
  "next_token_text": " that",
  "router_logits": [
    -1.8837890625,
    -2.583984375,
    -0.5283203125,
    -1.6611328125,
    -1.140625,
    -0.59765625,
    -1.1513671875,
    -2.703125,
    -1.71484375,
    -1.91015625,
    -0.039215087890625,
    -1.6884765625,
    -1.9326171875,
    0.054107666015625,
    -2.65234375,
    0.74560546875,
    -1.919921875,
    -0.60498046875,
    -1.28515625,
    -1.109375,
    -2.611328125,
    -3.83203125,
    -1.4521484375,
    -1.001953125,
    -0.87060546875,
    -2.84375,
    -1.408203125,
    -2.71484375,
    -0.1678466796875,
    -1.3779296875,
    -1.59375,
    -1.64453125,
    -1.703125,
    -1.87890625,
    0.77099609375,
    -1.728515625,
    -2.541015625,
    -0.84521484375,
    -0.341064453125,
    -1.2236328125,
    -2.576171875,
    -2.87890625,
    -2.11328125,
    -2.146484375,
    -2.767578125,
    0.57275390625,
    -0.348876953125,
    -1.197265625,
    -0.75634765625,
    -2.822265625,
    -1.923828125,
    -1.83203125,
    -1.71875,
    -1.8642578125,
    0.61181640625,
    -4.359375,
    -3.06640625,
    -2.6640625,
    -2.513671875,
    -1.5400390625,
    -3.0,
    -3.865234375,
    0.61865234375,
    -2.794921875
  ],
  "router_probabilities": [
    0.006277173757553101,
    0.00311654363758862,
    0.02434651181101799,
    0.00784264411777258,
    0.01319824531674385,
    0.02271561697125435,
    0.013057226315140724,
    0.0027665025554597378,
    0.007432521320879459,
    0.006113825831562281,
    0.03970566391944885,
    0.007631103042513132,
    0.0059780338779091835,
    0.0435895137488842,
    0.002910617273300886,
    0.08703535050153732,
    0.006054410710930824,
    0.02254985086619854,
    0.011422130279242992,
    0.013617202639579773,
    0.003032479900866747,
    0.0008946503512561321,
    0.009665477089583874,
    0.015161446295678616,
    0.017289569601416588,
    0.0024035791866481304,
    0.010099700652062893,
    0.0027342718094587326,
    0.03491310402750969,
    0.010410129092633724,
    0.008389315567910671,
    0.007973931729793549,
    0.007520133629441261,
    0.0063078985549509525,
    0.08927352726459503,
    0.007331596687436104,
    0.0032533761113882065,
    0.017734182998538017,
    0.02936032973229885,
    0.012146925553679466,
    0.0031409868970513344,
    0.0023205464240163565,
    0.004989958833903074,
    0.0048269969411194324,
    0.0025938176549971104,
    0.07321957498788834,
    0.029131846502423286,
    0.012471466325223446,
    0.01938231848180294,
    0.002455777022987604,
    0.006030806805938482,
    0.006610621232539415,
    0.007403544615954161,
    0.0064009795896708965,
    0.07613631337881088,
    0.0005279962788335979,
    0.0019238005625084043,
    0.002876707585528493,
    0.003343563061207533,
    0.008852234110236168,
    0.0020558901596814394,
    0.0008654328412376344,
    0.07665856182575226,
    0.002523853676393628
  ],
  "selected_expert_ids": [
    34,
    15,
    62,
    54,
    45,
    13,
    10,
    28
  ],
  "effective_gate_weights": [
    0.08927352726459503,
    0.08703535050153732,
    0.07665856182575226,
    0.07613631337881088,
    0.07321957498788834,
    0.0435895137488842,
    0.03970566391944885,
    0.03491310402750969
  ],
  "topk_ranks": [
    0,
    1,
    2,
    3,
    4,
    5,
    6,
    7
  ],
  "top1_top2_gap": 0.0022381767630577087,
  "routing_entropy": 3.533766269683838,
  "sample_id": "layer_15_sample_016",
  "microbatch_id": null,
  "sequence_length": 7,
  "all_expert_count": 64,
  "selected_destination_ids": [
    34,
    15,
    62,
    54,
    45,
    13,
    10,
    28
  ],
  "expert_to_destination_map": {},
  "layer_name": "model.layers.15.mlp",
  "run_id": null,
  "mode": "real",
  "all_token_selected_expert_ids": [
    [
      55,
      21,
      20,
      63,
      7,
      14,
      52,
      40
    ],
    [
      38,
      5,
      34,
      54,
      28,
      17,
      39,
      26
    ],
    [
      34,
      2,
      22,
      28,
      38,
      54,
      17,
      26
    ],
    [
      34,
      38,
      56,
      26,
      7,
      21,
      61,
      17
    ],
    [
      34,
      20,
      38,
      55,
      21,
      7,
      26,
      17
    ],
    [
      34,
      15,
      62,
      54,
      45,
      13,
      10,
      28
    ],
    [
      46,
      10,
      13,
      34,
      28,
      56,
      45,
      38
    ]
  ]
}