{
  "layer_path": "model.layers.15.mlp",
  "layer_id": 15,
  "token_pos": 8,
  "target_token_id": 2262,
  "target_token_text": "):",
  "next_token_id": 1091,
  "next_token_text": " return",
  "router_logits": [
    -2.701171875,
    -2.205078125,
    -3.544921875,
    -1.984375,
    -2.33984375,
    -2.4375,
    -1.9599609375,
    -3.80859375,
    -0.61376953125,
    -2.7734375,
    -3.9296875,
    -2.69921875,
    -1.5,
    -4.01171875,
    -2.732421875,
    -4.09375,
    -1.2939453125,
    -0.9462890625,
    -2.1875,
    -2.056640625,
    -2.369140625,
    -3.59765625,
    -2.4296875,
    -3.673828125,
    -0.15576171875,
    -3.107421875,
    -2.669921875,
    -3.4453125,
    -2.4921875,
    -2.38671875,
    -0.50732421875,
    -2.53515625,
    -2.375,
    -1.8125,
    -1.6806640625,
    -2.52734375,
    -1.9892578125,
    -1.8310546875,
    -2.349609375,
    -2.28125,
    -2.611328125,
    -2.501953125,
    -2.751953125,
    -2.658203125,
    -0.09844970703125,
    -3.30078125,
    -3.99609375,
    -3.1484375,
    -3.9453125,
    -3.251953125,
    -2.927734375,
    -2.318359375,
    -1.6611328125,
    -2.6953125,
    -4.74609375,
    -3.306640625,
    -3.6171875,
    -2.21875,
    -0.6923828125,
    -2.33203125,
    -1.3251953125,
    -3.625,
    -4.28515625,
    -3.060546875
  ],
  "router_probabilities": [
    0.007798101752996445,
    0.012806771323084831,
    0.00335392146371305,
    0.015969444066286087,
    0.01119210384786129,
    0.010150796733796597,
    0.016364123672246933,
    0.002576568629592657,
    0.06288342922925949,
    0.0072544473223388195,
    0.002282713307067752,
    0.007813346572220325,
    0.025920966640114784,
    0.0021029338240623474,
    0.007558179087936878,
    0.0019373133545741439,
    0.03185221552848816,
    0.045094627887010574,
    0.013033880852162838,
    0.014856114983558655,
    0.010868965648114681,
    0.003181637264788151,
    0.0102304108440876,
    0.0029482862446457148,
    0.09941375255584717,
    0.005194655619561672,
    0.008045639842748642,
    0.003705209121108055,
    0.009610581211745739,
    0.010679579339921474,
    0.06994631141424179,
    0.009206373244524002,
    0.010805466212332249,
    0.018964184448122978,
    0.021636638790369034,
    0.009278579615056515,
    0.015891660004854202,
    0.01861555501818657,
    0.011083337478339672,
    0.011867483146488667,
    0.008531149476766586,
    0.009517184458673,
    0.007411991246044636,
    0.00814047921448946,
    0.10527779161930084,
    0.004281361121684313,
    0.002136050257831812,
    0.0049859038554131985,
    0.0022473230492323637,
    0.004495599772781134,
    0.0062171886675059795,
    0.011435160413384438,
    0.02206338383257389,
    0.0078439274802804,
    0.0010089987190440297,
    0.004256348591297865,
    0.0031200989615172148,
    0.012632870115339756,
    0.05812927335500717,
    0.011279883794486523,
    0.030872225761413574,
    0.003095818217843771,
    0.0015998276649042964,
    0.005443952511996031
  ],
  "selected_expert_ids": [
    44,
    24,
    30,
    8,
    58,
    17,
    16,
    60
  ],
  "effective_gate_weights": [
    0.10527779161930084,
    0.09941375255584717,
    0.06994631141424179,
    0.06288342922925949,
    0.05812927335500717,
    0.045094627887010574,
    0.03185221552848816,
    0.030872225761413574
  ],
  "topk_ranks": [
    0,
    1,
    2,
    3,
    4,
    5,
    6,
    7
  ],
  "top1_top2_gap": 0.005864039063453674,
  "routing_entropy": 3.594947338104248,
  "sample_id": "layer_15_sample_024",
  "microbatch_id": null,
  "sequence_length": 10,
  "all_expert_count": 64,
  "selected_destination_ids": [
    44,
    24,
    30,
    8,
    58,
    17,
    16,
    60
  ],
  "expert_to_destination_map": {},
  "layer_name": "model.layers.15.mlp",
  "run_id": null,
  "mode": "real",
  "all_token_selected_expert_ids": [
    [
      30,
      8,
      43,
      31,
      36,
      44,
      17,
      6
    ],
    [
      8,
      30,
      36,
      17,
      44,
      58,
      3,
      29
    ],
    [
      8,
      30,
      1,
      29,
      17,
      44,
      58,
      60
    ],
    [
      44,
      30,
      36,
      8,
      17,
      58,
      35,
      0
    ],
    [
      1,
      8,
      29,
      30,
      17,
      58,
      60,
      44
    ],
    [
      44,
      36,
      17,
      30,
      8,
      35,
      0,
      58
    ],
    [
      8,
      30,
      17,
      58,
      60,
      44,
      26,
      20
    ],
    [
      36,
      17,
      44,
      35,
      30,
      0,
      43,
      53
    ],
    [
      44,
      24,
      30,
      8,
      58,
      17,
      16,
      60
    ],
    [
      30,
      17,
      58,
      8,
      60,
      44,
      34,
      52
    ]
  ]
}