{
  "layer_path": "model.layers.15.mlp",
  "layer_id": 15,
  "token_pos": 5,
  "target_token_id": 19414,
  "target_token_text": " engineers",
  "next_token_id": 4080,
  "next_token_text": " measured",
  "router_logits": [
    -1.7314453125,
    -1.6845703125,
    -1.8486328125,
    -1.99609375,
    0.947265625,
    -0.78564453125,
    -1.3291015625,
    -3.390625,
    -0.73681640625,
    -1.6376953125,
    0.81201171875,
    -0.113037109375,
    -1.9443359375,
    0.87158203125,
    -4.15625,
    -1.2666015625,
    -1.06640625,
    -1.4052734375,
    -1.060546875,
    -2.1796875,
    -1.9736328125,
    -3.873046875,
    -1.107421875,
    -2.146484375,
    -1.228515625,
    -2.3203125,
    -3.087890625,
    -2.400390625,
    0.52685546875,
    -0.86376953125,
    -0.0082550048828125,
    -1.9609375,
    -2.384765625,
    -1.4755859375,
    -0.72265625,
    -1.56640625,
    -2.716796875,
    -2.36328125,
    -2.75390625,
    -1.6630859375,
    -0.9423828125,
    -2.58984375,
    -0.884765625,
    -2.1484375,
    -1.3349609375,
    -0.91259765625,
    0.7900390625,
    -2.400390625,
    -1.509765625,
    -3.234375,
    -1.1884765625,
    -0.966796875,
    -1.595703125,
    -1.916015625,
    0.9560546875,
    -3.8046875,
    -2.087890625,
    -2.08203125,
    -3.29296875,
    -1.7548828125,
    -2.529296875,
    -4.12890625,
    -1.0390625,
    -1.3544921875
  ],
  "router_probabilities": [
    0.006671188864856958,
    0.006991345901042223,
    0.005933478474617004,
    0.005119975656270981,
    0.09717456996440887,
    0.01717747561633587,
    0.009975597262382507,
    0.0012694940669462085,
    0.018037032335996628,
    0.007326867431402206,
    0.08488141745328903,
    0.03365650400519371,
    0.0053919521160423756,
    0.09009146690368652,
    0.0005903695710003376,
    0.010618967935442924,
    0.012972570024430752,
    0.00924395676702261,
    0.013048804365098476,
    0.00426122173666954,
    0.005236275959759951,
    0.0007836416480131447,
    0.01245125662535429,
    0.004405082669109106,
    0.011031202040612698,
    0.0037022135220468044,
    0.0017183298477903008,
    0.0034173070453107357,
    0.06382205337285995,
    0.015886567533016205,
    0.03737449273467064,
    0.005303176119923592,
    0.003471121657639742,
    0.008616315200924873,
    0.018294256180524826,
    0.007868261076509953,
    0.002490408020094037,
    0.0035465031396597624,
    0.0023996843956410885,
    0.007143176160752773,
    0.014685500413179398,
    0.0028275190852582455,
    0.015556489117443562,
    0.00439648749306798,
    0.009917317889630795,
    0.01512948889285326,
    0.08303668349981308,
    0.0034173070453107357,
    0.008326788432896137,
    0.001484188949689269,
    0.011481842026114464,
    0.01433130819350481,
    0.007641090080142021,
    0.005546836648136377,
    0.0980324074625969,
    0.0008390843868255615,
    0.004670904949307442,
    0.004698353819549084,
    0.001399723463691771,
    0.006516651250422001,
    0.0030040056444704533,
    0.0006067351787351072,
    0.013332183472812176,
    0.009725499898195267
  ],
  "selected_expert_ids": [
    54,
    4,
    13,
    10,
    46,
    28,
    30,
    11
  ],
  "effective_gate_weights": [
    0.0980324074625969,
    0.09717456996440887,
    0.09009146690368652,
    0.08488141745328903,
    0.08303668349981308,
    0.06382205337285995,
    0.03737449273467064,
    0.03365650400519371
  ],
  "topk_ranks": [
    0,
    1,
    2,
    3,
    4,
    5,
    6,
    7
  ],
  "top1_top2_gap": 0.0008578374981880188,
  "routing_entropy": 3.427155017852783,
  "sample_id": "layer_15_sample_007",
  "microbatch_id": null,
  "sequence_length": 7,
  "all_expert_count": 64,
  "selected_destination_ids": [
    54,
    4,
    13,
    10,
    46,
    28,
    30,
    11
  ],
  "expert_to_destination_map": {},
  "layer_name": "model.layers.15.mlp",
  "run_id": null,
  "mode": "real",
  "all_token_selected_expert_ids": [
    [
      63,
      61,
      48,
      56,
      12,
      50,
      22,
      4
    ],
    [
      30,
      56,
      7,
      26,
      61,
      21,
      34,
      27
    ],
    [
      20,
      55,
      21,
      34,
      7,
      30,
      26,
      27
    ],
    [
      30,
      42,
      2,
      23,
      54,
      8,
      58,
      17
    ],
    [
      4,
      46,
      56,
      30,
      10,
      13,
      7,
      25
    ],
    [
      54,
      4,
      13,
      10,
      46,
      28,
      30,
      11
    ],
    [
      7,
      26,
      56,
      61,
      21,
      22,
      34,
      38
    ]
  ]
}