{
  "layer_path": "model.layers.15.mlp",
  "layer_id": 15,
  "token_pos": 7,
  "target_token_id": 7887,
  "target_token_text": " threshold",
  "next_token_id": 27,
  "next_token_text": ":",
  "router_logits": [
    -1.8046875,
    -2.388671875,
    -1.4609375,
    -1.1708984375,
    -1.94921875,
    -2.634765625,
    -1.986328125,
    -4.39453125,
    -0.51953125,
    -2.150390625,
    -3.4296875,
    -3.212890625,
    -1.646484375,
    -3.412109375,
    -3.8359375,
    -2.927734375,
    -2.408203125,
    -0.18701171875,
    -2.455078125,
    -2.568359375,
    -2.55859375,
    -3.890625,
    -2.365234375,
    -2.021484375,
    -2.03515625,
    -3.048828125,
    -2.822265625,
    -3.07421875,
    -1.0556640625,
    -2.056640625,
    -0.14599609375,
    -1.5439453125,
    -2.5703125,
    -2.591796875,
    -2.16796875,
    -1.666015625,
    -0.319580078125,
    -3.2890625,
    -2.412109375,
    -2.888671875,
    -2.912109375,
    -2.5625,
    -2.609375,
    -1.64453125,
    0.267578125,
    -3.66796875,
    -3.59765625,
    -2.2265625,
    -3.59375,
    -3.763671875,
    -3.30078125,
    -2.619140625,
    -1.9580078125,
    -1.6806640625,
    -2.62890625,
    -3.6484375,
    -3.669921875,
    -1.6826171875,
    -0.52490234375,
    -2.6171875,
    -2.63671875,
    -4.859375,
    -3.515625,
    -3.09765625
  ],
  "router_probabilities": [
    0.01591775193810463,
    0.00887688435614109,
    0.022447627037763596,
    0.030000800266861916,
    0.013775667175650597,
    0.006940382532775402,
    0.013273829594254494,
    0.0011943370336666703,
    0.057546380907297134,
    0.011265352368354797,
    0.0031343912705779076,
    0.00389320170506835,
    0.01864612102508545,
    0.0031899751629680395,
    0.0020879546646028757,
    0.00517784059047699,
    0.00870518945157528,
    0.08024711161851883,
    0.008306550793349743,
    0.007416914217174053,
    0.007489699870347977,
    0.001976835774257779,
    0.009087393060326576,
    0.012815278954803944,
    0.01264126319438219,
    0.0045873126946389675,
    0.005753778852522373,
    0.004472304135560989,
    0.03366499021649361,
    0.012372569181025028,
    0.08360692858695984,
    0.020659539848566055,
    0.007402442395687103,
    0.0072451019659638405,
    0.011069059371948242,
    0.018285471946001053,
    0.07028387486934662,
    0.00360766239464283,
    0.008671251125633717,
    0.005384101998060942,
    0.005259380210191011,
    0.007460500579327345,
    0.007118859328329563,
    0.01868257485330105,
    0.12643149495124817,
    0.0024698409251868725,
    0.0026497526559978724,
    0.010439117439091206,
    0.002660123398527503,
    0.002244427800178528,
    0.0035656318068504333,
    0.007049677427858114,
    0.013655121438205242,
    0.018019571900367737,
    0.006981167942285538,
    0.0025185542181134224,
    0.002465021563693881,
    0.017984410747885704,
    0.05723812058568001,
    0.007063459604978561,
    0.006926840171217918,
    0.000750322244130075,
    0.002876278944313526,
    0.004368703346699476
  ],
  "selected_expert_ids": [
    44,
    30,
    17,
    36,
    8,
    58,
    28,
    3
  ],
  "effective_gate_weights": [
    0.12643149495124817,
    0.08360692858695984,
    0.08024711161851883,
    0.07028387486934662,
    0.057546380907297134,
    0.05723812058568001,
    0.03366499021649361,
    0.030000800266861916
  ],
  "topk_ranks": [
    0,
    1,
    2,
    3,
    4,
    5,
    6,
    7
  ],
  "top1_top2_gap": 0.04282456636428833,
  "routing_entropy": 3.5178263187408447,
  "sample_id": "layer_15_sample_026",
  "microbatch_id": null,
  "sequence_length": 9,
  "all_expert_count": 64,
  "selected_destination_ids": [
    44,
    30,
    17,
    36,
    8,
    58,
    28,
    3
  ],
  "expert_to_destination_map": {},
  "layer_name": "model.layers.15.mlp",
  "run_id": null,
  "mode": "real",
  "all_token_selected_expert_ids": [
    [
      43,
      12,
      36,
      0,
      57,
      31,
      30,
      17
    ],
    [
      44,
      30,
      8,
      36,
      17,
      58,
      23,
      0
    ],
    [
      1,
      44,
      8,
      29,
      30,
      17,
      58,
      60
    ],
    [
      44,
      30,
      8,
      17,
      36,
      58,
      28,
      0
    ],
    [
      8,
      30,
      17,
      58,
      60,
      44,
      20,
      56
    ],
    [
      44,
      30,
      17,
      8,
      36,
      58,
      28,
      3
    ],
    [
      30,
      8,
      17,
      58,
      3,
      60,
      44,
      20
    ],
    [
      44,
      30,
      17,
      36,
      8,
      58,
      28,
      3
    ],
    [
      8,
      30,
      58,
      17,
      60,
      44,
      24,
      52
    ]
  ]
}