{
  "layer_path": "model.layers.15.mlp",
  "layer_id": 15,
  "token_pos": 6,
  "target_token_id": 2926,
  "target_token_text": " story",
  "next_token_id": 273,
  "next_token_text": " of",
  "router_logits": [
    -1.8017578125,
    -2.89453125,
    -1.3662109375,
    -2.515625,
    -1.5625,
    -0.994140625,
    -2.302734375,
    -3.716796875,
    -2.5625,
    -1.76171875,
    -0.73095703125,
    -1.052734375,
    -1.193359375,
    -0.564453125,
    -1.9521484375,
    -0.006755828857421875,
    -1.9345703125,
    -2.123046875,
    -1.447265625,
    -0.410888671875,
    -2.599609375,
    -4.7578125,
    -1.9462890625,
    0.12451171875,
    -1.486328125,
    -2.189453125,
    -3.212890625,
    -2.91015625,
    -1.4931640625,
    -1.8359375,
    -2.767578125,
    -1.7685546875,
    -1.5693359375,
    -0.78173828125,
    -1.1337890625,
    -1.6923828125,
    -2.90625,
    -1.513671875,
    -2.4609375,
    -3.232421875,
    -1.6298828125,
    -2.748046875,
    -1.7333984375,
    -1.958984375,
    -2.205078125,
    -0.96533203125,
    -1.0341796875,
    -1.720703125,
    -2.013671875,
    -2.5859375,
    -1.6767578125,
    -2.1328125,
    -2.103515625,
    -1.60546875,
    0.290771484375,
    -4.9453125,
    -4.12890625,
    -2.58203125,
    -3.72265625,
    -0.732421875,
    -3.84375,
    -4.33203125,
    0.10467529296875,
    -2.44140625
  ],
  "router_probabilities": [
    0.010925917886197567,
    0.0036632996052503586,
    0.01688937284052372,
    0.005350930616259575,
    0.013879258185625076,
    0.02450200356543064,
    0.006620435044169426,
    0.0016097817569971085,
    0.005105894058942795,
    0.011372256092727184,
    0.03187871351838112,
    0.023107590153813362,
    0.020076222717761993,
    0.03765412047505379,
    0.009400351904332638,
    0.06576841324567795,
    0.00956705305725336,
    0.00792362354695797,
    0.015574420802295208,
    0.04390406236052513,
    0.004919889848679304,
    0.0005684072966687381,
    0.009455593302845955,
    0.07499393075704575,
    0.014977773651480675,
    0.007414535619318485,
    0.0026644691824913025,
    0.00360650522634387,
    0.014875736087560654,
    0.010558783076703548,
    0.004159178119152784,
    0.011294782161712646,
    0.01378470379859209,
    0.030300287529826164,
    0.02130850777029991,
    0.012188741005957127,
    0.0036206208169460297,
    0.014573775231838226,
    0.005651709157973528,
    0.002612933749333024,
    0.012974848970770836,
    0.00424120994284749,
    0.01169892679899931,
    0.009336310438811779,
    0.007299584336578846,
    0.025218136608600616,
    0.023540347814559937,
    0.011848394758999348,
    0.00883944146335125,
    0.004987615626305342,
    0.012380686588585377,
    0.007846621796488762,
    0.008079903200268745,
    0.01329551450908184,
    0.08855882287025452,
    0.0004712262307293713,
    0.0010660809930413961,
    0.0050071366131305695,
    0.0016003771452233195,
    0.031832050532102585,
    0.0014178556157276034,
    0.0008701099432073534,
    0.07352098077535629,
    0.005763179622590542
  ],
  "selected_expert_ids": [
    54,
    23,
    62,
    15,
    19,
    13,
    10,
    59
  ],
  "effective_gate_weights": [
    0.08855882287025452,
    0.07499393075704575,
    0.07352098077535629,
    0.06576841324567795,
    0.04390406236052513,
    0.03765412047505379,
    0.03187871351838112,
    0.031832050532102585
  ],
  "topk_ranks": [
    0,
    1,
    2,
    3,
    4,
    5,
    6,
    7
  ],
  "top1_top2_gap": 0.01356489211320877,
  "routing_entropy": 3.6717147827148438,
  "sample_id": "layer_15_sample_000",
  "microbatch_id": null,
  "sequence_length": 8,
  "all_expert_count": 64,
  "selected_destination_ids": [
    54,
    23,
    62,
    15,
    19,
    13,
    10,
    59
  ],
  "expert_to_destination_map": {},
  "layer_name": "model.layers.15.mlp",
  "run_id": null,
  "mode": "real",
  "all_token_selected_expert_ids": [
    [
      55,
      21,
      20,
      63,
      7,
      14,
      52,
      40
    ],
    [
      23,
      54,
      40,
      28,
      42,
      24,
      25,
      34
    ],
    [
      61,
      56,
      49,
      7,
      21,
      38,
      14,
      27
    ],
    [
      54,
      40,
      23,
      42,
      28,
      5,
      13,
      10
    ],
    [
      62,
      15,
      32,
      13,
      45,
      10,
      46,
      37
    ],
    [
      20,
      37,
      55,
      7,
      21,
      14,
      49,
      34
    ],
    [
      54,
      23,
      62,
      15,
      19,
      13,
      10,
      59
    ],
    [
      61,
      32,
      34,
      14,
      56,
      7,
      37,
      21
    ]
  ]
}