{
  "layer_path": "model.layers.15.mlp",
  "layer_id": 15,
  "token_pos": 5,
  "target_token_id": 6888,
  "target_token_text": " discovered",
  "next_token_id": 247,
  "next_token_text": " a",
  "router_logits": [
    -2.07421875,
    -1.78125,
    -2.314453125,
    -1.318359375,
    -1.8642578125,
    -2.537109375,
    -1.58984375,
    0.0009579658508300781,
    -1.205078125,
    -1.9619140625,
    -2.591796875,
    -2.75390625,
    -2.001953125,
    -2.474609375,
    -1.234375,
    -2.517578125,
    -2.21484375,
    -0.50146484375,
    -0.978515625,
    -1.9736328125,
    -0.888671875,
    0.0255584716796875,
    -1.37109375,
    -2.642578125,
    -1.201171875,
    -0.96923828125,
    0.162109375,
    -0.90087890625,
    -1.5048828125,
    -1.2822265625,
    -0.304931640625,
    -1.927734375,
    -1.220703125,
    -1.583984375,
    0.316650390625,
    -1.3818359375,
    -2.267578125,
    -2.02734375,
    -0.58740234375,
    -0.79931640625,
    -3.435546875,
    -2.595703125,
    -2.17578125,
    -2.33203125,
    -1.2744140625,
    -1.703125,
    -3.056640625,
    -1.650390625,
    -1.7099609375,
    -1.830078125,
    -2.208984375,
    -0.8935546875,
    -2.05078125,
    -1.4072265625,
    -2.615234375,
    -0.91259765625,
    0.08404541015625,
    -1.259765625,
    -1.998046875,
    -0.57470703125,
    -2.94140625,
    0.1727294921875,
    -2.578125,
    -2.48828125
  ],
  "router_probabilities": [
    0.006454853340983391,
    0.008652091026306152,
    0.0050763776525855064,
    0.013745225965976715,
    0.007962899282574654,
    0.004063081461936235,
    0.010477260686457157,
    0.05141906067728996,
    0.015393923968076706,
    0.007222036365419626,
    0.003846848150715232,
    0.00327116041444242,
    0.006938585080206394,
    0.004325127694755793,
    0.014949471689760685,
    0.004143218509852886,
    0.005608073435723782,
    0.031111767515540123,
    0.01930830627679825,
    0.0071378969587385654,
    0.021123351529240608,
    0.05269968882203102,
    0.013039162382483482,
    0.0036563773173838854,
    0.015454174019396305,
    0.019488269463181496,
    0.06041034683585167,
    0.020867064595222473,
    0.011406326666474342,
    0.014250962994992733,
    0.03786848857998848,
    0.00747315026819706,
    0.015155263245105743,
    0.010538831353187561,
    0.070506252348423,
    0.012899842113256454,
    0.005319997668266296,
    0.006764627993106842,
    0.028549764305353165,
    0.02309773489832878,
    0.0016545087564736605,
    0.0038318505976349115,
    0.005831473972648382,
    0.0049879238940775394,
    0.014362734742462635,
    0.009355139918625355,
    0.0024167178198695183,
    0.00986171793192625,
    0.009291407652199268,
    0.008239774033427238,
    0.005641029682010412,
    0.02102046273648739,
    0.006607925519347191,
    0.012576430104672909,
    0.0037577359471470118,
    0.020623955875635147,
    0.055873844772577286,
    0.01457467395812273,
    0.006965741515159607,
    0.028914522379636765,
    0.0027118870057165623,
    0.06105532869696617,
    0.0038998029194772243,
    0.004266397096216679
  ],
  "selected_expert_ids": [
    34,
    61,
    26,
    56,
    21,
    7,
    30,
    17
  ],
  "effective_gate_weights": [
    0.070506252348423,
    0.06105532869696617,
    0.06041034683585167,
    0.055873844772577286,
    0.05269968882203102,
    0.05141906067728996,
    0.03786848857998848,
    0.031111767515540123
  ],
  "topk_ranks": [
    0,
    1,
    2,
    3,
    4,
    5,
    6,
    7
  ],
  "top1_top2_gap": 0.009450923651456833,
  "routing_entropy": 3.7620937824249268,
  "sample_id": "layer_15_sample_011",
  "microbatch_id": null,
  "sequence_length": 7,
  "all_expert_count": 64,
  "selected_destination_ids": [
    34,
    61,
    26,
    56,
    21,
    7,
    30,
    17
  ],
  "expert_to_destination_map": {},
  "layer_name": "model.layers.15.mlp",
  "run_id": null,
  "mode": "real",
  "all_token_selected_expert_ids": [
    [
      61,
      56,
      63,
      48,
      38,
      22,
      31,
      49
    ],
    [
      23,
      54,
      42,
      26,
      25,
      2,
      59,
      39
    ],
    [
      56,
      26,
      7,
      4,
      61,
      38,
      21,
      25
    ],
    [
      55,
      7,
      21,
      26,
      20,
      38,
      27,
      39
    ],
    [
      46,
      11,
      10,
      13,
      54,
      34,
      5,
      17
    ],
    [
      34,
      61,
      26,
      56,
      21,
      7,
      30,
      17
    ],
    [
      20,
      7,
      55,
      26,
      21,
      34,
      27,
      30
    ]
  ]
}