{
  "layer_path": "model.layers.15.mlp",
  "layer_id": 15,
  "token_pos": 9,
  "target_token_id": 3708,
  "target_token_text": " status",
  "next_token_id": 13,
  "next_token_text": ",",
  "router_logits": [
    -1.541015625,
    -2.3125,
    -0.826171875,
    -1.6337890625,
    -2.6484375,
    -1.8095703125,
    -2.12890625,
    -4.1640625,
    0.1490478515625,
    -1.70703125,
    -3.798828125,
    -3.517578125,
    -2.27734375,
    -3.75,
    -3.416015625,
    -2.3671875,
    -2.046875,
    -0.04351806640625,
    -1.986328125,
    -2.826171875,
    -2.330078125,
    -3.6953125,
    -2.20703125,
    -1.11328125,
    -1.6357421875,
    -2.36328125,
    -2.478515625,
    -3.048828125,
    -1.82421875,
    -1.74609375,
    -0.043182373046875,
    -1.5712890625,
    -2.9375,
    -2.609375,
    -2.00390625,
    -1.3447265625,
    -0.324951171875,
    -2.517578125,
    -2.142578125,
    -2.921875,
    -2.265625,
    -1.9658203125,
    -2.076171875,
    -1.7138671875,
    -0.97900390625,
    -3.376953125,
    -4.203125,
    -1.06640625,
    -3.615234375,
    -3.287109375,
    -2.9765625,
    -1.86328125,
    -1.7294921875,
    -1.8974609375,
    -2.728515625,
    -3.54296875,
    -3.7890625,
    -1.4384765625,
    -0.404541015625,
    -2.3515625,
    -1.9033203125,
    -4.65625,
    -2.94140625,
    -3.349609375
  ],
  "router_probabilities": [
    0.01861848123371601,
    0.008607814088463783,
    0.03805370256304741,
    0.01696888357400894,
    0.006151726935058832,
    0.014233523979783058,
    0.010342526249587536,
    0.0013513551093637943,
    0.10090890526771545,
    0.01577046886086464,
    0.0019471021369099617,
    0.002579491352662444,
    0.008915814571082592,
    0.00204453500919044,
    0.002855236642062664,
    0.008149714209139347,
    0.011226705275475979,
    0.08323369920253754,
    0.011927446350455284,
    0.005150008946657181,
    0.00845782645046711,
    0.0021594592835754156,
    0.009565272368490696,
    0.02855663001537323,
    0.016935773193836212,
    0.008181611075997353,
    0.0072911023162305355,
    0.004122015554457903,
    0.014026544988155365,
    0.015166310593485832,
    0.083261638879776,
    0.01806328259408474,
    0.0046074301935732365,
    0.006396783981472254,
    0.011719617061316967,
    0.022656431421637535,
    0.06281659007072449,
    0.00701178377494216,
    0.010202085599303246,
    0.004679987207055092,
    0.009020911529660225,
    0.012174578383564949,
    0.010902569629251957,
    0.01566302962601185,
    0.032660502940416336,
    0.0029689762741327286,
    0.001299585448578,
    0.0299270898103714,
    0.0023394969757646322,
    0.003248069901019335,
    0.0044309226796031,
    0.013489196076989174,
    0.015420197509229183,
    0.013035929761826992,
    0.00567831564694643,
    0.0025148207787424326,
    0.0019662100821733475,
    0.02062891609966755,
    0.058010805398225784,
    0.008278053253889084,
    0.012959770858287811,
    0.0008260667673312128,
    0.004589467775076628,
    0.0030512793455272913
  ],
  "selected_expert_ids": [
    8,
    30,
    17,
    36,
    58,
    2,
    44,
    47
  ],
  "effective_gate_weights": [
    0.10090890526771545,
    0.083261638879776,
    0.08323369920253754,
    0.06281659007072449,
    0.058010805398225784,
    0.03805370256304741,
    0.032660502940416336,
    0.0299270898103714
  ],
  "topk_ranks": [
    0,
    1,
    2,
    3,
    4,
    5,
    6,
    7
  ],
  "top1_top2_gap": 0.017647266387939453,
  "routing_entropy": 3.6091294288635254,
  "sample_id": "layer_15_sample_020",
  "microbatch_id": null,
  "sequence_length": 11,
  "all_expert_count": 64,
  "selected_destination_ids": [
    8,
    30,
    17,
    36,
    58,
    2,
    44,
    47
  ],
  "expert_to_destination_map": {},
  "layer_name": "model.layers.15.mlp",
  "run_id": null,
  "mode": "real",
  "all_token_selected_expert_ids": [
    [
      23,
      30,
      8,
      31,
      17,
      0,
      58,
      34
    ],
    [
      30,
      8,
      17,
      28,
      36,
      24,
      58,
      2
    ],
    [
      8,
      30,
      17,
      56,
      21,
      20,
      7,
      26
    ],
    [
      8,
      30,
      40,
      5,
      17,
      58,
      20,
      2
    ],
    [
      44,
      8,
      1,
      29,
      30,
      58,
      9,
      60
    ],
    [
      8,
      30,
      17,
      58,
      36,
      47,
      2,
      44
    ],
    [
      8,
      30,
      17,
      58,
      60,
      20,
      51,
      47
    ],
    [
      17,
      30,
      8,
      58,
      36,
      44,
      2,
      47
    ],
    [
      8,
      30,
      17,
      58,
      20,
      60,
      51,
      55
    ],
    [
      8,
      30,
      17,
      36,
      58,
      2,
      44,
      47
    ],
    [
      8,
      30,
      17,
      58,
      60,
      20,
      55,
      51
    ]
  ]
}