{
  "layer_path": "model.layers.15.mlp",
  "layer_id": 15,
  "token_pos": 14,
  "target_token_id": 27883,
  "target_token_text": " dispatch",
  "next_token_id": 3408,
  "next_token_text": " phase",
  "router_logits": [
    -1.72265625,
    -2.38671875,
    0.19873046875,
    -1.8046875,
    -2.21484375,
    -1.98046875,
    -2.2109375,
    -2.369140625,
    -0.45166015625,
    -2.515625,
    -2.5390625,
    -2.44140625,
    -1.6689453125,
    -2.392578125,
    -2.345703125,
    -2.333984375,
    -2.283203125,
    -0.6279296875,
    -1.525390625,
    -2.50390625,
    -1.025390625,
    -1.8408203125,
    -0.884765625,
    0.0709228515625,
    -1.8740234375,
    -0.02972412109375,
    -0.67431640625,
    -0.5537109375,
    -0.01383209228515625,
    -1.8359375,
    0.1593017578125,
    -1.0205078125,
    -3.162109375,
    -2.765625,
    -0.5908203125,
    -2.537109375,
    -2.1640625,
    -2.98046875,
    -1.5927734375,
    -1.9873046875,
    -1.078125,
    -2.00390625,
    0.00778961181640625,
    -1.970703125,
    -1.78125,
    -2.962890625,
    -2.984375,
    -0.85791015625,
    -2.373046875,
    -2.380859375,
    -2.29296875,
    -0.7587890625,
    -1.47265625,
    -2.7578125,
    -0.317138671875,
    -1.7041015625,
    -2.7734375,
    -2.103515625,
    -0.81201171875,
    -1.2978515625,
    -2.525390625,
    -3.251953125,
    -3.01171875,
    -3.138671875
  ],
  "router_probabilities": [
    0.00996661651879549,
    0.005130374804139137,
    0.06807621568441391,
    0.009181677363812923,
    0.006092470604926348,
    0.007701604627072811,
    0.006116315722465515,
    0.005221353843808174,
    0.03552502021193504,
    0.004509888123720884,
    0.004405417013913393,
    0.004857340827584267,
    0.010516569949686527,
    0.005100402049720287,
    0.005345175042748451,
    0.0054081822745501995,
    0.005689909216016531,
    0.029783891513943672,
    0.012140012346208096,
    0.004563049878925085,
    0.020015496760606766,
    0.008855840191245079,
    0.02303769625723362,
    0.059908609837293625,
    0.008566626347601414,
    0.054172493517398834,
    0.028433868661522865,
    0.032078515738248825,
    0.055040281265974045,
    0.008899186737835407,
    0.06544428318738937,
    0.020113466307520866,
    0.002362659899517894,
    0.0035123047418892384,
    0.030909918248653412,
    0.00441402941942215,
    0.006409843917936087,
    0.002833261853083968,
    0.011348936706781387,
    0.007649136241525412,
    0.018987338989973068,
    0.007523196749389172,
    0.05624330788850784,
    0.007777183782309294,
    0.009399414993822575,
    0.002883505541831255,
    0.002822216134518385,
    0.023664766922593117,
    0.005200998391956091,
    0.0051605235785245895,
    0.005634613800793886,
    0.026130633428692818,
    0.012797389179468155,
    0.0035398518666625023,
    0.04064024239778519,
    0.010153270326554775,
    0.0034849715884774923,
    0.0068099298514425755,
    0.02477625384926796,
    0.015241864137351513,
    0.0044660610146820545,
    0.002159646013751626,
    0.0027460914570838213,
    0.0024186887312680483
  ],
  "selected_expert_ids": [
    2,
    30,
    23,
    42,
    28,
    25,
    54,
    8
  ],
  "effective_gate_weights": [
    0.06807621568441391,
    0.06544428318738937,
    0.059908609837293625,
    0.05624330788850784,
    0.055040281265974045,
    0.054172493517398834,
    0.04064024239778519,
    0.03552502021193504
  ],
  "topk_ranks": [
    0,
    1,
    2,
    3,
    4,
    5,
    6,
    7
  ],
  "top1_top2_gap": 0.002631932497024536,
  "routing_entropy": 3.6956138610839844,
  "sample_id": "layer_15_sample_043",
  "microbatch_id": null,
  "sequence_length": 16,
  "all_expert_count": 64,
  "selected_destination_ids": [
    2,
    30,
    23,
    42,
    28,
    25,
    54,
    8
  ],
  "expert_to_destination_map": {},
  "layer_name": "model.layers.15.mlp",
  "run_id": null,
  "mode": "real",
  "all_token_selected_expert_ids": [
    [
      55,
      21,
      20,
      63,
      7,
      14,
      52,
      40
    ],
    [
      54,
      46,
      13,
      10,
      28,
      40,
      42,
      23
    ],
    [
      61,
      56,
      25,
      49,
      7,
      38,
      51,
      26
    ],
    [
      23,
      54,
      28,
      2,
      34,
      51,
      42,
      30
    ],
    [
      48,
      3,
      54,
      2,
      22,
      15,
      62,
      51
    ],
    [
      53,
      17,
      3,
      36,
      58,
      30,
      26,
      51
    ],
    [
      30,
      47,
      27,
      61,
      7,
      26,
      51,
      17
    ],
    [
      28,
      27,
      7,
      56,
      26,
      61,
      25,
      21
    ],
    [
      28,
      48,
      3,
      15,
      2,
      13,
      62,
      10
    ],
    [
      56,
      27,
      61,
      7,
      48,
      25,
      26,
      51
    ],
    [
      29,
      46,
      6,
      10,
      13,
      31,
      30,
      36
    ],
    [
      30,
      28,
      2,
      20,
      54,
      8,
      17,
      56
    ],
    [
      20,
      30,
      55,
      21,
      7,
      27,
      8,
      17
    ],
    [
      40,
      42,
      25,
      55,
      20,
      5,
      34,
      21
    ],
    [
      2,
      30,
      23,
      42,
      28,
      25,
      54,
      8
    ],
    [
      28,
      2,
      30,
      54,
      25,
      17,
      23,
      34
    ]
  ]
}