{
  "layer_path": "model.layers.15.mlp",
  "layer_id": 15,
  "token_pos": 8,
  "target_token_id": 13,
  "target_token_text": ",",
  "next_token_id": 16030,
  "next_token_text": " inspect",
  "router_logits": [
    -2.94140625,
    -1.45703125,
    -3.068359375,
    -1.4599609375,
    0.9658203125,
    -3.365234375,
    -1.693359375,
    -1.6005859375,
    0.49267578125,
    -1.41796875,
    0.61474609375,
    -1.2705078125,
    -0.91015625,
    0.640625,
    -2.853515625,
    -1.537109375,
    -1.7001953125,
    -0.284912109375,
    -1.2099609375,
    -3.626953125,
    -1.63671875,
    -2.134765625,
    -1.6201171875,
    -3.6796875,
    -0.7529296875,
    -1.5673828125,
    -2.39453125,
    -1.7998046875,
    -0.64599609375,
    -1.1513671875,
    0.66552734375,
    -2.9453125,
    -2.275390625,
    -1.451171875,
    -0.740234375,
    -2.513671875,
    -2.451171875,
    -2.33984375,
    -1.8525390625,
    -1.3662109375,
    -2.53125,
    -3.759765625,
    -1.3017578125,
    -3.044921875,
    -1.3095703125,
    -1.6171875,
    0.638671875,
    -0.00015974044799804688,
    -1.60546875,
    -2.55078125,
    -1.26171875,
    -1.1044921875,
    -0.9580078125,
    -2.365234375,
    -2.1484375,
    -2.650390625,
    -0.1771240234375,
    -2.123046875,
    -1.6484375,
    -1.51171875,
    -1.5146484375,
    -2.232421875,
    -1.5625,
    -1.1962890625
  ],
  "router_probabilities": [
    0.0021282595116645098,
    0.009390320628881454,
    0.0018745175329968333,
    0.009362850338220596,
    0.10590378940105438,
    0.0013930231798440218,
    0.007413860876113176,
    0.008134585805237293,
    0.06598229706287384,
    0.009764389134943485,
    0.07454901188611984,
    0.01131583284586668,
    0.016225019469857216,
    0.0765034407377243,
    0.0023237799759954214,
    0.008667681366205215,
    0.007363352458924055,
    0.030319727957248688,
    0.012022137641906738,
    0.0010722482111304998,
    0.007845907472074032,
    0.004768086597323418,
    0.007977248169481754,
    0.0010171689791604877,
    0.0189875029027462,
    0.008409213274717331,
    0.0036773027386516333,
    0.006665240507572889,
    0.021130438894033432,
    0.012747607193887234,
    0.07843247056007385,
    0.002119962126016617,
    0.004142585210502148,
    0.009445504285395145,
    0.01923009380698204,
    0.0032642788719385862,
    0.0034748066682368517,
    0.003884005593135953,
    0.006322859786450863,
    0.01028307992964983,
    0.003207400208339095,
    0.0009388918988406658,
    0.010967682115733624,
    0.0019189706072211266,
    0.010882330127060413,
    0.008000653237104416,
    0.07635416835546494,
    0.040308039635419846,
    0.008094962686300278,
    0.003145363414660096,
    0.011415727436542511,
    0.013359378091990948,
    0.015466909855604172,
    0.003786629531532526,
    0.004703341517597437,
    0.002847154624760151,
    0.033770471811294556,
    0.004824290983378887,
    0.0077544995583593845,
    0.008890577591955662,
    0.008864568546414375,
    0.004324466921389103,
    0.008450374007225037,
    0.01218763180077076
  ],
  "selected_expert_ids": [
    4,
    30,
    13,
    46,
    10,
    8,
    47,
    56
  ],
  "effective_gate_weights": [
    0.10590378940105438,
    0.07843247056007385,
    0.0765034407377243,
    0.07635416835546494,
    0.07454901188611984,
    0.06598229706287384,
    0.040308039635419846,
    0.033770471811294556
  ],
  "topk_ranks": [
    0,
    1,
    2,
    3,
    4,
    5,
    6,
    7
  ],
  "top1_top2_gap": 0.02747131884098053,
  "routing_entropy": 3.5079684257507324,
  "sample_id": "layer_15_sample_021",
  "microbatch_id": null,
  "sequence_length": 10,
  "all_expert_count": 64,
  "selected_destination_ids": [
    4,
    30,
    13,
    46,
    10,
    8,
    47,
    56
  ],
  "expert_to_destination_map": {},
  "layer_name": "model.layers.15.mlp",
  "run_id": null,
  "mode": "real",
  "all_token_selected_expert_ids": [
    [
      22,
      23,
      8,
      30,
      31,
      39,
      44,
      12
    ],
    [
      24,
      3,
      23,
      52,
      58,
      42,
      34,
      8
    ],
    [
      52,
      58,
      3,
      12,
      60,
      24,
      38,
      25
    ],
    [
      30,
      8,
      21,
      61,
      56,
      20,
      17,
      7
    ],
    [
      30,
      8,
      2,
      17,
      28,
      58,
      23,
      54
    ],
    [
      30,
      4,
      8,
      13,
      10,
      46,
      47,
      17
    ],
    [
      30,
      22,
      8,
      21,
      20,
      7,
      17,
      56
    ],
    [
      2,
      30,
      24,
      17,
      8,
      47,
      15,
      23
    ],
    [
      4,
      30,
      13,
      46,
      10,
      8,
      47,
      56
    ],
    [
      30,
      20,
      8,
      21,
      55,
      7,
      17,
      56
    ]
  ]
}