{
  "layer_path": "model.layers.15.mlp",
  "layer_id": 15,
  "token_pos": 4,
  "target_token_id": 27,
  "target_token_text": ":",
  "next_token_id": 1509,
  "next_token_text": " pass",
  "router_logits": [
    -1.501953125,
    -0.498291015625,
    -3.353515625,
    -0.7587890625,
    -1.8623046875,
    -4.02734375,
    -1.4736328125,
    -2.22265625,
    1.275390625,
    0.001194000244140625,
    -2.953125,
    -2.537109375,
    -1.23828125,
    -3.0234375,
    -1.705078125,
    -2.828125,
    -2.09375,
    0.87841796875,
    -1.5419921875,
    -4.33203125,
    -0.9384765625,
    -1.82421875,
    -1.2861328125,
    -3.294921875,
    -0.47412109375,
    -2.302734375,
    -0.8447265625,
    -0.93212890625,
    -2.072265625,
    -1.0615234375,
    1.2158203125,
    -1.171875,
    -2.73828125,
    -2.384765625,
    -0.91796875,
    -1.474609375,
    -0.68212890625,
    -1.8193359375,
    -1.28515625,
    -1.61328125,
    -2.666015625,
    -2.232421875,
    -2.318359375,
    -1.9990234375,
    1.1171875,
    -2.55078125,
    -3.177734375,
    -2.22265625,
    -1.7802734375,
    -1.8359375,
    -1.9111328125,
    -1.3134765625,
    0.59814453125,
    -1.603515625,
    -4.3046875,
    -1.8544921875,
    -1.5380859375,
    -1.095703125,
    0.916015625,
    -1.021484375,
    0.57958984375,
    -2.119140625,
    -2.87109375,
    -1.3681640625
  ],
  "router_probabilities": [
    0.007267337758094072,
    0.01982714794576168,
    0.0011409114813432097,
    0.015280142426490784,
    0.00506846746429801,
    0.000581583590246737,
    0.007476093713194132,
    0.0035349067766219378,
    0.11683162301778793,
    0.03267261013388634,
    0.001702705048955977,
    0.002581146778538823,
    0.009459900669753551,
    0.0015870955539867282,
    0.005931428167968988,
    0.001929417485371232,
    0.0040212515741586685,
    0.07855202257633209,
    0.006982108578085899,
    0.0004288328345865011,
    0.012767036445438862,
    0.005265227984637022,
    0.009017889387905598,
    0.0012097591534256935,
    0.02031220868229866,
    0.003262875135987997,
    0.014021847397089005,
    0.012848335318267345,
    0.0041085802949965,
    0.011288897134363651,
    0.11007516831159592,
    0.010109424591064453,
    0.0021107890643179417,
    0.0030059015844017267,
    0.013031563721597195,
    0.007468795403838158,
    0.01649758778512478,
    0.0052909995429217815,
    0.009026700630784035,
    0.006501688621938229,
    0.0022689735051244497,
    0.003500554012134671,
    0.0032122889533638954,
    0.004420795477926731,
    0.09973639994859695,
    0.002546097617596388,
    0.001360168680548668,
    0.0035349067766219378,
    0.005501769483089447,
    0.0052038864232599735,
    0.004826928488910198,
    0.008774647489190102,
    0.05935211107134819,
    0.00656549260020256,
    0.00044072052696719766,
    0.00510821957141161,
    0.007009435910731554,
    0.010909565724432468,
    0.0815616175532341,
    0.011750065721571445,
    0.05826100334525108,
    0.003920434508472681,
    0.0018482686718925834,
    0.008307669311761856
  ],
  "selected_expert_ids": [
    8,
    30,
    44,
    58,
    17,
    52,
    60,
    9
  ],
  "effective_gate_weights": [
    0.11683162301778793,
    0.11007516831159592,
    0.09973639994859695,
    0.0815616175532341,
    0.07855202257633209,
    0.05935211107134819,
    0.05826100334525108,
    0.03267261013388634
  ],
  "topk_ranks": [
    0,
    1,
    2,
    3,
    4,
    5,
    6,
    7
  ],
  "top1_top2_gap": 0.006756454706192017,
  "routing_entropy": 3.3066141605377197,
  "sample_id": "layer_15_sample_027",
  "microbatch_id": null,
  "sequence_length": 6,
  "all_expert_count": 64,
  "selected_destination_ids": [
    8,
    30,
    44,
    58,
    17,
    52,
    60,
    9
  ],
  "expert_to_destination_map": {},
  "layer_name": "model.layers.15.mlp",
  "run_id": null,
  "mode": "real",
  "all_token_selected_expert_ids": [
    [
      31,
      23,
      30,
      8,
      5,
      40,
      0,
      42
    ],
    [
      43,
      31,
      36,
      0,
      57,
      44,
      6,
      30
    ],
    [
      44,
      30,
      36,
      8,
      17,
      58,
      9,
      24
    ],
    [
      44,
      30,
      36,
      8,
      17,
      58,
      9,
      60
    ],
    [
      8,
      30,
      44,
      58,
      17,
      52,
      60,
      9
    ],
    [
      44,
      24,
      30,
      8,
      58,
      17,
      36,
      22
    ]
  ]
}