{
  "layer_path": "model.layers.15.mlp",
  "layer_id": 15,
  "token_pos": 8,
  "target_token_id": 374,
  "target_token_text": " 2",
  "next_token_id": 27,
  "next_token_text": ":",
  "router_logits": [
    -2.8359375,
    -3.44140625,
    -3.599609375,
    -3.21875,
    -1.1328125,
    -3.130859375,
    -2.03125,
    -6.20703125,
    -1.919921875,
    -3.095703125,
    -3.150390625,
    -1.849609375,
    -2.56640625,
    -3.357421875,
    -4.85546875,
    -4.10546875,
    -2.8515625,
    -1.3857421875,
    -2.779296875,
    -3.330078125,
    -2.890625,
    -5.1328125,
    -2.982421875,
    -3.8359375,
    -1.4228515625,
    -4.140625,
    -4.73828125,
    -4.8515625,
    -1.966796875,
    -3.119140625,
    -2.109375,
    -3.19921875,
    -2.697265625,
    -2.228515625,
    -2.4453125,
    -2.130859375,
    -1.501953125,
    -2.84765625,
    -3.8125,
    -3.28125,
    -3.26171875,
    -3.423828125,
    -2.798828125,
    -2.73828125,
    -1.7685546875,
    -3.939453125,
    -2.83984375,
    -3.640625,
    -4.03515625,
    -5.23046875,
    -3.130859375,
    -3.09375,
    -2.453125,
    -1.5166015625,
    -4.26171875,
    -4.7578125,
    -4.625,
    -2.62890625,
    -2.77734375,
    -3.6953125,
    -4.265625,
    -5.09375,
    -4.37890625,
    -3.853515625
  ],
  "router_probabilities": [
    0.01396994385868311,
    0.0076250541023910046,
    0.006509328261017799,
    0.009526673704385757,
    0.07671008259057999,
    0.010401876643300056,
    0.031236762180924416,
    0.00047989614540711045,
    0.0349152535200119,
    0.010774071328341961,
    0.010200686752796173,
    0.037458598613739014,
    0.018291553482413292,
    0.008293099701404572,
    0.0018540582386776805,
    0.0039250412955880165,
    0.013753359206020832,
    0.059567101299762726,
    0.014784048311412334,
    0.008522992953658104,
    0.01322647649794817,
    0.0014049941673874855,
    0.012066388502717018,
    0.005139254964888096,
    0.05739711597561836,
    0.0037894491106271744,
    0.002084573730826378,
    0.0018613148713484406,
    0.033316366374492645,
    0.010524490848183632,
    0.028889281675219536,
    0.009714570827782154,
    0.01604793220758438,
    0.025644522160291672,
    0.020646238699555397,
    0.028275232762098312,
    0.053031839430332184,
    0.013807188719511032,
    0.005261129233986139,
    0.008949481882154942,
    0.009125994518399239,
    0.007760273292660713,
    0.014498098753392696,
    0.015403032302856445,
    0.040621235966682434,
    0.00463387044146657,
    0.013915480114519596,
    0.006247745361179113,
    0.004210954532027245,
    0.001274274429306388,
    0.010401876643300056,
    0.010795135982334614,
    0.020485568791627884,
    0.05226067081093788,
    0.0033572660759091377,
    0.0020442544482648373,
    0.0023346119560301304,
    0.017183324322104454,
    0.014812951907515526,
    0.0059152464382350445,
    0.003344177268445492,
    0.0014609626960009336,
    0.002986013889312744,
    0.005049705971032381
  ],
  "selected_expert_ids": [
    4,
    17,
    24,
    36,
    53,
    44,
    11,
    8
  ],
  "effective_gate_weights": [
    0.07671008259057999,
    0.059567101299762726,
    0.05739711597561836,
    0.053031839430332184,
    0.05226067081093788,
    0.040621235966682434,
    0.037458598613739014,
    0.0349152535200119
  ],
  "topk_ranks": [
    0,
    1,
    2,
    3,
    4,
    5,
    6,
    7
  ],
  "top1_top2_gap": 0.01714298129081726,
  "routing_entropy": 3.7288801670074463,
  "sample_id": "layer_15_sample_019",
  "microbatch_id": null,
  "sequence_length": 10,
  "all_expert_count": 64,
  "selected_destination_ids": [
    4,
    17,
    24,
    36,
    53,
    44,
    11,
    8
  ],
  "expert_to_destination_map": {},
  "layer_name": "model.layers.15.mlp",
  "run_id": null,
  "mode": "real",
  "all_token_selected_expert_ids": [
    [
      23,
      22,
      31,
      63,
      0,
      43,
      5,
      20
    ],
    [
      24,
      52,
      34,
      4,
      44,
      22,
      3,
      58
    ],
    [
      52,
      4,
      34,
      46,
      17,
      10,
      60,
      13
    ],
    [
      17,
      30,
      20,
      34,
      8,
      21,
      56,
      55
    ],
    [
      20,
      30,
      17,
      55,
      34,
      21,
      7,
      8
    ],
    [
      17,
      30,
      2,
      8,
      58,
      34,
      47,
      23
    ],
    [
      30,
      17,
      8,
      4,
      58,
      46,
      10,
      24
    ],
    [
      22,
      24,
      3,
      44,
      17,
      23,
      30,
      31
    ],
    [
      4,
      17,
      24,
      36,
      53,
      44,
      11,
      8
    ],
    [
      4,
      17,
      30,
      46,
      8,
      10,
      13,
      52
    ]
  ]
}