{
  "layer_path": "model.layers.15.mlp",
  "layer_id": 15,
  "token_pos": 5,
  "target_token_id": 26830,
  "target_token_text": " gradual",
  "next_token_id": 2572,
  "next_token_text": " increase",
  "router_logits": [
    -2.603515625,
    -2.267578125,
    -2.623046875,
    -1.626953125,
    -1.814453125,
    -0.7646484375,
    -2.150390625,
    0.309326171875,
    -2.5078125,
    -3.0234375,
    -2.91796875,
    -3.529296875,
    -1.8154296875,
    -2.77734375,
    -2.291015625,
    -2.966796875,
    -2.55859375,
    -1.109375,
    -2.107421875,
    -1.7685546875,
    0.67578125,
    0.306396484375,
    -1.19140625,
    -2.73046875,
    -2.38671875,
    -1.189453125,
    0.36328125,
    -1.9482421875,
    -2.13671875,
    -1.6181640625,
    -1.9775390625,
    -1.9775390625,
    -2.568359375,
    -3.111328125,
    0.1617431640625,
    -2.859375,
    -2.90625,
    -1.6064453125,
    0.1390380859375,
    -1.0234375,
    -2.423828125,
    -2.630859375,
    -1.6123046875,
    -3.087890625,
    -2.203125,
    -0.5703125,
    -3.314453125,
    -2.66015625,
    -0.2469482421875,
    -0.39697265625,
    -2.4375,
    -1.0712890625,
    -1.4267578125,
    -2.251953125,
    -3.0859375,
    0.444580078125,
    -1.9755859375,
    -2.294921875,
    -2.86328125,
    -1.3232421875,
    -2.9453125,
    -0.10455322265625,
    -3.40234375,
    -0.034271240234375
  ],
  "router_probabilities": [
    0.0035646401811391115,
    0.004987828433513641,
    0.0034956936724483967,
    0.009465235285460949,
    0.007846956141293049,
    0.022419480606913567,
    0.0056079658679664135,
    0.06562159955501556,
    0.003922645468264818,
    0.00234231841750443,
    0.002602857770398259,
    0.0014123879373073578,
    0.007839296013116837,
    0.0029958710074424744,
    0.004872285295277834,
    0.002478817943483591,
    0.003728421637788415,
    0.015882275998592377,
    0.0058541856706142426,
    0.00821551214903593,
    0.0946664810180664,
    0.06542962789535522,
    0.014631438069045544,
    0.0031396455597132444,
    0.00442761043086648,
    0.014660043641924858,
    0.06925947964191437,
    0.00686431722715497,
    0.005685164127498865,
    0.0095487916842103,
    0.006666131317615509,
    0.006666131317615509,
    0.0036921885330229998,
    0.002145238220691681,
    0.05661771446466446,
    0.002759925788268447,
    0.002633539494127035,
    0.009661350399255753,
    0.055346690118312836,
    0.017307523638010025,
    0.0042663156054914,
    0.003468489972874522,
    0.009604906663298607,
    0.002196111250668764,
    0.005319896154105663,
    0.02722855471074581,
    0.0017508924938738346,
    0.003368348116055131,
    0.037623561918735504,
    0.03238211199641228,
    0.004208384081721306,
    0.016498833894729614,
    0.011563122272491455,
    0.005066375248134136,
    0.002200404414907098,
    0.07512541115283966,
    0.006679164245724678,
    0.004853290505707264,
    0.002749165752902627,
    0.012824232690036297,
    0.002532650250941515,
    0.04338117316365242,
    0.0016035741427913308,
    0.0465397834777832
  ],
  "selected_expert_ids": [
    20,
    55,
    26,
    7,
    21,
    34,
    38,
    63
  ],
  "effective_gate_weights": [
    0.0946664810180664,
    0.07512541115283966,
    0.06925947964191437,
    0.06562159955501556,
    0.06542962789535522,
    0.05661771446466446,
    0.055346690118312836,
    0.0465397834777832
  ],
  "topk_ranks": [
    0,
    1,
    2,
    3,
    4,
    5,
    6,
    7
  ],
  "top1_top2_gap": 0.019541069865226746,
  "routing_entropy": 3.489663600921631,
  "sample_id": "layer_15_sample_013",
  "microbatch_id": null,
  "sequence_length": 7,
  "all_expert_count": 64,
  "selected_destination_ids": [
    20,
    55,
    26,
    7,
    21,
    34,
    38,
    63
  ],
  "expert_to_destination_map": {},
  "layer_name": "model.layers.15.mlp",
  "run_id": null,
  "mode": "real",
  "all_token_selected_expert_ids": [
    [
      55,
      21,
      20,
      63,
      7,
      14,
      52,
      40
    ],
    [
      42,
      5,
      54,
      28,
      26,
      23,
      40,
      25
    ],
    [
      34,
      54,
      28,
      26,
      17,
      42,
      25,
      40
    ],
    [
      26,
      61,
      56,
      7,
      34,
      48,
      38,
      21
    ],
    [
      20,
      26,
      55,
      7,
      34,
      21,
      48,
      38
    ],
    [
      20,
      55,
      26,
      7,
      21,
      34,
      38,
      63
    ],
    [
      54,
      2,
      15,
      34,
      28,
      48,
      23,
      17
    ]
  ]
}