{
  "layer_path": "model.layers.15.mlp",
  "layer_id": 15,
  "token_pos": 7,
  "target_token_id": 5204,
  "target_token_text": " ->",
  "next_token_id": 9933,
  "next_token_text": " regional",
  "router_logits": [
    -3.263671875,
    -2.2890625,
    -3.408203125,
    -1.267578125,
    -2.572265625,
    -2.84375,
    -2.126953125,
    -0.2186279296875,
    -1.3203125,
    -3.54296875,
    -3.9296875,
    -3.845703125,
    -2.271484375,
    -3.892578125,
    -2.966796875,
    -3.353515625,
    -3.697265625,
    -0.7578125,
    -2.19140625,
    -3.638671875,
    0.3916015625,
    -0.223388671875,
    -2.01171875,
    -3.087890625,
    -1.8291015625,
    -0.9365234375,
    -0.01317596435546875,
    -0.311767578125,
    -2.267578125,
    -1.6474609375,
    -1.1484375,
    -3.154296875,
    -2.798828125,
    -3.80078125,
    -1.5322265625,
    -3.150390625,
    -2.75,
    -2.080078125,
    -1.7412109375,
    -2.349609375,
    -2.724609375,
    -2.65234375,
    -1.513671875,
    -4.11328125,
    -3.021484375,
    -2.0,
    -4.359375,
    -2.3828125,
    -0.27294921875,
    -0.9248046875,
    -3.068359375,
    -1.00390625,
    -1.5576171875,
    -2.68359375,
    -4.02734375,
    -0.129638671875,
    -1.232421875,
    -3.361328125,
    -2.291015625,
    -2.296875,
    -2.369140625,
    -2.296875,
    -3.740234375,
    -1.5625
  ],
  "router_probabilities": [
    0.002888612449169159,
    0.007655203342437744,
    0.0024998856242746115,
    0.021260904148221016,
    0.0057671754620969296,
    0.0043960134498775005,
    0.009002434089779854,
    0.060692500323057175,
    0.02016877569258213,
    0.00218470161780715,
    0.0014840287622064352,
    0.001614047447219491,
    0.007790956646203995,
    0.001540134777314961,
    0.003887052647769451,
    0.002640405436977744,
    0.0018723278772085905,
    0.035397302359342575,
    0.008440501987934113,
    0.001985312206670642,
    0.11172602325677872,
    0.06040424853563309,
    0.01010195817798376,
    0.0034437377471476793,
    0.012125935405492783,
    0.02960444800555706,
    0.07453525066375732,
    0.05529489368200302,
    0.007821450009942055,
    0.014541217125952244,
    0.023951012641191483,
    0.0032224797178059816,
    0.004597993101924658,
    0.0016882068011909723,
    0.016317227855324745,
    0.0032350923866033554,
    0.004828076343983412,
    0.009434469044208527,
    0.013239928521215916,
    0.007205457426607609,
    0.004952233750373125,
    0.005323358345776796,
    0.016622815281152725,
    0.001235118368640542,
    0.0036801875103265047,
    0.01022103801369667,
    0.0009656759211793542,
    0.006970142014324665,
    0.057483553886413574,
    0.02995341643691063,
    0.0035116595681756735,
    0.027675341814756393,
    0.015908140689134598,
    0.005159575492143631,
    0.001345955766737461,
    0.0663410872220993,
    0.02202165313065052,
    0.002619857667014003,
    0.007640266325324774,
    0.0075956303626298904,
    0.007066091522574425,
    0.0075956303626298904,
    0.0017935801297426224,
    0.01583065092563629
  ],
  "selected_expert_ids": [
    20,
    26,
    55,
    7,
    21,
    48,
    27,
    17
  ],
  "effective_gate_weights": [
    0.11172602325677872,
    0.07453525066375732,
    0.0663410872220993,
    0.060692500323057175,
    0.06040424853563309,
    0.057483553886413574,
    0.05529489368200302,
    0.035397302359342575
  ],
  "topk_ranks": [
    0,
    1,
    2,
    3,
    4,
    5,
    6,
    7
  ],
  "top1_top2_gap": 0.03719077259302139,
  "routing_entropy": 3.512342929840088,
  "sample_id": "layer_15_sample_022",
  "microbatch_id": null,
  "sequence_length": 9,
  "all_expert_count": 64,
  "selected_destination_ids": [
    20,
    26,
    55,
    7,
    21,
    48,
    27,
    17
  ],
  "expert_to_destination_map": {},
  "layer_name": "model.layers.15.mlp",
  "run_id": null,
  "mode": "real",
  "all_token_selected_expert_ids": [
    [
      30,
      23,
      8,
      22,
      42,
      5,
      31,
      17
    ],
    [
      23,
      31,
      0,
      43,
      24,
      17,
      3,
      42
    ],
    [
      58,
      3,
      52,
      60,
      8,
      30,
      17,
      24
    ],
    [
      31,
      43,
      36,
      57,
      0,
      35,
      24,
      17
    ],
    [
      17,
      23,
      30,
      8,
      24,
      26,
      2,
      36
    ],
    [
      26,
      27,
      20,
      21,
      17,
      55,
      7,
      30
    ],
    [
      17,
      23,
      36,
      2,
      58,
      30,
      8,
      0
    ],
    [
      20,
      26,
      55,
      7,
      21,
      48,
      27,
      17
    ],
    [
      26,
      17,
      5,
      55,
      42,
      20,
      25,
      21
    ]
  ]
}