{
  "layer_path": "model.layers.15.mlp",
  "layer_id": 15,
  "token_pos": 5,
  "target_token_id": 432,
  "target_token_text": " from",
  "next_token_id": 247,
  "next_token_text": " a",
  "router_logits": [
    -2.919921875,
    -2.572265625,
    -2.76953125,
    1.0546875,
    -1.8212890625,
    -2.97265625,
    -2.244140625,
    0.611328125,
    -2.751953125,
    -2.1640625,
    -3.048828125,
    -3.552734375,
    -2.75,
    -2.845703125,
    -0.89697265625,
    -2.224609375,
    -1.6884765625,
    -1.16796875,
    -1.31640625,
    -3.55859375,
    -0.8896484375,
    0.252685546875,
    -0.89794921875,
    -3.544921875,
    -1.3388671875,
    -1.96875,
    0.94970703125,
    -0.57666015625,
    -1.318359375,
    -1.2744140625,
    -2.134765625,
    -2.58984375,
    -1.23828125,
    -3.37109375,
    1.59765625,
    -1.9951171875,
    -3.26953125,
    -1.8759765625,
    -0.2293701171875,
    -1.421875,
    -3.341796875,
    -3.01953125,
    -2.68359375,
    -3.470703125,
    -2.279296875,
    -0.1214599609375,
    -3.625,
    -2.56640625,
    0.401123046875,
    -0.98779296875,
    -2.83984375,
    -1.642578125,
    -1.5732421875,
    -1.8427734375,
    -3.5390625,
    -0.91357421875,
    0.67724609375,
    -2.912109375,
    -2.533203125,
    -1.607421875,
    -2.4609375,
    -0.00580596923828125,
    -2.4453125,
    -2.4921875
  ],
  "router_probabilities": [
    0.001946931704878807,
    0.0027563597541302443,
    0.002262895694002509,
    0.10363385081291199,
    0.005840915255248547,
    0.0018469217466190457,
    0.0038268270436674356,
    0.06652013212442398,
    0.002303024986758828,
    0.004145875573158264,
    0.0017114627407863736,
    0.001034007640555501,
    0.0023075274657458067,
    0.002096927957609296,
    0.014719952829182148,
    0.003902304219081998,
    0.006670534610748291,
    0.01122572273015976,
    0.009677177295088768,
    0.0010279668495059013,
    0.014828160405158997,
    0.046472564339637756,
    0.01470558438450098,
    0.0010421174811199307,
    0.009462242014706135,
    0.005040103103965521,
    0.09330592304468155,
    0.020277591422200203,
    0.009658295661211014,
    0.010092196986079216,
    0.004269133787602186,
    0.002708331448957324,
    0.010463523678481579,
    0.0012399645056575537,
    0.17836514115333557,
    0.004908946342766285,
    0.0013725156895816326,
    0.005530067253857851,
    0.02869739755988121,
    0.00870851706713438,
    0.0012768290471285582,
    0.001762345083989203,
    0.002465964062139392,
    0.0011224047048017383,
    0.0036946272011846304,
    0.0319673977792263,
    0.0009619205375202,
    0.002772557782009244,
    0.05390911549329758,
    0.013441992923617363,
    0.0021092507522553205,
    0.006983836647123098,
    0.007485250011086464,
    0.00571676529943943,
    0.0010482416255399585,
    0.014477595686912537,
    0.07105275243520737,
    0.0019622016698122025,
    0.00286616082303226,
    0.007233729120343924,
    0.0030809531453996897,
    0.03588683530688286,
    0.003129471093416214,
    0.0029861624352633953
  ],
  "selected_expert_ids": [
    34,
    3,
    26,
    56,
    7,
    48,
    21,
    61
  ],
  "effective_gate_weights": [
    0.17836514115333557,
    0.10363385081291199,
    0.09330592304468155,
    0.07105275243520737,
    0.06652013212442398,
    0.05390911549329758,
    0.046472564339637756,
    0.03588683530688286
  ],
  "topk_ranks": [
    0,
    1,
    2,
    3,
    4,
    5,
    6,
    7
  ],
  "top1_top2_gap": 0.07473129034042358,
  "routing_entropy": 3.1868104934692383,
  "sample_id": "layer_15_sample_014",
  "microbatch_id": null,
  "sequence_length": 7,
  "all_expert_count": 64,
  "selected_destination_ids": [
    34,
    3,
    26,
    56,
    7,
    48,
    21,
    61
  ],
  "expert_to_destination_map": {},
  "layer_name": "model.layers.15.mlp",
  "run_id": null,
  "mode": "real",
  "all_token_selected_expert_ids": [
    [
      55,
      21,
      20,
      63,
      7,
      14,
      52,
      40
    ],
    [
      34,
      54,
      23,
      28,
      45,
      13,
      26,
      10
    ],
    [
      34,
      26,
      27,
      56,
      7,
      21,
      3,
      22
    ],
    [
      34,
      26,
      7,
      21,
      55,
      45,
      20,
      5
    ],
    [
      34,
      54,
      45,
      23,
      13,
      15,
      10,
      62
    ],
    [
      34,
      3,
      26,
      56,
      7,
      48,
      21,
      61
    ],
    [
      34,
      20,
      26,
      55,
      7,
      21,
      48,
      3
    ]
  ]
}