{
  "layer_path": "model.layers.15.mlp",
  "layer_id": 15,
  "token_pos": 5,
  "target_token_id": 984,
  "target_token_text": " because",
  "next_token_id": 253,
  "next_token_text": " the",
  "router_logits": [
    -2.591796875,
    -1.8935546875,
    -3.314453125,
    -0.935546875,
    -1.7451171875,
    -3.71875,
    -1.7451171875,
    0.08709716796875,
    0.380859375,
    -1.7490234375,
    -2.47265625,
    -2.373046875,
    -1.3076171875,
    -2.537109375,
    -2.298828125,
    -2.556640625,
    -1.306640625,
    -0.5498046875,
    -1.17578125,
    -2.72265625,
    -0.413330078125,
    -0.1602783203125,
    -2.240234375,
    -3.67578125,
    -1.4521484375,
    -1.27734375,
    -0.99169921875,
    -0.51611328125,
    -1.029296875,
    -1.53515625,
    0.54833984375,
    -2.498046875,
    -1.7958984375,
    -1.8388671875,
    -1.466796875,
    -1.9716796875,
    -2.359375,
    -1.556640625,
    -1.517578125,
    -1.4326171875,
    -3.369140625,
    -3.046875,
    -2.443359375,
    -2.53125,
    -2.5390625,
    -2.8515625,
    -2.73828125,
    -2.2265625,
    -1.060546875,
    -1.572265625,
    -2.197265625,
    -1.3271484375,
    -1.708984375,
    -1.7802734375,
    -2.9921875,
    -1.1142578125,
    0.1173095703125,
    -1.26953125,
    -1.2783203125,
    -1.3740234375,
    -2.17578125,
    -0.1458740234375,
    -2.927734375,
    -2.171875
  ],
  "router_probabilities": [
    0.004171769600361586,
    0.008386158384382725,
    0.002025231719017029,
    0.02185850962996483,
    0.009728113189339638,
    0.001351732644252479,
    0.009728113189339638,
    0.06077839806675911,
    0.0815320834517479,
    0.009690187871456146,
    0.004699616692960262,
    0.005191851407289505,
    0.015067197382450104,
    0.004406267311424017,
    0.005591843742877245,
    0.0043210419826209545,
    0.01508191879838705,
    0.03214742988348007,
    0.017190484330058098,
    0.003660065121948719,
    0.03684821352362633,
    0.04745865240693092,
    0.005929280538111925,
    0.001411080826073885,
    0.013039573095738888,
    0.015530308708548546,
    0.02066492848098278,
    0.03324897587299347,
    0.01990239880979061,
    0.01200089231133461,
    0.09639719128608704,
    0.004581792745739222,
    0.009246441535651684,
    0.008857548236846924,
    0.012849955819547176,
    0.007755928672850132,
    0.005263321101665497,
    0.011745810508728027,
    0.012213710695505142,
    0.013296755030751228,
    0.001917450805194676,
    0.0026465640403330326,
    0.004839337430894375,
    0.004432160872966051,
    0.004397669341415167,
    0.0032174037769436836,
    0.00360332103446126,
    0.006010901648551226,
    0.01929006725549698,
    0.011563708074390888,
    0.0061896066181361675,
    0.014775771647691727,
    0.010086046531796455,
    0.009392051957547665,
    0.002795328851789236,
    0.01828131265938282,
    0.06264267861843109,
    0.015652112662792206,
    0.015515148639678955,
    0.014099139720201492,
    0.0063240258023142815,
    0.04814721271395683,
    0.002981429221108556,
    0.006348777562379837
  ],
  "selected_expert_ids": [
    30,
    8,
    56,
    7,
    61,
    21,
    20,
    27
  ],
  "effective_gate_weights": [
    0.09639719128608704,
    0.0815320834517479,
    0.06264267861843109,
    0.06077839806675911,
    0.04814721271395683,
    0.04745865240693092,
    0.03684821352362633,
    0.03324897587299347
  ],
  "topk_ranks": [
    0,
    1,
    2,
    3,
    4,
    5,
    6,
    7
  ],
  "top1_top2_gap": 0.014865107834339142,
  "routing_entropy": 3.6686158180236816,
  "sample_id": "layer_15_sample_010",
  "microbatch_id": null,
  "sequence_length": 7,
  "all_expert_count": 64,
  "selected_destination_ids": [
    30,
    8,
    56,
    7,
    61,
    21,
    20,
    27
  ],
  "expert_to_destination_map": {},
  "layer_name": "model.layers.15.mlp",
  "run_id": null,
  "mode": "real",
  "all_token_selected_expert_ids": [
    [
      55,
      21,
      20,
      63,
      7,
      14,
      52,
      40
    ],
    [
      30,
      54,
      8,
      28,
      17,
      23,
      58,
      42
    ],
    [
      30,
      8,
      54,
      28,
      17,
      58,
      23,
      2
    ],
    [
      22,
      2,
      30,
      48,
      54,
      56,
      27,
      47
    ],
    [
      2,
      48,
      54,
      15,
      30,
      62,
      47,
      22
    ],
    [
      30,
      8,
      56,
      7,
      61,
      21,
      20,
      27
    ],
    [
      20,
      30,
      8,
      55,
      21,
      7,
      17,
      27
    ]
  ]
}