{
  "layer_path": "model.layers.15.mlp",
  "layer_id": 15,
  "token_pos": 12,
  "target_token_id": 2605,
  "target_token_text": " structure",
  "next_token_id": 32,
  "next_token_text": "?",
  "router_logits": [
    -2.025390625,
    -2.384765625,
    -0.251953125,
    -1.6123046875,
    -2.30859375,
    -2.1484375,
    -1.3974609375,
    -3.76171875,
    -0.78662109375,
    -1.5830078125,
    -3.216796875,
    -2.51171875,
    -1.7353515625,
    -3.154296875,
    -3.22265625,
    -1.6572265625,
    -1.9375,
    -0.26171875,
    -1.7685546875,
    -2.234375,
    -1.919921875,
    -3.041015625,
    -2.04296875,
    -0.8720703125,
    -1.34375,
    -1.51171875,
    -1.7080078125,
    -2.400390625,
    -1.7275390625,
    -1.9130859375,
    -0.09075927734375,
    -1.9296875,
    -2.873046875,
    -1.6279296875,
    -0.34765625,
    -1.74609375,
    -1.701171875,
    -2.318359375,
    -2.068359375,
    -3.044921875,
    -2.22265625,
    -2.009765625,
    -0.7880859375,
    -2.1015625,
    -2.25,
    -2.84765625,
    -3.625,
    -0.447509765625,
    -3.056640625,
    -3.30859375,
    -2.634765625,
    -1.3369140625,
    -1.8203125,
    -2.056640625,
    -1.666015625,
    -2.7265625,
    -4.171875,
    -2.13671875,
    -0.91748046875,
    -1.71484375,
    -2.90234375,
    -3.759765625,
    -2.56640625,
    -3.583984375
  ],
  "router_probabilities": [
    0.010918236337602139,
    0.00762215768918395,
    0.06432008743286133,
    0.016502641141414642,
    0.008225436322391033,
    0.009654147550463676,
    0.020457798615098,
    0.0019234227947890759,
    0.03768280893564224,
    0.016993267461657524,
    0.003316892310976982,
    0.006713405717164278,
    0.014592001214623451,
    0.003530813381075859,
    0.0032975138165056705,
    0.015777716413140297,
    0.01192128099501133,
    0.0636950209736824,
    0.014115456491708755,
    0.00885914359241724,
    0.012132687494158745,
    0.003954323474317789,
    0.010727991349995136,
    0.034596577286720276,
    0.021586649119853973,
    0.01824892871081829,
    0.014996507205069065,
    0.007503986824303865,
    0.014706447720527649,
    0.01221590954810381,
    0.0755704864859581,
    0.012014780193567276,
    0.004677567631006241,
    0.016246791929006577,
    0.05844983085989952,
    0.014436090365052223,
    0.01509937271475792,
    0.008145500905811787,
    0.01045903004705906,
    0.003938906826078892,
    0.0089635718613863,
    0.011090174317359924,
    0.03762764856219292,
    0.01011745911091566,
    0.008721794933080673,
    0.004797854460775852,
    0.002205215161666274,
    0.05289534479379654,
    0.0038930170703679323,
    0.00302596902474761,
    0.005936142522841692,
    0.021734721958637238,
    0.013403455726802349,
    0.010582317598164082,
    0.01563965156674385,
    0.005415485706180334,
    0.0012762807309627533,
    0.009767947718501091,
    0.03306067734956741,
    0.014894341118633747,
    0.004542517475783825,
    0.0019271832425147295,
    0.0063561247661709785,
    0.0022975439205765724
  ],
  "selected_expert_ids": [
    30,
    2,
    17,
    34,
    47,
    8,
    42,
    23
  ],
  "effective_gate_weights": [
    0.0755704864859581,
    0.06432008743286133,
    0.0636950209736824,
    0.05844983085989952,
    0.05289534479379654,
    0.03768280893564224,
    0.03762764856219292,
    0.034596577286720276
  ],
  "topk_ranks": [
    0,
    1,
    2,
    3,
    4,
    5,
    6,
    7
  ],
  "top1_top2_gap": 0.011250399053096771,
  "routing_entropy": 3.7612016201019287,
  "sample_id": "layer_15_sample_040",
  "microbatch_id": null,
  "sequence_length": 14,
  "all_expert_count": 64,
  "selected_destination_ids": [
    30,
    2,
    17,
    34,
    47,
    8,
    42,
    23
  ],
  "expert_to_destination_map": {},
  "layer_name": "model.layers.15.mlp",
  "run_id": null,
  "mode": "real",
  "all_token_selected_expert_ids": [
    [
      63,
      20,
      55,
      28,
      14,
      21,
      40,
      12
    ],
    [
      34,
      23,
      17,
      54,
      28,
      12,
      30,
      26
    ],
    [
      62,
      15,
      13,
      34,
      46,
      10,
      45,
      17
    ],
    [
      62,
      63,
      15,
      34,
      45,
      13,
      38,
      26
    ],
    [
      2,
      34,
      47,
      24,
      30,
      17,
      15,
      16
    ],
    [
      17,
      34,
      26,
      52,
      30,
      61,
      56,
      58
    ],
    [
      17,
      34,
      2,
      26,
      23,
      5,
      38,
      55
    ],
    [
      23,
      17,
      30,
      34,
      2,
      58,
      26,
      8
    ],
    [
      17,
      2,
      30,
      23,
      8,
      58,
      47,
      34
    ],
    [
      30,
      20,
      17,
      21,
      8,
      55,
      7,
      56
    ],
    [
      30,
      8,
      17,
      42,
      58,
      2,
      23,
      20
    ],
    [
      30,
      17,
      2,
      8,
      34,
      58,
      47,
      42
    ],
    [
      30,
      2,
      17,
      34,
      47,
      8,
      42,
      23
    ],
    [
      52,
      58,
      60,
      30,
      34,
      3,
      24,
      12
    ]
  ]
}