{
  "layer_path": "model.layers.15.mlp",
  "layer_id": 15,
  "token_pos": 8,
  "target_token_id": 10727,
  "target_token_text": " FROM",
  "next_token_id": 15050,
  "next_token_text": " routes",
  "router_logits": [
    -2.888671875,
    -1.572265625,
    -2.74609375,
    -1.857421875,
    -2.56640625,
    -3.650390625,
    -2.677734375,
    -1.8671875,
    0.6240234375,
    -2.41796875,
    -3.5,
    -3.408203125,
    -1.3134765625,
    -3.404296875,
    -2.849609375,
    -3.4921875,
    -3.03515625,
    0.1611328125,
    -1.6435546875,
    -4.45703125,
    -0.90576171875,
    -1.359375,
    -2.89453125,
    -3.59375,
    -1.4599609375,
    -1.255859375,
    -1.537109375,
    -1.095703125,
    -2.26171875,
    -1.720703125,
    0.41943359375,
    -3.037109375,
    -3.59765625,
    -3.83203125,
    -1.2158203125,
    -2.56640625,
    -0.9775390625,
    -3.095703125,
    -1.4248046875,
    -2.62890625,
    -2.740234375,
    -2.751953125,
    -2.35546875,
    -3.212890625,
    -1.296875,
    -4.12890625,
    -3.78515625,
    -2.666015625,
    -2.646484375,
    -2.34765625,
    -3.265625,
    -0.88916015625,
    -0.67041015625,
    -2.552734375,
    -3.509765625,
    -1.3896484375,
    -1.7060546875,
    -2.6796875,
    0.0196533203125,
    -1.3388671875,
    -0.353515625,
    -2.84375,
    -3.951171875,
    -2.12890625
  ],
  "router_probabilities": [
    0.003967752680182457,
    0.014799688011407852,
    0.004575783386826515,
    0.011127837933599949,
    0.005476496182382107,
    0.0018523981561884284,
    0.004899520426988602,
    0.011019696481525898,
    0.1330726444721222,
    0.006352846510708332,
    0.0021530205849558115,
    0.0023600163403898478,
    0.019170932471752167,
    0.0023692534305155277,
    0.004125810228288174,
    0.002169906860217452,
    0.003427103627473116,
    0.08376409858465195,
    0.01378136221319437,
    0.0008268272504210472,
    0.02882116474211216,
    0.018310904502868652,
    0.003944572061300278,
    0.001960347406566143,
    0.016558686271309853,
    0.02030794881284237,
    0.015329243615269661,
    0.0238353218883276,
    0.0074272300116717815,
    0.01275812927633524,
    0.10845174640417099,
    0.003420416498556733,
    0.0019527048571035266,
    0.0015447166515514255,
    0.021137556061148643,
    0.005476496182382107,
    0.026824956759810448,
    0.003225760068744421,
    0.017151180654764175,
    0.005144692026078701,
    0.004602673929184675,
    0.0045490507036447525,
    0.006762569770216942,
    0.002869050484150648,
    0.019491855055093765,
    0.001147935981862247,
    0.0016188491135835648,
    0.004957274533808231,
    0.0050550480373203754,
    0.006815609522163868,
    0.0027216728776693344,
    0.02930363640189171,
    0.03646896407008171,
    0.005551884416490793,
    0.0021320972591638565,
    0.017764875665307045,
    0.01294639054685831,
    0.004889960400760174,
    0.07271335273981094,
    0.01869029738008976,
    0.05006669834256172,
    0.004150055814534426,
    0.0013712187064811587,
    0.008482163771986961
  ],
  "selected_expert_ids": [
    8,
    30,
    17,
    58,
    60,
    52,
    51,
    20
  ],
  "effective_gate_weights": [
    0.1330726444721222,
    0.10845174640417099,
    0.08376409858465195,
    0.07271335273981094,
    0.05006669834256172,
    0.03646896407008171,
    0.02930363640189171,
    0.02882116474211216
  ],
  "topk_ranks": [
    0,
    1,
    2,
    3,
    4,
    5,
    6,
    7
  ],
  "top1_top2_gap": 0.024620898067951202,
  "routing_entropy": 3.432936191558838,
  "sample_id": "layer_15_sample_028",
  "microbatch_id": null,
  "sequence_length": 10,
  "all_expert_count": 64,
  "selected_destination_ids": [
    8,
    30,
    17,
    58,
    60,
    52,
    51,
    20
  ],
  "expert_to_destination_map": {},
  "layer_name": "model.layers.15.mlp",
  "run_id": null,
  "mode": "real",
  "all_token_selected_expert_ids": [
    [
      30,
      8,
      31,
      44,
      17,
      24,
      43,
      36
    ],
    [
      44,
      30,
      17,
      8,
      36,
      58,
      3,
      29
    ],
    [
      8,
      1,
      30,
      29,
      17,
      58,
      44,
      60
    ],
    [
      44,
      30,
      17,
      8,
      36,
      58,
      24,
      60
    ],
    [
      8,
      30,
      17,
      58,
      60,
      51,
      34,
      1
    ],
    [
      44,
      17,
      30,
      8,
      36,
      58,
      22,
      31
    ],
    [
      8,
      1,
      30,
      29,
      17,
      58,
      60,
      51
    ],
    [
      44,
      17,
      30,
      8,
      58,
      36,
      60,
      2
    ],
    [
      8,
      30,
      17,
      58,
      60,
      52,
      51,
      20
    ],
    [
      44,
      8,
      17,
      30,
      58,
      36,
      3,
      35
    ]
  ]
}