{
  "layer_path": "model.layers.15.mlp",
  "layer_id": 15,
  "token_pos": 14,
  "target_token_id": 13823,
  "target_token_text": "aware",
  "next_token_id": 11674,
  "next_token_text": " priority",
  "router_logits": [
    -2.6875,
    -2.27734375,
    -2.41796875,
    -1.83203125,
    -2.9453125,
    -1.4111328125,
    -1.927734375,
    -0.2880859375,
    -0.5625,
    -2.73828125,
    -3.57421875,
    -3.5234375,
    -1.7119140625,
    -3.513671875,
    -2.427734375,
    -3.470703125,
    -2.12109375,
    0.01294708251953125,
    -2.337890625,
    -2.609375,
    -0.117919921875,
    -0.048004150390625,
    -1.6298828125,
    -2.947265625,
    -1.48828125,
    -1.005859375,
    -0.88916015625,
    -1.8701171875,
    -1.9736328125,
    -1.7841796875,
    0.31103515625,
    -2.583984375,
    -3.375,
    -2.345703125,
    -0.1661376953125,
    -2.72265625,
    -1.9560546875,
    -2.6875,
    -1.8359375,
    -2.46875,
    -2.0859375,
    -1.91015625,
    -1.291015625,
    -2.94921875,
    -2.052734375,
    -3.876953125,
    -4.125,
    -1.6171875,
    -2.875,
    -2.2578125,
    -2.814453125,
    -1.365234375,
    -1.6474609375,
    -2.69921875,
    -2.951171875,
    0.06451416015625,
    -2.1875,
    -2.693359375,
    -1.533203125,
    -1.6611328125,
    -2.240234375,
    -1.2880859375,
    -3.806640625,
    -1.7509765625
  ],
  "router_probabilities": [
    0.004722978454083204,
    0.007117779925465584,
    0.006184034515172243,
    0.011110696941614151,
    0.0036496350076049566,
    0.016925254836678505,
    0.010096665471792221,
    0.052031733095645905,
    0.03954501450061798,
    0.004489127546548843,
    0.0019458928145468235,
    0.0020472595933824778,
    0.012528744526207447,
    0.0020673503167927265,
    0.006123937666416168,
    0.0021581179462373257,
    0.008321528322994709,
    0.07030808180570602,
    0.006699607707560062,
    0.005106757394969463,
    0.06168370321393013,
    0.06615070253610611,
    0.013599823229014874,
    0.0036425136495381594,
    0.01566859520971775,
    0.02538301609456539,
    0.028524959459900856,
    0.01069549284875393,
    0.009643719531595707,
    0.011655287817120552,
    0.09472469985485077,
    0.005238081328570843,
    0.002374862553551793,
    0.006647470872849226,
    0.058780014514923096,
    0.004559820983558893,
    0.009814736433327198,
    0.004722978454083204,
    0.011067381128668785,
    0.005877841729670763,
    0.008619285188615322,
    0.010275715962052345,
    0.019085407257080078,
    0.0036354062613099813,
    0.008910275995731354,
    0.0014376164181157947,
    0.0011218057479709387,
    0.013773578219115734,
    0.003915486391633749,
    0.007258165627717972,
    0.004159881267696619,
    0.01772020198404789,
    0.013362853787839413,
    0.004667954053729773,
    0.0036283128429204226,
    0.07402876764535904,
    0.007786874659359455,
    0.004695385694503784,
    0.014980307780206203,
    0.013181401416659355,
    0.007386878598481417,
    0.01914140395820141,
    0.0015423373552039266,
    0.012048776261508465
  ],
  "selected_expert_ids": [
    30,
    55,
    17,
    21,
    20,
    34,
    7,
    8
  ],
  "effective_gate_weights": [
    0.09472469985485077,
    0.07402876764535904,
    0.07030808180570602,
    0.06615070253610611,
    0.06168370321393013,
    0.058780014514923096,
    0.052031733095645905,
    0.03954501450061798
  ],
  "topk_ranks": [
    0,
    1,
    2,
    3,
    4,
    5,
    6,
    7
  ],
  "top1_top2_gap": 0.02069593220949173,
  "routing_entropy": 3.5911355018615723,
  "sample_id": "layer_15_sample_044",
  "microbatch_id": null,
  "sequence_length": 16,
  "all_expert_count": 64,
  "selected_destination_ids": [
    30,
    55,
    17,
    21,
    20,
    34,
    7,
    8
  ],
  "expert_to_destination_map": {},
  "layer_name": "model.layers.15.mlp",
  "run_id": null,
  "mode": "real",
  "all_token_selected_expert_ids": [
    [
      31,
      57,
      43,
      0,
      63,
      6,
      36,
      22
    ],
    [
      24,
      23,
      34,
      3,
      58,
      52,
      31,
      17
    ],
    [
      34,
      24,
      20,
      0,
      36,
      28,
      3,
      17
    ],
    [
      34,
      56,
      17,
      26,
      38,
      21,
      7,
      3
    ],
    [
      34,
      17,
      23,
      30,
      2,
      5,
      58,
      26
    ],
    [
      29,
      34,
      1,
      17,
      42,
      23,
      58,
      30
    ],
    [
      34,
      17,
      30,
      55,
      21,
      7,
      20,
      26
    ],
    [
      34,
      30,
      17,
      58,
      2,
      8,
      42,
      47
    ],
    [
      17,
      30,
      34,
      21,
      61,
      25,
      52,
      56
    ],
    [
      17,
      34,
      58,
      30,
      40,
      28,
      3,
      23
    ],
    [
      54,
      13,
      10,
      46,
      28,
      17,
      34,
      30
    ],
    [
      30,
      17,
      21,
      34,
      20,
      55,
      8,
      7
    ],
    [
      30,
      17,
      8,
      58,
      34,
      2,
      42,
      5
    ],
    [
      30,
      29,
      1,
      58,
      34,
      8,
      17,
      60
    ],
    [
      30,
      55,
      17,
      21,
      20,
      34,
      7,
      8
    ],
    [
      30,
      17,
      2,
      34,
      58,
      47,
      8,
      23
    ]
  ]
}