{
  "layer_path": "model.layers.15.mlp",
  "layer_id": 15,
  "token_pos": 13,
  "target_token_id": 285,
  "target_token_text": " and",
  "next_token_id": 3276,
  "next_token_text": " temperature",
  "router_logits": [
    -3.236328125,
    -2.34765625,
    -3.15625,
    -2.431640625,
    -1.3662109375,
    -3.349609375,
    -1.8759765625,
    0.1099853515625,
    -2.31640625,
    -2.8125,
    -2.130859375,
    -2.7421875,
    -2.216796875,
    -2.083984375,
    -2.001953125,
    -2.3203125,
    -2.9453125,
    -1.490234375,
    -1.90625,
    -3.8125,
    -0.8935546875,
    -0.03192138671875,
    -2.21875,
    -2.8828125,
    -1.904296875,
    -1.60546875,
    0.2188720703125,
    -0.3359375,
    -0.028350830078125,
    -1.765625,
    -1.7587890625,
    -2.455078125,
    -1.84765625,
    -3.666015625,
    -0.286376953125,
    -2.546875,
    -3.359375,
    -2.3671875,
    0.0120697021484375,
    -0.0231475830078125,
    -3.42578125,
    -3.671875,
    -2.1484375,
    -3.40234375,
    -3.373046875,
    -1.154296875,
    -2.443359375,
    -2.529296875,
    -2.01953125,
    -1.9384765625,
    -2.154296875,
    -1.623046875,
    -1.986328125,
    -2.29296875,
    -3.1328125,
    -0.5849609375,
    -0.078369140625,
    -2.296875,
    -2.83203125,
    -1.6083984375,
    -2.822265625,
    0.1087646484375,
    -2.31640625,
    -1.7509765625
  ],
  "router_probabilities": [
    0.002404300030320883,
    0.0058470116928219795,
    0.0026047504507005215,
    0.0053760092705488205,
    0.015601638704538345,
    0.002146798186004162,
    0.009370910935103893,
    0.06827694922685623,
    0.0060326154343783855,
    0.0036732873413711786,
    0.0072625246830284595,
    0.00394086167216301,
    0.006664467044174671,
    0.00761106051504612,
    0.00826172810047865,
    0.0060090962797403336,
    0.00321643752977252,
    0.013781850226223469,
    0.009091473184525967,
    0.0013513268204405904,
    0.025028927251696587,
    0.0592440627515316,
    0.0066514634527266026,
    0.0034238803200423717,
    0.009109246544539928,
    0.012281795963644981,
    0.07613126188516617,
    0.043713171035051346,
    0.05945597216486931,
    0.010464221239089966,
    0.01053599826991558,
    0.005251473747193813,
    0.00964009203016758,
    0.0015645078383386135,
    0.045934200286865234,
    0.004790869541466236,
    0.002125935396179557,
    0.005733920261263847,
    0.06190844625234604,
    0.059766143560409546,
    0.001989345531910658,
    0.0015553674893453717,
    0.0071359784342348576,
    0.0020365214440971613,
    0.002097067655995488,
    0.01928427629172802,
    0.005313376430422068,
    0.0048758285120129585,
    0.008117771707475185,
    0.008803156204521656,
    0.00709428871050477,
    0.012067791074514389,
    0.008391831070184708,
    0.006175674963742495,
    0.002666520420461893,
    0.03407711163163185,
    0.056555237621068954,
    0.006151597946882248,
    0.003602239303290844,
    0.01224586647003889,
    0.0036375897470861673,
    0.06819365918636322,
    0.0060326154343783855,
    0.010618633590638638
  ],
  "selected_expert_ids": [
    26,
    7,
    61,
    38,
    39,
    28,
    21,
    56
  ],
  "effective_gate_weights": [
    0.07613126188516617,
    0.06827694922685623,
    0.06819365918636322,
    0.06190844625234604,
    0.059766143560409546,
    0.05945597216486931,
    0.0592440627515316,
    0.056555237621068954
  ],
  "topk_ranks": [
    0,
    1,
    2,
    3,
    4,
    5,
    6,
    7
  ],
  "top1_top2_gap": 0.007854312658309937,
  "routing_entropy": 3.546311378479004,
  "sample_id": "layer_15_sample_032",
  "microbatch_id": null,
  "sequence_length": 15,
  "all_expert_count": 64,
  "selected_destination_ids": [
    26,
    7,
    61,
    38,
    39,
    28,
    21,
    56
  ],
  "expert_to_destination_map": {},
  "layer_name": "model.layers.15.mlp",
  "run_id": null,
  "mode": "real",
  "all_token_selected_expert_ids": [
    [
      22,
      23,
      48,
      63,
      27,
      61,
      31,
      56
    ],
    [
      55,
      21,
      27,
      7,
      26,
      20,
      24,
      52
    ],
    [
      23,
      54,
      28,
      26,
      24,
      27,
      38,
      2
    ],
    [
      56,
      26,
      7,
      27,
      16,
      21,
      38,
      14
    ],
    [
      27,
      5,
      26,
      55,
      21,
      7,
      38,
      39
    ],
    [
      45,
      54,
      46,
      4,
      13,
      10,
      28,
      39
    ],
    [
      27,
      26,
      7,
      21,
      56,
      38,
      22,
      39
    ],
    [
      27,
      26,
      55,
      21,
      38,
      7,
      20,
      39
    ],
    [
      45,
      15,
      54,
      62,
      2,
      23,
      48,
      34
    ],
    [
      27,
      26,
      7,
      56,
      21,
      38,
      20,
      55
    ],
    [
      54,
      46,
      13,
      10,
      45,
      28,
      4,
      11
    ],
    [
      27,
      26,
      7,
      21,
      56,
      38,
      61,
      20
    ],
    [
      23,
      2,
      26,
      34,
      54,
      27,
      38,
      5
    ],
    [
      26,
      7,
      61,
      38,
      39,
      28,
      21,
      56
    ],
    [
      23,
      2,
      26,
      54,
      34,
      38,
      27,
      5
    ]
  ]
}