{
  "layer_path": "model.layers.15.mlp",
  "layer_id": 15,
  "token_pos": 6,
  "target_token_id": 253,
  "target_token_text": " the",
  "next_token_id": 5024,
  "next_token_text": " edge",
  "router_logits": [
    -1.916015625,
    -2.142578125,
    -3.36328125,
    -1.037109375,
    -2.6953125,
    -3.16796875,
    -1.322265625,
    0.66455078125,
    -2.2265625,
    -2.265625,
    -3.677734375,
    -3.380859375,
    -2.021484375,
    -3.521484375,
    -0.205322265625,
    -2.98046875,
    -2.328125,
    -1.88671875,
    -1.7470703125,
    -2.498046875,
    -0.63330078125,
    0.61865234375,
    -0.990234375,
    -2.533203125,
    -1.3798828125,
    -1.8203125,
    0.638671875,
    -0.3818359375,
    -1.9951171875,
    -1.3212890625,
    -2.171875,
    -2.48046875,
    -2.44140625,
    -3.357421875,
    -1.734375,
    -2.2265625,
    -2.84765625,
    -0.94970703125,
    -0.662109375,
    -1.59765625,
    -2.013671875,
    -1.4365234375,
    -2.306640625,
    -3.40625,
    -2.48046875,
    0.7197265625,
    -4.2421875,
    -3.0234375,
    1.0478515625,
    0.46337890625,
    -1.283203125,
    -1.3779296875,
    -1.33203125,
    -1.9697265625,
    -3.791015625,
    0.87451171875,
    -2.0,
    -1.7802734375,
    -2.90625,
    -1.056640625,
    -2.0546875,
    -2.1640625,
    -3.193359375,
    -1.4765625
  ],
  "router_probabilities": [
    0.006009736564010382,
    0.004791379906237125,
    0.001413565594702959,
    0.01447303406894207,
    0.0027568372897803783,
    0.001718458835966885,
    0.010882226750254631,
    0.07935626059770584,
    0.004405412822961807,
    0.004236644599586725,
    0.0010321687441319227,
    0.0013889349065721035,
    0.005408177617937326,
    0.0012067275820299983,
    0.03325064852833748,
    0.002072856994345784,
    0.003979959059506655,
    0.00618840754032135,
    0.007115860935300589,
    0.0033580136951059103,
    0.021673619747161865,
    0.07579625397920609,
    0.015167608857154846,
    0.003242009785026312,
    0.010272945277392864,
    0.006613308563828468,
    0.07732895016670227,
    0.02787027135491371,
    0.005552672315388918,
    0.010892859660089016,
    0.004653043579310179,
    0.0034175633918493986,
    0.003553703660145402,
    0.0014218725264072418,
    0.00720677524805069,
    0.004405412822961807,
    0.00236727693118155,
    0.015794938430190086,
    0.021058140322566032,
    0.00826260820031166,
    0.005450594704598188,
    0.009707251563668251,
    0.004066391382366419,
    0.0013541128719225526,
    0.0034175633918493986,
    0.08385785669088364,
    0.0005869644810445607,
    0.0019856751896440983,
    0.11642509698867798,
    0.06489531695842743,
    0.0113157257437706,
    0.010293029248714447,
    0.01077647227793932,
    0.005695463623851538,
    0.0009216229664161801,
    0.09789624810218811,
    0.00552562577649951,
    0.006883471272885799,
    0.0022325548343360424,
    0.014193099923431873,
    0.005231557879596949,
    0.004689537920057774,
    0.001675375271588564,
    0.009326259605586529
  ],
  "selected_expert_ids": [
    48,
    55,
    45,
    7,
    26,
    21,
    49,
    14
  ],
  "effective_gate_weights": [
    0.11642509698867798,
    0.09789624810218811,
    0.08385785669088364,
    0.07935626059770584,
    0.07732895016670227,
    0.07579625397920609,
    0.06489531695842743,
    0.03325064852833748
  ],
  "topk_ranks": [
    0,
    1,
    2,
    3,
    4,
    5,
    6,
    7
  ],
  "top1_top2_gap": 0.018528848886489868,
  "routing_entropy": 3.318941354751587,
  "sample_id": "layer_15_sample_005",
  "microbatch_id": null,
  "sequence_length": 8,
  "all_expert_count": 64,
  "selected_destination_ids": [
    48,
    55,
    45,
    7,
    26,
    21,
    49,
    14
  ],
  "expert_to_destination_map": {},
  "layer_name": "model.layers.15.mlp",
  "run_id": null,
  "mode": "real",
  "all_token_selected_expert_ids": [
    [
      48,
      31,
      61,
      0,
      63,
      56,
      22,
      43
    ],
    [
      54,
      48,
      3,
      2,
      23,
      49,
      26,
      24
    ],
    [
      56,
      49,
      7,
      26,
      48,
      14,
      4,
      16
    ],
    [
      55,
      21,
      7,
      49,
      26,
      14,
      38,
      37
    ],
    [
      54,
      40,
      13,
      45,
      10,
      28,
      46,
      23
    ],
    [
      48,
      56,
      26,
      7,
      49,
      61,
      45,
      22
    ],
    [
      48,
      55,
      45,
      7,
      26,
      21,
      49,
      14
    ],
    [
      23,
      54,
      19,
      45,
      2,
      16,
      0,
      33
    ]
  ]
}