{
  "layer_path": "model.layers.15.mlp",
  "layer_id": 15,
  "token_pos": 5,
  "target_token_id": 470,
  "target_token_text": " 0",
  "next_token_id": 27,
  "next_token_text": ":",
  "router_logits": [
    -1.568359375,
    -1.755859375,
    -1.013671875,
    -0.7939453125,
    -1.1337890625,
    -1.853515625,
    -1.5458984375,
    -3.65625,
    -0.046905517578125,
    -2.166015625,
    -2.6171875,
    -1.85546875,
    -1.36328125,
    -2.61328125,
    -3.59375,
    -2.66015625,
    -2.8515625,
    0.2861328125,
    -2.044921875,
    -1.9599609375,
    -1.9658203125,
    -3.05859375,
    -1.755859375,
    -2.55859375,
    -0.96484375,
    -2.908203125,
    -2.634765625,
    -2.35546875,
    -0.94091796875,
    -1.6455078125,
    0.404052734375,
    -1.5615234375,
    -2.93359375,
    -2.203125,
    -2.11328125,
    -1.447265625,
    0.264892578125,
    -2.650390625,
    -2.283203125,
    -2.375,
    -2.3984375,
    -2.5,
    -3.130859375,
    -1.658203125,
    0.8623046875,
    -3.44140625,
    -2.734375,
    -1.787109375,
    -3.619140625,
    -3.845703125,
    -2.72265625,
    -1.822265625,
    -1.716796875,
    -0.69140625,
    -2.828125,
    -2.94140625,
    -3.30859375,
    -1.2119140625,
    -0.1368408203125,
    -2.5078125,
    -2.255859375,
    -4.81640625,
    -2.97265625,
    -2.076171875
  ],
  "router_probabilities": [
    0.012705198489129543,
    0.010532978922128677,
    0.022124789655208588,
    0.027561647817492485,
    0.019620629027485847,
    0.00955299660563469,
    0.012993797659873962,
    0.001574787893332541,
    0.05817554146051407,
    0.0069891223683953285,
    0.004451241344213486,
    0.009534357115626335,
    0.015597167424857616,
    0.00446866312995553,
    0.0016763529274612665,
    0.004264028277248144,
    0.0035212216898798943,
    0.08116655796766281,
    0.007888836786150932,
    0.008588375523686409,
    0.008538200519979,
    0.0028627333231270313,
    0.010532978922128677,
    0.004719849210232496,
    0.023231912404298782,
    0.0033273210283368826,
    0.004373680800199509,
    0.00578288035467267,
    0.02379445545375347,
    0.011761867441236973,
    0.09132488071918488,
    0.012792346999049187,
    0.0032439015340059996,
    0.0067345136776566505,
    0.007367579732090235,
    0.014340748079121113,
    0.0794607400894165,
    0.004305873066186905,
    0.006216253619641066,
    0.005671028979122639,
    0.0055396598763763905,
    0.005004665348678827,
    0.0026631541550159454,
    0.011613490991294384,
    0.14441271126270294,
    0.0019522143993526697,
    0.003959015943109989,
    0.010208913125097752,
    0.0016343251336365938,
    0.0013029975816607475,
    0.0040056840516626835,
    0.009856241755187511,
    0.010952564887702465,
    0.030537771061062813,
    0.0036047252360731363,
    0.003218657337129116,
    0.0022294986993074417,
    0.01814611628651619,
    0.05317188426852226,
    0.00496571883559227,
    0.006388574838638306,
    0.0004935970646329224,
    0.0031196298077702522,
    0.007646122947335243
  ],
  "selected_expert_ids": [
    44,
    30,
    17,
    36,
    8,
    58,
    53,
    3
  ],
  "effective_gate_weights": [
    0.14441271126270294,
    0.09132488071918488,
    0.08116655796766281,
    0.0794607400894165,
    0.05817554146051407,
    0.05317188426852226,
    0.030537771061062813,
    0.027561647817492485
  ],
  "topk_ranks": [
    0,
    1,
    2,
    3,
    4,
    5,
    6,
    7
  ],
  "top1_top2_gap": 0.053087830543518066,
  "routing_entropy": 3.4351401329040527,
  "sample_id": "layer_15_sample_029",
  "microbatch_id": null,
  "sequence_length": 7,
  "all_expert_count": 64,
  "selected_destination_ids": [
    44,
    30,
    17,
    36,
    8,
    58,
    53,
    3
  ],
  "expert_to_destination_map": {},
  "layer_name": "model.layers.15.mlp",
  "run_id": null,
  "mode": "real",
  "all_token_selected_expert_ids": [
    [
      63,
      12,
      44,
      17,
      30,
      24,
      62,
      56
    ],
    [
      44,
      30,
      17,
      36,
      8,
      58,
      28,
      23
    ],
    [
      30,
      17,
      8,
      56,
      28,
      58,
      21,
      20
    ],
    [
      23,
      42,
      51,
      28,
      2,
      25,
      54,
      17
    ],
    [
      17,
      30,
      51,
      58,
      8,
      3,
      60,
      52
    ],
    [
      44,
      30,
      17,
      36,
      8,
      58,
      53,
      3
    ],
    [
      30,
      8,
      58,
      44,
      17,
      60,
      24,
      52
    ]
  ]
}