{
  "layer_path": "model.layers.15.mlp",
  "layer_id": 15,
  "token_pos": 6,
  "target_token_id": 14900,
  "target_token_text": " conserved",
  "next_token_id": 672,
  "next_token_text": " when",
  "router_logits": [
    -2.291015625,
    -2.26171875,
    0.12286376953125,
    -1.6005859375,
    -1.923828125,
    -0.8798828125,
    -1.943359375,
    -4.0625,
    -1.767578125,
    -1.9482421875,
    -2.8359375,
    -2.666015625,
    -1.7568359375,
    -2.767578125,
    -3.166015625,
    -0.71142578125,
    -1.5908203125,
    0.3798828125,
    -1.453125,
    -0.13720703125,
    -1.978515625,
    -3.40234375,
    -1.517578125,
    -1.96875,
    -1.625,
    -2.59375,
    -1.705078125,
    -2.837890625,
    -2.169921875,
    -1.564453125,
    -1.0478515625,
    -2.05078125,
    -1.884765625,
    -0.54541015625,
    0.73291015625,
    -1.6064453125,
    -2.515625,
    -1.2568359375,
    -2.146484375,
    -2.26171875,
    -2.158203125,
    -1.9033203125,
    -1.6796875,
    -1.951171875,
    -0.67529296875,
    -1.86328125,
    -3.275390625,
    -0.417724609375,
    -1.6611328125,
    -3.267578125,
    -2.185546875,
    -1.4580078125,
    -2.0234375,
    -1.3828125,
    -0.81982421875,
    -3.169921875,
    -3.9765625,
    -1.513671875,
    -2.052734375,
    -1.8359375,
    -3.45703125,
    -3.57421875,
    -1.4189453125,
    -2.998046875
  ],
  "router_probabilities": [
    0.006340215913951397,
    0.006528711877763271,
    0.07086610049009323,
    0.012646019458770752,
    0.009153170511126518,
    0.02599867805838585,
    0.008976131677627563,
    0.0010783461621031165,
    0.010701140388846397,
    0.00893241073936224,
    0.003676609368994832,
    0.004357562866061926,
    0.01081671379506588,
    0.003936729859560728,
    0.0026429954450577497,
    0.030768845230340958,
    0.012770120985805988,
    0.09163481742143631,
    0.014655320905148983,
    0.05463755130767822,
    0.00866604782640934,
    0.0020867015700787306,
    0.013740536756813526,
    0.008751091547310352,
    0.012341017834842205,
    0.004684121813625097,
    0.01139130536466837,
    0.003669435391202569,
    0.007156396750360727,
    0.013111311011016369,
    0.021978767588734627,
    0.00806188303977251,
    0.00951779168099165,
    0.03632543981075287,
    0.13043025135993958,
    0.01257213857024908,
    0.005064743105322123,
    0.01783374510705471,
    0.007326105609536171,
    0.006528711877763271,
    0.007240754086524248,
    0.009342820383608341,
    0.011684239841997623,
    0.008906279690563679,
    0.03190093860030174,
    0.00972448755055666,
    0.00236916565336287,
    0.041272807866334915,
    0.011903060600161552,
    0.0023877474013715982,
    0.007045446895062923,
    0.014583935961127281,
    0.00828536693006754,
    0.015722863376140594,
    0.027607962489128113,
    0.0026326910592615604,
    0.0011751148849725723,
    0.013794315047562122,
    0.008046153001487255,
    0.009994059801101685,
    0.0019756495021283627,
    0.001757179037667811,
    0.015164894051849842,
    0.0031263981945812702
  ],
  "selected_expert_ids": [
    34,
    17,
    2,
    19,
    47,
    33,
    44,
    15
  ],
  "effective_gate_weights": [
    0.13043025135993958,
    0.09163481742143631,
    0.07086610049009323,
    0.05463755130767822,
    0.041272807866334915,
    0.03632543981075287,
    0.03190093860030174,
    0.030768845230340958
  ],
  "topk_ranks": [
    0,
    1,
    2,
    3,
    4,
    5,
    6,
    7
  ],
  "top1_top2_gap": 0.038795433938503265,
  "routing_entropy": 3.606966018676758,
  "sample_id": "layer_15_sample_015",
  "microbatch_id": null,
  "sequence_length": 8,
  "all_expert_count": 64,
  "selected_destination_ids": [
    34,
    17,
    2,
    19,
    47,
    33,
    44,
    15
  ],
  "expert_to_destination_map": {},
  "layer_name": "model.layers.15.mlp",
  "run_id": null,
  "mode": "real",
  "all_token_selected_expert_ids": [
    [
      61,
      31,
      63,
      48,
      56,
      0,
      22,
      20
    ],
    [
      34,
      5,
      61,
      21,
      55,
      49,
      7,
      17
    ],
    [
      34,
      17,
      54,
      33,
      26,
      24,
      15,
      5
    ],
    [
      34,
      17,
      61,
      21,
      56,
      26,
      7,
      30
    ],
    [
      17,
      34,
      54,
      28,
      5,
      2,
      30,
      23
    ],
    [
      34,
      17,
      62,
      15,
      37,
      46,
      10,
      13
    ],
    [
      34,
      17,
      2,
      19,
      47,
      33,
      44,
      15
    ],
    [
      34,
      17,
      37,
      61,
      26,
      56,
      32,
      20
    ]
  ]
}