{
  "layer_path": "model.layers.15.mlp",
  "layer_id": 15,
  "token_pos": 4,
  "target_token_id": 11576,
  "target_token_text": " doctors",
  "next_token_id": 4271,
  "next_token_text": " identify",
  "router_logits": [
    -2.587890625,
    -2.173828125,
    -1.4150390625,
    -2.552734375,
    1.1083984375,
    0.036407470703125,
    -1.505859375,
    -3.30859375,
    -1.810546875,
    -1.6171875,
    0.662109375,
    -0.9599609375,
    -1.8974609375,
    0.744140625,
    -3.6796875,
    -1.1806640625,
    -1.7421875,
    -1.67578125,
    -1.2333984375,
    -0.7275390625,
    -2.76953125,
    -3.921875,
    -1.2763671875,
    -2.73046875,
    -1.0556640625,
    -2.41015625,
    -3.08203125,
    -2.869140625,
    -1.14453125,
    -1.671875,
    -1.9033203125,
    -2.728515625,
    -1.5419921875,
    -0.76904296875,
    -0.435791015625,
    -1.986328125,
    -2.994140625,
    -1.3896484375,
    -1.4013671875,
    -0.84912109375,
    -1.5673828125,
    -3.255859375,
    -1.2119140625,
    -2.837890625,
    -1.458984375,
    -0.96484375,
    0.73486328125,
    -0.765625,
    -1.3408203125,
    -3.173828125,
    -1.1689453125,
    -1.3564453125,
    -1.646484375,
    -2.2890625,
    1.01953125,
    -4.17578125,
    -1.7177734375,
    -2.1171875,
    -3.671875,
    -1.837890625,
    -3.171875,
    -3.259765625,
    -0.92626953125,
    -0.221435546875
  ],
  "router_probabilities": [
    0.0030256814789026976,
    0.004577709827572107,
    0.009776562452316284,
    0.003133944934234023,
    0.12192735821008682,
    0.04173893854022026,
    0.008927779272198677,
    0.0014717221492901444,
    0.006582931149750948,
    0.007987193763256073,
    0.07803335785865784,
    0.01541076134890318,
    0.0060349409468472,
    0.08470440655946732,
    0.0010154576739296317,
    0.01235873345285654,
    0.007048673927783966,
    0.0075326417572796345,
    0.011723889037966728,
    0.01944301649928093,
    0.002523118630051613,
    0.0007970419246703386,
    0.011230798438191414,
    0.002623628592118621,
    0.014004278928041458,
    0.003614200744777918,
    0.0018459531711414456,
    0.0022839042358100414,
    0.012813454493880272,
    0.007562123239040375,
    0.005999683402478695,
    0.0026287578511983156,
    0.008610951714217663,
    0.018652573227882385,
    0.026029642671346664,
    0.005521771963685751,
    0.002015538513660431,
    0.010027973912656307,
    0.009911144152283669,
    0.01721714809536934,
    0.008395065553486347,
    0.0015514153055846691,
    0.011978494934737682,
    0.002356403274461627,
    0.009356231428682804,
    0.015335695818066597,
    0.08392220735549927,
    0.018716435879468918,
    0.010529772378504276,
    0.0016840454190969467,
    0.012504413723945618,
    0.010366523638367653,
    0.007756588980555534,
    0.004079459235072136,
    0.11155951768159866,
    0.0006183168152347207,
    0.007222878281027079,
    0.004844477865844965,
    0.0010234219953417778,
    0.006405367981642485,
    0.001687337877228856,
    0.0015453669475391507,
    0.015938816592097282,
    0.032252367585897446
  ],
  "selected_expert_ids": [
    4,
    54,
    13,
    46,
    10,
    5,
    63,
    34
  ],
  "effective_gate_weights": [
    0.12192735821008682,
    0.11155951768159866,
    0.08470440655946732,
    0.08392220735549927,
    0.07803335785865784,
    0.04173893854022026,
    0.032252367585897446,
    0.026029642671346664
  ],
  "topk_ranks": [
    0,
    1,
    2,
    3,
    4,
    5,
    6,
    7
  ],
  "top1_top2_gap": 0.01036784052848816,
  "routing_entropy": 3.403977632522583,
  "sample_id": "layer_15_sample_017",
  "microbatch_id": null,
  "sequence_length": 6,
  "all_expert_count": 64,
  "selected_destination_ids": [
    4,
    54,
    13,
    46,
    10,
    5,
    63,
    34
  ],
  "expert_to_destination_map": {},
  "layer_name": "model.layers.15.mlp",
  "run_id": null,
  "mode": "real",
  "all_token_selected_expert_ids": [
    [
      5,
      42,
      40,
      38,
      23,
      25,
      41,
      18
    ],
    [
      34,
      24,
      23,
      5,
      28,
      38,
      42,
      54
    ],
    [
      13,
      46,
      10,
      28,
      63,
      34,
      37,
      45
    ],
    [
      4,
      56,
      13,
      10,
      46,
      38,
      47,
      25
    ],
    [
      4,
      54,
      13,
      46,
      10,
      5,
      63,
      34
    ],
    [
      61,
      39,
      38,
      56,
      7,
      21,
      26,
      20
    ]
  ]
}