{
  "layer_path": "model.layers.15.mlp",
  "layer_id": 15,
  "token_pos": 9,
  "target_token_id": 13,
  "target_token_text": ",",
  "next_token_id": 285,
  "next_token_text": " and",
  "router_logits": [
    -3.03515625,
    -1.9443359375,
    -3.033203125,
    -0.7255859375,
    -2.095703125,
    -3.0078125,
    -2.263671875,
    0.2354736328125,
    -2.083984375,
    -2.52734375,
    -3.216796875,
    -3.490234375,
    -1.0048828125,
    -3.19140625,
    -1.2060546875,
    -2.68359375,
    -2.642578125,
    -1.5009765625,
    -1.79296875,
    -3.501953125,
    -0.89013671875,
    0.22509765625,
    -1.572265625,
    -2.935546875,
    -0.849609375,
    -1.8798828125,
    -0.1944580078125,
    0.37255859375,
    -1.5615234375,
    -1.2373046875,
    -2.087890625,
    -3.375,
    -2.32421875,
    -2.625,
    -1.76953125,
    -2.9921875,
    -3.0,
    -2.01171875,
    0.55810546875,
    0.9169921875,
    -2.947265625,
    -3.35546875,
    -3.0625,
    -4.19921875,
    -3.15234375,
    -1.8984375,
    -3.615234375,
    -0.83251953125,
    -1.55859375,
    -1.4140625,
    -1.958984375,
    -0.6865234375,
    -1.228515625,
    -2.662109375,
    -3.712890625,
    -0.369384765625,
    -0.019073486328125,
    -2.720703125,
    -2.005859375,
    -1.3037109375,
    -1.7958984375,
    -1.052734375,
    -3.021484375,
    -1.6220703125
  ],
  "router_probabilities": [
    0.0024957284331321716,
    0.007429072167724371,
    0.002500607632100582,
    0.025132225826382637,
    0.006385525222867727,
    0.0025649124290794134,
    0.00539819709956646,
    0.06570733338594437,
    0.006460795644670725,
    0.004147033207118511,
    0.0020811902359128,
    0.0015832860954105854,
    0.019007889553904533,
    0.002134709618985653,
    0.015544116497039795,
    0.0035471452865749598,
    0.003695658640936017,
    0.011573989875614643,
    0.008643158711493015,
    0.0015648403204977512,
    0.021319031715393066,
    0.0650290846824646,
    0.010777615010738373,
    0.0027571292594075203,
    0.022200781852006912,
    0.007923667319118977,
    0.04274614155292511,
    0.07536141574382782,
    0.010894013568758965,
    0.01506587490439415,
    0.006435607559978962,
    0.0017766630044206977,
    0.005081051029264927,
    0.0037611955776810646,
    0.008848126046359539,
    0.0026053041219711304,
    0.0025850292295217514,
    0.006944973487406969,
    0.0907258540391922,
    0.12989534437656403,
    0.002725007710978389,
    0.0018117044819518924,
    0.0024284105747938156,
    0.0007792044198140502,
    0.0022197470534592867,
    0.007778001017868519,
    0.0013972452143207192,
    0.022583451122045517,
    0.010925976559519768,
    0.012624941766262054,
    0.007321040611714125,
    0.026133380830287933,
    0.015198873355984688,
    0.0036241780035197735,
    0.0012672462034970522,
    0.03588617593050003,
    0.05094075947999954,
    0.0034179254435002804,
    0.006985785905271769,
    0.014097901992499828,
    0.00861787423491478,
    0.018119750544428825,
    0.002530083991587162,
    0.010253986343741417
  ],
  "selected_expert_ids": [
    39,
    38,
    27,
    7,
    21,
    56,
    26,
    55
  ],
  "effective_gate_weights": [
    0.12989534437656403,
    0.0907258540391922,
    0.07536141574382782,
    0.06570733338594437,
    0.0650290846824646,
    0.05094075947999954,
    0.04274614155292511,
    0.03588617593050003
  ],
  "topk_ranks": [
    0,
    1,
    2,
    3,
    4,
    5,
    6,
    7
  ],
  "top1_top2_gap": 0.039169490337371826,
  "routing_entropy": 3.4431073665618896,
  "sample_id": "layer_15_sample_018",
  "microbatch_id": null,
  "sequence_length": 11,
  "all_expert_count": 64,
  "selected_destination_ids": [
    39,
    38,
    27,
    7,
    21,
    56,
    26,
    55
  ],
  "expert_to_destination_map": {},
  "layer_name": "model.layers.15.mlp",
  "run_id": null,
  "mode": "real",
  "all_token_selected_expert_ids": [
    [
      6,
      0,
      43,
      57,
      16,
      31,
      41,
      36
    ],
    [
      23,
      24,
      22,
      2,
      52,
      27,
      28,
      25
    ],
    [
      24,
      23,
      3,
      2,
      28,
      38,
      58,
      39
    ],
    [
      52,
      3,
      39,
      24,
      38,
      58,
      60,
      12
    ],
    [
      24,
      39,
      23,
      3,
      2,
      0,
      38,
      5
    ],
    [
      39,
      38,
      3,
      21,
      7,
      56,
      26,
      27
    ],
    [
      23,
      39,
      2,
      38,
      24,
      5,
      47,
      41
    ],
    [
      39,
      38,
      3,
      7,
      21,
      56,
      27,
      55
    ],
    [
      24,
      2,
      23,
      3,
      47,
      39,
      38,
      28
    ],
    [
      39,
      38,
      27,
      7,
      21,
      56,
      26,
      55
    ],
    [
      39,
      38,
      27,
      56,
      7,
      21,
      26,
      51
    ]
  ]
}