{
  "layer_path": "model.layers.15.mlp",
  "layer_id": 15,
  "token_pos": 14,
  "target_token_id": 2969,
  "target_token_text": " simple",
  "next_token_id": 32,
  "next_token_text": "?",
  "router_logits": [
    -1.7607421875,
    -2.091796875,
    -0.251953125,
    -2.095703125,
    -1.9716796875,
    -2.046875,
    -1.912109375,
    -4.12109375,
    -1.5078125,
    -1.3876953125,
    -3.59375,
    -2.3359375,
    -1.7275390625,
    -3.447265625,
    -2.546875,
    -1.2236328125,
    -1.37890625,
    -1.48046875,
    -1.2900390625,
    -2.19140625,
    -1.947265625,
    -3.6875,
    -1.787109375,
    -1.6220703125,
    -1.71484375,
    -1.71484375,
    -2.634765625,
    -2.091796875,
    -1.888671875,
    -1.60546875,
    -1.2578125,
    -1.4501953125,
    -2.154296875,
    -1.5810546875,
    -1.0947265625,
    -1.697265625,
    -2.087890625,
    -2.125,
    -2.39453125,
    -2.173828125,
    -2.193359375,
    -2.162109375,
    -1.85546875,
    -1.705078125,
    -2.521484375,
    -2.244140625,
    -4.109375,
    -0.25927734375,
    -2.4453125,
    -2.83984375,
    -1.884765625,
    -1.7412109375,
    -2.28515625,
    -1.6083984375,
    -1.99609375,
    -3.39453125,
    -3.900390625,
    -1.314453125,
    -2.51171875,
    -1.591796875,
    -3.373046875,
    -3.3203125,
    -1.734375,
    -2.705078125
  ],
  "router_probabilities": [
    0.016709696501493454,
    0.012000332586467266,
    0.07554875314235687,
    0.011953548528254032,
    0.013531923294067383,
    0.012551702558994293,
    0.014362519606947899,
    0.0015771787147969007,
    0.02151862345635891,
    0.024265024811029434,
    0.0026724115014076233,
    0.009400790557265282,
    0.01727382279932499,
    0.0030940028373152018,
    0.0076129925437271595,
    0.028591185808181763,
    0.024479232728481293,
    0.02211514301598072,
    0.026754220947623253,
    0.010862592607736588,
    0.013866359367966652,
    0.002433258341625333,
    0.016274865716695786,
    0.01919521577656269,
    0.01749451830983162,
    0.01749451830983162,
    0.006972442846745253,
    0.012000332586467266,
    0.014703115448355675,
    0.01951654441654682,
    0.027630459517240524,
    0.022794881835579872,
    0.011273270472884178,
    0.019998887553811073,
    0.03252486139535904,
    0.01780475676059723,
    0.012047301977872849,
    0.0116084273904562,
    0.00886579044163227,
    0.011055225506424904,
    0.010841398499906063,
    0.011185540817677975,
    0.015199500136077404,
    0.017666198313236237,
    0.0078087663277983665,
    0.010304603725671768,
    0.0015957698924466968,
    0.0749974399805069,
    0.008426814340054989,
    0.005679638125002384,
    0.01476066280156374,
    0.017039263620972633,
    0.009890503250062466,
    0.019459450617432594,
    0.013205554336309433,
    0.003261541947722435,
    0.001966667827218771,
    0.02610895223915577,
    0.007885397411882877,
    0.019785206764936447,
    0.0033323722891509533,
    0.0035128185991197824,
    0.017156142741441727,
    0.006499032024294138
  ],
  "selected_expert_ids": [
    2,
    47,
    34,
    15,
    30,
    18,
    57,
    16
  ],
  "effective_gate_weights": [
    0.07554875314235687,
    0.0749974399805069,
    0.03252486139535904,
    0.028591185808181763,
    0.027630459517240524,
    0.026754220947623253,
    0.02610895223915577,
    0.024479232728481293
  ],
  "topk_ranks": [
    0,
    1,
    2,
    3,
    4,
    5,
    6,
    7
  ],
  "top1_top2_gap": 0.0005513131618499756,
  "routing_entropy": 3.9009318351745605,
  "sample_id": "layer_15_sample_036",
  "microbatch_id": null,
  "sequence_length": 16,
  "all_expert_count": 64,
  "selected_destination_ids": [
    2,
    47,
    34,
    15,
    30,
    18,
    57,
    16
  ],
  "expert_to_destination_map": {},
  "layer_name": "model.layers.15.mlp",
  "run_id": null,
  "mode": "real",
  "all_token_selected_expert_ids": [
    [
      12,
      4,
      63,
      50,
      11,
      52,
      48,
      22
    ],
    [
      61,
      56,
      49,
      7,
      16,
      14,
      12,
      26
    ],
    [
      55,
      21,
      7,
      14,
      49,
      26,
      38,
      37
    ],
    [
      54,
      4,
      13,
      46,
      10,
      30,
      8,
      17
    ],
    [
      30,
      8,
      22,
      20,
      56,
      7,
      21,
      27
    ],
    [
      20,
      30,
      8,
      7,
      21,
      55,
      27,
      22
    ],
    [
      2,
      47,
      30,
      8,
      22,
      15,
      17,
      54
    ],
    [
      30,
      4,
      56,
      27,
      7,
      20,
      8,
      21
    ],
    [
      20,
      30,
      55,
      27,
      7,
      21,
      8,
      63
    ],
    [
      2,
      15,
      54,
      47,
      62,
      34,
      30,
      40
    ],
    [
      56,
      46,
      13,
      10,
      30,
      62,
      34,
      25
    ],
    [
      20,
      55,
      21,
      7,
      27,
      30,
      25,
      34
    ],
    [
      54,
      23,
      28,
      34,
      17,
      42,
      30,
      25
    ],
    [
      62,
      15,
      22,
      63,
      45,
      13,
      34,
      10
    ],
    [
      2,
      47,
      34,
      15,
      30,
      18,
      57,
      16
    ],
    [
      52,
      58,
      60,
      12,
      34,
      25,
      24,
      30
    ]
  ]
}