{
  "layer_path": "model.layers.15.mlp",
  "layer_id": 15,
  "token_pos": 13,
  "target_token_id": 22205,
  "target_token_text": " bucket",
  "next_token_id": 32,
  "next_token_text": "?",
  "router_logits": [
    -1.751953125,
    -2.16015625,
    -0.482666015625,
    -1.8349609375,
    -2.328125,
    -2.900390625,
    -1.931640625,
    -3.69140625,
    -0.529296875,
    -1.9736328125,
    -2.970703125,
    -2.5625,
    -2.236328125,
    -2.8125,
    -3.8671875,
    -1.6357421875,
    -2.359375,
    -1.03125,
    -2.08203125,
    -2.40625,
    -0.89892578125,
    -2.982421875,
    -2.419921875,
    -0.791015625,
    -1.896484375,
    -2.107421875,
    -1.5625,
    -2.06640625,
    -1.8154296875,
    -1.8662109375,
    -0.429443359375,
    -1.806640625,
    -2.50390625,
    -1.830078125,
    -2.2734375,
    -1.6865234375,
    -1.615234375,
    -2.48046875,
    -2.09375,
    -2.10546875,
    -2.6796875,
    -2.46875,
    -2.85546875,
    -1.5478515625,
    -2.005859375,
    -2.029296875,
    -3.4453125,
    -0.4462890625,
    -2.548828125,
    -3.3515625,
    -2.751953125,
    -2.021484375,
    -2.2734375,
    -1.71875,
    -2.009765625,
    -2.751953125,
    -4.08984375,
    -1.96484375,
    -1.283203125,
    -2.65234375,
    -3.392578125,
    -4.60546875,
    -2.015625,
    -3.384765625
  ],
  "router_probabilities": [
    0.017418095842003822,
    0.011580313555896282,
    0.06197907403111458,
    0.01603063941001892,
    0.009789768606424332,
    0.005523834377527237,
    0.014553364366292953,
    0.0025044186040759087,
    0.059155285358428955,
    0.013954889960587025,
    0.005148779135197401,
    0.00774434395134449,
    0.010730978101491928,
    0.006031301338225603,
    0.0021007098257541656,
    0.01956457644701004,
    0.00948856957256794,
    0.035809487104415894,
    0.012521305121481419,
    0.009054056368768215,
    0.04087575525045395,
    0.005088794510811567,
    0.008931112475693226,
    0.045533452183008194,
    0.015074105933308601,
    0.012207383289933205,
    0.021051310002803802,
    0.012718486599624157,
    0.01634681597352028,
    0.015537428669631481,
    0.06536712497472763,
    0.016491122543811798,
    0.008211672306060791,
    0.016109105199575424,
    0.010340056382119656,
    0.018595868721604347,
    0.019969947636127472,
    0.00840640626847744,
    0.012375426478683949,
    0.012231248430907726,
    0.0068879625760018826,
    0.008505498059093952,
    0.005777633283287287,
    0.021361948922276497,
    0.013512341305613518,
    0.013199328444898129,
    0.0032031999435275793,
    0.06427519023418427,
    0.00785095151513815,
    0.0035180270206183195,
    0.006407759618014097,
    0.013302852399647236,
    0.010340056382119656,
    0.018006140366196632,
    0.013459661975502968,
    0.006407759618014097,
    0.0016813869588077068,
    0.014078081585466862,
    0.02783403918147087,
    0.007078904192894697,
    0.0033766520209610462,
    0.0010040020570158958,
    0.013381026685237885,
    0.0034031353425234556
  ],
  "selected_expert_ids": [
    30,
    47,
    2,
    8,
    23,
    20,
    17,
    58
  ],
  "effective_gate_weights": [
    0.06536712497472763,
    0.06427519023418427,
    0.06197907403111458,
    0.059155285358428955,
    0.045533452183008194,
    0.04087575525045395,
    0.035809487104415894,
    0.02783403918147087
  ],
  "topk_ranks": [
    0,
    1,
    2,
    3,
    4,
    5,
    6,
    7
  ],
  "top1_top2_gap": 0.0010919347405433655,
  "routing_entropy": 3.822532892227173,
  "sample_id": "layer_15_sample_041",
  "microbatch_id": null,
  "sequence_length": 15,
  "all_expert_count": 64,
  "selected_destination_ids": [
    30,
    47,
    2,
    8,
    23,
    20,
    17,
    58
  ],
  "expert_to_destination_map": {},
  "layer_name": "model.layers.15.mlp",
  "run_id": null,
  "mode": "real",
  "all_token_selected_expert_ids": [
    [
      12,
      63,
      56,
      61,
      4,
      50,
      28,
      62
    ],
    [
      61,
      56,
      38,
      39,
      7,
      25,
      21,
      12
    ],
    [
      20,
      55,
      21,
      7,
      38,
      51,
      25,
      39
    ],
    [
      4,
      54,
      23,
      30,
      10,
      13,
      46,
      42
    ],
    [
      57,
      31,
      43,
      0,
      36,
      44,
      41,
      35
    ],
    [
      61,
      56,
      7,
      30,
      21,
      25,
      26,
      51
    ],
    [
      20,
      55,
      7,
      21,
      30,
      25,
      26,
      51
    ],
    [
      20,
      55,
      7,
      51,
      21,
      26,
      63,
      25
    ],
    [
      23,
      2,
      30,
      54,
      47,
      17,
      26,
      25
    ],
    [
      61,
      56,
      26,
      7,
      30,
      25,
      38,
      51
    ],
    [
      20,
      55,
      45,
      7,
      26,
      21,
      48,
      39
    ],
    [
      20,
      55,
      21,
      26,
      7,
      47,
      39,
      38
    ],
    [
      23,
      26,
      39,
      31,
      20,
      63,
      38,
      30
    ],
    [
      30,
      47,
      2,
      8,
      23,
      20,
      17,
      58
    ],
    [
      58,
      52,
      30,
      24,
      8,
      60,
      3,
      12
    ]
  ]
}