{
  "layer_path": "model.layers.15.mlp",
  "layer_id": 15,
  "token_pos": 4,
  "target_token_id": 15296,
  "target_token_text": " preserved",
  "next_token_id": 3304,
  "next_token_text": " inside",
  "router_logits": [
    -1.87109375,
    -2.091796875,
    0.11456298828125,
    -1.0166015625,
    -1.767578125,
    -1.845703125,
    -1.345703125,
    -3.30078125,
    -1.892578125,
    -1.9228515625,
    -1.806640625,
    -2.28125,
    -2.302734375,
    -1.4453125,
    -1.9208984375,
    0.28271484375,
    -1.18359375,
    -1.359375,
    -1.634765625,
    -1.6611328125,
    -2.75,
    -4.015625,
    -1.3408203125,
    -1.1318359375,
    -1.2705078125,
    -2.21875,
    -1.880859375,
    -1.8115234375,
    -1.650390625,
    -1.15234375,
    -2.03125,
    -1.634765625,
    -1.998046875,
    -2.0859375,
    -1.255859375,
    -1.2861328125,
    -1.9560546875,
    -1.486328125,
    -1.3642578125,
    -1.0576171875,
    -1.4287109375,
    -1.5556640625,
    -1.98828125,
    -1.5029296875,
    -1.9130859375,
    0.443359375,
    -2.33984375,
    -1.8828125,
    -0.2054443359375,
    -1.5654296875,
    -1.8818359375,
    -1.3759765625,
    -1.9990234375,
    -0.986328125,
    0.318359375,
    -3.9765625,
    -3.193359375,
    -1.4033203125,
    -2.716796875,
    -1.009765625,
    -2.7109375,
    -3.34765625,
    0.0237884521484375,
    -2.642578125
  ],
  "router_probabilities": [
    0.008692258968949318,
    0.006970798596739769,
    0.06331293284893036,
    0.020428379997611046,
    0.009640264324843884,
    0.008915787562727928,
    0.014699647203087807,
    0.0020807855762541294,
    0.0085075031965971,
    0.008253811858594418,
    0.00927095115184784,
    0.005767719354480505,
    0.005645124241709709,
    0.013305987231433392,
    0.008269947953522205,
    0.07490656524896622,
    0.017286621034145355,
    0.014500044286251068,
    0.011009527370333672,
    0.01072303019464016,
    0.003609345993027091,
    0.0010180628160014749,
    0.014771598391234875,
    0.01820489950478077,
    0.01584761217236519,
    0.006139704957604408,
    0.00860778708010912,
    0.009225793182849884,
    0.010838840156793594,
    0.017835358157753944,
    0.007405897602438927,
    0.011009527370333672,
    0.007655924651771784,
    0.007011762820184231,
    0.016081463545560837,
    0.015601917169988155,
    0.00798425916582346,
    0.012771274894475937,
    0.014429415576159954,
    0.01960744708776474,
    0.01352873258292675,
    0.01191576849669218,
    0.007731055840849876,
    0.012561002746224403,
    0.0083348099142313,
    0.08796034008264542,
    0.005439477041363716,
    0.008590991608798504,
    0.04597429186105728,
    0.011799969710409641,
    0.008599385619163513,
    0.014261307194828987,
    0.007648451253771782,
    0.021056272089481354,
    0.07762472331523895,
    0.001058617839589715,
    0.0023167545441538095,
    0.013876632787287235,
    0.0037311995401978493,
    0.02056850492954254,
    0.003753126133233309,
    0.0019854994025081396,
    0.05781886354088783,
    0.004018660169094801
  ],
  "selected_expert_ids": [
    45,
    54,
    15,
    2,
    62,
    48,
    53,
    59
  ],
  "effective_gate_weights": [
    0.08796034008264542,
    0.07762472331523895,
    0.07490656524896622,
    0.06331293284893036,
    0.05781886354088783,
    0.04597429186105728,
    0.021056272089481354,
    0.02056850492954254
  ],
  "topk_ranks": [
    0,
    1,
    2,
    3,
    4,
    5,
    6,
    7
  ],
  "top1_top2_gap": 0.010335616767406464,
  "routing_entropy": 3.7223942279815674,
  "sample_id": "layer_15_sample_004",
  "microbatch_id": null,
  "sequence_length": 6,
  "all_expert_count": 64,
  "selected_destination_ids": [
    45,
    54,
    15,
    2,
    62,
    48,
    53,
    59
  ],
  "expert_to_destination_map": {},
  "layer_name": "model.layers.15.mlp",
  "run_id": null,
  "mode": "real",
  "all_token_selected_expert_ids": [
    [
      55,
      21,
      20,
      63,
      7,
      14,
      52,
      40
    ],
    [
      55,
      49,
      14,
      21,
      7,
      5,
      26,
      38
    ],
    [
      54,
      23,
      28,
      13,
      10,
      46,
      40,
      24
    ],
    [
      62,
      45,
      13,
      15,
      46,
      10,
      48,
      63
    ],
    [
      45,
      54,
      15,
      2,
      62,
      48,
      53,
      59
    ],
    [
      45,
      26,
      56,
      38,
      7,
      49,
      61,
      39
    ]
  ]
}