{
  "layer_path": "model.layers.15.mlp",
  "layer_id": 15,
  "token_pos": 5,
  "target_token_id": 1818,
  "target_token_text": " change",
  "next_token_id": 275,
  "next_token_text": " in",
  "router_logits": [
    -2.107421875,
    -2.197265625,
    -0.431640625,
    -1.970703125,
    -1.6767578125,
    -1.33984375,
    -2.43359375,
    -3.849609375,
    -2.0,
    -1.6865234375,
    -2.443359375,
    -2.068359375,
    -2.185546875,
    -2.228515625,
    -2.84375,
    -0.92041015625,
    -1.5224609375,
    -1.6513671875,
    -2.07421875,
    -1.5712890625,
    -2.38671875,
    -4.359375,
    -1.1396484375,
    -0.994140625,
    -1.70703125,
    -2.244140625,
    -2.19921875,
    -2.78515625,
    -1.4052734375,
    -1.7685546875,
    -2.314453125,
    -1.658203125,
    -2.376953125,
    -2.306640625,
    -1.6484375,
    -1.576171875,
    -2.560546875,
    -2.4765625,
    -1.1572265625,
    -0.464111328125,
    -2.1484375,
    -2.560546875,
    -1.55859375,
    -2.095703125,
    -2.02734375,
    -1.8193359375,
    -2.982421875,
    -2.3515625,
    -1.14453125,
    -3.36328125,
    -2.21875,
    -2.4375,
    -2.3203125,
    -1.9482421875,
    -0.302001953125,
    -4.45703125,
    -3.56640625,
    -1.7734375,
    -3.015625,
    -1.6376953125,
    -3.05078125,
    -2.78125,
    -1.6484375,
    -2.998046875
  ],
  "router_probabilities": [
    0.011587555520236492,
    0.010591883212327957,
    0.0619119368493557,
    0.013285198248922825,
    0.017824891954660416,
    0.02496587485074997,
    0.00836252048611641,
    0.002029408235102892,
    0.012901629321277142,
    0.017651665955781937,
    0.008281252346932888,
    0.012049151584506035,
    0.010716736316680908,
    0.01026600506156683,
    0.005548921879380941,
    0.03797558695077896,
    0.02079874649643898,
    0.018283270299434662,
    0.011978757567703724,
    0.01980757713317871,
    0.008763846009969711,
    0.0012189362896606326,
    0.030499344691634178,
    0.03527635708451271,
    0.017293356359004974,
    0.010106845758855343,
    0.010571216233074665,
    0.005883768200874329,
    0.023384658619761467,
    0.016261477023363113,
    0.009420615620911121,
    0.01815871335566044,
    0.008849849924445152,
    0.00949450209736824,
    0.018336912617087364,
    0.019711097702383995,
    0.007365498226135969,
    0.00801080372184515,
    0.029967907816171646,
    0.059933897107839584,
    0.0111218998208642,
    0.007365498226135969,
    0.020060643553733826,
    0.011724146082997322,
    0.012553630396723747,
    0.015456315129995346,
    0.00483041163533926,
    0.009077430702745914,
    0.030350785702466965,
    0.0033004945144057274,
    0.010366750881075859,
    0.008329917676746845,
    0.009365578182041645,
    0.013586971908807755,
    0.07048159837722778,
    0.0011055271606892347,
    0.0026937853544950485,
    0.016182268038392067,
    0.004672660492360592,
    0.018534952774643898,
    0.004511241335421801,
    0.005906796082854271,
    0.018336912617087364,
    0.004755523055791855
  ],
  "selected_expert_ids": [
    54,
    2,
    39,
    15,
    23,
    22,
    48,
    38
  ],
  "effective_gate_weights": [
    0.07048159837722778,
    0.0619119368493557,
    0.059933897107839584,
    0.03797558695077896,
    0.03527635708451271,
    0.030499344691634178,
    0.030350785702466965,
    0.029967907816171646
  ],
  "topk_ranks": [
    0,
    1,
    2,
    3,
    4,
    5,
    6,
    7
  ],
  "top1_top2_gap": 0.008569661527872086,
  "routing_entropy": 3.873847484588623,
  "sample_id": "layer_15_sample_012",
  "microbatch_id": null,
  "sequence_length": 7,
  "all_expert_count": 64,
  "selected_destination_ids": [
    54,
    2,
    39,
    15,
    23,
    22,
    48,
    38
  ],
  "expert_to_destination_map": {},
  "layer_name": "model.layers.15.mlp",
  "run_id": null,
  "mode": "real",
  "all_token_selected_expert_ids": [
    [
      55,
      21,
      20,
      63,
      7,
      14,
      52,
      40
    ],
    [
      40,
      54,
      13,
      46,
      10,
      28,
      11,
      5
    ],
    [
      39,
      61,
      28,
      38,
      56,
      7,
      44,
      25
    ],
    [
      20,
      39,
      38,
      55,
      7,
      21,
      48,
      61
    ],
    [
      39,
      20,
      61,
      38,
      7,
      21,
      55,
      5
    ],
    [
      54,
      2,
      39,
      15,
      23,
      22,
      48,
      38
    ],
    [
      39,
      61,
      7,
      38,
      56,
      21,
      26,
      55
    ]
  ]
}