{
  "layer_path": "model.layers.15.mlp",
  "layer_id": 15,
  "token_pos": 7,
  "target_token_id": 9629,
  "target_token_text": "request",
  "next_token_id": 10,
  "next_token_text": ")",
  "router_logits": [
    -1.4248046875,
    -2.93359375,
    -2.1015625,
    -2.298828125,
    -2.3046875,
    -2.880859375,
    -1.9541015625,
    -4.4765625,
    -1.1015625,
    -2.126953125,
    -3.712890625,
    -2.486328125,
    -2.365234375,
    -3.73828125,
    -3.822265625,
    -3.900390625,
    -2.16015625,
    -0.69677734375,
    -2.421875,
    -2.494140625,
    -2.455078125,
    -4.0546875,
    -2.07421875,
    -1.60546875,
    -2.392578125,
    -3.3828125,
    -3.345703125,
    -3.4921875,
    -2.47265625,
    -2.595703125,
    -1.0205078125,
    -1.1787109375,
    -2.576171875,
    -2.2109375,
    -2.66796875,
    -1.44921875,
    -0.51953125,
    -2.72265625,
    -2.990234375,
    -2.54296875,
    -2.28125,
    -1.8837890625,
    -2.275390625,
    -1.44140625,
    -0.11749267578125,
    -4.04296875,
    -3.98046875,
    -2.58203125,
    -3.65234375,
    -4.1171875,
    -3.263671875,
    -2.916015625,
    -2.56640625,
    -1.46875,
    -3.431640625,
    -3.990234375,
    -4.35546875,
    -1.4052734375,
    -1.59375,
    -3.23046875,
    -3.177734375,
    -5.00390625,
    -4.421875,
    -3.240234375
  ],
  "router_probabilities": [
    0.03106560930609703,
    0.006871017627418041,
    0.015789475291967392,
    0.012962724082171917,
    0.012886992655694485,
    0.007243080995976925,
    0.018298232927918434,
    0.0014686498325318098,
    0.04292023926973343,
    0.015393616631627083,
    0.003151931334286928,
    0.01074647530913353,
    0.012129878625273705,
    0.003072909312322736,
    0.0028253730852156878,
    0.002613042714074254,
    0.014890891499817371,
    0.06433660537004471,
    0.011461928486824036,
    0.010662846267223358,
    0.011087605729699135,
    0.002239423571154475,
    0.016227174550294876,
    0.025930950418114662,
    0.01180269569158554,
    0.004384578671306372,
    0.004550344310700893,
    0.003930310718715191,
    0.010894409380853176,
    0.009633079171180725,
    0.04654400423169136,
    0.03973351791501045,
    0.009823073633015156,
    0.014153593219816685,
    0.008961496874690056,
    0.03031635470688343,
    0.07681307196617126,
    0.00848457496613264,
    0.006492655724287033,
    0.010154706425964832,
    0.013192598707973957,
    0.01963113807141781,
    0.013270126655697823,
    0.03055412694811821,
    0.11482547223567963,
    0.00226582121104002,
    0.00241195410490036,
    0.00976568553596735,
    0.0033486667089164257,
    0.0021037438418716192,
    0.004939352162182331,
    0.006992865353822708,
    0.009919472970068455,
    0.02972998283803463,
    0.004175630863755941,
    0.0023885145783424377,
    0.001657710294239223,
    0.031678322702646255,
    0.02623661793768406,
    0.0051061068661510944,
    0.0053826007060706615,
    0.0008667538641020656,
    0.0015512033132836223,
    0.005056485533714294
  ],
  "selected_expert_ids": [
    44,
    36,
    17,
    30,
    8,
    31,
    57,
    0
  ],
  "effective_gate_weights": [
    0.11482547223567963,
    0.07681307196617126,
    0.06433660537004471,
    0.04654400423169136,
    0.04292023926973343,
    0.03973351791501045,
    0.031678322702646255,
    0.03106560930609703
  ],
  "topk_ranks": [
    0,
    1,
    2,
    3,
    4,
    5,
    6,
    7
  ],
  "top1_top2_gap": 0.03801240026950836,
  "routing_entropy": 3.6445822715759277,
  "sample_id": "layer_15_sample_025",
  "microbatch_id": null,
  "sequence_length": 9,
  "all_expert_count": 64,
  "selected_destination_ids": [
    44,
    36,
    17,
    30,
    8,
    31,
    57,
    0
  ],
  "expert_to_destination_map": {},
  "layer_name": "model.layers.15.mlp",
  "run_id": null,
  "mode": "real",
  "all_token_selected_expert_ids": [
    [
      61,
      31,
      56,
      63,
      30,
      48,
      22,
      43
    ],
    [
      8,
      30,
      36,
      17,
      58,
      44,
      23,
      31
    ],
    [
      8,
      30,
      17,
      58,
      60,
      44,
      12,
      36
    ],
    [
      44,
      36,
      30,
      8,
      17,
      58,
      23,
      3
    ],
    [
      8,
      30,
      24,
      44,
      58,
      17,
      60,
      12
    ],
    [
      44,
      8,
      30,
      36,
      17,
      58,
      9,
      29
    ],
    [
      1,
      8,
      30,
      29,
      17,
      60,
      58,
      44
    ],
    [
      44,
      36,
      17,
      30,
      8,
      31,
      57,
      0
    ],
    [
      44,
      8,
      30,
      17,
      58,
      24,
      60,
      36
    ]
  ]
}