{
  "layer_path": "model.layers.15.mlp",
  "layer_id": 15,
  "token_pos": 6,
  "target_token_id": 2098,
  "target_token_text": " plan",
  "next_token_id": 323,
  "next_token_text": " for",
  "router_logits": [
    -1.7041015625,
    -2.130859375,
    -0.64404296875,
    0.2034912109375,
    -0.9443359375,
    -1.96875,
    -1.6796875,
    -3.1171875,
    -1.869140625,
    -1.908203125,
    -0.443115234375,
    -1.9716796875,
    -2.392578125,
    -0.3818359375,
    -3.97265625,
    -0.0175323486328125,
    -1.517578125,
    -1.3076171875,
    -1.8671875,
    -2.1171875,
    -2.984375,
    -4.25,
    -1.95703125,
    -0.64794921875,
    -1.0966796875,
    -1.2607421875,
    -2.19140625,
    -1.9501953125,
    -1.203125,
    -1.525390625,
    -1.759765625,
    -1.533203125,
    -2.056640625,
    -2.048828125,
    -2.234375,
    -1.4462890625,
    -2.001953125,
    -1.81640625,
    -2.400390625,
    -2.876953125,
    -1.359375,
    -2.208984375,
    0.146240234375,
    -1.7529296875,
    -2.34765625,
    -1.80078125,
    -0.61767578125,
    -2.12109375,
    -0.58984375,
    -2.126953125,
    -1.7080078125,
    -0.231689453125,
    -1.962890625,
    -1.60546875,
    0.375,
    -4.69921875,
    -3.49609375,
    -2.091796875,
    -2.828125,
    -1.453125,
    -2.63671875,
    -3.77734375,
    -0.6611328125,
    -3.2109375
  ],
  "router_probabilities": [
    0.01060636155307293,
    0.006921940483152866,
    0.030615689232945442,
    0.07145348936319351,
    0.022674016654491425,
    0.008140125311911106,
    0.010868492536246777,
    0.0025814934633672237,
    0.008992715738713741,
    0.008648211136460304,
    0.03742879256606102,
    0.008116312325000763,
    0.005328007508069277,
    0.039794135838747025,
    0.0010973511962220073,
    0.05728410184383392,
    0.012781227007508278,
    0.015767302364110947,
    0.009010297246277332,
    0.0070172268897295,
    0.002948157722130418,
    0.0008315661107189953,
    0.008236078545451164,
    0.030496327206492424,
    0.01947001926600933,
    0.016523992642760277,
    0.006515274289995432,
    0.00829257257282734,
    0.017504019662737846,
    0.01268176268786192,
    0.010032099671661854,
    0.012583072297275066,
    0.007455223705619574,
    0.007513694930821657,
    0.006241250317543745,
    0.013725652359426022,
    0.007874284870922565,
    0.009479667991399765,
    0.005286545027047396,
    0.0032824904192239046,
    0.014971980825066566,
    0.006401748396456242,
    0.06747760623693466,
    0.010100913234055042,
    0.005572809372097254,
    0.009628950618207455,
    0.031433675438165665,
    0.006989868823438883,
    0.03232082352042198,
    0.006949032191187143,
    0.010565010830760002,
    0.04624096676707268,
    0.008187961764633656,
    0.011705826967954636,
    0.08482205122709274,
    0.0005306443781591952,
    0.0017673155525699258,
    0.00719767902046442,
    0.0034467456862330437,
    0.013632143847644329,
    0.004173841327428818,
    0.0013340398436412215,
    0.030096914619207382,
    0.002350476337596774
  ],
  "selected_expert_ids": [
    54,
    3,
    42,
    15,
    51,
    13,
    10,
    48
  ],
  "effective_gate_weights": [
    0.08482205122709274,
    0.07145348936319351,
    0.06747760623693466,
    0.05728410184383392,
    0.04624096676707268,
    0.039794135838747025,
    0.03742879256606102,
    0.03232082352042198
  ],
  "topk_ranks": [
    0,
    1,
    2,
    3,
    4,
    5,
    6,
    7
  ],
  "top1_top2_gap": 0.013368561863899231,
  "routing_entropy": 3.702110528945923,
  "sample_id": "layer_15_sample_002",
  "microbatch_id": null,
  "sequence_length": 8,
  "all_expert_count": 64,
  "selected_destination_ids": [
    54,
    3,
    42,
    15,
    51,
    13,
    10,
    48
  ],
  "expert_to_destination_map": {},
  "layer_name": "model.layers.15.mlp",
  "run_id": null,
  "mode": "real",
  "all_token_selected_expert_ids": [
    [
      55,
      21,
      20,
      63,
      7,
      14,
      52,
      40
    ],
    [
      40,
      23,
      54,
      28,
      45,
      13,
      10,
      46
    ],
    [
      42,
      40,
      54,
      28,
      13,
      46,
      10,
      23
    ],
    [
      51,
      42,
      61,
      25,
      56,
      7,
      49,
      26
    ],
    [
      20,
      42,
      51,
      55,
      7,
      25,
      21,
      49
    ],
    [
      42,
      51,
      20,
      55,
      7,
      25,
      21,
      26
    ],
    [
      54,
      3,
      42,
      15,
      51,
      13,
      10,
      48
    ],
    [
      61,
      56,
      48,
      51,
      7,
      25,
      26,
      49
    ]
  ]
}