{
  "layer_path": "model.layers.15.mlp",
  "layer_id": 15,
  "token_pos": 13,
  "target_token_id": 15050,
  "target_token_text": " routes",
  "next_token_id": 32,
  "next_token_text": "?",
  "router_logits": [
    -1.0126953125,
    -1.9365234375,
    0.09014892578125,
    -0.84765625,
    -1.3408203125,
    -2.0625,
    -1.0546875,
    -3.634765625,
    -0.455078125,
    -1.8447265625,
    -1.552734375,
    -1.8056640625,
    -1.87109375,
    -1.384765625,
    -3.61328125,
    -0.07733154296875,
    -1.6181640625,
    -0.29345703125,
    -1.5517578125,
    -2.109375,
    -2.0,
    -3.673828125,
    -1.3544921875,
    -1.201171875,
    -1.0029296875,
    -2.0390625,
    -2.044921875,
    -2.40625,
    -1.017578125,
    -1.2119140625,
    0.08795166015625,
    -1.4814453125,
    -2.271484375,
    -1.431640625,
    -1.0751953125,
    -0.8671875,
    -1.728515625,
    -2.01171875,
    -2.22265625,
    -2.4453125,
    -2.298828125,
    -1.7177734375,
    -1.671875,
    -1.1689453125,
    -1.6455078125,
    -1.427734375,
    -1.908203125,
    -0.53564453125,
    -1.7470703125,
    -3.486328125,
    -2.41796875,
    -1.3212890625,
    -1.7353515625,
    -1.3330078125,
    -0.2235107421875,
    -3.61328125,
    -3.9609375,
    -1.6064453125,
    -1.2880859375,
    -1.7626953125,
    -2.791015625,
    -4.2109375,
    -0.4638671875,
    -2.95703125
  ],
  "router_probabilities": [
    0.021599793806672096,
    0.00857503991574049,
    0.06507419049739838,
    0.025475643575191498,
    0.015557748265564442,
    0.007560059893876314,
    0.02071155235171318,
    0.0015692745801061392,
    0.03772416710853577,
    0.009399463422596455,
    0.012586750090122223,
    0.009773895144462585,
    0.00915486365556717,
    0.014888862147927284,
    0.0016033542342483997,
    0.05503930151462555,
    0.011789567768573761,
    0.044341545552015305,
    0.01259904820472002,
    0.007213859353214502,
    0.00804764125496149,
    0.0015091566601768136,
    0.01534649170935154,
    0.01788937859237194,
    0.02181176282465458,
    0.007739341352134943,
    0.007694126572459936,
    0.00536088552325964,
    0.021494584158062935,
    0.017698237672448158,
    0.06493136286735535,
    0.013516806066036224,
    0.006134292110800743,
    0.014207052066922188,
    0.020291129127144814,
    0.02498289942741394,
    0.01055778469890356,
    0.007953883148729801,
    0.006441251374781132,
    0.005155512597411871,
    0.005968830082565546,
    0.010671809315681458,
    0.01117304340004921,
    0.018475282937288284,
    0.011471563950181007,
    0.014262656681239605,
    0.008821358904242516,
    0.034804075956344604,
    0.010363694280385971,
    0.0018203903455287218,
    0.0052984291687607765,
    0.015864597633481026,
    0.010485858656466007,
    0.015679769217967987,
    0.04755411669611931,
    0.0016033542342483997,
    0.0011325158411636949,
    0.011928538791835308,
    0.01640019379556179,
    0.01020302064716816,
    0.003648672718554735,
    0.000882004271261394,
    0.03739406168460846,
    0.0030905462335795164
  ],
  "selected_expert_ids": [
    2,
    30,
    15,
    54,
    17,
    8,
    62,
    47
  ],
  "effective_gate_weights": [
    0.06507419049739838,
    0.06493136286735535,
    0.05503930151462555,
    0.04755411669611931,
    0.044341545552015305,
    0.03772416710853577,
    0.03739406168460846,
    0.034804075956344604
  ],
  "topk_ranks": [
    0,
    1,
    2,
    3,
    4,
    5,
    6,
    7
  ],
  "top1_top2_gap": 0.00014282763004302979,
  "routing_entropy": 3.8176379203796387,
  "sample_id": "layer_15_sample_037",
  "microbatch_id": null,
  "sequence_length": 15,
  "all_expert_count": 64,
  "selected_destination_ids": [
    2,
    30,
    15,
    54,
    17,
    8,
    62,
    47
  ],
  "expert_to_destination_map": {},
  "layer_name": "model.layers.15.mlp",
  "run_id": null,
  "mode": "real",
  "all_token_selected_expert_ids": [
    [
      12,
      63,
      37,
      62,
      15,
      5,
      52,
      40
    ],
    [
      61,
      56,
      25,
      38,
      51,
      18,
      49,
      7
    ],
    [
      20,
      55,
      21,
      7,
      25,
      51,
      37,
      38
    ],
    [
      31,
      57,
      43,
      36,
      0,
      6,
      41,
      23
    ],
    [
      4,
      54,
      46,
      13,
      10,
      30,
      8,
      17
    ],
    [
      2,
      54,
      30,
      15,
      31,
      34,
      16,
      43
    ],
    [
      30,
      56,
      13,
      10,
      46,
      61,
      7,
      8
    ],
    [
      20,
      30,
      55,
      21,
      7,
      8,
      17,
      28
    ],
    [
      30,
      54,
      17,
      28,
      8,
      13,
      10,
      20
    ],
    [
      30,
      56,
      7,
      17,
      8,
      20,
      22,
      21
    ],
    [
      20,
      30,
      8,
      55,
      21,
      7,
      63,
      17
    ],
    [
      20,
      30,
      8,
      55,
      21,
      17,
      7,
      34
    ],
    [
      30,
      17,
      8,
      2,
      23,
      58,
      51,
      34
    ],
    [
      2,
      30,
      15,
      54,
      17,
      8,
      62,
      47
    ],
    [
      52,
      58,
      30,
      60,
      8,
      12,
      24,
      17
    ]
  ]
}