{
  "layer_path": "model.layers.15.mlp",
  "layer_id": 15,
  "token_pos": 6,
  "target_token_id": 846,
  "target_token_text": " after",
  "next_token_id": 47327,
  "next_token_text": " retry",
  "router_logits": [
    -2.30859375,
    -0.96728515625,
    -3.318359375,
    0.73779296875,
    -1.7255859375,
    -3.75390625,
    -3.4296875,
    -2.603515625,
    0.3583984375,
    -0.71923828125,
    -1.5537109375,
    -2.421875,
    -1.771484375,
    -1.6875,
    -3.3125,
    -2.779296875,
    -2.708984375,
    -0.332763671875,
    0.0008907318115234375,
    -4.1015625,
    -2.021484375,
    -2.486328125,
    -3.1328125,
    -3.857421875,
    0.1539306640625,
    -3.23828125,
    -2.888671875,
    -2.412109375,
    -2.583984375,
    -1.45703125,
    0.576171875,
    -1.8193359375,
    -1.791015625,
    -2.7421875,
    -2.001953125,
    -2.3515625,
    -0.771484375,
    -2.423828125,
    -2.458984375,
    -2.947265625,
    -3.97265625,
    -3.755859375,
    -2.888671875,
    -2.6953125,
    -0.01451873779296875,
    -3.47265625,
    -1.060546875,
    -2.951171875,
    -0.74853515625,
    -3.013671875,
    -1.482421875,
    -2.263671875,
    -1.400390625,
    -2.51171875,
    -3.841796875,
    -2.904296875,
    -1.171875,
    -2.337890625,
    0.366455078125,
    -1.966796875,
    -0.91357421875,
    -1.416015625,
    -2.931640625,
    -1.955078125
  ],
  "router_probabilities": [
    0.005496485158801079,
    0.021018804982304573,
    0.0020023933611810207,
    0.11564157903194427,
    0.009846505708992481,
    0.0012953700497746468,
    0.0017914316849783063,
    0.004092626739293337,
    0.07913071662187576,
    0.026936016976833344,
    0.01169301476329565,
    0.004907808732241392,
    0.009404781274497509,
    0.010228753089904785,
    0.0020141606219112873,
    0.003432901343330741,
    0.003682965412735939,
    0.03964397311210632,
    0.055345386266708374,
    0.0009149737888947129,
    0.007324450649321079,
    0.004601463675498962,
    0.0024106348864734173,
    0.0011679858434945345,
    0.0644979402422905,
    0.0021693364251405,
    0.0030772327445447445,
    0.004955971613526344,
    0.00417334632948041,
    0.012879944406449795,
    0.09838363528251648,
    0.008965346030890942,
    0.009222876280546188,
    0.003562687197700143,
    0.0074689132161438465,
    0.0052653104066848755,
    0.025564847514033318,
    0.004898232873529196,
    0.0047290208749473095,
    0.00290210684761405,
    0.0010408590314909816,
    0.0012928424403071404,
    0.0030772327445447445,
    0.003733664285391569,
    0.05449908226728439,
    0.001716086408123374,
    0.01914718560874462,
    0.0028907926753163338,
    0.026158323511481285,
    0.0027156483847647905,
    0.012557030655443668,
    0.005749027710407972,
    0.013630528002977371,
    0.004486100748181343,
    0.001186378882266581,
    0.0030295245815068483,
    0.017129937186837196,
    0.0053377915173769,
    0.07977081090211868,
    0.007736162282526493,
    0.022178612649440765,
    0.013419206254184246,
    0.002947808476164937,
    0.007827353663742542
  ],
  "selected_expert_ids": [
    3,
    30,
    58,
    8,
    24,
    18,
    44,
    17
  ],
  "effective_gate_weights": [
    0.11564157903194427,
    0.09838363528251648,
    0.07977081090211868,
    0.07913071662187576,
    0.0644979402422905,
    0.055345386266708374,
    0.05449908226728439,
    0.03964397311210632
  ],
  "topk_ranks": [
    0,
    1,
    2,
    3,
    4,
    5,
    6,
    7
  ],
  "top1_top2_gap": 0.017257943749427795,
  "routing_entropy": 3.3853261470794678,
  "sample_id": "layer_15_sample_023",
  "microbatch_id": null,
  "sequence_length": 8,
  "all_expert_count": 64,
  "selected_destination_ids": [
    3,
    30,
    58,
    8,
    24,
    18,
    44,
    17
  ],
  "expert_to_destination_map": {},
  "layer_name": "model.layers.15.mlp",
  "run_id": null,
  "mode": "real",
  "all_token_selected_expert_ids": [
    [
      8,
      44,
      30,
      23,
      5,
      22,
      42,
      58
    ],
    [
      24,
      8,
      30,
      58,
      18,
      2,
      3,
      17
    ],
    [
      8,
      30,
      58,
      24,
      3,
      60,
      9,
      17
    ],
    [
      30,
      8,
      58,
      44,
      24,
      36,
      17,
      18
    ],
    [
      30,
      36,
      8,
      58,
      31,
      44,
      0,
      43
    ],
    [
      44,
      24,
      30,
      8,
      58,
      18,
      36,
      3
    ],
    [
      3,
      30,
      58,
      8,
      24,
      18,
      44,
      17
    ],
    [
      24,
      3,
      30,
      18,
      8,
      44,
      58,
      36
    ]
  ]
}