{
  "layer_path": "model.layers.15.mlp",
  "layer_id": 15,
  "token_pos": 14,
  "target_token_id": 3468,
  "target_token_text": " slow",
  "next_token_id": 12095,
  "next_token_text": " destination",
  "router_logits": [
    -1.40234375,
    -2.583984375,
    -1.771484375,
    -2.404296875,
    -2.064453125,
    -1.08203125,
    -2.49609375,
    -0.09100341796875,
    -1.703125,
    -2.13671875,
    -3.12109375,
    -4.1484375,
    -1.359375,
    -2.98046875,
    -1.6201171875,
    -3.060546875,
    -2.501953125,
    -0.9404296875,
    -1.7294921875,
    -1.6787109375,
    -0.478271484375,
    0.052215576171875,
    0.79345703125,
    -1.2177734375,
    -1.109375,
    -0.01299285888671875,
    -0.2413330078125,
    -1.2197265625,
    -2.0703125,
    -1.703125,
    -1.0419921875,
    -0.293212890625,
    -2.986328125,
    -3.544921875,
    -0.16064453125,
    -2.5,
    -1.865234375,
    -2.466796875,
    -0.6982421875,
    -0.888671875,
    -2.697265625,
    -2.390625,
    -0.77001953125,
    -2.185546875,
    -1.6884765625,
    -1.998046875,
    -3.564453125,
    -1.8994140625,
    -1.7734375,
    -1.154296875,
    -2.095703125,
    -0.1658935546875,
    -1.404296875,
    -2.19921875,
    -2.537109375,
    0.1700439453125,
    -1.7890625,
    -2.28515625,
    -2.751953125,
    -0.8798828125,
    -3.19140625,
    -0.72607421875,
    -3.390625,
    0.33251953125
  ],
  "router_probabilities": [
    0.01174450758844614,
    0.003602921264246106,
    0.008119309321045876,
    0.0043121324852108955,
    0.006057373248040676,
    0.016178742051124573,
    0.003933917265385389,
    0.04358556494116783,
    0.008693750016391277,
    0.005635076202452183,
    0.0021056742407381535,
    0.0007537397905252874,
    0.012260152958333492,
    0.002423616126179695,
    0.00944619718939066,
    0.0022371048107743263,
    0.0039109340868890285,
    0.018639812245965004,
    0.008467516861855984,
    0.00890861265361309,
    0.029590636491775513,
    0.050296977162361145,
    0.10555017739534378,
    0.014125136658549309,
    0.0157423485070467,
    0.047121837735176086,
    0.03750208020210266,
    0.014097576029598713,
    0.006021984852850437,
    0.008693750016391277,
    0.016839666292071342,
    0.035606082528829575,
    0.0024094567634165287,
    0.0013782402966171503,
    0.040653496980667114,
    0.003918580245226622,
    0.007392715197056532,
    0.004050873685628176,
    0.02374773658812046,
    0.01962997019290924,
    0.0032170468475669622,
    0.004371492192149162,
    0.022102924063801765,
    0.005366535857319832,
    0.00882203783839941,
    0.0064732772298157215,
    0.001351582701317966,
    0.007144303992390633,
    0.008103466592729092,
    0.015050821006298065,
    0.005871007684618235,
    0.04044066742062569,
    0.011721591465175152,
    0.005293664056807756,
    0.0037758294492959976,
    0.05658666789531708,
    0.007977833971381187,
    0.004857739433646202,
    0.0030458387918770313,
    0.019803261384367943,
    0.0019627041183412075,
    0.023095902055501938,
    0.0016081820940598845,
    0.06656966358423233
  ],
  "selected_expert_ids": [
    22,
    63,
    55,
    21,
    25,
    7,
    34,
    51
  ],
  "effective_gate_weights": [
    0.10555017739534378,
    0.06656966358423233,
    0.05658666789531708,
    0.050296977162361145,
    0.047121837735176086,
    0.04358556494116783,
    0.040653496980667114,
    0.04044066742062569
  ],
  "topk_ranks": [
    0,
    1,
    2,
    3,
    4,
    5,
    6,
    7
  ],
  "top1_top2_gap": 0.03898051381111145,
  "routing_entropy": 3.6370716094970703,
  "sample_id": "layer_15_sample_047",
  "microbatch_id": null,
  "sequence_length": 16,
  "all_expert_count": 64,
  "selected_destination_ids": [
    22,
    63,
    55,
    21,
    25,
    7,
    34,
    51
  ],
  "expert_to_destination_map": {},
  "layer_name": "model.layers.15.mlp",
  "run_id": null,
  "mode": "real",
  "all_token_selected_expert_ids": [
    [
      46,
      4,
      50,
      63,
      10,
      13,
      8,
      48
    ],
    [
      44,
      18,
      24,
      47,
      8,
      32,
      30,
      34
    ],
    [
      24,
      58,
      52,
      60,
      59,
      12,
      9,
      38
    ],
    [
      30,
      17,
      24,
      8,
      58,
      23,
      28,
      36
    ],
    [
      23,
      28,
      2,
      34,
      24,
      26,
      17,
      38
    ],
    [
      26,
      47,
      38,
      21,
      39,
      7,
      17,
      55
    ],
    [
      43,
      29,
      31,
      36,
      0,
      6,
      17,
      41
    ],
    [
      29,
      1,
      31,
      60,
      34,
      58,
      17,
      38
    ],
    [
      55,
      21,
      34,
      5,
      26,
      7,
      38,
      17
    ],
    [
      28,
      24,
      4,
      54,
      42,
      25,
      2,
      17
    ],
    [
      21,
      7,
      25,
      55,
      61,
      34,
      27,
      42
    ],
    [
      7,
      21,
      25,
      61,
      56,
      55,
      34,
      42
    ],
    [
      55,
      7,
      21,
      25,
      34,
      20,
      42,
      27
    ],
    [
      55,
      7,
      25,
      21,
      34,
      51,
      42,
      63
    ],
    [
      22,
      63,
      55,
      21,
      25,
      7,
      34,
      51
    ],
    [
      23,
      28,
      25,
      2,
      54,
      26,
      34,
      42
    ]
  ]
}