{
  "layer_path": "model.layers.15.mlp",
  "layer_id": 15,
  "token_pos": 5,
  "target_token_id": 4536,
  "target_token_text": " sometimes",
  "next_token_id": 10313,
  "next_token_text": " reveal",
  "router_logits": [
    -2.1640625,
    -2.0078125,
    -2.82421875,
    -1.9443359375,
    1.2392578125,
    -2.59375,
    -1.552734375,
    -3.25390625,
    -1.3408203125,
    -1.3154296875,
    0.8681640625,
    -0.6875,
    -1.3525390625,
    1.02734375,
    -3.767578125,
    -1.4384765625,
    -1.9150390625,
    -0.2354736328125,
    -1.33203125,
    -1.640625,
    -2.54296875,
    -3.61328125,
    -1.26953125,
    -3.66015625,
    -0.8583984375,
    -3.416015625,
    -3.228515625,
    -2.724609375,
    -0.9453125,
    -1.154296875,
    -0.324951171875,
    -2.1875,
    -1.236328125,
    -0.85986328125,
    1.060546875,
    -1.5947265625,
    -2.771484375,
    -0.431884765625,
    -2.423828125,
    -1.591796875,
    -2.47265625,
    -3.095703125,
    -2.302734375,
    -2.177734375,
    -1.486328125,
    -0.76220703125,
    0.94189453125,
    -2.150390625,
    -0.9716796875,
    -3.365234375,
    0.23583984375,
    -1.1396484375,
    -1.517578125,
    -1.533203125,
    -0.79736328125,
    -3.640625,
    -1.6455078125,
    -1.375,
    -3.328125,
    -1.125,
    -3.875,
    -3.8203125,
    -1.5498046875,
    0.8203125
  ],
  "router_probabilities": [
    0.0038758092559874058,
    0.0045312801375985146,
    0.0020029041916131973,
    0.004828235134482384,
    0.11652138084173203,
    0.0025220371317118406,
    0.007142641115933657,
    0.0013033145805820823,
    0.0088286017999053,
    0.009055635891854763,
    0.0803973376750946,
    0.016967792063951492,
    0.008725745603442192,
    0.0942697823047638,
    0.0007797661819495261,
    0.008007194846868515,
    0.004971779882907867,
    0.026664773002266884,
    0.008906539529561996,
    0.006541666574776173,
    0.002653416944667697,
    0.0009098602458834648,
    0.009480961598455906,
    0.0008681946783326566,
    0.014302273280918598,
    0.0011082713026553392,
    0.0013368303189054132,
    0.002212687162682414,
    0.013111693784594536,
    0.010638931766152382,
    0.02438250370323658,
    0.003786026267334819,
    0.009801043197512627,
    0.014281338080763817,
    0.09745237976312637,
    0.006848916411399841,
    0.002111360663548112,
    0.02190976031124592,
    0.002989149419590831,
    0.006869011092931032,
    0.0028467008378356695,
    0.0015267081325873733,
    0.003373944666236639,
    0.0038231799844652414,
    0.0076330602169036865,
    0.01574637182056904,
    0.0865490660071373,
    0.003929162863641977,
    0.012770493514835835,
    0.0011660041054710746,
    0.04271955415606499,
    0.010795922949910164,
    0.007398215588182211,
    0.00728351715952158,
    0.015202406793832779,
    0.0008853182662278414,
    0.006509802769869566,
    0.008531942032277584,
    0.0012100866297259927,
    0.010955230332911015,
    0.0007003444479778409,
    0.0007397111621685326,
    0.007163597270846367,
    0.0766407921910286
  ],
  "selected_expert_ids": [
    4,
    34,
    13,
    46,
    10,
    63,
    50,
    17
  ],
  "effective_gate_weights": [
    0.11652138084173203,
    0.09745237976312637,
    0.0942697823047638,
    0.0865490660071373,
    0.0803973376750946,
    0.0766407921910286,
    0.04271955415606499,
    0.026664773002266884
  ],
  "topk_ranks": [
    0,
    1,
    2,
    3,
    4,
    5,
    6,
    7
  ],
  "top1_top2_gap": 0.019069001078605652,
  "routing_entropy": 3.3173668384552,
  "sample_id": "layer_15_sample_006",
  "microbatch_id": null,
  "sequence_length": 7,
  "all_expert_count": 64,
  "selected_destination_ids": [
    4,
    34,
    13,
    46,
    10,
    63,
    50,
    17
  ],
  "expert_to_destination_map": {},
  "layer_name": "model.layers.15.mlp",
  "run_id": null,
  "mode": "real",
  "all_token_selected_expert_ids": [
    [
      20,
      36,
      0,
      53,
      41,
      63,
      24,
      35
    ],
    [
      20,
      55,
      63,
      21,
      7,
      26,
      38,
      27
    ],
    [
      5,
      34,
      20,
      38,
      26,
      55,
      21,
      23
    ],
    [
      34,
      54,
      28,
      30,
      17,
      13,
      10,
      24
    ],
    [
      4,
      34,
      13,
      46,
      10,
      63,
      50,
      30
    ],
    [
      4,
      34,
      13,
      46,
      10,
      63,
      50,
      17
    ],
    [
      34,
      7,
      21,
      61,
      56,
      38,
      26,
      25
    ]
  ]
}