{
  "layer_path": "model.layers.15.mlp",
  "layer_id": 15,
  "token_pos": 12,
  "target_token_id": 12240,
  "target_token_text": " completion",
  "next_token_id": 32,
  "next_token_text": "?",
  "router_logits": [
    -1.9638671875,
    -2.2734375,
    -0.4208984375,
    -2.099609375,
    -2.35546875,
    -2.72265625,
    -1.6005859375,
    -4.6171875,
    -1.068359375,
    -1.22265625,
    -3.6953125,
    -2.54296875,
    -1.8818359375,
    -3.556640625,
    -3.119140625,
    -2.07421875,
    -2.259765625,
    -1.1787109375,
    -1.79296875,
    -2.275390625,
    -2.634765625,
    -3.974609375,
    -1.79296875,
    -0.9052734375,
    -1.73046875,
    -2.44140625,
    -2.125,
    -2.62890625,
    -1.740234375,
    -1.8076171875,
    -0.556640625,
    -1.9482421875,
    -2.517578125,
    -1.6220703125,
    -1.5146484375,
    -1.6162109375,
    -1.9599609375,
    -2.69921875,
    -2.3125,
    -2.130859375,
    -2.515625,
    -2.611328125,
    -1.736328125,
    -1.8603515625,
    -1.6533203125,
    -2.953125,
    -4.08984375,
    -0.64306640625,
    -2.037109375,
    -3.86328125,
    -2.509765625,
    -1.8642578125,
    -2.107421875,
    -1.8232421875,
    -1.9560546875,
    -3.775390625,
    -4.21875,
    -1.7919921875,
    -1.560546875,
    -1.9580078125,
    -3.537109375,
    -3.859375,
    -2.859375,
    -3.751953125
  ],
  "router_probabilities": [
    0.015196302905678749,
    0.011150473728775978,
    0.07109528034925461,
    0.013267401605844498,
    0.010272297076880932,
    0.007115412037819624,
    0.021852895617485046,
    0.0010700783459469676,
    0.037209346890449524,
    0.031889066100120544,
    0.002690176712349057,
    0.008516033180058002,
    0.01649543084204197,
    0.003090332727879286,
    0.004786401055753231,
    0.013608582317829132,
    0.011303967796266079,
    0.03332168608903885,
    0.018028443679213524,
    0.011128715239465237,
    0.007769095711410046,
    0.002034622011706233,
    0.018028443679213524,
    0.043800532817840576,
    0.019191177561879158,
    0.009426389820873737,
    0.012934775091707706,
    0.00781475193798542,
    0.01900467649102211,
    0.017766278237104416,
    0.06207099184393883,
    0.015435609966516495,
    0.00873502902686596,
    0.021388407796621323,
    0.023813936859369278,
    0.021514099091291428,
    0.015255779959261417,
    0.007284149527549744,
    0.010723305866122246,
    0.012859206646680832,
    0.008752106688916683,
    0.007953334599733353,
    0.01907905749976635,
    0.016853658482432365,
    0.020730355754494667,
    0.005650784820318222,
    0.0018131680553779006,
    0.056931737810373306,
    0.014123075641691685,
    0.002274222206324339,
    0.008803538978099823,
    0.016787953674793243,
    0.013164153322577477,
    0.01749083772301674,
    0.01531548984348774,
    0.0024831523187458515,
    0.0015938769793137908,
    0.018046056851744652,
    0.022745618596673012,
    0.015285606496036053,
    0.0031512840650975704,
    0.0022831233218312263,
    0.00620617251843214,
    0.0025420382153242826
  ],
  "selected_expert_ids": [
    2,
    30,
    47,
    23,
    8,
    17,
    9,
    34
  ],
  "effective_gate_weights": [
    0.07109528034925461,
    0.06207099184393883,
    0.056931737810373306,
    0.043800532817840576,
    0.037209346890449524,
    0.03332168608903885,
    0.031889066100120544,
    0.023813936859369278
  ],
  "topk_ranks": [
    0,
    1,
    2,
    3,
    4,
    5,
    6,
    7
  ],
  "top1_top2_gap": 0.00902428850531578,
  "routing_entropy": 3.84507417678833,
  "sample_id": "layer_15_sample_038",
  "microbatch_id": null,
  "sequence_length": 14,
  "all_expert_count": 64,
  "selected_destination_ids": [
    2,
    30,
    47,
    23,
    8,
    17,
    9,
    34
  ],
  "expert_to_destination_map": {},
  "layer_name": "model.layers.15.mlp",
  "run_id": null,
  "mode": "real",
  "all_token_selected_expert_ids": [
    [
      12,
      63,
      28,
      40,
      22,
      50,
      52,
      14
    ],
    [
      2,
      24,
      44,
      54,
      12,
      28,
      59,
      30
    ],
    [
      61,
      56,
      38,
      7,
      51,
      26,
      25,
      21
    ],
    [
      55,
      51,
      21,
      7,
      20,
      38,
      26,
      25
    ],
    [
      20,
      17,
      34,
      55,
      63,
      21,
      51,
      7
    ],
    [
      54,
      13,
      10,
      28,
      23,
      45,
      46,
      17
    ],
    [
      62,
      45,
      13,
      15,
      48,
      10,
      46,
      17
    ],
    [
      62,
      45,
      13,
      15,
      10,
      46,
      17,
      63
    ],
    [
      20,
      55,
      21,
      26,
      39,
      17,
      7,
      48
    ],
    [
      23,
      54,
      17,
      15,
      62,
      45,
      30,
      13
    ],
    [
      13,
      46,
      10,
      28,
      45,
      56,
      17,
      34
    ],
    [
      22,
      30,
      56,
      47,
      17,
      61,
      7,
      26
    ],
    [
      2,
      30,
      47,
      23,
      8,
      17,
      9,
      34
    ],
    [
      52,
      58,
      30,
      60,
      12,
      8,
      24,
      17
    ]
  ]
}