{
  "layer_path": "model.layers.15.mlp",
  "layer_id": 15,
  "token_pos": 11,
  "target_token_id": 12672,
  "target_token_text": " computing",
  "next_token_id": 32,
  "next_token_text": "?",
  "router_logits": [
    -2.55078125,
    -2.505859375,
    -0.34521484375,
    -1.8515625,
    -2.37890625,
    -2.158203125,
    -2.41015625,
    -1.0107421875,
    -1.150390625,
    -2.7265625,
    -3.466796875,
    -3.123046875,
    -2.232421875,
    -3.265625,
    -2.36328125,
    -2.005859375,
    -2.431640625,
    -0.01141357421875,
    -2.015625,
    -2.57421875,
    -0.390380859375,
    -0.55322265625,
    -1.017578125,
    -2.396484375,
    -1.1728515625,
    -1.0537109375,
    -1.224609375,
    -1.6123046875,
    -1.380859375,
    -1.7880859375,
    0.1651611328125,
    -2.21484375,
    -2.51171875,
    -1.9462890625,
    0.437744140625,
    -2.20703125,
    -1.708984375,
    -2.986328125,
    -1.2158203125,
    -2.21484375,
    -2.740234375,
    -2.91796875,
    -1.6591796875,
    -2.646484375,
    -1.556640625,
    -3.435546875,
    -4.0234375,
    -0.36279296875,
    -2.46875,
    -1.974609375,
    -2.943359375,
    -1.2412109375,
    -1.716796875,
    -2.333984375,
    -1.927734375,
    -0.94140625,
    -0.724609375,
    -2.0625,
    -1.5078125,
    -2.3671875,
    -3.267578125,
    -1.634765625,
    -2.49609375,
    -3.103515625
  ],
  "router_probabilities": [
    0.005240354221314192,
    0.005481128580868244,
    0.0475582629442215,
    0.01054453756660223,
    0.006223075091838837,
    0.007759883068501949,
    0.006031611002981663,
    0.0244450606405735,
    0.021258987486362457,
    0.004395616706460714,
    0.002096718642860651,
    0.0029568469617515802,
    0.007204807363450527,
    0.002563940826803446,
    0.006321073975414038,
    0.009036853909492493,
    0.00590340793132782,
    0.06640397012233734,
    0.008949032053351402,
    0.005118961911648512,
    0.04545803368091583,
    0.03862685337662697,
    0.02427852526307106,
    0.006114640738815069,
    0.020786814391613007,
    0.02341693453490734,
    0.019738303497433662,
    0.013394787907600403,
    0.016883064061403275,
    0.01123556774109602,
    0.07922814041376114,
    0.007332574110478163,
    0.005449106451123953,
    0.009591538459062576,
    0.10405447334051132,
    0.007390084210783243,
    0.012160415761172771,
    0.0033900418784469366,
    0.01991254836320877,
    0.007332574110478163,
    0.00433592963963747,
    0.0036298877093940973,
    0.012781396508216858,
    0.004762087017297745,
    0.01416153833270073,
    0.002163275610655546,
    0.001201694831252098,
    0.04672958329319954,
    0.005688351113349199,
    0.009323714300990105,
    0.0035388825926929712,
    0.01941332034766674,
    0.012065782211720943,
    0.006509001366794109,
    0.009771168231964111,
    0.026200124993920326,
    0.03254295885562897,
    0.008539226837456226,
    0.014870179817080498,
    0.006296430714428425,
    0.002558937994763255,
    0.013097282499074936,
    0.005534917116165161,
    0.0030151656828820705
  ],
  "selected_expert_ids": [
    34,
    30,
    17,
    2,
    47,
    20,
    21,
    56
  ],
  "effective_gate_weights": [
    0.10405447334051132,
    0.07922814041376114,
    0.06640397012233734,
    0.0475582629442215,
    0.04672958329319954,
    0.04545803368091583,
    0.03862685337662697,
    0.03254295885562897
  ],
  "topk_ranks": [
    0,
    1,
    2,
    3,
    4,
    5,
    6,
    7
  ],
  "top1_top2_gap": 0.024826332926750183,
  "routing_entropy": 3.6709327697753906,
  "sample_id": "layer_15_sample_039",
  "microbatch_id": null,
  "sequence_length": 13,
  "all_expert_count": 64,
  "selected_destination_ids": [
    34,
    30,
    17,
    2,
    47,
    20,
    21,
    56
  ],
  "expert_to_destination_map": {},
  "layer_name": "model.layers.15.mlp",
  "run_id": null,
  "mode": "real",
  "all_token_selected_expert_ids": [
    [
      12,
      37,
      4,
      50,
      39,
      0,
      63,
      38
    ],
    [
      20,
      55,
      21,
      38,
      7,
      52,
      39,
      26
    ],
    [
      17,
      34,
      20,
      30,
      55,
      21,
      8,
      7
    ],
    [
      34,
      4,
      17,
      54,
      30,
      13,
      10,
      5
    ],
    [
      4,
      54,
      34,
      13,
      10,
      46,
      17,
      30
    ],
    [
      34,
      21,
      7,
      61,
      56,
      38,
      26,
      30
    ],
    [
      34,
      2,
      5,
      17,
      23,
      42,
      26,
      54
    ],
    [
      34,
      23,
      2,
      17,
      54,
      26,
      30,
      42
    ],
    [
      34,
      61,
      56,
      7,
      30,
      21,
      38,
      17
    ],
    [
      54,
      4,
      13,
      46,
      10,
      34,
      28,
      51
    ],
    [
      44,
      13,
      46,
      10,
      34,
      56,
      30,
      51
    ],
    [
      34,
      30,
      17,
      2,
      47,
      20,
      21,
      56
    ],
    [
      52,
      34,
      58,
      24,
      60,
      3,
      30,
      17
    ]
  ]
}