{
  "layer_path": "model.layers.15.mlp",
  "layer_id": 15,
  "token_pos": 5,
  "target_token_id": 407,
  "target_token_text": " by",
  "next_token_id": 4886,
  "next_token_text": " moving",
  "router_logits": [
    -2.509765625,
    -1.6904296875,
    -2.23828125,
    -0.751953125,
    -0.96923828125,
    -3.958984375,
    -1.74609375,
    -1.720703125,
    0.36181640625,
    -1.4453125,
    0.74658203125,
    -1.4658203125,
    -1.962890625,
    0.7490234375,
    -2.970703125,
    -1.005859375,
    -1.673828125,
    0.515625,
    -1.498046875,
    -3.615234375,
    -1.6337890625,
    -2.30078125,
    -1.431640625,
    -3.466796875,
    -1.41015625,
    -3.525390625,
    -2.33203125,
    -2.173828125,
    -0.90576171875,
    -1.1767578125,
    1.0537109375,
    -2.009765625,
    -1.93359375,
    -2.41796875,
    -0.1993408203125,
    -1.94921875,
    -2.515625,
    -1.34375,
    -2.2421875,
    -1.7431640625,
    -2.53515625,
    -4.0078125,
    -2.828125,
    -2.5078125,
    -1.2919921875,
    -1.162109375,
    0.76416015625,
    -1.4453125,
    -1.025390625,
    -3.134765625,
    -1.26171875,
    -1.84765625,
    -1.2822265625,
    -1.90234375,
    -1.2666015625,
    -2.8671875,
    0.5859375,
    -1.7763671875,
    -1.53125,
    -1.4169921875,
    -1.9794921875,
    -0.8837890625,
    -0.970703125,
    -0.6005859375
  ],
  "router_probabilities": [
    0.003163436893373728,
    0.007177815306931734,
    0.0041501461528241634,
    0.018347101286053658,
    0.014763920567929745,
    0.0007426282973028719,
    0.006789185106754303,
    0.006963774096220732,
    0.055881936103105545,
    0.009171604178845882,
    0.08210564404726028,
    0.008985430002212524,
    0.005465928465127945,
    0.08230634778738022,
    0.001995154656469822,
    0.014233029447495937,
    0.007297972217202187,
    0.06517329066991806,
    0.008700476959347725,
    0.0010472737485542893,
    0.007596105337142944,
    0.003898701397702098,
    0.00929785892367363,
    0.0012148587265983224,
    0.009499778039753437,
    0.001145720947533846,
    0.0037787510082125664,
    0.004426443949341774,
    0.015731466934084892,
    0.011997123248875141,
    0.11162395030260086,
    0.005215625744313002,
    0.005628432147204876,
    0.003467576578259468,
    0.031883347779512405,
    0.005541171878576279,
    0.003144955262541771,
    0.010152040049433708,
    0.004133965820074081,
    0.006809104699641466,
    0.0030841263942420483,
    0.0007072381558828056,
    0.0023008985444903374,
    0.0031696215737611055,
    0.010691323317587376,
    0.012174155563116074,
    0.08356166630983353,
    0.009171604178845882,
    0.013957737945020199,
    0.0016932657454162836,
    0.011019935831427574,
    0.00613351771607995,
    0.010796242393553257,
    0.005807097535580397,
    0.010966258123517036,
    0.002212752588093281,
    0.06992072612047195,
    0.006586733274161816,
    0.008416336961090565,
    0.009435059502720833,
    0.0053759352304041386,
    0.016080955043435097,
    0.014742310158908367,
    0.021345453336834908
  ],
  "selected_expert_ids": [
    30,
    46,
    13,
    10,
    56,
    17,
    8,
    34
  ],
  "effective_gate_weights": [
    0.11162395030260086,
    0.08356166630983353,
    0.08230634778738022,
    0.08210564404726028,
    0.06992072612047195,
    0.06517329066991806,
    0.055881936103105545,
    0.031883347779512405
  ],
  "topk_ranks": [
    0,
    1,
    2,
    3,
    4,
    5,
    6,
    7
  ],
  "top1_top2_gap": 0.028062283992767334,
  "routing_entropy": 3.456782579421997,
  "sample_id": "layer_15_sample_009",
  "microbatch_id": null,
  "sequence_length": 7,
  "all_expert_count": 64,
  "selected_destination_ids": [
    30,
    46,
    13,
    10,
    56,
    17,
    8,
    34
  ],
  "expert_to_destination_map": {},
  "layer_name": "model.layers.15.mlp",
  "run_id": null,
  "mode": "real",
  "all_token_selected_expert_ids": [
    [
      55,
      21,
      20,
      63,
      7,
      14,
      52,
      40
    ],
    [
      54,
      30,
      13,
      10,
      46,
      28,
      8,
      17
    ],
    [
      30,
      22,
      17,
      8,
      56,
      7,
      21,
      58
    ],
    [
      30,
      20,
      55,
      17,
      21,
      8,
      7,
      22
    ],
    [
      30,
      17,
      54,
      2,
      58,
      8,
      23,
      22
    ],
    [
      30,
      46,
      13,
      10,
      56,
      17,
      8,
      34
    ],
    [
      30,
      22,
      17,
      56,
      8,
      21,
      20,
      7
    ]
  ]
}