{
  "layer_path": "model.layers.8.mlp",
  "layer_id": 8,
  "token_pos": 6,
  "target_token_id": 29771,
  "target_token_text": " reacted",
  "next_token_id": 281,
  "next_token_text": " to",
  "router_logits": [
    -0.95166015625,
    -2.380859375,
    -1.62109375,
    -1.2177734375,
    -0.126708984375,
    0.431640625,
    -1.7138671875,
    -0.96435546875,
    -0.623046875,
    -1.2197265625,
    -2.58984375,
    0.59765625,
    -2.470703125,
    -1.685546875,
    -0.6455078125,
    -1.046875,
    -1.435546875,
    0.564453125,
    -0.62744140625,
    -0.1737060546875,
    -0.71533203125,
    -2.26953125,
    -1.3095703125,
    -1.4619140625,
    -1.298828125,
    -0.9599609375,
    -0.92626953125,
    -1.3271484375,
    0.57470703125,
    -2.041015625,
    -2.087890625,
    -1.1181640625,
    -1.1015625,
    -1.044921875,
    0.137939453125,
    -2.84765625,
    -0.0118408203125,
    -1.083984375,
    -0.428466796875,
    -0.35009765625,
    -0.385009765625,
    -0.81884765625,
    -0.92138671875,
    -0.295654296875,
    -1.48046875,
    -0.9560546875,
    0.82275390625,
    -0.65283203125,
    -1.26953125,
    -0.986328125,
    -2.064453125,
    -1.111328125,
    -1.4052734375,
    -1.7255859375,
    -1.04296875,
    -2.1484375,
    -1.1826171875,
    -1.4912109375,
    -0.5517578125,
    -0.6962890625,
    -1.0087890625,
    -1.154296875,
    -0.6025390625,
    -1.833984375
  ],
  "router_probabilities": [
    0.01237331423908472,
    0.0029634167440235615,
    0.006335118319839239,
    0.00948231853544712,
    0.02823304757475853,
    0.049345314502716064,
    0.005773826502263546,
    0.012217223644256592,
    0.01718703657388687,
    0.009463815949857235,
    0.0024045396130532026,
    0.058256663382053375,
    0.0027087819762527943,
    0.005939680617302656,
    0.01680530235171318,
    0.011249540373682976,
    0.007626700680702925,
    0.05635412037372589,
    0.017111672088503838,
    0.02693687565624714,
    0.01567191444337368,
    0.0033123933244496584,
    0.008650627918541431,
    0.007428234443068504,
    0.008744055405259132,
    0.012271030806005001,
    0.012691502459347248,
    0.008499895222485065,
    0.05693494528532028,
    0.004162794444710016,
    0.00397216621786356,
    0.010475489310920238,
    0.01065085083246231,
    0.011271532624959946,
    0.036786895245313644,
    0.0018580842297524214,
    0.031669732183218,
    0.010839727707207203,
    0.020878825336694717,
    0.02258090302348137,
    0.021806159988045692,
    0.014130768366158009,
    0.012753624469041824,
    0.023844365030527115,
    0.007291676010936499,
    0.012319059111177921,
    0.07296326756477356,
    0.016682665795087814,
    0.009004018269479275,
    0.011951707303524017,
    0.00406636344268918,
    0.010547344572842121,
    0.007861117832362652,
    0.005706558935344219,
    0.011293569579720497,
    0.003738800063729286,
    0.009821610525250435,
    0.007213767152279615,
    0.018457014113664627,
    0.01597321406006813,
    0.011686252430081367,
    0.010103736072778702,
    0.017543142661452293,
    0.005120324436575174
  ],
  "selected_expert_ids": [
    46,
    11,
    28,
    17,
    5,
    34,
    36,
    4
  ],
  "effective_gate_weights": [
    0.07296326756477356,
    0.058256663382053375,
    0.05693494528532028,
    0.05635412037372589,
    0.049345314502716064,
    0.036786895245313644,
    0.031669732183218,
    0.02823304757475853
  ],
  "topk_ranks": [
    0,
    1,
    2,
    3,
    4,
    5,
    6,
    7
  ],
  "top1_top2_gap": 0.014706604182720184,
  "routing_entropy": 3.8316094875335693,
  "sample_id": "sample_009",
  "microbatch_id": null,
  "sequence_length": 8,
  "all_expert_count": 64,
  "selected_destination_ids": [
    46,
    11,
    28,
    17,
    5,
    34,
    36,
    4
  ],
  "expert_to_destination_map": {},
  "layer_name": "model.layers.8.mlp",
  "run_id": null,
  "mode": "real",
  "all_token_selected_expert_ids": [
    [
      22,
      7,
      29,
      32,
      60,
      1,
      59,
      33
    ],
    [
      53,
      32,
      22,
      18,
      23,
      3,
      14,
      61
    ],
    [
      6,
      49,
      55,
      57,
      11,
      38,
      12,
      51
    ],
    [
      34,
      5,
      11,
      62,
      17,
      63,
      19,
      28
    ],
    [
      21,
      10,
      35,
      50,
      18,
      1,
      30,
      11
    ],
    [
      11,
      55,
      57,
      49,
      63,
      5,
      12,
      34
    ],
    [
      46,
      11,
      28,
      17,
      5,
      34,
      36,
      4
    ],
    [
      28,
      0,
      17,
      18,
      11,
      46,
      4,
      47
    ]
  ]
}