{
  "layer_path": "model.layers.8.mlp",
  "layer_id": 8,
  "token_pos": 6,
  "target_token_id": 20843,
  "target_token_text": " isolate",
  "next_token_id": 253,
  "next_token_text": " the",
  "router_logits": [
    -0.1844482421875,
    -2.046875,
    -0.78759765625,
    0.47802734375,
    -1.49609375,
    -0.71044921875,
    -0.56982421875,
    -0.59228515625,
    0.53662109375,
    -0.4248046875,
    -2.234375,
    -0.08892822265625,
    -1.873046875,
    -1.419921875,
    0.6875,
    -1.08203125,
    -0.168701171875,
    1.0087890625,
    -0.25146484375,
    -1.1572265625,
    -0.415771484375,
    -1.8623046875,
    -1.0615234375,
    -1.318359375,
    -0.8447265625,
    -0.642578125,
    -1.1103515625,
    -0.6455078125,
    1.166015625,
    -1.998046875,
    -1.5068359375,
    -1.7177734375,
    -1.0166015625,
    -0.873046875,
    -0.33056640625,
    -2.552734375,
    -0.2169189453125,
    -0.92041015625,
    -0.1019287109375,
    -0.83642578125,
    -0.83251953125,
    -1.2333984375,
    1.0107421875,
    -1.466796875,
    -1.2587890625,
    -1.26171875,
    -1.2099609375,
    0.6591796875,
    -0.93212890625,
    -0.66357421875,
    -2.1796875,
    0.0799560546875,
    -0.282470703125,
    -1.1875,
    1.337890625,
    -1.357421875,
    0.422119140625,
    -0.404541015625,
    -0.62158203125,
    -1.3017578125,
    -0.52734375,
    -1.10546875,
    0.221923828125,
    -0.74462890625
  ],
  "router_probabilities": [
    0.01802573725581169,
    0.00279931235127151,
    0.009861626662313938,
    0.03496250510215759,
    0.004855708684772253,
    0.010652553290128708,
    0.012261013500392437,
    0.011988690122961998,
    0.03707229718565941,
    0.014174493961036205,
    0.002320711500942707,
    0.019832471385598183,
    0.003330764826387167,
    0.005240028258413076,
    0.04310973361134529,
    0.007346452679485083,
    0.018311835825443268,
    0.05944418907165527,
    0.01685730367898941,
    0.006814292632043362,
    0.01430311519652605,
    0.0033667373936623335,
    0.007498667575418949,
    0.005800182931125164,
    0.009314034134149551,
    0.011400653049349785,
    0.007141317240893841,
    0.01136730145663023,
    0.06956519931554794,
    0.0029393895529210567,
    0.004803827032446861,
    0.0038902575615793467,
    0.007843202911317348,
    0.009053957648575306,
    0.01557523850351572,
    0.0016879495233297348,
    0.01744982972741127,
    0.00863512884825468,
    0.019576309248805046,
    0.009391669183969498,
    0.009428426623344421,
    0.00631451141089201,
    0.05956040322780609,
    0.0050000702030956745,
    0.006156200543045998,
    0.006138191092759371,
    0.006464255973696709,
    0.041905976831912994,
    0.008534526452422142,
    0.011163780465722084,
    0.002451159991323948,
    0.02348131127655506,
    0.0163426473736763,
    0.006611091550439596,
    0.08261071890592575,
    0.005577981472015381,
    0.03306145220994949,
    0.014464650303125381,
    0.011642553843557835,
    0.005897278431802988,
    0.012793089263141155,
    0.0071762725710868835,
    0.027063138782978058,
    0.010294604115188122
  ],
  "selected_expert_ids": [
    54,
    28,
    42,
    17,
    14,
    47,
    8,
    3
  ],
  "effective_gate_weights": [
    0.08261071890592575,
    0.06956519931554794,
    0.05956040322780609,
    0.05944418907165527,
    0.04310973361134529,
    0.041905976831912994,
    0.03707229718565941,
    0.03496250510215759
  ],
  "topk_ranks": [
    0,
    1,
    2,
    3,
    4,
    5,
    6,
    7
  ],
  "top1_top2_gap": 0.013045519590377808,
  "routing_entropy": 3.754687786102295,
  "sample_id": "sample_006",
  "microbatch_id": null,
  "sequence_length": 8,
  "all_expert_count": 64,
  "selected_destination_ids": [
    54,
    28,
    42,
    17,
    14,
    47,
    8,
    3
  ],
  "expert_to_destination_map": {},
  "layer_name": "model.layers.8.mlp",
  "run_id": null,
  "mode": "real",
  "all_token_selected_expert_ids": [
    [
      22,
      7,
      29,
      32,
      60,
      1,
      59,
      33
    ],
    [
      38,
      32,
      18,
      8,
      7,
      54,
      28,
      59
    ],
    [
      53,
      23,
      8,
      62,
      18,
      14,
      38,
      60
    ],
    [
      14,
      54,
      57,
      55,
      8,
      63,
      62,
      38
    ],
    [
      35,
      1,
      10,
      18,
      50,
      21,
      54,
      60
    ],
    [
      54,
      38,
      42,
      18,
      8,
      14,
      31,
      47
    ],
    [
      54,
      28,
      42,
      17,
      14,
      47,
      8,
      3
    ],
    [
      53,
      23,
      54,
      8,
      14,
      56,
      0,
      2
    ]
  ]
}