{
  "layer_path": "model.layers.8.mlp",
  "layer_id": 8,
  "token_pos": 6,
  "target_token_id": 2098,
  "target_token_text": " plan",
  "next_token_id": 323,
  "next_token_text": " for",
  "router_logits": [
    -3.390625,
    -2.82421875,
    -1.732421875,
    -0.7646484375,
    -3.05859375,
    0.916015625,
    -0.1337890625,
    -0.7373046875,
    -0.564453125,
    -2.13671875,
    -3.671875,
    -0.443603515625,
    -0.75439453125,
    -2.7265625,
    -1.1962890625,
    -1.5166015625,
    -0.7744140625,
    -1.2294921875,
    -2.16015625,
    0.470703125,
    -0.351806640625,
    -2.978515625,
    -1.111328125,
    -1.2177734375,
    -1.14453125,
    -0.576171875,
    -1.033203125,
    -1.2998046875,
    -1.7353515625,
    -1.9697265625,
    -2.16015625,
    -2.880859375,
    -1.3828125,
    -0.673828125,
    0.3125,
    -3.650390625,
    0.07464599609375,
    -0.95361328125,
    -0.7783203125,
    -1.486328125,
    -3.150390625,
    -1.1787109375,
    -0.5146484375,
    -2.177734375,
    -1.1435546875,
    -0.7236328125,
    -0.352294921875,
    -1.5390625,
    -1.0400390625,
    -0.280029296875,
    -3.5,
    -0.86083984375,
    -0.56884765625,
    -2.0625,
    -1.501953125,
    0.365478515625,
    -2.2421875,
    0.52734375,
    -0.65185546875,
    -0.9609375,
    -0.5234375,
    -1.259765625,
    -0.6748046875,
    0.2232666015625
  ],
  "router_probabilities": [
    0.0011522944550961256,
    0.0020302548073232174,
    0.006049395073205233,
    0.01592247560620308,
    0.0016060638008639216,
    0.0854896828532219,
    0.029921911656856537,
    0.01636386290192604,
    0.019451553001999855,
    0.0040376437827944756,
    0.000869797426275909,
    0.02195020578801632,
    0.016086582094430923,
    0.002238525776192546,
    0.01034073531627655,
    0.007506568916141987,
    0.015767738223075867,
    0.010003028437495232,
    0.003944111987948418,
    0.05476674810051918,
    0.024060547351837158,
    0.001739964121952653,
    0.011257695034146309,
    0.010120941326022148,
    0.010890042409300804,
    0.01922493614256382,
    0.012172471731901169,
    0.009323847480118275,
    0.006031698081642389,
    0.004771465435624123,
    0.003944111987948418,
    0.0019184561679139733,
    0.008581146597862244,
    0.017436260357499123,
    0.04675307869911194,
    0.0008886867435649037,
    0.036856282502412796,
    0.013180873356759548,
    0.015706265345215797,
    0.007737293839454651,
    0.0014651966048404574,
    0.010524113662540913,
    0.02044486254453659,
    0.0038753875996917486,
    0.010900681838393211,
    0.016589123755693436,
    0.024048801511526108,
    0.007339844014495611,
    0.012089544907212257,
    0.025851039215922356,
    0.0010329099604859948,
    0.014462227933108807,
    0.01936626061797142,
    0.00434871343895793,
    0.007617338094860315,
    0.04929677024483681,
    0.0036334863398224115,
    0.05795830488204956,
    0.01782362163066864,
    0.013084687292575836,
    0.020265959203243256,
    0.009704739786684513,
    0.0174192413687706,
    0.04276186600327492
  ],
  "selected_expert_ids": [
    5,
    57,
    19,
    55,
    34,
    63,
    36,
    6
  ],
  "effective_gate_weights": [
    0.0854896828532219,
    0.05795830488204956,
    0.05476674810051918,
    0.04929677024483681,
    0.04675307869911194,
    0.04276186600327492,
    0.036856282502412796,
    0.029921911656856537
  ],
  "topk_ranks": [
    0,
    1,
    2,
    3,
    4,
    5,
    6,
    7
  ],
  "top1_top2_gap": 0.027531377971172333,
  "routing_entropy": 3.7548725605010986,
  "sample_id": "sample_002",
  "microbatch_id": null,
  "sequence_length": 8,
  "all_expert_count": 64,
  "selected_destination_ids": [
    5,
    57,
    19,
    55,
    34,
    63,
    36,
    6
  ],
  "expert_to_destination_map": {},
  "layer_name": "model.layers.8.mlp",
  "run_id": null,
  "mode": "real",
  "all_token_selected_expert_ids": [
    [
      22,
      7,
      29,
      32,
      60,
      1,
      59,
      33
    ],
    [
      6,
      62,
      55,
      32,
      49,
      12,
      57,
      33
    ],
    [
      55,
      5,
      12,
      52,
      19,
      63,
      57,
      62
    ],
    [
      5,
      28,
      19,
      17,
      18,
      15,
      11,
      62
    ],
    [
      23,
      5,
      19,
      53,
      15,
      18,
      47,
      11
    ],
    [
      19,
      23,
      53,
      2,
      15,
      5,
      17,
      8
    ],
    [
      5,
      57,
      19,
      55,
      34,
      63,
      36,
      6
    ],
    [
      15,
      19,
      18,
      28,
      17,
      47,
      2,
      5
    ]
  ]
}