{
  "layer_path": "model.layers.8.mlp",
  "layer_id": 8,
  "token_pos": 6,
  "target_token_id": 1282,
  "target_token_text": "line",
  "next_token_id": 2692,
  "next_token_text": " showed",
  "router_logits": [
    -2.96875,
    -3.18359375,
    -2.029296875,
    -0.85546875,
    -3.46484375,
    -0.462646484375,
    -0.9580078125,
    -1.0888671875,
    -1.060546875,
    -2.27734375,
    -3.689453125,
    -0.41748046875,
    0.24755859375,
    -2.396484375,
    0.8076171875,
    -1.8701171875,
    -1.0458984375,
    -2.037109375,
    -1.7705078125,
    -0.67431640625,
    -0.44873046875,
    -3.037109375,
    -1.2568359375,
    -1.5927734375,
    -0.5654296875,
    -0.58203125,
    -0.595703125,
    -1.1982421875,
    -2.431640625,
    -2.345703125,
    -1.90234375,
    -3.04296875,
    -1.197265625,
    -0.51318359375,
    0.0928955078125,
    -3.88671875,
    -0.51171875,
    -1.0947265625,
    -0.6298828125,
    -1.548828125,
    -2.78125,
    -1.3017578125,
    -0.96435546875,
    -3.00390625,
    -1.5048828125,
    -0.87646484375,
    -1.8505859375,
    -2.78125,
    -0.52978515625,
    -0.1519775390625,
    -3.5234375,
    -0.30419921875,
    0.11920166015625,
    -2.021484375,
    -0.9814453125,
    0.74365234375,
    -0.1126708984375,
    0.71826171875,
    -0.87060546875,
    -0.87451171875,
    -0.84912109375,
    -1.0537109375,
    0.4462890625,
    0.70166015625
  ],
  "router_probabilities": [
    0.0016550814034417272,
    0.001335100387223065,
    0.004234661348164082,
    0.013696379028260708,
    0.0010077866027131677,
    0.02028646133840084,
    0.012361569330096245,
    0.010845313780009747,
    0.011156846769154072,
    0.0033044051378965378,
    0.000805048446636647,
    0.021223725751042366,
    0.041270945221185684,
    0.0029332642443478107,
    0.07225614786148071,
    0.004965346306562424,
    0.011321480385959148,
    0.0042017069645226,
    0.005485413130372763,
    0.01641644909977913,
    0.020570741966366768,
    0.0015457216650247574,
    0.00916841346770525,
    0.006552369799464941,
    0.01830493099987507,
    0.018003549426794052,
    0.017759082838892937,
    0.00972167681902647,
    0.002831933321431279,
    0.003086065873503685,
    0.0048078810796141624,
    0.0015366912120953202,
    0.009731173515319824,
    0.019286716356873512,
    0.035356976091861725,
    0.000660922669339925,
    0.019314991310238838,
    0.010781953111290932,
    0.017162339761853218,
    0.0068467361852526665,
    0.0019964093808084726,
    0.00876566581428051,
    0.012283350341022015,
    0.0015979058807715774,
    0.007154327817261219,
    0.013411805965006351,
    0.005063279066234827,
    0.0019964093808084726,
    0.01896917261183262,
    0.02767757885158062,
    0.0009504332556389272,
    0.023769447579979897,
    0.03629942610859871,
    0.004267874173820019,
    0.012075213715434074,
    0.06777901202440262,
    0.0287871565669775,
    0.06607972085475922,
    0.01349062193185091,
    0.013438026420772076,
    0.013783594593405724,
    0.011233375407755375,
    0.050344496965408325,
    0.06499174982309341
  ],
  "selected_expert_ids": [
    14,
    55,
    57,
    63,
    62,
    12,
    52,
    34
  ],
  "effective_gate_weights": [
    0.07225614786148071,
    0.06777901202440262,
    0.06607972085475922,
    0.06499174982309341,
    0.050344496965408325,
    0.041270945221185684,
    0.03629942610859871,
    0.035356976091861725
  ],
  "topk_ranks": [
    0,
    1,
    2,
    3,
    4,
    5,
    6,
    7
  ],
  "top1_top2_gap": 0.0044771358370780945,
  "routing_entropy": 3.688479423522949,
  "sample_id": "sample_008",
  "microbatch_id": null,
  "sequence_length": 8,
  "all_expert_count": 64,
  "selected_destination_ids": [
    14,
    55,
    57,
    63,
    62,
    12,
    52,
    34
  ],
  "expert_to_destination_map": {},
  "layer_name": "model.layers.8.mlp",
  "run_id": null,
  "mode": "real",
  "all_token_selected_expert_ids": [
    [
      22,
      7,
      29,
      32,
      60,
      1,
      59,
      33
    ],
    [
      6,
      14,
      49,
      24,
      57,
      55,
      32,
      12
    ],
    [
      14,
      57,
      62,
      5,
      52,
      63,
      59,
      55
    ],
    [
      18,
      14,
      2,
      56,
      32,
      5,
      28,
      15
    ],
    [
      53,
      56,
      23,
      14,
      2,
      18,
      15,
      5
    ],
    [
      6,
      55,
      57,
      63,
      12,
      62,
      34,
      14
    ],
    [
      14,
      55,
      57,
      63,
      62,
      12,
      52,
      34
    ],
    [
      18,
      56,
      5,
      10,
      14,
      32,
      50,
      28
    ]
  ]
}