{
  "layer_path": "model.layers.8.mlp",
  "layer_id": 8,
  "token_pos": 5,
  "target_token_id": 1078,
  "target_token_text": " before",
  "next_token_id": 9417,
  "next_token_text": " serving",
  "router_logits": [
    0.237548828125,
    -0.93896484375,
    -1.1796875,
    -0.60009765625,
    -0.724609375,
    -0.6513671875,
    -1.63671875,
    -0.5361328125,
    -0.20361328125,
    -0.365478515625,
    -0.15283203125,
    0.034393310546875,
    -2.349609375,
    -1.1416015625,
    -0.411376953125,
    -0.564453125,
    -1.111328125,
    0.875,
    0.299560546875,
    -1.3359375,
    -0.8662109375,
    -0.0640869140625,
    -0.71630859375,
    -1.4794921875,
    -1.2333984375,
    -1.353515625,
    -1.3466796875,
    -0.716796875,
    0.736328125,
    -1.439453125,
    -0.5673828125,
    -1.2197265625,
    -0.10137939453125,
    -0.6552734375,
    -1.09765625,
    -0.56640625,
    -1.26171875,
    -0.7705078125,
    0.03253173828125,
    -0.32373046875,
    -0.732421875,
    -1.3740234375,
    1.46875,
    -1.05859375,
    -1.0380859375,
    -1.2275390625,
    -1.0478515625,
    0.358642578125,
    -1.4208984375,
    -3.328125,
    0.11279296875,
    -0.12164306640625,
    -1.3603515625,
    -1.14453125,
    -0.032745361328125,
    -2.822265625,
    0.982421875,
    -2.546875,
    -0.1099853515625,
    -0.89697265625,
    -0.358154296875,
    -0.51220703125,
    -0.411865234375,
    -2.244140625
  ],
  "router_probabilities": [
    0.02953643538057804,
    0.009107615798711777,
    0.007159128785133362,
    0.012781234458088875,
    0.011284908279776573,
    0.012142461724579334,
    0.004532877821475267,
    0.013625496998429298,
    0.019000444561243057,
    0.016160940751433372,
    0.019990229979157448,
    0.02410619892179966,
    0.0022221303079277277,
    0.0074370489455759525,
    0.015435943379998207,
    0.013245032168924809,
    0.007665636949241161,
    0.05587269365787506,
    0.031426019966602325,
    0.006123526953160763,
    0.009794929064810276,
    0.021845364943146706,
    0.011378971859812737,
    0.005304649006575346,
    0.0067847492173314095,
    0.006016827654093504,
    0.006058098748326302,
    0.01137341745197773,
    0.048637937754392624,
    0.005521351005882025,
    0.01320628635585308,
    0.006878146436065435,
    0.021045701578259468,
    0.01209512259811163,
    0.007771160453557968,
    0.013219189830124378,
    0.006595298182219267,
    0.010778657160699368,
    0.02406136505305767,
    0.016849910840392113,
    0.011197088286280632,
    0.0058946916833519936,
    0.10117237269878387,
    0.008080728352069855,
    0.008248157799243927,
    0.006824620068073273,
    0.008168000727891922,
    0.03333868086338043,
    0.005624754354357719,
    0.000835229002404958,
    0.026072178035974503,
    0.020623529329895973,
    0.005975836887955666,
    0.007415293250232935,
    0.022540876641869545,
    0.0013851523399353027,
    0.0622088722884655,
    0.0018243079539388418,
    0.020865360274910927,
    0.00949820689857006,
    0.016279740259051323,
    0.013955429196357727,
    0.015428407117724419,
    0.0024693007580935955
  ],
  "selected_expert_ids": [
    42,
    56,
    17,
    28,
    47,
    18,
    0,
    50
  ],
  "effective_gate_weights": [
    0.10117237269878387,
    0.0622088722884655,
    0.05587269365787506,
    0.048637937754392624,
    0.03333868086338043,
    0.031426019966602325,
    0.02953643538057804,
    0.026072178035974503
  ],
  "topk_ranks": [
    0,
    1,
    2,
    3,
    4,
    5,
    6,
    7
  ],
  "top1_top2_gap": 0.038963500410318375,
  "routing_entropy": 3.8007984161376953,
  "sample_id": "sample_007",
  "microbatch_id": null,
  "sequence_length": 7,
  "all_expert_count": 64,
  "selected_destination_ids": [
    42,
    56,
    17,
    28,
    47,
    18,
    0,
    50
  ],
  "expert_to_destination_map": {},
  "layer_name": "model.layers.8.mlp",
  "run_id": null,
  "mode": "real",
  "all_token_selected_expert_ids": [
    [
      22,
      7,
      29,
      32,
      60,
      1,
      59,
      33
    ],
    [
      6,
      12,
      55,
      57,
      5,
      52,
      59,
      38
    ],
    [
      11,
      28,
      42,
      51,
      8,
      54,
      17,
      18
    ],
    [
      2,
      42,
      6,
      56,
      51,
      36,
      24,
      17
    ],
    [
      55,
      63,
      57,
      42,
      6,
      12,
      34,
      49
    ],
    [
      42,
      56,
      17,
      28,
      47,
      18,
      0,
      50
    ],
    [
      42,
      17,
      28,
      34,
      56,
      57,
      47,
      63
    ]
  ]
}