{
  "layer_path": "model.layers.8.mlp",
  "layer_id": 8,
  "token_pos": 5,
  "target_token_id": 1818,
  "target_token_text": " change",
  "next_token_id": 275,
  "next_token_text": " in",
  "router_logits": [
    -2.173828125,
    -3.001953125,
    -0.66064453125,
    -1.7236328125,
    -1.3515625,
    -1.1767578125,
    -0.66552734375,
    -1.2802734375,
    -0.384765625,
    -1.5888671875,
    -3.201171875,
    -0.7509765625,
    -1.8486328125,
    -1.9814453125,
    -0.90869140625,
    -2.0859375,
    -1.2490234375,
    -0.27490234375,
    -1.23046875,
    -1.36328125,
    -0.64599609375,
    -2.517578125,
    -1.4931640625,
    -1.5751953125,
    -1.0478515625,
    -0.8671875,
    -1.349609375,
    -1.3515625,
    -0.85009765625,
    -2.14453125,
    -2.0703125,
    -2.51171875,
    -1.6533203125,
    -0.26220703125,
    0.417724609375,
    -3.533203125,
    0.36962890625,
    -0.68896484375,
    -1.33984375,
    -0.2271728515625,
    -1.8466796875,
    -1.060546875,
    -1.1611328125,
    -1.5966796875,
    -1.064453125,
    -1.1015625,
    -0.853515625,
    -1.9541015625,
    -1.1142578125,
    -0.2490234375,
    -3.0703125,
    -0.21826171875,
    -0.783203125,
    -1.5869140625,
    -1.8466796875,
    -1.345703125,
    -0.87939453125,
    -0.429443359375,
    -1.478515625,
    -1.2490234375,
    -1.19921875,
    -0.91357421875,
    -0.5078125,
    -0.623046875
  ],
  "router_probabilities": [
    0.004871360957622528,
    0.0021281400695443153,
    0.022121652960777283,
    0.007641307078301907,
    0.011085511185228825,
    0.01320299319922924,
    0.02201390266418457,
    0.011904637329280376,
    0.02914944477379322,
    0.008743707090616226,
    0.0017437353963032365,
    0.020210957154631615,
    0.006743429694324732,
    0.005904744379222393,
    0.017262043431401253,
    0.00531888660043478,
    0.012282531708478928,
    0.032534435391426086,
    0.012512557208538055,
    0.010956360958516598,
    0.022448087111115456,
    0.0034543119836598635,
    0.009621857665479183,
    0.00886407122015953,
    0.015019508078694344,
    0.017993560060858727,
    0.011107183992862701,
    0.011085511185228825,
    0.018303710967302322,
    0.00501618767157197,
    0.005402646493166685,
    0.0034746115561574697,
    0.008197925053536892,
    0.03295010328292847,
    0.06503503024578094,
    0.0012510690139606595,
    0.06198115274310112,
    0.021503949537873268,
    0.011216184124350548,
    0.034124940633773804,
    0.0067566134966909885,
    0.014830035157501698,
    0.01341091189533472,
    0.00867566280066967,
    0.014772219583392143,
    0.014234078116714954,
    0.01824125647544861,
    0.006068429909646511,
    0.014054514467716217,
    0.033387381583452225,
    0.0019875227008014917,
    0.03443039208650589,
    0.019570009782910347,
    0.008760800585150719,
    0.0067566134966909885,
    0.011150656268000603,
    0.017775246873497963,
    0.027875777333974838,
    0.009763840585947037,
    0.012282531708478928,
    0.01290974859148264,
    0.01717795990407467,
    0.025774585083127022,
    0.022969208657741547
  ],
  "selected_expert_ids": [
    34,
    36,
    51,
    39,
    49,
    33,
    17,
    8
  ],
  "effective_gate_weights": [
    0.06503503024578094,
    0.06198115274310112,
    0.03443039208650589,
    0.034124940633773804,
    0.033387381583452225,
    0.03295010328292847,
    0.032534435391426086,
    0.02914944477379322
  ],
  "topk_ranks": [
    0,
    1,
    2,
    3,
    4,
    5,
    6,
    7
  ],
  "top1_top2_gap": 0.003053877502679825,
  "routing_entropy": 3.907086133956909,
  "sample_id": "sample_005",
  "microbatch_id": null,
  "sequence_length": 7,
  "all_expert_count": 64,
  "selected_destination_ids": [
    34,
    36,
    51,
    39,
    49,
    33,
    17,
    8
  ],
  "expert_to_destination_map": {},
  "layer_name": "model.layers.8.mlp",
  "run_id": null,
  "mode": "real",
  "all_token_selected_expert_ids": [
    [
      22,
      7,
      29,
      32,
      60,
      1,
      59,
      33
    ],
    [
      49,
      6,
      32,
      57,
      5,
      62,
      24,
      55
    ],
    [
      18,
      5,
      28,
      38,
      17,
      8,
      32,
      46
    ],
    [
      18,
      23,
      53,
      15,
      40,
      5,
      62,
      39
    ],
    [
      2,
      17,
      36,
      39,
      34,
      8,
      56,
      62
    ],
    [
      34,
      36,
      51,
      39,
      49,
      33,
      17,
      8
    ],
    [
      2,
      17,
      18,
      28,
      8,
      33,
      62,
      9
    ]
  ]
}