{
  "layer_path": "model.layers.8.mlp",
  "layer_id": 8,
  "token_pos": 5,
  "target_token_id": 4536,
  "target_token_text": " sometimes",
  "next_token_id": 10313,
  "next_token_text": " reveal",
  "router_logits": [
    -0.79638671875,
    -2.322265625,
    -1.4482421875,
    -0.47314453125,
    0.7451171875,
    -1.0556640625,
    -2.09375,
    -0.90869140625,
    -0.1363525390625,
    -0.587890625,
    -1.4140625,
    0.1400146484375,
    -2.81640625,
    0.7197265625,
    0.60400390625,
    -1.2265625,
    -1.5126953125,
    -0.73291015625,
    0.32470703125,
    -0.7236328125,
    -1.1298828125,
    -1.2822265625,
    -1.404296875,
    -1.5556640625,
    -1.501953125,
    -1.875,
    -1.2587890625,
    -1.5498046875,
    -1.2529296875,
    -2.1875,
    -1.74609375,
    0.408935546875,
    -0.99853515625,
    -0.81591796875,
    -2.1171875,
    -2.125,
    -1.130859375,
    -1.01171875,
    -0.591796875,
    -0.91552734375,
    0.57958984375,
    -0.82666015625,
    -0.66259765625,
    -0.1043701171875,
    -1.5546875,
    -1.083984375,
    -0.587890625,
    -0.136962890625,
    -1.626953125,
    -2.37890625,
    -0.6484375,
    -1.076171875,
    -1.8017578125,
    -0.9248046875,
    -1.1787109375,
    -3.71875,
    -0.984375,
    -3.361328125,
    -0.3876953125,
    -1.1552734375,
    -0.9970703125,
    -0.76806640625,
    -1.3447265625,
    -3.458984375
  ],
  "router_probabilities": [
    0.014592948369681835,
    0.0031729431357234716,
    0.0076040648855268955,
    0.020161617547273636,
    0.06817257404327393,
    0.011260050348937511,
    0.003987542819231749,
    0.013042766600847244,
    0.028235290199518204,
    0.0179759468883276,
    0.00786846224218607,
    0.03722348064184189,
    0.0019357965793460608,
    0.0664634183049202,
    0.05920044332742691,
    0.009491176344454288,
    0.007129419595003128,
    0.015549290925264359,
    0.04477420449256897,
    0.01569421775639057,
    0.010454603470861912,
    0.008977294899523258,
    0.007945679128170013,
    0.006829565856605768,
    0.007206418085843325,
    0.004962577018886805,
    0.009190184995532036,
    0.006869700271636248,
    0.009244192391633987,
    0.0036306986585259438,
    0.00564534543082118,
    0.04870884492993355,
    0.01192205399274826,
    0.014310695230960846,
    0.0038951714523136616,
    0.0038648589979857206,
    0.010444398038089275,
    0.011765911243855953,
    0.017905864864587784,
    0.01295391283929348,
    0.057772621512413025,
    0.014157789759337902,
    0.016681954264640808,
    0.029152918606996536,
    0.006836238782852888,
    0.010945634916424751,
    0.0179759468883276,
    0.028218062594532967,
    0.006359641905874014,
    0.002998220268636942,
    0.016919853165745735,
    0.011031483300030231,
    0.0053396886214613914,
    0.01283429004251957,
    0.009956386871635914,
    0.0007851936970837414,
    0.012092073448002338,
    0.0011225433554500341,
    0.02196015790104866,
    0.01019249577075243,
    0.011939531192183495,
    0.015012132935225964,
    0.008433387614786625,
    0.0010181026300415397
  ],
  "selected_expert_ids": [
    4,
    13,
    14,
    40,
    31,
    18,
    11,
    43
  ],
  "effective_gate_weights": [
    0.06817257404327393,
    0.0664634183049202,
    0.05920044332742691,
    0.057772621512413025,
    0.04870884492993355,
    0.04477420449256897,
    0.03722348064184189,
    0.029152918606996536
  ],
  "topk_ranks": [
    0,
    1,
    2,
    3,
    4,
    5,
    6,
    7
  ],
  "top1_top2_gap": 0.0017091557383537292,
  "routing_entropy": 3.7875916957855225,
  "sample_id": "layer_8_sample_006",
  "microbatch_id": null,
  "sequence_length": 7,
  "all_expert_count": 64,
  "selected_destination_ids": [
    4,
    13,
    14,
    40,
    31,
    18,
    11,
    43
  ],
  "expert_to_destination_map": {},
  "layer_name": "model.layers.8.mlp",
  "run_id": null,
  "mode": "real",
  "all_token_selected_expert_ids": [
    [
      22,
      7,
      29,
      32,
      60,
      1,
      59,
      33
    ],
    [
      2,
      32,
      38,
      23,
      18,
      53,
      59,
      6
    ],
    [
      49,
      6,
      14,
      24,
      44,
      55,
      38,
      57
    ],
    [
      57,
      55,
      63,
      52,
      14,
      49,
      12,
      3
    ],
    [
      18,
      31,
      40,
      14,
      11,
      10,
      50,
      4
    ],
    [
      4,
      13,
      14,
      40,
      31,
      18,
      11,
      43
    ],
    [
      17,
      28,
      14,
      4,
      47,
      18,
      46,
      40
    ]
  ]
}