{
  "layer_path": "model.layers.8.mlp",
  "layer_id": 8,
  "token_pos": 12,
  "target_token_id": 2605,
  "target_token_text": " structure",
  "next_token_id": 32,
  "next_token_text": "?",
  "router_logits": [
    -2.5390625,
    -2.3515625,
    -2.0390625,
    0.1572265625,
    -2.158203125,
    -0.95263671875,
    -0.55810546875,
    -0.9140625,
    -0.771484375,
    -1.8623046875,
    -2.46875,
    -0.495361328125,
    -0.8740234375,
    -1.88671875,
    0.1531982421875,
    -2.59375,
    -0.9462890625,
    -1.6962890625,
    -1.8369140625,
    -0.76708984375,
    0.4345703125,
    -2.296875,
    -0.64599609375,
    -1.4736328125,
    -0.68701171875,
    -1.03515625,
    -0.94482421875,
    -0.72607421875,
    -1.7431640625,
    -1.6123046875,
    -1.419921875,
    -2.34375,
    -1.31640625,
    -0.59423828125,
    -0.365478515625,
    -2.654296875,
    -0.067138671875,
    -1.1669921875,
    -1.1162109375,
    -1.07421875,
    -2.365234375,
    -0.974609375,
    -0.62646484375,
    -2.265625,
    -1.1748046875,
    -1.35546875,
    -0.92333984375,
    -1.8642578125,
    -1.2099609375,
    0.06695556640625,
    -2.5,
    -0.64892578125,
    0.440673828125,
    -1.595703125,
    -0.61572265625,
    0.252197265625,
    -1.7919921875,
    0.486572265625,
    -0.57861328125,
    -0.93359375,
    -0.85205078125,
    -1.0009765625,
    -0.83203125,
    0.2724609375
  ],
  "router_probabilities": [
    0.0027524963952600956,
    0.0033201442565768957,
    0.004538099281489849,
    0.040804702788591385,
    0.004028393421322107,
    0.013449394144117832,
    0.019954713061451912,
    0.013978330418467522,
    0.016120413318276405,
    0.005415504798293114,
    0.002952997339889407,
    0.02124686725437641,
    0.014549365267157555,
    0.005284890998154879,
    0.040640659630298615,
    0.002606011228635907,
    0.013535037636756897,
    0.006393499206751585,
    0.00555476825684309,
    0.016191409900784492,
    0.05384669825434685,
    0.0035067712888121605,
    0.01827574335038662,
    0.007987979799509048,
    0.017541317269206047,
    0.012384113855659962,
    0.013554878532886505,
    0.0168693196028471,
    0.006100719794631004,
    0.006953645497560501,
    0.008428753353655338,
    0.003346184501424432,
    0.00934801995754242,
    0.01924656145274639,
    0.024193700402975082,
    0.0024529071524739265,
    0.0326039083302021,
    0.010854488238692284,
    0.011419927701354027,
    0.011909685097634792,
    0.003275060560554266,
    0.01315709762275219,
    0.018636200577020645,
    0.0036180883180350065,
    0.01077001728117466,
    0.008989902213215828,
    0.013849247246980667,
    0.0054049380123615265,
    0.010397962294518948,
    0.03728258237242699,
    0.0028621433302760124,
    0.018222277984023094,
    0.05417635664343834,
    0.007070050574839115,
    0.018837472423911095,
    0.044869937002658844,
    0.005809988360852003,
    0.05672091618180275,
    0.019549651071429253,
    0.013707964681088924,
    0.014872591011226177,
    0.012814716435968876,
    0.015173334628343582,
    0.045788440853357315
  ],
  "selected_expert_ids": [
    57,
    52,
    20,
    63,
    55,
    3,
    14,
    49
  ],
  "effective_gate_weights": [
    0.05672091618180275,
    0.05417635664343834,
    0.05384669825434685,
    0.045788440853357315,
    0.044869937002658844,
    0.040804702788591385,
    0.040640659630298615,
    0.03728258237242699
  ],
  "topk_ranks": [
    0,
    1,
    2,
    3,
    4,
    5,
    6,
    7
  ],
  "top1_top2_gap": 0.0025445595383644104,
  "routing_entropy": 3.845850944519043,
  "sample_id": "layer_8_sample_040",
  "microbatch_id": null,
  "sequence_length": 14,
  "all_expert_count": 64,
  "selected_destination_ids": [
    57,
    52,
    20,
    63,
    55,
    3,
    14,
    49
  ],
  "expert_to_destination_map": {},
  "layer_name": "model.layers.8.mlp",
  "run_id": null,
  "mode": "real",
  "all_token_selected_expert_ids": [
    [
      22,
      7,
      32,
      29,
      60,
      1,
      59,
      33
    ],
    [
      6,
      51,
      3,
      14,
      38,
      57,
      61,
      55
    ],
    [
      18,
      40,
      31,
      13,
      14,
      43,
      3,
      51
    ],
    [
      14,
      40,
      51,
      4,
      43,
      13,
      31,
      8
    ],
    [
      36,
      17,
      14,
      51,
      47,
      8,
      4,
      11
    ],
    [
      10,
      30,
      35,
      21,
      18,
      14,
      4,
      50
    ],
    [
      14,
      6,
      24,
      57,
      11,
      38,
      3,
      42
    ],
    [
      3,
      6,
      57,
      55,
      11,
      52,
      24,
      51
    ],
    [
      57,
      63,
      11,
      3,
      52,
      55,
      54,
      34
    ],
    [
      9,
      21,
      30,
      10,
      18,
      3,
      4,
      0
    ],
    [
      3,
      57,
      24,
      55,
      20,
      52,
      42,
      34
    ],
    [
      57,
      3,
      52,
      20,
      55,
      63,
      49,
      34
    ],
    [
      57,
      52,
      20,
      63,
      55,
      3,
      14,
      49
    ],
    [
      35,
      10,
      29,
      30,
      50,
      1,
      21,
      18
    ]
  ]
}