{
  "layer_path": "model.layers.8.mlp",
  "layer_id": 8,
  "token_pos": 8,
  "target_token_id": 10727,
  "target_token_text": " FROM",
  "next_token_id": 15050,
  "next_token_text": " routes",
  "router_logits": [
    -0.8837890625,
    -1.546875,
    -1.083984375,
    0.841796875,
    -2.220703125,
    -1.1982421875,
    -0.830078125,
    -1.22265625,
    -0.75341796875,
    -0.962890625,
    -1.6865234375,
    -0.3505859375,
    -1.49609375,
    -1.28125,
    -0.98828125,
    -0.83154296875,
    1.4775390625,
    -1.0615234375,
    -0.626953125,
    -1.6494140625,
    -1.015625,
    -1.564453125,
    -1.287109375,
    -1.2431640625,
    -1.15625,
    -1.732421875,
    -0.9619140625,
    -0.487548828125,
    -0.48291015625,
    -1.1953125,
    -0.48095703125,
    -1.5615234375,
    -0.1612548828125,
    -0.681640625,
    -2.16796875,
    -1.84375,
    -2.025390625,
    0.0799560546875,
    -1.259765625,
    -2.125,
    -1.5439453125,
    -1.4970703125,
    -0.93359375,
    -1.5517578125,
    -1.068359375,
    -0.5576171875,
    -2.083984375,
    -1.2001953125,
    -1.2763671875,
    -1.8486328125,
    -1.943359375,
    -0.343994140625,
    -0.61865234375,
    -1.3681640625,
    1.154296875,
    -1.7705078125,
    -1.0166015625,
    -1.6865234375,
    -1.2646484375,
    -0.77685546875,
    -0.421875,
    -0.86767578125,
    0.243408203125,
    -1.8583984375
  ],
  "router_probabilities": [
    0.01285073347389698,
    0.006621453911066055,
    0.010519235394895077,
    0.0721672847867012,
    0.003375308820977807,
    0.009383452124893665,
    0.013559830375015736,
    0.00915713794529438,
    0.014640211127698421,
    0.011873384937644005,
    0.005758439190685749,
    0.021902570500969887,
    0.00696638273075223,
    0.008636003360152245,
    0.011575707234442234,
    0.01353998202830553,
    0.13628236949443817,
    0.010758180171251297,
    0.016613852232694626,
    0.005976146087050438,
    0.011263472959399223,
    0.006506077945232391,
    0.008585549890995026,
    0.008971257135272026,
    0.00978587381541729,
    0.005500109866261482,
    0.011884985491633415,
    0.019099097698926926,
    0.019187897443771362,
    0.009410982951521873,
    0.019225411117076874,
    0.00652516633272171,
    0.026467962190508842,
    0.01572967879474163,
    0.0035580804105848074,
    0.004920646548271179,
    0.0041033318266272545,
    0.03368814289569855,
    0.008823550306260586,
    0.003714298829436302,
    0.0066408803686499596,
    0.006959583144634962,
    0.01222638227045536,
    0.006589201278984547,
    0.010684888809919357,
    0.01780666410923004,
    0.0038698106072843075,
    0.0093651432543993,
    0.008678274229168892,
    0.0048966784961521626,
    0.004454124718904495,
    0.02204742468893528,
    0.01675233244895935,
    0.007917107082903385,
    0.09864097833633423,
    0.005294571630656719,
    0.011252477765083313,
    0.005758439190685749,
    0.00878057163208723,
    0.014301071874797344,
    0.020395511761307716,
    0.01305947732180357,
    0.03967011719942093,
    0.004849092103540897
  ],
  "selected_expert_ids": [
    16,
    54,
    3,
    62,
    37,
    32,
    51,
    11
  ],
  "effective_gate_weights": [
    0.13628236949443817,
    0.09864097833633423,
    0.0721672847867012,
    0.03967011719942093,
    0.03368814289569855,
    0.026467962190508842,
    0.02204742468893528,
    0.021902570500969887
  ],
  "topk_ranks": [
    0,
    1,
    2,
    3,
    4,
    5,
    6,
    7
  ],
  "top1_top2_gap": 0.03764139115810394,
  "routing_entropy": 3.6788363456726074,
  "sample_id": "layer_8_sample_028",
  "microbatch_id": null,
  "sequence_length": 10,
  "all_expert_count": 64,
  "selected_destination_ids": [
    16,
    54,
    3,
    62,
    37,
    32,
    51,
    11
  ],
  "expert_to_destination_map": {},
  "layer_name": "model.layers.8.mlp",
  "run_id": null,
  "mode": "real",
  "all_token_selected_expert_ids": [
    [
      22,
      7,
      32,
      29,
      60,
      1,
      59,
      58
    ],
    [
      16,
      3,
      6,
      54,
      51,
      57,
      52,
      49
    ],
    [
      16,
      3,
      6,
      61,
      51,
      54,
      49,
      41
    ],
    [
      3,
      54,
      16,
      52,
      57,
      51,
      37,
      45
    ],
    [
      16,
      54,
      3,
      30,
      21,
      9,
      32,
      37
    ],
    [
      16,
      54,
      3,
      6,
      51,
      11,
      57,
      20
    ],
    [
      16,
      54,
      3,
      37,
      11,
      62,
      51,
      60
    ],
    [
      54,
      16,
      3,
      37,
      45,
      11,
      20,
      51
    ],
    [
      16,
      54,
      3,
      62,
      37,
      32,
      51,
      11
    ],
    [
      51,
      57,
      3,
      6,
      12,
      52,
      54,
      55
    ]
  ]
}