{
  "layer_path": "model.layers.8.mlp",
  "layer_id": 8,
  "token_pos": 6,
  "target_token_id": 846,
  "target_token_text": " after",
  "next_token_id": 47327,
  "next_token_text": " retry",
  "router_logits": [
    -0.03619384765625,
    -1.6630859375,
    -1.1416015625,
    1.4013671875,
    -1.3759765625,
    -0.78662109375,
    -0.919921875,
    -0.4951171875,
    -0.93994140625,
    -1.013671875,
    -1.3837890625,
    -0.42236328125,
    -3.419921875,
    -1.0947265625,
    -0.623046875,
    -0.446044921875,
    1.185546875,
    -0.619140625,
    -0.0458984375,
    -0.7958984375,
    -1.7802734375,
    -1.08203125,
    -0.37353515625,
    -0.65283203125,
    -1.75390625,
    -2.435546875,
    -1.126953125,
    -0.337890625,
    0.08837890625,
    -1.54296875,
    -1.3984375,
    -1.6005859375,
    -0.0760498046875,
    -0.748046875,
    -2.802734375,
    -1.861328125,
    -2.72265625,
    -0.90869140625,
    -0.736328125,
    -0.90673828125,
    -0.75,
    -1.435546875,
    -0.44287109375,
    -1.3740234375,
    -0.91650390625,
    -0.70654296875,
    -1.412109375,
    -1.1923828125,
    -0.91845703125,
    -2.880859375,
    -1.0458984375,
    0.078125,
    -0.998046875,
    -1.1357421875,
    1.0341796875,
    -4.171875,
    -0.3857421875,
    -3.396484375,
    -0.56884765625,
    -0.6943359375,
    0.82373046875,
    -0.85888671875,
    2.064453125,
    -3.861328125
  ],
  "router_probabilities": [
    0.021798940375447273,
    0.004284351598471403,
    0.007217102218419313,
    0.0917825698852539,
    0.0057091983035206795,
    0.010292691178619862,
    0.009008181281387806,
    0.013776138424873352,
    0.008829635567963123,
    0.008202043361961842,
    0.0056647686287760735,
    0.014815766364336014,
    0.0007394365966320038,
    0.007563458755612373,
    0.012121833860874176,
    0.014469025656580925,
    0.07396574318408966,
    0.012169277295470238,
    0.021588413044810295,
    0.010197644121944904,
    0.003810581285506487,
    0.0076600913889706135,
    0.015557145699858665,
    0.011766106821596622,
    0.003912391606718302,
    0.0019788348581641912,
    0.007323599886149168,
    0.016121674329042435,
    0.024690881371498108,
    0.004831159021705389,
    0.005582393612712622,
    0.004560668487101793,
    0.020947208628058434,
    0.010697480291128159,
    0.0013706989120692015,
    0.0035139017272740602,
    0.0014849764993414283,
    0.009109918028116226,
    0.010823579505085945,
    0.009127728641033173,
    0.010676607489585876,
    0.005379031412303448,
    0.01451502088457346,
    0.005720359738916159,
    0.009039023891091347,
    0.011150810867547989,
    0.005506591405719519,
    0.006859759334474802,
    0.009021386504173279,
    0.0012676892802119255,
    0.00794193334877491,
    0.024438997730612755,
    0.008331206627190113,
    0.007259514648467302,
    0.06357591599225998,
    0.0003486036148387939,
    0.015368391759693623,
    0.0007569718291051686,
    0.012796958908438683,
    0.01128776278346777,
    0.05151049420237541,
    0.009575122967362404,
    0.17812904715538025,
    0.00047555487253703177
  ],
  "selected_expert_ids": [
    62,
    3,
    16,
    54,
    60,
    28,
    51,
    0
  ],
  "effective_gate_weights": [
    0.17812904715538025,
    0.0917825698852539,
    0.07396574318408966,
    0.06357591599225998,
    0.05151049420237541,
    0.024690881371498108,
    0.024438997730612755,
    0.021798940375447273
  ],
  "topk_ranks": [
    0,
    1,
    2,
    3,
    4,
    5,
    6,
    7
  ],
  "top1_top2_gap": 0.08634647727012634,
  "routing_entropy": 3.471881866455078,
  "sample_id": "layer_8_sample_023",
  "microbatch_id": null,
  "sequence_length": 8,
  "all_expert_count": 64,
  "selected_destination_ids": [
    62,
    3,
    16,
    54,
    60,
    28,
    51,
    0
  ],
  "expert_to_destination_map": {},
  "layer_name": "model.layers.8.mlp",
  "run_id": null,
  "mode": "real",
  "all_token_selected_expert_ids": [
    [
      22,
      7,
      29,
      32,
      60,
      1,
      59,
      33
    ],
    [
      3,
      52,
      62,
      6,
      57,
      38,
      51,
      60
    ],
    [
      60,
      3,
      62,
      16,
      29,
      32,
      30,
      18
    ],
    [
      62,
      6,
      3,
      16,
      54,
      60,
      51,
      57
    ],
    [
      3,
      44,
      6,
      51,
      16,
      52,
      49,
      57
    ],
    [
      62,
      3,
      16,
      54,
      51,
      60,
      32,
      52
    ],
    [
      62,
      3,
      16,
      54,
      60,
      28,
      51,
      0
    ],
    [
      62,
      3,
      54,
      57,
      16,
      34,
      52,
      42
    ]
  ]
}