{
  "layer_path": "model.layers.8.mlp",
  "layer_id": 8,
  "token_pos": 9,
  "target_token_id": 3708,
  "target_token_text": " status",
  "next_token_id": 13,
  "next_token_text": ",",
  "router_logits": [
    -2.72265625,
    -2.26171875,
    -1.48828125,
    1.048828125,
    -2.865234375,
    -1.4248046875,
    0.10162353515625,
    -1.7470703125,
    -1.1513671875,
    -1.8017578125,
    -2.689453125,
    -0.72802734375,
    -0.97021484375,
    -2.349609375,
    -0.484375,
    -2.4765625,
    -0.272705078125,
    -2.1171875,
    -2.578125,
    -0.5068359375,
    -0.0797119140625,
    -2.12890625,
    -1.3857421875,
    -1.4306640625,
    -1.1748046875,
    -1.5654296875,
    -0.873046875,
    -1.0986328125,
    -2.09375,
    -1.8359375,
    -1.48046875,
    -2.701171875,
    -1.583984375,
    -0.376708984375,
    -0.34326171875,
    -2.734375,
    -0.6533203125,
    -0.73095703125,
    -1.3681640625,
    -0.92236328125,
    -2.501953125,
    -1.625,
    -0.72802734375,
    -2.41796875,
    -0.92724609375,
    -0.86376953125,
    -1.244140625,
    -2.328125,
    -1.1728515625,
    -0.158935546875,
    -2.685546875,
    0.52880859375,
    -0.330322265625,
    -1.568359375,
    0.30615234375,
    -0.399658203125,
    -2.029296875,
    0.452880859375,
    -0.8759765625,
    -1.615234375,
    -1.32421875,
    -1.7333984375,
    -0.95654296875,
    -0.42529296875
  ],
  "router_probabilities": [
    0.0024306471459567547,
    0.0038539362139999866,
    0.00835226196795702,
    0.10559825599193573,
    0.00210766214877367,
    0.008899624459445477,
    0.04095349833369255,
    0.0064478288404643536,
    0.011698335409164429,
    0.006104681175202131,
    0.002512706909328699,
    0.017863981425762177,
    0.014021597802639008,
    0.003529669949784875,
    0.022792663425207138,
    0.0031088448595255613,
    0.028165806084871292,
    0.004453214816749096,
    0.00280860741622746,
    0.02228642627596855,
    0.034161586314439774,
    0.004401333164423704,
    0.009254145435988903,
    0.008847630582749844,
    0.01142734382301569,
    0.007732127793133259,
    0.015452439896762371,
    0.012331795878708363,
    0.0045588198117911816,
    0.00589955085888505,
    0.008417770266532898,
    0.002483433112502098,
    0.0075899832881987095,
    0.025383636355400085,
    0.02624700777232647,
    0.002402328886091709,
    0.01924966089427471,
    0.017811721190810204,
    0.009418253786861897,
    0.014708866365253925,
    0.0030309029389172792,
    0.007284972816705704,
    0.017863981425762177,
    0.003296446055173874,
    0.014637220650911331,
    0.015596464276313782,
    0.010661862790584564,
    0.0036063233856111765,
    0.011449684388935566,
    0.03155961260199547,
    0.0025225412100553513,
    0.06277910619974136,
    0.026588838547468185,
    0.007709508296102285,
    0.05024776607751846,
    0.024807734414935112,
    0.004862325731664896,
    0.05818890035152435,
    0.015407235361635685,
    0.007356463931500912,
    0.009841370396316051,
    0.006536588072776794,
    0.01421461720019579,
    0.02417987585067749
  ],
  "selected_expert_ids": [
    3,
    51,
    57,
    54,
    6,
    20,
    49,
    16
  ],
  "effective_gate_weights": [
    0.10559825599193573,
    0.06277910619974136,
    0.05818890035152435,
    0.05024776607751846,
    0.04095349833369255,
    0.034161586314439774,
    0.03155961260199547,
    0.028165806084871292
  ],
  "topk_ranks": [
    0,
    1,
    2,
    3,
    4,
    5,
    6,
    7
  ],
  "top1_top2_gap": 0.042819149792194366,
  "routing_entropy": 3.732854127883911,
  "sample_id": "layer_8_sample_020",
  "microbatch_id": null,
  "sequence_length": 11,
  "all_expert_count": 64,
  "selected_destination_ids": [
    3,
    51,
    57,
    54,
    6,
    20,
    49,
    16
  ],
  "expert_to_destination_map": {},
  "layer_name": "model.layers.8.mlp",
  "run_id": null,
  "mode": "real",
  "all_token_selected_expert_ids": [
    [
      22,
      7,
      29,
      32,
      60,
      1,
      59,
      58
    ],
    [
      3,
      52,
      57,
      6,
      51,
      54,
      38,
      62
    ],
    [
      18,
      3,
      40,
      10,
      0,
      38,
      32,
      28
    ],
    [
      3,
      6,
      24,
      51,
      49,
      57,
      55,
      54
    ],
    [
      16,
      3,
      51,
      61,
      6,
      54,
      11,
      37
    ],
    [
      3,
      54,
      52,
      57,
      51,
      16,
      55,
      63
    ],
    [
      30,
      3,
      21,
      54,
      16,
      18,
      10,
      35
    ],
    [
      3,
      54,
      51,
      57,
      20,
      6,
      16,
      63
    ],
    [
      30,
      16,
      21,
      3,
      54,
      10,
      35,
      18
    ],
    [
      3,
      51,
      57,
      54,
      6,
      20,
      49,
      16
    ],
    [
      3,
      30,
      54,
      16,
      21,
      10,
      18,
      35
    ]
  ]
}