{
  "layer_path": "model.layers.8.mlp",
  "layer_id": 8,
  "token_pos": 6,
  "target_token_id": 22780,
  "target_token_text": " researcher",
  "next_token_id": 8344,
  "next_token_text": " noticed",
  "router_logits": [
    -2.689453125,
    -2.595703125,
    -1.708984375,
    -0.71142578125,
    -2.685546875,
    0.1849365234375,
    -0.457275390625,
    -1.033203125,
    -0.904296875,
    -1.7158203125,
    -3.0546875,
    -0.681640625,
    0.15283203125,
    -1.220703125,
    0.52001953125,
    -1.939453125,
    -1.6416015625,
    -2.263671875,
    -1.0908203125,
    -1.1962890625,
    -0.75244140625,
    -2.44921875,
    -1.1318359375,
    -1.669921875,
    -0.84130859375,
    -0.72265625,
    -0.6298828125,
    -1.33203125,
    -2.2578125,
    -1.7490234375,
    -1.56640625,
    -1.8291015625,
    -0.853515625,
    -0.90234375,
    -1.369140625,
    -3.158203125,
    -1.443359375,
    -1.2421875,
    -0.361328125,
    -0.96337890625,
    -2.447265625,
    -1.01171875,
    -0.06658935546875,
    -2.1328125,
    -1.23828125,
    -1.599609375,
    -1.0224609375,
    -1.6953125,
    -1.48828125,
    0.78125,
    -3.05078125,
    -0.77197265625,
    -0.59912109375,
    -1.478515625,
    -1.0498046875,
    0.3095703125,
    -1.318359375,
    0.1688232421875,
    -0.6357421875,
    -0.70751953125,
    -1.1103515625,
    -1.1103515625,
    -1.2373046875,
    -0.04254150390625
  ],
  "router_probabilities": [
    0.002522470895200968,
    0.0027703926898539066,
    0.006724165286868811,
    0.018233604729175568,
    0.002532343612983823,
    0.04468458890914917,
    0.023509783670306206,
    0.013216803781688213,
    0.015035216696560383,
    0.0066783553920686245,
    0.0017506806179881096,
    0.018784865736961365,
    0.04327279329299927,
    0.010957115329802036,
    0.06247157230973244,
    0.005340070929378271,
    0.0071928719989955425,
    0.0038613630458712578,
    0.012476811185479164,
    0.011227915063500404,
    0.017500871792435646,
    0.0032074409537017345,
    0.011975418776273727,
    0.006992024835199118,
    0.01601272076368332,
    0.01802997849881649,
    0.01978272944688797,
    0.00980272889137268,
    0.003884054720401764,
    0.006460254546254873,
    0.007754597347229719,
    0.005963100120425224,
    0.015818443149328232,
    0.015064611099660397,
    0.009445623494684696,
    0.0015785220311954618,
    0.00876996386796236,
    0.010724218562245369,
    0.025877242907881737,
    0.014172637835144997,
    0.0032137115485966206,
    0.013503829948604107,
    0.03474733233451843,
    0.004401210695505142,
    0.010766192339360714,
    0.00750134838744998,
    0.013359546661376953,
    0.006816728040575981,
    0.008384719491004944,
    0.08112102001905441,
    0.0017575324745848775,
    0.017162375152111053,
    0.02040073648095131,
    0.008467001840472221,
    0.012999194674193859,
    0.05061573162674904,
    0.009937671013176441,
    0.043970342725515366,
    0.01966715417802334,
    0.018304968252778053,
    0.01223548874258995,
    0.01223548874258995,
    0.010776711627840996,
    0.03559305891394615
  ],
  "selected_expert_ids": [
    49,
    14,
    55,
    5,
    57,
    12,
    63,
    42
  ],
  "effective_gate_weights": [
    0.08112102001905441,
    0.06247157230973244,
    0.05061573162674904,
    0.04468458890914917,
    0.043970342725515366,
    0.04327279329299927,
    0.03559305891394615,
    0.03474733233451843
  ],
  "topk_ranks": [
    0,
    1,
    2,
    3,
    4,
    5,
    6,
    7
  ],
  "top1_top2_gap": 0.018649447709321976,
  "routing_entropy": 3.812626838684082,
  "sample_id": "layer_8_sample_001",
  "microbatch_id": null,
  "sequence_length": 8,
  "all_expert_count": 64,
  "selected_destination_ids": [
    49,
    14,
    55,
    5,
    57,
    12,
    63,
    42
  ],
  "expert_to_destination_map": {},
  "layer_name": "model.layers.8.mlp",
  "run_id": null,
  "mode": "real",
  "all_token_selected_expert_ids": [
    [
      22,
      7,
      29,
      32,
      60,
      1,
      59,
      33
    ],
    [
      32,
      53,
      18,
      23,
      22,
      38,
      59,
      14
    ],
    [
      2,
      38,
      56,
      36,
      5,
      24,
      39,
      58
    ],
    [
      14,
      5,
      63,
      57,
      12,
      55,
      6,
      49
    ],
    [
      21,
      10,
      35,
      14,
      50,
      18,
      30,
      58
    ],
    [
      53,
      14,
      23,
      58,
      56,
      31,
      18,
      5
    ],
    [
      49,
      14,
      55,
      5,
      57,
      12,
      63,
      42
    ],
    [
      14,
      28,
      18,
      5,
      17,
      56,
      11,
      42
    ]
  ]
}