{
  "layer_path": "model.layers.8.mlp",
  "layer_id": 8,
  "token_pos": 7,
  "target_token_id": 13,
  "target_token_text": ",",
  "next_token_id": 253,
  "next_token_text": " the",
  "router_logits": [
    -1.947265625,
    0.8466796875,
    -1.048828125,
    -0.73486328125,
    -1.283203125,
    -0.693359375,
    -0.98291015625,
    -0.677734375,
    -1.1083984375,
    -0.7880859375,
    0.888671875,
    -0.57275390625,
    -1.6103515625,
    -1.1728515625,
    -1.1923828125,
    -0.78662109375,
    -1.005859375,
    -2.361328125,
    0.72509765625,
    -0.689453125,
    -1.6376953125,
    0.8203125,
    -0.74951171875,
    -0.81982421875,
    -0.98828125,
    -2.578125,
    -0.460693359375,
    -0.99169921875,
    -1.49609375,
    -0.0966796875,
    0.369384765625,
    -0.73681640625,
    0.13818359375,
    -0.603515625,
    -2.240234375,
    0.95654296875,
    -2.197265625,
    -0.82421875,
    -1.5634765625,
    -0.88720703125,
    -0.9892578125,
    -0.78173828125,
    -1.4169921875,
    -1.45703125,
    -0.73974609375,
    -0.515625,
    -2.08203125,
    -1.9072265625,
    -1.16015625,
    -2.17578125,
    0.90771484375,
    -0.9619140625,
    -0.355224609375,
    -0.830078125,
    -0.76416015625,
    -2.111328125,
    -0.708984375,
    -2.45703125,
    1.44140625,
    -0.59814453125,
    -0.27587890625,
    -0.96044921875,
    -0.407470703125,
    -2.416015625
  ],
  "router_probabilities": [
    0.0034447552170604467,
    0.05630583316087723,
    0.008459502831101418,
    0.011579718440771103,
    0.006692017428576946,
    0.012070435099303722,
    0.009035925380885601,
    0.012260517105460167,
    0.00797028373926878,
    0.010979528538882732,
    0.05872058495879173,
    0.0136176198720932,
    0.004824788775295019,
    0.007472778670489788,
    0.0073282415978610516,
    0.010995624586939812,
    0.008830918930470943,
    0.002276844112202525,
    0.04985985532402992,
    0.012117677368223667,
    0.004694648087024689,
    0.054840609431266785,
    0.011411330662667751,
    0.010636528953909874,
    0.008987522684037685,
    0.0018330723978579044,
    0.015232406556606293,
    0.008956856094300747,
    0.005408786237239838,
    0.021920861676335335,
    0.03493548929691315,
    0.011557124555110931,
    0.027724100276827812,
    0.013205096125602722,
    0.0025699438992887735,
    0.06284437328577042,
    0.002682778052985668,
    0.010589889250695705,
    0.005056334659457207,
    0.009943424724042416,
    0.008978750556707382,
    0.011049444787204266,
    0.005854006391018629,
    0.005624248180538416,
    0.011523314751684666,
    0.014418232254683971,
    0.0030104429461061954,
    0.003585478290915489,
    0.0075682527385652065,
    0.0027410394977778196,
    0.059849515557289124,
    0.009227649308741093,
    0.016926728188991547,
    0.010528020560741425,
    0.01124539040029049,
    0.0029235256370157003,
    0.011883300729095936,
    0.002069045091047883,
    0.10205630958080292,
    0.013276212848722935,
    0.018324511125683784,
    0.009241176769137383,
    0.016065077856183052,
    0.0021556727588176727
  ],
  "selected_expert_ids": [
    58,
    35,
    50,
    10,
    1,
    21,
    18,
    30
  ],
  "effective_gate_weights": [
    0.10205630958080292,
    0.06284437328577042,
    0.059849515557289124,
    0.05872058495879173,
    0.05630583316087723,
    0.054840609431266785,
    0.04985985532402992,
    0.03493548929691315
  ],
  "topk_ranks": [
    0,
    1,
    2,
    3,
    4,
    5,
    6,
    7
  ],
  "top1_top2_gap": 0.0392119362950325,
  "routing_entropy": 3.6860411167144775,
  "sample_id": "layer_8_sample_003",
  "microbatch_id": null,
  "sequence_length": 9,
  "all_expert_count": 64,
  "selected_destination_ids": [
    58,
    35,
    50,
    10,
    1,
    21,
    18,
    30
  ],
  "expert_to_destination_map": {},
  "layer_name": "model.layers.8.mlp",
  "run_id": null,
  "mode": "real",
  "all_token_selected_expert_ids": [
    [
      22,
      7,
      29,
      32,
      60,
      1,
      59,
      33
    ],
    [
      53,
      18,
      32,
      22,
      23,
      38,
      2,
      15
    ],
    [
      53,
      45,
      23,
      15,
      58,
      5,
      38,
      19
    ],
    [
      45,
      37,
      58,
      34,
      5,
      38,
      19,
      39
    ],
    [
      2,
      58,
      15,
      18,
      28,
      56,
      5,
      19
    ],
    [
      23,
      53,
      2,
      58,
      56,
      15,
      5,
      8
    ],
    [
      58,
      34,
      55,
      57,
      63,
      12,
      52,
      45
    ],
    [
      58,
      35,
      50,
      10,
      1,
      21,
      18,
      30
    ],
    [
      53,
      58,
      23,
      56,
      31,
      15,
      18,
      5
    ]
  ]
}