{
  "layer_path": "model.layers.8.mlp",
  "layer_id": 8,
  "token_pos": 6,
  "target_token_id": 14900,
  "target_token_text": " conserved",
  "next_token_id": 672,
  "next_token_text": " when",
  "router_logits": [
    -1.9580078125,
    -2.064453125,
    -1.3134765625,
    -0.63818359375,
    -2.03125,
    -0.72412109375,
    -0.331298828125,
    -0.36181640625,
    -0.82861328125,
    -1.724609375,
    -2.7734375,
    0.33349609375,
    -0.1439208984375,
    -1.775390625,
    1.4580078125,
    -2.19921875,
    -0.90283203125,
    -0.026153564453125,
    -0.810546875,
    -0.73095703125,
    0.30078125,
    -2.13671875,
    -1.1162109375,
    -0.4892578125,
    0.18310546875,
    0.701171875,
    -0.677734375,
    -0.60693359375,
    -0.56298828125,
    -1.3681640625,
    -1.2265625,
    -1.7158203125,
    -1.1162109375,
    -0.43994140625,
    0.69873046875,
    -2.818359375,
    0.60400390625,
    -0.380615234375,
    -0.98388671875,
    -1.580078125,
    -1.53125,
    -0.583984375,
    -0.77685546875,
    -2.146484375,
    -0.95361328125,
    -0.448974609375,
    -1.2451171875,
    -1.302734375,
    -0.4599609375,
    1.4755859375,
    -2.865234375,
    0.75244140625,
    0.51220703125,
    -1.6240234375,
    0.49267578125,
    -0.035400390625,
    -1.029296875,
    0.9794921875,
    -0.53125,
    -0.467041015625,
    -0.6669921875,
    -1.0244140625,
    0.591796875,
    1.2197265625
  ],
  "router_probabilities": [
    0.0027185759972780943,
    0.0024440656416118145,
    0.005179142113775015,
    0.010174986906349659,
    0.0025265784934163094,
    0.009337092749774456,
    0.013829682022333145,
    0.013414008542895317,
    0.008410683833062649,
    0.0034332475624978542,
    0.001202831626869738,
    0.026886170729994774,
    0.01667974516749382,
    0.003263255814090371,
    0.0827748104929924,
    0.002135919639840722,
    0.007809055503457785,
    0.018764417618513107,
    0.008564014919102192,
    0.009273482486605644,
    0.026020828634500504,
    0.0022736743558198214,
    0.006308544892817736,
    0.011808955110609531,
    0.02313210442662239,
    0.038833677768707275,
    0.00978041160851717,
    0.010497975163161755,
    0.010969598777592182,
    0.004903513006865978,
    0.0056494236923754215,
    0.0034635555930435658,
    0.006308544892817736,
    0.01240593008697033,
    0.03873898461461067,
    0.0011499938555061817,
    0.03523781895637512,
    0.013164196163415909,
    0.007201067637652159,
    0.003967110067605972,
    0.004165623337030411,
    0.01074168086051941,
    0.008857464417815208,
    0.002251578727737069,
    0.007422402035444975,
    0.01229436881840229,
    0.005545566324144602,
    0.0052350773476064205,
    0.012160039506852627,
    0.08424270153045654,
    0.001097331871278584,
    0.04087658226490021,
    0.0321471244096756,
    0.003796549281105399,
    0.03152534365653992,
    0.018591705709695816,
    0.006881379522383213,
    0.05129576474428177,
    0.011323339305818081,
    0.012074248865246773,
    0.009886041283607483,
    0.006915062200278044,
    0.03481028601527214,
    0.06522498279809952
  ],
  "selected_expert_ids": [
    49,
    14,
    63,
    57,
    51,
    25,
    34,
    36
  ],
  "effective_gate_weights": [
    0.08424270153045654,
    0.0827748104929924,
    0.06522498279809952,
    0.05129576474428177,
    0.04087658226490021,
    0.038833677768707275,
    0.03873898461461067,
    0.03523781895637512
  ],
  "topk_ranks": [
    0,
    1,
    2,
    3,
    4,
    5,
    6,
    7
  ],
  "top1_top2_gap": 0.0014678910374641418,
  "routing_entropy": 3.679455518722534,
  "sample_id": "layer_8_sample_015",
  "microbatch_id": null,
  "sequence_length": 8,
  "all_expert_count": 64,
  "selected_destination_ids": [
    49,
    14,
    63,
    57,
    51,
    25,
    34,
    36
  ],
  "expert_to_destination_map": {},
  "layer_name": "model.layers.8.mlp",
  "run_id": null,
  "mode": "real",
  "all_token_selected_expert_ids": [
    [
      22,
      7,
      29,
      32,
      60,
      1,
      59,
      33
    ],
    [
      49,
      2,
      24,
      14,
      38,
      6,
      53,
      18
    ],
    [
      14,
      49,
      12,
      63,
      52,
      57,
      55,
      62
    ],
    [
      18,
      35,
      10,
      21,
      14,
      50,
      1,
      30
    ],
    [
      14,
      49,
      6,
      63,
      55,
      57,
      51,
      52
    ],
    [
      18,
      40,
      14,
      31,
      13,
      10,
      32,
      60
    ],
    [
      49,
      14,
      63,
      57,
      51,
      25,
      34,
      36
    ],
    [
      14,
      18,
      0,
      54,
      28,
      17,
      11,
      62
    ]
  ]
}