{
  "layer_path": "model.layers.8.mlp",
  "layer_id": 8,
  "token_pos": 8,
  "target_token_id": 13,
  "target_token_text": ",",
  "next_token_id": 16030,
  "next_token_text": " inspect",
  "router_logits": [
    -1.7626953125,
    -0.69775390625,
    -1.3466796875,
    0.238525390625,
    -1.4404296875,
    -1.7578125,
    -1.0380859375,
    -1.25390625,
    -1.3525390625,
    0.246337890625,
    0.445068359375,
    -1.27734375,
    -2.244140625,
    -1.296875,
    -0.998046875,
    -1.4951171875,
    -0.57080078125,
    -2.212890625,
    0.11871337890625,
    -1.380859375,
    -1.423828125,
    0.48876953125,
    -1.4052734375,
    -1.4482421875,
    -0.90673828125,
    -1.9970703125,
    -1.1640625,
    -1.1787109375,
    -1.4970703125,
    -0.75634765625,
    0.284423828125,
    -1.7236328125,
    -0.36767578125,
    -1.2294921875,
    -2.646484375,
    0.2763671875,
    -1.8388671875,
    -1.0126953125,
    -0.994140625,
    -0.9013671875,
    -1.4345703125,
    -1.08203125,
    0.34033203125,
    -2.255859375,
    -1.103515625,
    -1.3134765625,
    -1.9287109375,
    -0.4873046875,
    -1.0654296875,
    -1.75390625,
    0.1834716796875,
    -1.119140625,
    -0.65576171875,
    -1.0751953125,
    -0.6865234375,
    -2.18359375,
    -1.8134765625,
    -2.357421875,
    -0.9130859375,
    -1.228515625,
    -0.403564453125,
    -1.3154296875,
    -0.69921875,
    -2.384765625
  ],
  "router_probabilities": [
    0.006024820730090141,
    0.01747600920498371,
    0.009133082814514637,
    0.04457211494445801,
    0.008315766230225563,
    0.006054310128092766,
    0.01243477500975132,
    0.010020937770605087,
    0.009079724550247192,
    0.044921692460775375,
    0.05479786917567253,
    0.009788802824914455,
    0.0037226746790111065,
    0.009599471464753151,
    0.012942753732204437,
    0.007873209193348885,
    0.019841628149151802,
    0.0038408448453992605,
    0.03953934833407402,
    0.008826191537082195,
    0.008454973809421062,
    0.05724569782614708,
    0.008613317273557186,
    0.008251052349805832,
    0.014180172234773636,
    0.004766025114804506,
    0.010962939821183681,
    0.010803519748151302,
    0.007857847027480602,
    0.016481447964906693,
    0.046665579080581665,
    0.006264822091907263,
    0.02431047149002552,
    0.010268600657582283,
    0.002489541657269001,
    0.04629112035036087,
    0.005582941230386496,
    0.012754544615745544,
    0.012993410229682922,
    0.014256540685892105,
    0.008364634588360786,
    0.01190015859901905,
    0.049348875880241394,
    0.003679304150864482,
    0.011647217907011509,
    0.009441420435905457,
    0.005103221628814936,
    0.02156945690512657,
    0.012099368497729301,
    0.006078005768358707,
    0.04218457639217377,
    0.011466644704341888,
    0.018225491046905518,
    0.011981786228716373,
    0.017673378810286522,
    0.003955034073442221,
    0.005726511124521494,
    0.003323974087834358,
    0.014090446755290031,
    0.010278633795678616,
    0.023453470319509506,
    0.009422997944056988,
    0.017450429499149323,
    0.003234315663576126
  ],
  "selected_expert_ids": [
    21,
    10,
    42,
    30,
    35,
    9,
    3,
    50
  ],
  "effective_gate_weights": [
    0.05724569782614708,
    0.05479786917567253,
    0.049348875880241394,
    0.046665579080581665,
    0.04629112035036087,
    0.044921692460775375,
    0.04457211494445801,
    0.04218457639217377
  ],
  "topk_ranks": [
    0,
    1,
    2,
    3,
    4,
    5,
    6,
    7
  ],
  "top1_top2_gap": 0.0024478286504745483,
  "routing_entropy": 3.8476624488830566,
  "sample_id": "layer_8_sample_021",
  "microbatch_id": null,
  "sequence_length": 10,
  "all_expert_count": 64,
  "selected_destination_ids": [
    21,
    10,
    42,
    30,
    35,
    9,
    3,
    50
  ],
  "expert_to_destination_map": {},
  "layer_name": "model.layers.8.mlp",
  "run_id": null,
  "mode": "real",
  "all_token_selected_expert_ids": [
    [
      22,
      7,
      29,
      32,
      60,
      1,
      59,
      58
    ],
    [
      38,
      52,
      51,
      49,
      57,
      62,
      48,
      33
    ],
    [
      18,
      32,
      29,
      30,
      16,
      60,
      38,
      1
    ],
    [
      42,
      38,
      47,
      18,
      3,
      28,
      51,
      62
    ],
    [
      3,
      62,
      42,
      57,
      55,
      51,
      24,
      38
    ],
    [
      21,
      10,
      3,
      18,
      30,
      35,
      50,
      9
    ],
    [
      3,
      42,
      9,
      47,
      28,
      54,
      17,
      8
    ],
    [
      3,
      42,
      57,
      55,
      20,
      63,
      62,
      51
    ],
    [
      21,
      10,
      42,
      30,
      35,
      9,
      3,
      50
    ],
    [
      3,
      42,
      9,
      28,
      47,
      51,
      20,
      62
    ]
  ]
}