{
  "layer_path": "model.layers.8.mlp",
  "layer_id": 8,
  "token_pos": 5,
  "target_token_id": 26830,
  "target_token_text": " gradual",
  "next_token_id": 2572,
  "next_token_text": " increase",
  "router_logits": [
    -1.435546875,
    -3.166015625,
    0.82958984375,
    -1.0908203125,
    -0.1817626953125,
    -1.033203125,
    -1.43359375,
    -1.373046875,
    -0.169677734375,
    -0.66357421875,
    -2.71484375,
    0.7080078125,
    -2.634765625,
    -1.560546875,
    1.275390625,
    -1.3896484375,
    -1.625,
    0.39794921875,
    -0.39111328125,
    0.2064208984375,
    -0.97607421875,
    -2.13671875,
    -0.89013671875,
    -0.42626953125,
    -0.060760498046875,
    -0.9326171875,
    -0.79443359375,
    -1.78515625,
    -1.18359375,
    -2.515625,
    -2.201171875,
    -1.9873046875,
    -1.5888671875,
    -0.259033203125,
    -0.1519775390625,
    -3.185546875,
    0.6435546875,
    -1.1474609375,
    -0.943359375,
    -0.98193359375,
    -0.513671875,
    -1.458984375,
    -1.173828125,
    -1.2763671875,
    -1.0859375,
    -1.380859375,
    -0.73193359375,
    -0.50927734375,
    -0.9873046875,
    -1.07421875,
    -2.404296875,
    -0.66357421875,
    -1.7802734375,
    -0.771484375,
    -0.99609375,
    -2.87890625,
    -0.53271484375,
    -2.103515625,
    -0.2451171875,
    -1.099609375,
    -1.333984375,
    -1.0654296875,
    -1.23046875,
    -2.0390625
  ],
  "router_probabilities": [
    0.00719505874440074,
    0.001274973968975246,
    0.06930597871541977,
    0.010156572796404362,
    0.02520843595266342,
    0.010758953168988228,
    0.007209125440567732,
    0.007659100461751223,
    0.02551492676138878,
    0.015570329502224922,
    0.0020019018556922674,
    0.06137172505259514,
    0.00216880370862782,
    0.006349616684019566,
    0.10823794454336166,
    0.007532996591180563,
    0.005953274201601744,
    0.045010268688201904,
    0.020446833223104477,
    0.03716480731964111,
    0.01139149721711874,
    0.003568775486201048,
    0.0124137494713068,
    0.01974049024283886,
    0.02845092862844467,
    0.011897451244294643,
    0.0136604905128479,
    0.0050722528249025345,
    0.009256700053811073,
    0.002443219069391489,
    0.0033460131380707026,
    0.004143896978348494,
    0.006172316614538431,
    0.023333922028541565,
    0.025970565155148506,
    0.0012503138277679682,
    0.057540904730558395,
    0.009597286581993103,
    0.011770330369472504,
    0.011324944905936718,
    0.01808837428689003,
    0.007028385531157255,
    0.009347540326416492,
    0.008436555974185467,
    0.010206286795437336,
    0.007599496748298407,
    0.014541516080498695,
    0.018168041482567787,
    0.011264280416071415,
    0.010326595976948738,
    0.0027309362776577473,
    0.015570329502224922,
    0.005097080487757921,
    0.013977613300085068,
    0.011165711097419262,
    0.001698991865850985,
    0.0177471786737442,
    0.003689259523525834,
    0.02366090752184391,
    0.010067697614431381,
    0.00796420406550169,
    0.010417756624519825,
    0.00883280485868454,
    0.003934873733669519
  ],
  "selected_expert_ids": [
    14,
    2,
    11,
    36,
    17,
    19,
    24,
    34
  ],
  "effective_gate_weights": [
    0.10823794454336166,
    0.06930597871541977,
    0.06137172505259514,
    0.057540904730558395,
    0.045010268688201904,
    0.03716480731964111,
    0.02845092862844467,
    0.025970565155148506
  ],
  "topk_ranks": [
    0,
    1,
    2,
    3,
    4,
    5,
    6,
    7
  ],
  "top1_top2_gap": 0.038931965827941895,
  "routing_entropy": 3.7161641120910645,
  "sample_id": "layer_8_sample_013",
  "microbatch_id": null,
  "sequence_length": 7,
  "all_expert_count": 64,
  "selected_destination_ids": [
    14,
    2,
    11,
    36,
    17,
    19,
    24,
    34
  ],
  "expert_to_destination_map": {},
  "layer_name": "model.layers.8.mlp",
  "run_id": null,
  "mode": "real",
  "all_token_selected_expert_ids": [
    [
      22,
      7,
      29,
      32,
      60,
      1,
      59,
      33
    ],
    [
      49,
      6,
      14,
      62,
      57,
      51,
      24,
      32
    ],
    [
      49,
      52,
      55,
      14,
      57,
      63,
      12,
      24
    ],
    [
      14,
      11,
      18,
      28,
      17,
      46,
      24,
      5
    ],
    [
      14,
      11,
      18,
      40,
      23,
      53,
      4,
      0
    ],
    [
      14,
      2,
      11,
      36,
      17,
      19,
      24,
      34
    ],
    [
      11,
      34,
      14,
      36,
      63,
      19,
      20,
      58
    ]
  ]
}