{
  "layer_path": "model.layers.8.mlp",
  "layer_id": 8,
  "token_pos": 8,
  "target_token_id": 374,
  "target_token_text": " 2",
  "next_token_id": 27,
  "next_token_text": ":",
  "router_logits": [
    -2.6640625,
    -0.1549072265625,
    -2.310546875,
    0.177490234375,
    -2.67578125,
    -1.1923828125,
    -1.7587890625,
    -1.484375,
    -1.4912109375,
    -0.40673828125,
    -1.072265625,
    -1.3037109375,
    -1.65234375,
    -2.150390625,
    -1.08984375,
    -2.4609375,
    -0.6953125,
    -2.548828125,
    -0.1927490234375,
    -1.6142578125,
    -0.8525390625,
    -0.78125,
    -1.5927734375,
    -2.08203125,
    -1.0830078125,
    -2.10546875,
    -1.3515625,
    -0.69970703125,
    -2.248046875,
    0.1251220703125,
    -0.794921875,
    -1.439453125,
    0.4345703125,
    -0.97607421875,
    -2.1484375,
    -0.86962890625,
    -1.9541015625,
    0.85791015625,
    -0.4931640625,
    -1.4638671875,
    -2.283203125,
    -1.3857421875,
    -0.45654296875,
    -1.884765625,
    -1.38671875,
    0.96142578125,
    -2.05078125,
    -2.259765625,
    -1.2890625,
    -1.830078125,
    -1.0908203125,
    -1.4072265625,
    -0.748046875,
    -1.77734375,
    0.32177734375,
    -1.8974609375,
    -2.154296875,
    -1.921875,
    -0.81787109375,
    -1.060546875,
    -0.80859375,
    -1.037109375,
    -0.66943359375,
    -1.8876953125
  ],
  "router_probabilities": [
    0.0025880143512040377,
    0.0318184494972229,
    0.003685501404106617,
    0.04436468333005905,
    0.002557863015681505,
    0.011274805292487144,
    0.006399145349860191,
    0.008419735357165337,
    0.00836237519979477,
    0.024734899401664734,
    0.012713797390460968,
    0.010086949914693832,
    0.007117878179997206,
    0.004325651563704014,
    0.012492265552282333,
    0.0031709016766399145,
    0.01853463053703308,
    0.002904105233028531,
    0.030636878684163094,
    0.00739419786259532,
    0.015838036313652992,
    0.017008334398269653,
    0.007554776035249233,
    0.004631692077964544,
    0.012577954679727554,
    0.004524399060755968,
    0.009615641087293625,
    0.018453357741236687,
    0.003923195879906416,
    0.0421011708676815,
    0.01677738130092621,
    0.008806589990854263,
    0.057370126247406006,
    0.013997507281601429,
    0.00433410843834281,
    0.015569665469229221,
    0.005263793282210827,
    0.0876072347164154,
    0.02268693968653679,
    0.008594188839197159,
    0.0037876672577112913,
    0.009292533621191978,
    0.023533159866929054,
    0.00564171327278018,
    0.009283463470637798,
    0.09716195613145828,
    0.004778717644512653,
    0.003877489361912012,
    0.010235795751214027,
    0.005958836991339922,
    0.012480071745812893,
    0.009095018729567528,
    0.017582543194293976,
    0.0062815058045089245,
    0.05125078186392784,
    0.005570542998611927,
    0.004308787640184164,
    0.005436190403997898,
    0.016396738588809967,
    0.012863664887845516,
    0.01654956303536892,
    0.013168716803193092,
    0.019020548090338707,
    0.005625209305435419
  ],
  "selected_expert_ids": [
    45,
    37,
    32,
    54,
    3,
    29,
    1,
    18
  ],
  "effective_gate_weights": [
    0.09716195613145828,
    0.0876072347164154,
    0.057370126247406006,
    0.05125078186392784,
    0.04436468333005905,
    0.0421011708676815,
    0.0318184494972229,
    0.030636878684163094
  ],
  "topk_ranks": [
    0,
    1,
    2,
    3,
    4,
    5,
    6,
    7
  ],
  "top1_top2_gap": 0.009554721415042877,
  "routing_entropy": 3.7238051891326904,
  "sample_id": "layer_8_sample_019",
  "microbatch_id": null,
  "sequence_length": 10,
  "all_expert_count": 64,
  "selected_destination_ids": [
    45,
    37,
    32,
    54,
    3,
    29,
    1,
    18
  ],
  "expert_to_destination_map": {},
  "layer_name": "model.layers.8.mlp",
  "run_id": null,
  "mode": "real",
  "all_token_selected_expert_ids": [
    [
      22,
      7,
      29,
      32,
      60,
      1,
      59,
      33
    ],
    [
      45,
      37,
      32,
      52,
      38,
      29,
      54,
      18
    ],
    [
      32,
      29,
      1,
      18,
      35,
      10,
      54,
      60
    ],
    [
      3,
      54,
      42,
      51,
      28,
      62,
      38,
      16
    ],
    [
      54,
      3,
      53,
      23,
      18,
      8,
      42,
      14
    ],
    [
      3,
      6,
      57,
      54,
      55,
      52,
      42,
      63
    ],
    [
      35,
      30,
      54,
      10,
      21,
      3,
      18,
      50
    ],
    [
      6,
      32,
      45,
      54,
      37,
      3,
      16,
      38
    ],
    [
      45,
      37,
      32,
      54,
      3,
      29,
      1,
      18
    ],
    [
      54,
      3,
      10,
      18,
      35,
      42,
      21,
      50
    ]
  ]
}