{
  "layer_path": "model.layers.8.mlp",
  "layer_id": 8,
  "token_pos": 5,
  "target_token_id": 5281,
  "target_token_text": " shape",
  "next_token_id": 326,
  "next_token_text": " that",
  "router_logits": [
    -1.7666015625,
    -3.1875,
    -1.1142578125,
    -0.32568359375,
    -2.2109375,
    -1.3779296875,
    -0.1998291015625,
    -1.14453125,
    -0.80224609375,
    -1.8564453125,
    -3.4765625,
    -0.68212890625,
    -0.8515625,
    -2.056640625,
    1.5703125,
    -2.7265625,
    -1.3125,
    -0.43408203125,
    -1.6845703125,
    -1.2587890625,
    -0.1802978515625,
    -2.720703125,
    -0.857421875,
    -0.658203125,
    -0.458984375,
    0.1435546875,
    -0.88623046875,
    -1.072265625,
    -1.26953125,
    -2.62109375,
    -2.29296875,
    -2.70703125,
    -2.01953125,
    -0.5458984375,
    0.9775390625,
    -3.609375,
    0.7470703125,
    -0.63916015625,
    -0.71044921875,
    -0.74365234375,
    -1.4951171875,
    -0.74169921875,
    0.06951904296875,
    -2.34375,
    -1.1376953125,
    -1.076171875,
    -1.26953125,
    -1.330078125,
    -0.3857421875,
    0.62744140625,
    -3.30859375,
    -0.32568359375,
    -0.376953125,
    -1.42578125,
    -0.64453125,
    0.59814453125,
    -0.2261962890625,
    0.81298828125,
    -0.405029296875,
    -1.26953125,
    -1.0556640625,
    -1.2412109375,
    -0.277587890625,
    0.93701171875
  ],
  "router_probabilities": [
    0.004248589277267456,
    0.0010260213166475296,
    0.008157443255186081,
    0.017948472872376442,
    0.0027244077064096928,
    0.006266756448894739,
    0.020355669781565666,
    0.00791419018059969,
    0.011144460178911686,
    0.0038835250306874514,
    0.0007684544543735683,
    0.012566816061735153,
    0.010608186013996601,
    0.003178940387442708,
    0.11952207237482071,
    0.0016268182080239058,
    0.00669049983844161,
    0.016104625537991524,
    0.004611799959093332,
    0.0070596784353256226,
    0.020757148042321205,
    0.0016363783506676555,
    0.010546211153268814,
    0.012871111743152142,
    0.01570853404700756,
    0.02869558334350586,
    0.01024672482162714,
    0.00850728526711464,
    0.006984247826039791,
    0.0018077713903039694,
    0.002509842161089182,
    0.00165890424977988,
    0.0032991250045597553,
    0.014400891028344631,
    0.06607084721326828,
    0.0006728812586516142,
    0.05247090756893158,
    0.013118565082550049,
    0.012215912342071533,
    0.011816964484751225,
    0.005573768634349108,
    0.01184006780385971,
    0.02664782665669918,
    0.0023855711333453655,
    0.007968476042151451,
    0.008474119007587433,
    0.006984247826039791,
    0.0065739210695028305,
    0.016902243718504906,
    0.046554792672395706,
    0.0009090045350603759,
    0.017948472872376442,
    0.0170514527708292,
    0.00597394397482276,
    0.013048293069005013,
    0.04521067067980766,
    0.01982596144080162,
    0.05604622885584831,
    0.01657937280833721,
    0.006984247826039791,
    0.008649698458611965,
    0.007184871472418308,
    0.01883281208574772,
    0.06344670057296753
  ],
  "selected_expert_ids": [
    14,
    34,
    63,
    57,
    36,
    49,
    55,
    25
  ],
  "effective_gate_weights": [
    0.11952207237482071,
    0.06607084721326828,
    0.06344670057296753,
    0.05604622885584831,
    0.05247090756893158,
    0.046554792672395706,
    0.04521067067980766,
    0.02869558334350586
  ],
  "topk_ranks": [
    0,
    1,
    2,
    3,
    4,
    5,
    6,
    7
  ],
  "top1_top2_gap": 0.05345122516155243,
  "routing_entropy": 3.627528190612793,
  "sample_id": "layer_8_sample_016",
  "microbatch_id": null,
  "sequence_length": 7,
  "all_expert_count": 64,
  "selected_destination_ids": [
    14,
    34,
    63,
    57,
    36,
    49,
    55,
    25
  ],
  "expert_to_destination_map": {},
  "layer_name": "model.layers.8.mlp",
  "run_id": null,
  "mode": "real",
  "all_token_selected_expert_ids": [
    [
      22,
      7,
      29,
      32,
      60,
      1,
      59,
      33
    ],
    [
      49,
      14,
      6,
      55,
      57,
      32,
      24,
      11
    ],
    [
      24,
      14,
      34,
      57,
      42,
      25,
      63,
      52
    ],
    [
      14,
      18,
      17,
      28,
      56,
      40,
      0,
      42
    ],
    [
      14,
      23,
      56,
      18,
      40,
      53,
      0,
      9
    ],
    [
      14,
      34,
      63,
      57,
      36,
      49,
      55,
      25
    ],
    [
      14,
      18,
      10,
      50,
      40,
      13,
      0,
      56
    ]
  ]
}