{
  "layer_path": "model.layers.8.mlp",
  "layer_id": 8,
  "token_pos": 5,
  "target_token_id": 470,
  "target_token_text": " 0",
  "next_token_id": 27,
  "next_token_text": ":",
  "router_logits": [
    -1.9375,
    -1.302734375,
    -1.5625,
    0.82421875,
    -1.708984375,
    -1.4853515625,
    -1.0751953125,
    -1.2509765625,
    -0.669921875,
    -1.17578125,
    -1.4638671875,
    0.290771484375,
    -0.91943359375,
    -1.154296875,
    -0.4404296875,
    -2.07421875,
    0.006439208984375,
    -0.94140625,
    -1.4599609375,
    -1.0234375,
    -0.063720703125,
    -1.1240234375,
    -1.251953125,
    -1.46875,
    -0.849609375,
    -1.3623046875,
    -0.8828125,
    -1.1396484375,
    -1.51171875,
    -1.1826171875,
    -0.496337890625,
    -1.171875,
    -0.591796875,
    -0.498779296875,
    -0.279541015625,
    -1.62109375,
    -0.384765625,
    0.70947265625,
    -0.7177734375,
    -0.7080078125,
    -1.265625,
    -1.099609375,
    -0.60302734375,
    -1.5791015625,
    -1.15625,
    0.2802734375,
    -1.5341796875,
    -1.2001953125,
    -0.96630859375,
    -1.4287109375,
    -1.4189453125,
    -0.69580078125,
    0.07745361328125,
    -1.3173828125,
    1.009765625,
    -0.7734375,
    -1.517578125,
    -0.3037109375,
    -0.3076171875,
    -1.0146484375,
    -0.8505859375,
    -1.18359375,
    -0.49462890625,
    -0.5068359375
  ],
  "router_probabilities": [
    0.004276012536138296,
    0.008067038841545582,
    0.006221561226993799,
    0.06767654418945312,
    0.005373806692659855,
    0.006720545701682568,
    0.010128219611942768,
    0.008495565503835678,
    0.015189417637884617,
    0.009159023873507977,
    0.006866494193673134,
    0.039697665721178055,
    0.011835307814180851,
    0.009357929229736328,
    0.019107695668935776,
    0.003729604184627533,
    0.02987314760684967,
    0.01157809142023325,
    0.006893368903547525,
    0.010666237212717533,
    0.02784908562898636,
    0.009645557031035423,
    0.008487273007631302,
    0.0068330480717122555,
    0.012691234238445759,
    0.0076005165465176105,
    0.012276764959096909,
    0.009496016427874565,
    0.0065456596203148365,
    0.009096627123653889,
    0.01806873269379139,
    0.009194871410727501,
    0.016423676162958145,
    0.01802467368543148,
    0.022443024441599846,
    0.005867491010576487,
    0.020201468840241432,
    0.06033989414572716,
    0.01447969675064087,
    0.014621792361140251,
    0.008372025564312935,
    0.009883943013846874,
    0.016240263357758522,
    0.006119125988334417,
    0.009339669719338417,
    0.03928309679031372,
    0.006400276441127062,
    0.008938122540712357,
    0.011293329298496246,
    0.007112187799066305,
    0.007181982975453138,
    0.014801375567913055,
    0.032071713358163834,
    0.007949731312692165,
    0.08147420734167099,
    0.01369571965187788,
    0.006507417652755976,
    0.021907081827521324,
    0.021821672096848488,
    0.010760397650301456,
    0.012678845785558224,
    0.009087747894227505,
    0.01809963770210743,
    0.017880039289593697
  ],
  "selected_expert_ids": [
    54,
    3,
    37,
    11,
    45,
    52,
    16,
    20
  ],
  "effective_gate_weights": [
    0.08147420734167099,
    0.06767654418945312,
    0.06033989414572716,
    0.039697665721178055,
    0.03928309679031372,
    0.032071713358163834,
    0.02987314760684967,
    0.02784908562898636
  ],
  "topk_ranks": [
    0,
    1,
    2,
    3,
    4,
    5,
    6,
    7
  ],
  "top1_top2_gap": 0.013797663152217865,
  "routing_entropy": 3.8691515922546387,
  "sample_id": "layer_8_sample_029",
  "microbatch_id": null,
  "sequence_length": 7,
  "all_expert_count": 64,
  "selected_destination_ids": [
    54,
    3,
    37,
    11,
    45,
    52,
    16,
    20
  ],
  "expert_to_destination_map": {},
  "layer_name": "model.layers.8.mlp",
  "run_id": null,
  "mode": "real",
  "all_token_selected_expert_ids": [
    [
      22,
      7,
      29,
      32,
      60,
      1,
      59,
      33
    ],
    [
      6,
      3,
      54,
      38,
      16,
      51,
      57,
      44
    ],
    [
      21,
      3,
      30,
      16,
      54,
      9,
      38,
      61
    ],
    [
      6,
      20,
      57,
      11,
      55,
      33,
      51,
      49
    ],
    [
      54,
      16,
      3,
      11,
      61,
      37,
      32,
      20
    ],
    [
      54,
      3,
      37,
      11,
      45,
      52,
      16,
      20
    ],
    [
      54,
      3,
      30,
      16,
      10,
      50,
      35,
      1
    ]
  ]
}