{
  "layer_path": "model.layers.8.mlp",
  "layer_id": 8,
  "token_pos": 14,
  "target_token_id": 3468,
  "target_token_text": " slow",
  "next_token_id": 12095,
  "next_token_text": " destination",
  "router_logits": [
    -2.232421875,
    -2.755859375,
    0.4208984375,
    -0.53173828125,
    -0.1605224609375,
    -1.5537109375,
    -0.59423828125,
    -1.1904296875,
    -0.6259765625,
    -0.6884765625,
    -2.90234375,
    -0.337646484375,
    -3.017578125,
    -1.9423828125,
    -0.224365234375,
    -1.6943359375,
    -1.2587890625,
    -0.4375,
    -1.0263671875,
    -0.130615234375,
    -0.9423828125,
    -1.8857421875,
    -1.0146484375,
    -1.32421875,
    -0.484130859375,
    -1.478515625,
    -1.0458984375,
    -1.126953125,
    -1.2607421875,
    -2.064453125,
    -1.9775390625,
    -2.119140625,
    -1.228515625,
    -0.187744140625,
    -0.53271484375,
    -3.119140625,
    0.1494140625,
    -1.2734375,
    -0.8525390625,
    -0.484375,
    -1.2451171875,
    -1.546875,
    -1.0419921875,
    -1.267578125,
    -0.32763671875,
    -1.34375,
    -0.7607421875,
    -0.8154296875,
    -0.96240234375,
    -2.21875,
    -2.609375,
    -0.2352294921875,
    -1.5908203125,
    -0.98193359375,
    -1.2099609375,
    -2.923828125,
    -0.92822265625,
    -2.052734375,
    -0.607421875,
    -1.109375,
    -1.1875,
    -0.556640625,
    -1.23828125,
    -2.705078125
  ],
  "router_probabilities": [
    0.004310408607125282,
    0.0025538327172398567,
    0.06121259927749634,
    0.02361108548939228,
    0.034224171191453934,
    0.008497258648276329,
    0.02218056097626686,
    0.012219401076436043,
    0.0214876439422369,
    0.020185772329568863,
    0.002205845434218645,
    0.028668763116002083,
    0.001965755131095648,
    0.005760773550719023,
    0.03210749104619026,
    0.00738254701718688,
    0.011412001214921474,
    0.025944368913769722,
    0.014397972263395786,
    0.03526318073272705,
    0.015659404918551445,
    0.006096485536545515,
    0.014567691832780838,
    0.010689221322536469,
    0.024762336164712906,
    0.009160850197076797,
    0.01411949098110199,
    0.013020193204283714,
    0.011389734223484993,
    0.005098781082779169,
    0.005561765283346176,
    0.004827429074794054,
    0.011762764304876328,
    0.0333050973713398,
    0.023588038980960846,
    0.0017759117763489485,
    0.046659134328365326,
    0.011246051639318466,
    0.017131442204117775,
    0.024756290018558502,
    0.011569095775485039,
    0.008555544540286064,
    0.014174752868711948,
    0.011312139220535755,
    0.028957171365618706,
    0.010482472367584705,
    0.018778497353196144,
    0.017779123038053513,
    0.015349030494689941,
    0.004369744565337896,
    0.0029567170422524214,
    0.031760554760694504,
    0.00818771030753851,
    0.015052152797579765,
    0.011983055621385574,
    0.0021589596290141344,
    0.015882723033428192,
    0.005158883985131979,
    0.02189006097614765,
    0.013251087628304958,
    0.012255252338945866,
    0.023030374199151993,
    0.011648451909422874,
    0.0026868688873946667
  ],
  "selected_expert_ids": [
    2,
    36,
    19,
    4,
    33,
    14,
    51,
    44
  ],
  "effective_gate_weights": [
    0.06121259927749634,
    0.046659134328365326,
    0.03526318073272705,
    0.034224171191453934,
    0.0333050973713398,
    0.03210749104619026,
    0.031760554760694504,
    0.028957171365618706
  ],
  "topk_ranks": [
    0,
    1,
    2,
    3,
    4,
    5,
    6,
    7
  ],
  "top1_top2_gap": 0.014553464949131012,
  "routing_entropy": 3.918339729309082,
  "sample_id": "layer_8_sample_047",
  "microbatch_id": null,
  "sequence_length": 16,
  "all_expert_count": 64,
  "selected_destination_ids": [
    2,
    36,
    19,
    4,
    33,
    14,
    51,
    44
  ],
  "expert_to_destination_map": {},
  "layer_name": "model.layers.8.mlp",
  "run_id": null,
  "mode": "real",
  "all_token_selected_expert_ids": [
    [
      22,
      7,
      29,
      32,
      60,
      1,
      59,
      33
    ],
    [
      62,
      3,
      51,
      28,
      38,
      60,
      42,
      32
    ],
    [
      60,
      29,
      32,
      18,
      16,
      62,
      1,
      35
    ],
    [
      51,
      6,
      3,
      33,
      38,
      57,
      52,
      8
    ],
    [
      51,
      52,
      57,
      3,
      11,
      33,
      34,
      14
    ],
    [
      18,
      21,
      30,
      3,
      10,
      32,
      14,
      35
    ],
    [
      44,
      51,
      33,
      14,
      61,
      11,
      3,
      20
    ],
    [
      61,
      51,
      44,
      14,
      33,
      11,
      16,
      3
    ],
    [
      49,
      51,
      24,
      52,
      36,
      14,
      33,
      3
    ],
    [
      49,
      51,
      57,
      33,
      52,
      55,
      20,
      5
    ],
    [
      18,
      21,
      10,
      30,
      32,
      35,
      9,
      16
    ],
    [
      18,
      9,
      21,
      10,
      30,
      35,
      62,
      3
    ],
    [
      18,
      53,
      9,
      23,
      3,
      33,
      14,
      51
    ],
    [
      18,
      4,
      9,
      51,
      11,
      46,
      19,
      53
    ],
    [
      2,
      36,
      19,
      4,
      33,
      14,
      51,
      44
    ],
    [
      57,
      34,
      36,
      55,
      3,
      24,
      42,
      63
    ]
  ]
}