{
  "layer_path": "model.layers.8.mlp",
  "layer_id": 8,
  "token_pos": 5,
  "target_token_id": 432,
  "target_token_text": " from",
  "next_token_id": 247,
  "next_token_text": " a",
  "router_logits": [
    0.308349609375,
    -1.9873046875,
    0.26025390625,
    -0.638671875,
    -1.2431640625,
    -0.030670166015625,
    -1.541015625,
    -1.0146484375,
    -0.373046875,
    -0.2269287109375,
    -1.666015625,
    0.60498046875,
    -2.451171875,
    -1.328125,
    1.9111328125,
    0.477783203125,
    -1.09765625,
    0.99951171875,
    1.0791015625,
    -0.58349609375,
    -1.0849609375,
    -1.546875,
    -0.4951171875,
    -0.282958984375,
    -0.87109375,
    -1.58203125,
    -0.8759765625,
    -0.76513671875,
    0.9111328125,
    -2.169921875,
    -1.595703125,
    -1.69921875,
    -0.6201171875,
    -0.5888671875,
    -1.50390625,
    -2.267578125,
    -1.8193359375,
    -0.91845703125,
    -0.9501953125,
    -0.97119140625,
    -0.72802734375,
    -1.099609375,
    -0.126708984375,
    -1.416015625,
    -0.96826171875,
    -1.1435546875,
    -1.4970703125,
    -0.375732421875,
    -0.6416015625,
    -2.626953125,
    -1.796875,
    -0.52001953125,
    -1.10546875,
    -0.35986328125,
    -0.2230224609375,
    -2.625,
    1.4013671875,
    -2.62109375,
    0.15087890625,
    -1.17578125,
    -0.53173828125,
    -0.80126953125,
    -0.21728515625,
    -2.296875
  ],
  "router_probabilities": [
    0.028688635677099228,
    0.002888816175982356,
    0.027341492474079132,
    0.011128168553113937,
    0.006079894490540028,
    0.020439745858311653,
    0.004513784311711788,
    0.007640805095434189,
    0.014513867907226086,
    0.016797376796603203,
    0.003983400296419859,
    0.038595352321863174,
    0.0018166236113756895,
    0.005584676284343004,
    0.14249177277088165,
    0.03398552164435387,
    0.007032168563455343,
    0.057263486087322235,
    0.0620073527097702,
    0.011759428307414055,
    0.007122013717889786,
    0.004487413447350264,
    0.01284602377563715,
    0.01588209718465805,
    0.008820315822958946,
    0.004332393407821655,
    0.00877735298126936,
    0.009806198999285698,
    0.05241979658603668,
    0.0024066350888460875,
    0.004273565020412207,
    0.0038533108308911324,
    0.011336575262248516,
    0.011696437373757362,
    0.004684434272348881,
    0.002182723255828023,
    0.0034171794541180134,
    0.008412295952439308,
    0.008149496279656887,
    0.007980172522366047,
    0.010176937095820904,
    0.007018447853624821,
    0.018568051978945732,
    0.005114787258207798,
    0.00800358597189188,
    0.006716698873788118,
    0.004716566763818264,
    0.014474942348897457,
    0.011095614172518253,
    0.0015237864572554827,
    0.0034948009997606277,
    0.012530076317489147,
    0.006977444048970938,
    0.014706479385495186,
    0.01686312071979046,
    0.001526765525341034,
    0.08558574318885803,
    0.0015327411238104105,
    0.024508753791451454,
    0.006503693293780088,
    0.012384097091853619,
    0.009458198212087154,
    0.01696014776825905,
    0.0021197039168328047
  ],
  "selected_expert_ids": [
    14,
    56,
    18,
    17,
    28,
    11,
    15,
    0
  ],
  "effective_gate_weights": [
    0.14249177277088165,
    0.08558574318885803,
    0.0620073527097702,
    0.057263486087322235,
    0.05241979658603668,
    0.038595352321863174,
    0.03398552164435387,
    0.028688635677099228
  ],
  "topk_ranks": [
    0,
    1,
    2,
    3,
    4,
    5,
    6,
    7
  ],
  "top1_top2_gap": 0.05690602958202362,
  "routing_entropy": 3.5751614570617676,
  "sample_id": "layer_8_sample_014",
  "microbatch_id": null,
  "sequence_length": 7,
  "all_expert_count": 64,
  "selected_destination_ids": [
    14,
    56,
    18,
    17,
    28,
    11,
    15,
    0
  ],
  "expert_to_destination_map": {},
  "layer_name": "model.layers.8.mlp",
  "run_id": null,
  "mode": "real",
  "all_token_selected_expert_ids": [
    [
      22,
      7,
      29,
      32,
      60,
      1,
      59,
      33
    ],
    [
      14,
      52,
      55,
      6,
      57,
      12,
      51,
      62
    ],
    [
      14,
      18,
      5,
      28,
      17,
      56,
      15,
      32
    ],
    [
      14,
      2,
      36,
      24,
      56,
      5,
      17,
      34
    ],
    [
      14,
      34,
      63,
      55,
      57,
      6,
      36,
      62
    ],
    [
      14,
      56,
      18,
      17,
      28,
      11,
      15,
      0
    ],
    [
      14,
      23,
      53,
      56,
      18,
      15,
      5,
      0
    ]
  ]
}