{
  "layer_path": "model.layers.8.mlp",
  "layer_id": 8,
  "token_pos": 9,
  "target_token_id": 13,
  "target_token_text": ",",
  "next_token_id": 285,
  "next_token_text": " and",
  "router_logits": [
    -1.5869140625,
    -0.810546875,
    -1.5712890625,
    -1.013671875,
    -1.8408203125,
    -1.298828125,
    -1.0712890625,
    -1.2578125,
    -1.2021484375,
    0.06622314453125,
    0.382568359375,
    -0.70263671875,
    -1.8095703125,
    -1.6767578125,
    -1.5673828125,
    -0.9052734375,
    -0.65380859375,
    -1.8876953125,
    -0.27587890625,
    -0.763671875,
    -1.638671875,
    0.38525390625,
    -1.4033203125,
    -1.177734375,
    -1.1865234375,
    -2.19921875,
    -1.03515625,
    -1.1318359375,
    -1.2880859375,
    -0.63330078125,
    0.293701171875,
    -1.5625,
    -0.31494140625,
    -1.1279296875,
    -2.0625,
    0.146728515625,
    -1.98828125,
    -0.66015625,
    -0.94287109375,
    -0.400390625,
    -1.30078125,
    -1.4775390625,
    -0.225341796875,
    -1.611328125,
    -1.158203125,
    -0.9306640625,
    -1.6982421875,
    -0.62158203125,
    -1.1240234375,
    -2.08203125,
    -0.45556640625,
    -0.71435546875,
    -0.9853515625,
    -1.2060546875,
    -0.7978515625,
    -1.708984375,
    -0.75927734375,
    -2.12890625,
    -0.9501953125,
    -0.59130859375,
    -0.7060546875,
    -1.369140625,
    -0.4765625,
    -2.193359375
  ],
  "router_probabilities": [
    0.007575672119855881,
    0.016466191038489342,
    0.007694971282035112,
    0.01343931257724762,
    0.005876937415450811,
    0.010104975663125515,
    0.012686862610280514,
    0.010528055019676685,
    0.011130706407129765,
    0.039570316672325134,
    0.05429457873106003,
    0.018342474475502968,
    0.0060634915716946125,
    0.006924724671989679,
    0.007725088857114315,
    0.014978001825511456,
    0.019260328263044357,
    0.0056078131310641766,
    0.028105834499001503,
    0.017256418243050575,
    0.0071935453452169895,
    0.054440587759017944,
    0.009102378971874714,
    0.011405796743929386,
    0.01130598969757557,
    0.004106771666556597,
    0.013153656385838985,
    0.011941504664719105,
    0.01021411083638668,
    0.019659392535686493,
    0.04967775568366051,
    0.007762901019304991,
    0.027029117569327354,
    0.011988243088126183,
    0.0047084372490644455,
    0.04288768023252487,
    0.0050711864605546,
    0.019138457253575325,
    0.01442531868815422,
    0.024815425276756287,
    0.010085259564220905,
    0.00845127273350954,
    0.029562724754214287,
    0.0073929582722485065,
    0.011630755849182606,
    0.01460248976945877,
    0.006777537986636162,
    0.019891133531928062,
    0.01203516311943531,
    0.004617367871105671,
    0.02348330430686474,
    0.018128776922822,
    0.01382535882294178,
    0.011087312363088131,
    0.016676565632224083,
    0.006705122068524361,
    0.017332419753074646,
    0.0044059231877326965,
    0.014320051297545433,
    0.020502513274550438,
    0.01827988587319851,
    0.009418873116374016,
    0.02299538627266884,
    0.004130905959755182
  ],
  "selected_expert_ids": [
    21,
    10,
    30,
    35,
    9,
    42,
    18,
    32
  ],
  "effective_gate_weights": [
    0.054440587759017944,
    0.05429457873106003,
    0.04967775568366051,
    0.04288768023252487,
    0.039570316672325134,
    0.029562724754214287,
    0.028105834499001503,
    0.027029117569327354
  ],
  "topk_ranks": [
    0,
    1,
    2,
    3,
    4,
    5,
    6,
    7
  ],
  "top1_top2_gap": 0.00014600902795791626,
  "routing_entropy": 3.9422049522399902,
  "sample_id": "layer_8_sample_018",
  "microbatch_id": null,
  "sequence_length": 11,
  "all_expert_count": 64,
  "selected_destination_ids": [
    21,
    10,
    30,
    35,
    9,
    42,
    18,
    32
  ],
  "expert_to_destination_map": {},
  "layer_name": "model.layers.8.mlp",
  "run_id": null,
  "mode": "real",
  "all_token_selected_expert_ids": [
    [
      22,
      7,
      29,
      32,
      60,
      1,
      59,
      33
    ],
    [
      6,
      62,
      51,
      24,
      32,
      38,
      59,
      48
    ],
    [
      62,
      38,
      42,
      57,
      52,
      51,
      11,
      55
    ],
    [
      29,
      32,
      18,
      30,
      60,
      62,
      58,
      59
    ],
    [
      6,
      51,
      55,
      42,
      12,
      57,
      63,
      11
    ],
    [
      30,
      10,
      21,
      42,
      18,
      35,
      9,
      32
    ],
    [
      6,
      55,
      51,
      12,
      20,
      42,
      63,
      57
    ],
    [
      30,
      10,
      21,
      42,
      9,
      35,
      18,
      32
    ],
    [
      55,
      6,
      51,
      42,
      20,
      57,
      63,
      34
    ],
    [
      21,
      10,
      30,
      35,
      9,
      42,
      18,
      32
    ],
    [
      21,
      9,
      30,
      10,
      35,
      18,
      62,
      32
    ]
  ]
}