{
  "layer_path": "model.layers.8.mlp",
  "layer_id": 8,
  "token_pos": 15,
  "target_token_id": 253,
  "target_token_text": " the",
  "next_token_id": 9902,
  "next_token_text": " storm",
  "router_logits": [
    -0.72265625,
    -2.87109375,
    -0.81640625,
    -1.11328125,
    -1.7373046875,
    -0.408935546875,
    -1.5673828125,
    -1.2666015625,
    -0.740234375,
    -1.244140625,
    -3.1171875,
    -0.96044921875,
    -2.646484375,
    -1.3388671875,
    -1.6162109375,
    -0.0225830078125,
    -1.3017578125,
    -2.203125,
    -0.323974609375,
    -0.53759765625,
    -2.45703125,
    -1.8076171875,
    -1.0283203125,
    0.189697265625,
    -1.2890625,
    -2.28125,
    -0.89599609375,
    -1.494140625,
    -2.1796875,
    -2.337890625,
    -2.244140625,
    -1.431640625,
    -1.201171875,
    -1.0703125,
    -2.90625,
    -3.69140625,
    -2.615234375,
    -1.62109375,
    -1.521484375,
    -1.4384765625,
    -1.4541015625,
    -1.1279296875,
    -1.2177734375,
    -2.201171875,
    -1.3310546875,
    -1.1865234375,
    -2.0625,
    -1.7998046875,
    -1.25,
    -2.826171875,
    -2.6953125,
    -1.46875,
    -1.216796875,
    0.478759765625,
    -1.439453125,
    -3.828125,
    -0.3447265625,
    -3.869140625,
    -1.07421875,
    -1.244140625,
    -1.24609375,
    -1.14453125,
    -1.0126953125,
    -3.912109375
  ],
  "router_probabilities": [
    0.02575061097741127,
    0.00300422846339643,
    0.02344619855284691,
    0.017423734068870544,
    0.009335365146398544,
    0.03523990139365196,
    0.01106438972055912,
    0.014947036281228065,
    0.025301918387413025,
    0.01528655830770731,
    0.0023488528095185757,
    0.02030090242624283,
    0.003760794410482049,
    0.013904985040426254,
    0.010537113063037395,
    0.051859159022569656,
    0.014430683106184006,
    0.0058590625412762165,
    0.03836478292942047,
    0.030985424295067787,
    0.004545252770185471,
    0.00870151724666357,
    0.018968775868415833,
    0.06412355601787567,
    0.014615054242312908,
    0.00541874673217535,
    0.021652448922395706,
    0.011905184015631676,
    0.0059980060905218124,
    0.005120356101542711,
    0.005623610690236092,
    0.012673002667725086,
    0.015957720577716827,
    0.018188728019595146,
    0.0029004462994635105,
    0.0013227439485490322,
    0.0038801750633865595,
    0.010485787875950336,
    0.01158406212925911,
    0.012586666271090508,
    0.012391528114676476,
    0.017170364037156105,
    0.015694985166192055,
    0.0058705173432827,
    0.014014042913913727,
    0.016193196177482605,
    0.0067437393590807915,
    0.008769764564931393,
    0.015197251923382282,
    0.0031422614119946957,
    0.003581572789698839,
    0.012211333960294724,
    0.015710318461060524,
    0.08561618626117706,
    0.01257438026368618,
    0.0011537178652361035,
    0.03757684305310249,
    0.001107354648411274,
    0.018117817118763924,
    0.01528655830770731,
    0.0152567308396101,
    0.016887662932276726,
    0.0192674919962883,
    0.0010607808362692595
  ],
  "selected_expert_ids": [
    53,
    23,
    15,
    18,
    56,
    5,
    19,
    0
  ],
  "effective_gate_weights": [
    0.08561618626117706,
    0.06412355601787567,
    0.051859159022569656,
    0.03836478292942047,
    0.03757684305310249,
    0.03523990139365196,
    0.030985424295067787,
    0.02575061097741127
  ],
  "topk_ranks": [
    0,
    1,
    2,
    3,
    4,
    5,
    6,
    7
  ],
  "top1_top2_gap": 0.02149263024330139,
  "routing_entropy": 3.8255085945129395,
  "sample_id": "layer_8_sample_033",
  "microbatch_id": null,
  "sequence_length": 17,
  "all_expert_count": 64,
  "selected_destination_ids": [
    53,
    23,
    15,
    18,
    56,
    5,
    19,
    0
  ],
  "expert_to_destination_map": {},
  "layer_name": "model.layers.8.mlp",
  "run_id": null,
  "mode": "real",
  "all_token_selected_expert_ids": [
    [
      22,
      7,
      29,
      32,
      60,
      1,
      59,
      33
    ],
    [
      24,
      49,
      6,
      32,
      38,
      61,
      36,
      53
    ],
    [
      55,
      57,
      63,
      5,
      52,
      12,
      42,
      49
    ],
    [
      18,
      28,
      17,
      15,
      42,
      5,
      19,
      47
    ],
    [
      42,
      55,
      57,
      34,
      63,
      36,
      49,
      11
    ],
    [
      15,
      56,
      42,
      28,
      17,
      18,
      47,
      0
    ],
    [
      55,
      57,
      63,
      12,
      49,
      34,
      42,
      5
    ],
    [
      21,
      10,
      18,
      30,
      35,
      50,
      9,
      19
    ],
    [
      55,
      57,
      20,
      63,
      12,
      34,
      49,
      5
    ],
    [
      21,
      9,
      30,
      15,
      10,
      18,
      56,
      19
    ],
    [
      21,
      9,
      30,
      10,
      15,
      18,
      56,
      35
    ],
    [
      24,
      36,
      9,
      20,
      34,
      42,
      56,
      57
    ],
    [
      6,
      24,
      57,
      55,
      20,
      49,
      34,
      19
    ],
    [
      55,
      57,
      20,
      63,
      52,
      12,
      34,
      5
    ],
    [
      18,
      15,
      17,
      28,
      5,
      0,
      56,
      19
    ],
    [
      53,
      23,
      15,
      18,
      56,
      5,
      19,
      0
    ],
    [
      55,
      12,
      63,
      57,
      6,
      34,
      52,
      26
    ]
  ]
}