{
  "layer_path": "model.layers.8.mlp",
  "layer_id": 8,
  "token_pos": 8,
  "target_token_id": 2262,
  "target_token_text": "):",
  "next_token_id": 1091,
  "next_token_text": " return",
  "router_logits": [
    -1.640625,
    -0.289306640625,
    -1.3837890625,
    0.53662109375,
    -1.9970703125,
    -1.5478515625,
    -1.3134765625,
    -1.748046875,
    -1.49609375,
    -1.5966796875,
    -0.1602783203125,
    -0.78125,
    -1.1328125,
    -0.8984375,
    -1.068359375,
    -1.9267578125,
    -0.2178955078125,
    -2.138671875,
    -0.78955078125,
    -1.4541015625,
    -1.2265625,
    -0.677734375,
    -1.3564453125,
    -1.068359375,
    -1.55859375,
    -2.2890625,
    -0.87744140625,
    -1.208984375,
    -1.6572265625,
    -0.6689453125,
    0.30712890625,
    -1.310546875,
    -0.45751953125,
    -0.97802734375,
    -2.36328125,
    -0.26806640625,
    -1.93359375,
    -0.720703125,
    -1.7958984375,
    -1.259765625,
    -1.2451171875,
    -1.0693359375,
    -0.86181640625,
    -1.7099609375,
    -1.138671875,
    -1.2587890625,
    -1.810546875,
    -1.2919921875,
    -0.84619140625,
    -1.3662109375,
    -0.78125,
    -0.96435546875,
    -1.00390625,
    -1.0087890625,
    0.6123046875,
    -1.4716796875,
    -1.29296875,
    -1.5205078125,
    -0.5380859375,
    -1.5341796875,
    -0.79443359375,
    -1.3505859375,
    -1.5078125,
    -1.86328125
  ],
  "router_probabilities": [
    0.00776865566149354,
    0.030006544664502144,
    0.010043574497103691,
    0.06853490322828293,
    0.005439308006316423,
    0.008523870259523392,
    0.010775182396173477,
    0.006977392826229334,
    0.008976664394140244,
    0.00811766367405653,
    0.03413911536335945,
    0.018347110599279404,
    0.012908805161714554,
    0.01631825789809227,
    0.013768216595053673,
    0.0058355252258479595,
    0.032227709889411926,
    0.004721139557659626,
    0.018195446580648422,
    0.009361641481518745,
    0.011753601022064686,
    0.02034810371696949,
    0.010321992449462414,
    0.013768216595053673,
    0.008432796224951744,
    0.004061935469508171,
    0.016664501279592514,
    0.011962033808231354,
    0.007640748750418425,
    0.020527733489871025,
    0.05448094382882118,
    0.0108067961409688,
    0.025360746309161186,
    0.015069831162691116,
    0.003771379590034485,
    0.030650706961750984,
    0.005795770324766636,
    0.019492290914058685,
    0.006651375442743301,
    0.011369752697646618,
    0.011537527665495872,
    0.013754777610301971,
    0.016926927492022514,
    0.0072482586838305,
    0.012833388522267342,
    0.011380860581994057,
    0.006554653402417898,
    0.011009184643626213,
    0.017193488776683807,
    0.010221682488918304,
    0.018347110599279404,
    0.015277278609573841,
    0.014684842899441719,
    0.014613314531743526,
    0.07392320781946182,
    0.009198518469929695,
    0.0109984390437603,
    0.008760161697864532,
    0.023397665470838547,
    0.00864120852202177,
    0.018106818199157715,
    0.010382650420069695,
    0.008872083388268948,
    0.006217953749001026
  ],
  "selected_expert_ids": [
    54,
    3,
    30,
    10,
    16,
    35,
    1,
    32
  ],
  "effective_gate_weights": [
    0.07392320781946182,
    0.06853490322828293,
    0.05448094382882118,
    0.03413911536335945,
    0.032227709889411926,
    0.030650706961750984,
    0.030006544664502144,
    0.025360746309161186
  ],
  "topk_ranks": [
    0,
    1,
    2,
    3,
    4,
    5,
    6,
    7
  ],
  "top1_top2_gap": 0.005388304591178894,
  "routing_entropy": 3.912963628768921,
  "sample_id": "layer_8_sample_024",
  "microbatch_id": null,
  "sequence_length": 10,
  "all_expert_count": 64,
  "selected_destination_ids": [
    54,
    3,
    30,
    10,
    16,
    35,
    1,
    32
  ],
  "expert_to_destination_map": {},
  "layer_name": "model.layers.8.mlp",
  "run_id": null,
  "mode": "real",
  "all_token_selected_expert_ids": [
    [
      22,
      7,
      29,
      32,
      60,
      1,
      59,
      33
    ],
    [
      3,
      51,
      16,
      54,
      6,
      52,
      57,
      32
    ],
    [
      16,
      3,
      51,
      6,
      61,
      54,
      42,
      8
    ],
    [
      3,
      51,
      54,
      6,
      57,
      52,
      55,
      42
    ],
    [
      16,
      3,
      54,
      30,
      32,
      42,
      61,
      60
    ],
    [
      3,
      54,
      57,
      51,
      6,
      16,
      52,
      55
    ],
    [
      16,
      3,
      54,
      30,
      21,
      58,
      42,
      60
    ],
    [
      57,
      3,
      51,
      54,
      49,
      52,
      6,
      55
    ],
    [
      54,
      3,
      30,
      10,
      16,
      35,
      1,
      32
    ],
    [
      16,
      54,
      3,
      62,
      32,
      52,
      37,
      30
    ]
  ]
}