{
  "layer_path": "model.layers.8.mlp",
  "layer_id": 8,
  "token_pos": 5,
  "target_token_id": 9762,
  "target_token_text": " requests",
  "next_token_id": 403,
  "next_token_text": " are",
  "router_logits": [
    -2.4296875,
    -2.9296875,
    -2.1328125,
    0.81884765625,
    -2.333984375,
    -0.47802734375,
    -0.18115234375,
    -1.0283203125,
    -0.55029296875,
    -1.7275390625,
    -3.05859375,
    -0.27783203125,
    -0.83203125,
    -2.0390625,
    -0.1910400390625,
    -1.84375,
    -0.8037109375,
    -1.4794921875,
    -2.267578125,
    -0.146484375,
    -0.91015625,
    -2.498046875,
    -0.958984375,
    -1.435546875,
    -1.1298828125,
    -0.49072265625,
    -0.51318359375,
    -1.189453125,
    -1.48046875,
    -2.052734375,
    -1.52734375,
    -2.83203125,
    -1.3427734375,
    -0.705078125,
    0.00467681884765625,
    -3.197265625,
    -0.572265625,
    -0.88232421875,
    -0.751953125,
    -0.50537109375,
    -2.51171875,
    -0.95361328125,
    -0.0187530517578125,
    -2.12890625,
    -0.88720703125,
    -0.9638671875,
    -0.79931640625,
    -0.94140625,
    -1.1083984375,
    -0.6611328125,
    -3.1328125,
    -0.74609375,
    -0.31298828125,
    -1.2998046875,
    -0.68017578125,
    0.383544921875,
    -1.390625,
    0.40771484375,
    -0.263671875,
    -1.037109375,
    -0.8115234375,
    -0.89013671875,
    -0.93798828125,
    -0.0261993408203125
  ],
  "router_probabilities": [
    0.003010258311405778,
    0.001825813902541995,
    0.004050745163112879,
    0.07752194255590439,
    0.0033125856425613165,
    0.02119331993162632,
    0.02851872891187668,
    0.01222390029579401,
    0.019715800881385803,
    0.006074953358620405,
    0.001604993361979723,
    0.025890637189149857,
    0.014875003136694431,
    0.0044488729909062386,
    0.02823813445866108,
    0.0054084546864032745,
    0.01530228927731514,
    0.0077851745299994946,
    0.003540030214935541,
    0.029524752870202065,
    0.013757128268480301,
    0.002811354584991932,
    0.013101529330015182,
    0.008134924806654453,
    0.011043373495340347,
    0.020925965160131454,
    0.02046118676662445,
    0.010404727421700954,
    0.007777574937790632,
    0.0043884627521038055,
    0.007421413902193308,
    0.0020131126511842012,
    0.008925746195018291,
    0.016888538375496864,
    0.034342724829912186,
    0.0013971684966236353,
    0.019287316128611565,
    0.01414539571851492,
    0.016115156933665276,
    0.020621666684746742,
    0.002773179905489087,
    0.013172089122235775,
    0.033547431230545044,
    0.004066599532961845,
    0.014076494611799717,
    0.01303771324455738,
    0.015369683504104614,
    0.013333865441381931,
    0.011283201165497303,
    0.017647260800004005,
    0.00149018585216254,
    0.016209857538342476,
    0.024996232241392136,
    0.00931763369590044,
    0.017314383760094643,
    0.050162024796009064,
    0.008508693426847458,
    0.05138920992612839,
    0.026259858161211014,
    0.012116934172809124,
    0.015183205716311932,
    0.014035315252840519,
    0.013379518873989582,
    0.0332985557615757
  ],
  "selected_expert_ids": [
    3,
    57,
    55,
    34,
    42,
    63,
    19,
    6
  ],
  "effective_gate_weights": [
    0.07752194255590439,
    0.05138920992612839,
    0.050162024796009064,
    0.034342724829912186,
    0.033547431230545044,
    0.0332985557615757,
    0.029524752870202065,
    0.02851872891187668
  ],
  "topk_ranks": [
    0,
    1,
    2,
    3,
    4,
    5,
    6,
    7
  ],
  "top1_top2_gap": 0.026132732629776,
  "routing_entropy": 3.857842206954956,
  "sample_id": "layer_8_sample_008",
  "microbatch_id": null,
  "sequence_length": 7,
  "all_expert_count": 64,
  "selected_destination_ids": [
    3,
    57,
    55,
    34,
    42,
    63,
    19,
    6
  ],
  "expert_to_destination_map": {},
  "layer_name": "model.layers.8.mlp",
  "run_id": null,
  "mode": "real",
  "all_token_selected_expert_ids": [
    [
      22,
      7,
      29,
      32,
      60,
      1,
      59,
      33
    ],
    [
      49,
      6,
      57,
      55,
      32,
      3,
      52,
      61
    ],
    [
      52,
      55,
      57,
      63,
      3,
      42,
      34,
      5
    ],
    [
      3,
      28,
      17,
      18,
      8,
      5,
      4,
      40
    ],
    [
      3,
      18,
      17,
      14,
      28,
      0,
      8,
      53
    ],
    [
      3,
      57,
      55,
      34,
      42,
      63,
      19,
      6
    ],
    [
      3,
      13,
      8,
      40,
      18,
      42,
      47,
      41
    ]
  ]
}