{
  "layer_path": "model.layers.8.mlp",
  "layer_id": 8,
  "token_pos": 12,
  "target_token_id": 12240,
  "target_token_text": " completion",
  "next_token_id": 32,
  "next_token_text": "?",
  "router_logits": [
    -2.451171875,
    -2.3046875,
    -1.8173828125,
    0.572265625,
    -1.7919921875,
    -1.4306640625,
    -0.81201171875,
    -1.3017578125,
    -1.07421875,
    -1.595703125,
    -2.84375,
    -0.77490234375,
    -1.2666015625,
    -1.9921875,
    -0.7158203125,
    -2.35546875,
    -0.958984375,
    -1.103515625,
    -2.375,
    -0.82373046875,
    -0.7138671875,
    -2.162109375,
    -1.0634765625,
    -1.4990234375,
    -0.673828125,
    -0.88134765625,
    -1.037109375,
    -1.1240234375,
    -1.09375,
    -1.611328125,
    -1.341796875,
    -2.396484375,
    -1.283203125,
    -0.7841796875,
    0.1204833984375,
    -2.830078125,
    -0.1251220703125,
    -1.1494140625,
    -1.048828125,
    -0.6181640625,
    -2.21875,
    -1.1337890625,
    -0.42236328125,
    -2.376953125,
    -0.8642578125,
    -1.2412109375,
    -1.3076171875,
    -0.8662109375,
    -1.076171875,
    -0.83447265625,
    -2.6328125,
    -0.75439453125,
    -0.2271728515625,
    -1.1962890625,
    -0.47265625,
    -0.341064453125,
    -1.09765625,
    0.10430908203125,
    -0.62890625,
    -1.447265625,
    -0.7783203125,
    -0.8486328125,
    -1.1123046875,
    -0.360107421875
  ],
  "router_probabilities": [
    0.003491849172860384,
    0.004042712040245533,
    0.0065812221728265285,
    0.0717988833785057,
    0.006750463042408228,
    0.009688496589660645,
    0.017985962331295013,
    0.011021473444998264,
    0.013837531208992004,
    0.008214494213461876,
    0.002358093159273267,
    0.018665950745344162,
    0.011415839195251465,
    0.005525732412934303,
    0.019802000373601913,
    0.003842543577775359,
    0.01552759762853384,
    0.01343801524490118,
    0.0037682221736758947,
    0.01777642033994198,
    0.01984071359038353,
    0.004662230610847473,
    0.013986977748572826,
    0.009048325940966606,
    0.020651236176490784,
    0.016781140118837357,
    0.014360680244863033,
    0.013165237382054329,
    0.013569889590144157,
    0.008087140507996082,
    0.010588901117444038,
    0.0036881277337670326,
    0.011227882467210293,
    0.01849357783794403,
    0.04569946974515915,
    0.0023905541747808456,
    0.03574753180146217,
    0.01283517200499773,
    0.014193372800946236,
    0.02183336205780506,
    0.004405498038977385,
    0.013037296943366528,
    0.026555582880973816,
    0.003760869614779949,
    0.01707039214670658,
    0.011709405109286308,
    0.0109570836648345,
    0.017037084326148033,
    0.013810531236231327,
    0.0175864826887846,
    0.002911856397986412,
    0.019052699208259583,
    0.03227943927049637,
    0.012247406877577305,
    0.02525305189192295,
    0.028804708272218704,
    0.013516985811293125,
    0.044966258108615875,
    0.021600080654025078,
    0.00952898059040308,
    0.01860225759446621,
    0.017339210957288742,
    0.013320425525307655,
    0.028261370956897736
  ],
  "selected_expert_ids": [
    3,
    34,
    57,
    36,
    52,
    55,
    63,
    42
  ],
  "effective_gate_weights": [
    0.0717988833785057,
    0.04569946974515915,
    0.044966258108615875,
    0.03574753180146217,
    0.03227943927049637,
    0.028804708272218704,
    0.028261370956897736,
    0.026555582880973816
  ],
  "topk_ranks": [
    0,
    1,
    2,
    3,
    4,
    5,
    6,
    7
  ],
  "top1_top2_gap": 0.026099413633346558,
  "routing_entropy": 3.9308512210845947,
  "sample_id": "layer_8_sample_038",
  "microbatch_id": null,
  "sequence_length": 14,
  "all_expert_count": 64,
  "selected_destination_ids": [
    3,
    34,
    57,
    36,
    52,
    55,
    63,
    42
  ],
  "expert_to_destination_map": {},
  "layer_name": "model.layers.8.mlp",
  "run_id": null,
  "mode": "real",
  "all_token_selected_expert_ids": [
    [
      22,
      7,
      29,
      32,
      60,
      1,
      59,
      33
    ],
    [
      32,
      51,
      38,
      62,
      43,
      31,
      18,
      60
    ],
    [
      51,
      18,
      43,
      32,
      47,
      3,
      14,
      28
    ],
    [
      53,
      23,
      51,
      8,
      14,
      3,
      11,
      18
    ],
    [
      14,
      2,
      11,
      53,
      51,
      54,
      3,
      36
    ],
    [
      55,
      6,
      11,
      57,
      14,
      63,
      42,
      54
    ],
    [
      40,
      11,
      54,
      13,
      3,
      42,
      47,
      31
    ],
    [
      40,
      13,
      3,
      11,
      54,
      42,
      14,
      47
    ],
    [
      40,
      54,
      53,
      0,
      11,
      14,
      23,
      4
    ],
    [
      25,
      57,
      6,
      55,
      3,
      54,
      14,
      11
    ],
    [
      40,
      13,
      0,
      54,
      4,
      47,
      14,
      11
    ],
    [
      3,
      28,
      17,
      56,
      34,
      54,
      42,
      14
    ],
    [
      3,
      34,
      57,
      36,
      52,
      55,
      63,
      42
    ],
    [
      50,
      35,
      10,
      30,
      3,
      1,
      29,
      21
    ]
  ]
}