{
  "layer_path": "model.layers.8.mlp",
  "layer_id": 8,
  "token_pos": 7,
  "target_token_id": 9629,
  "target_token_text": "request",
  "next_token_id": 10,
  "next_token_text": ")",
  "router_logits": [
    -2.681640625,
    -2.904296875,
    -2.2109375,
    0.6875,
    -3.126953125,
    -1.123046875,
    -0.8408203125,
    -1.380859375,
    -1.84375,
    -1.818359375,
    -3.447265625,
    -1.623046875,
    -0.943359375,
    -1.841796875,
    -1.3408203125,
    -2.3203125,
    0.34912109375,
    -2.681640625,
    -3.30859375,
    -1.2568359375,
    -1.328125,
    -2.345703125,
    -1.361328125,
    -1.033203125,
    -1.4189453125,
    -0.51904296875,
    -1.205078125,
    -0.271728515625,
    -2.35546875,
    -2.17578125,
    -1.744140625,
    -2.3984375,
    -1.818359375,
    -0.9775390625,
    -1.09765625,
    -3.4609375,
    -1.4716796875,
    -0.439453125,
    -1.134765625,
    -1.095703125,
    -2.501953125,
    -1.3681640625,
    -0.6689453125,
    -2.39453125,
    -1.2490234375,
    -0.72705078125,
    -1.6220703125,
    -1.7138671875,
    -1.63671875,
    -1.29296875,
    -3.140625,
    -0.49853515625,
    -0.5302734375,
    -1.3369140625,
    0.7109375,
    -0.58935546875,
    -1.7099609375,
    -0.1773681640625,
    -0.52001953125,
    -1.4580078125,
    -1.17578125,
    -1.248046875,
    -1.3486328125,
    -1.0791015625
  ],
  "router_probabilities": [
    0.003110392950475216,
    0.0024895272217690945,
    0.00498011102899909,
    0.09036794304847717,
    0.001992592355236411,
    0.014781002886593342,
    0.019600780680775642,
    0.011421873234212399,
    0.007189629599452019,
    0.0073745157569646835,
    0.0014464670093730092,
    0.008965130895376205,
    0.017690544947981834,
    0.007203685585409403,
    0.01188847329467535,
    0.004464142490178347,
    0.06442557275295258,
    0.003110392950475216,
    0.0016616247594356537,
    0.012930044904351234,
    0.012040363624691963,
    0.004352221731096506,
    0.011647148989140987,
    0.01617046631872654,
    0.010995040647685528,
    0.027040796354413033,
    0.013616898097097874,
    0.03462795168161392,
    0.004309926647692919,
    0.005158306565135717,
    0.007942666299641132,
    0.004128656815737486,
    0.0073745157569646835,
    0.017096102237701416,
    0.015161106362938881,
    0.0014268256491050124,
    0.010430246591567993,
    0.029280932620167732,
    0.01460879947990179,
    0.015190747566521168,
    0.003722652792930603,
    0.011567801237106323,
    0.023276502266526222,
    0.004144816193729639,
    0.013031457550823689,
    0.02196255326271057,
    0.008973890915513039,
    0.008186794817447662,
    0.008843394927680492,
    0.012471185997128487,
    0.0019655353389680386,
    0.02760106697678566,
    0.026738813146948814,
    0.011935004033148289,
    0.09251096099615097,
    0.025204792618751526,
    0.008218836970627308,
    0.038054581731557846,
    0.02701440267264843,
    0.010573827661573887,
    0.014021730981767178,
    0.013044188730418682,
    0.011795956641435623,
    0.015445043332874775
  ],
  "selected_expert_ids": [
    54,
    3,
    16,
    57,
    27,
    37,
    51,
    25
  ],
  "effective_gate_weights": [
    0.09251096099615097,
    0.09036794304847717,
    0.06442557275295258,
    0.038054581731557846,
    0.03462795168161392,
    0.029280932620167732,
    0.02760106697678566,
    0.027040796354413033
  ],
  "topk_ranks": [
    0,
    1,
    2,
    3,
    4,
    5,
    6,
    7
  ],
  "top1_top2_gap": 0.0021430179476737976,
  "routing_entropy": 3.7502779960632324,
  "sample_id": "layer_8_sample_025",
  "microbatch_id": null,
  "sequence_length": 9,
  "all_expert_count": 64,
  "selected_destination_ids": [
    54,
    3,
    16,
    57,
    27,
    37,
    51,
    25
  ],
  "expert_to_destination_map": {},
  "layer_name": "model.layers.8.mlp",
  "run_id": null,
  "mode": "real",
  "all_token_selected_expert_ids": [
    [
      22,
      7,
      29,
      32,
      60,
      1,
      59,
      33
    ],
    [
      6,
      61,
      38,
      3,
      54,
      16,
      44,
      49
    ],
    [
      16,
      54,
      3,
      37,
      62,
      30,
      32,
      45
    ],
    [
      3,
      6,
      54,
      57,
      51,
      16,
      42,
      52
    ],
    [
      54,
      3,
      16,
      30,
      10,
      37,
      35,
      32
    ],
    [
      3,
      54,
      16,
      51,
      52,
      6,
      57,
      42
    ],
    [
      16,
      3,
      54,
      30,
      42,
      52,
      32,
      61
    ],
    [
      54,
      3,
      16,
      57,
      27,
      37,
      51,
      25
    ],
    [
      3,
      54,
      1,
      30,
      35,
      50,
      10,
      32
    ]
  ]
}