{
  "layer_path": "model.layers.8.mlp",
  "layer_id": 8,
  "token_pos": 4,
  "target_token_id": 11576,
  "target_token_text": " doctors",
  "next_token_id": 4271,
  "next_token_text": " identify",
  "router_logits": [
    -2.39453125,
    -3.14453125,
    -1.806640625,
    -1.2822265625,
    -1.6923828125,
    -1.271484375,
    -0.31201171875,
    -0.53955078125,
    -1.046875,
    -1.6357421875,
    -3.771484375,
    -1.2568359375,
    0.03326416015625,
    -0.71728515625,
    -0.7353515625,
    -2.234375,
    -1.7705078125,
    -1.94140625,
    -1.4384765625,
    -1.6357421875,
    -1.01953125,
    -2.970703125,
    -1.07421875,
    -1.4755859375,
    -1.443359375,
    -0.51025390625,
    -1.00390625,
    -1.591796875,
    -2.05859375,
    -2.109375,
    -2.169921875,
    -2.1484375,
    -1.9345703125,
    -0.99169921875,
    -0.9619140625,
    -3.888671875,
    -0.8916015625,
    -1.2470703125,
    -1.79296875,
    -1.6494140625,
    -2.02734375,
    -0.34326171875,
    -0.460693359375,
    -2.29296875,
    -1.6220703125,
    -1.4697265625,
    -1.1884765625,
    -1.0546875,
    -1.5283203125,
    0.79248046875,
    -3.234375,
    -0.9580078125,
    -0.70654296875,
    -1.78515625,
    -1.9375,
    0.0841064453125,
    -1.8984375,
    0.283935546875,
    -1.05859375,
    -1.4990234375,
    -1.0791015625,
    -1.8525390625,
    -1.0771484375,
    0.137451171875
  ],
  "router_probabilities": [
    0.004084195476025343,
    0.001929237274453044,
    0.007352315355092287,
    0.012421506457030773,
    0.008242248557507992,
    0.012555660679936409,
    0.03277428448200226,
    0.026104431599378586,
    0.01571759767830372,
    0.008722568862140179,
    0.0010306313633918762,
    0.012740934267640114,
    0.046289730817079544,
    0.02185371145606041,
    0.021462438628077507,
    0.00479359645396471,
    0.007622832898050547,
    0.006425340659916401,
    0.010624677874147892,
    0.008722568862140179,
    0.016153305768966675,
    0.002295504789799452,
    0.01529364101588726,
    0.01023762859404087,
    0.010572925209999084,
    0.026880525052547455,
    0.0164076816290617,
    0.009114432148635387,
    0.005714816506952047,
    0.005431856494396925,
    0.005112732760608196,
    0.005223765037953854,
    0.006469414569437504,
    0.016609199345111847,
    0.01711134798824787,
    0.0009166625095531344,
    0.01835779659450054,
    0.012865967117249966,
    0.00745352590456605,
    0.008604126051068306,
    0.005896224174648523,
    0.031765926629304886,
    0.028246302157640457,
    0.004520792048424482,
    0.008842640556395054,
    0.010297791101038456,
    0.013642355799674988,
    0.015595282427966595,
    0.009711741469800472,
    0.09890268743038177,
    0.0017634655814617872,
    0.01717831939458847,
    0.02208973467350006,
    0.007511984556913376,
    0.006450489163398743,
    0.048704057931900024,
    0.0067074475809931755,
    0.05947710573673248,
    0.015534481033682823,
    0.010000473819673061,
    0.015219148248434067,
    0.00702248327434063,
    0.015248902142047882,
    0.0513727068901062
  ],
  "selected_expert_ids": [
    49,
    57,
    63,
    55,
    12,
    6,
    41,
    42
  ],
  "effective_gate_weights": [
    0.09890268743038177,
    0.05947710573673248,
    0.0513727068901062,
    0.048704057931900024,
    0.046289730817079544,
    0.03277428448200226,
    0.031765926629304886,
    0.028246302157640457
  ],
  "topk_ranks": [
    0,
    1,
    2,
    3,
    4,
    5,
    6,
    7
  ],
  "top1_top2_gap": 0.03942558169364929,
  "routing_entropy": 3.79194974899292,
  "sample_id": "layer_8_sample_017",
  "microbatch_id": null,
  "sequence_length": 6,
  "all_expert_count": 64,
  "selected_destination_ids": [
    49,
    57,
    63,
    55,
    12,
    6,
    41,
    42
  ],
  "expert_to_destination_map": {},
  "layer_name": "model.layers.8.mlp",
  "run_id": null,
  "mode": "real",
  "all_token_selected_expert_ids": [
    [
      22,
      7,
      29,
      32,
      60,
      1,
      33,
      59
    ],
    [
      52,
      49,
      57,
      14,
      24,
      55,
      51,
      63
    ],
    [
      18,
      40,
      31,
      13,
      4,
      14,
      32,
      10
    ],
    [
      18,
      28,
      17,
      4,
      47,
      40,
      0,
      14
    ],
    [
      49,
      57,
      63,
      55,
      12,
      6,
      41,
      42
    ],
    [
      18,
      28,
      17,
      47,
      7,
      14,
      0,
      56
    ]
  ]
}