{
  "layer_path": "model.layers.8.mlp",
  "layer_id": 8,
  "token_pos": 11,
  "target_token_id": 12672,
  "target_token_text": " computing",
  "next_token_id": 32,
  "next_token_text": "?",
  "router_logits": [
    -1.1552734375,
    -1.89453125,
    -1.564453125,
    -0.123046875,
    -1.751953125,
    -1.3662109375,
    -1.060546875,
    -0.60546875,
    -1.0078125,
    -1.2548828125,
    -2.30078125,
    -0.42626953125,
    -0.79052734375,
    -1.7255859375,
    0.57275390625,
    -1.7607421875,
    -1.5322265625,
    0.03912353515625,
    -1.5185546875,
    -1.0859375,
    -0.325927734375,
    -2.03125,
    -0.9794921875,
    -1.46875,
    -0.47412109375,
    -0.2095947265625,
    -0.8623046875,
    -1.142578125,
    0.2025146484375,
    -1.8212890625,
    -1.619140625,
    -2.716796875,
    -1.2509765625,
    -0.5771484375,
    0.14599609375,
    -2.322265625,
    -0.55322265625,
    -1.103515625,
    -1.09375,
    -0.70361328125,
    -1.552734375,
    -1.0146484375,
    0.40869140625,
    -2.16796875,
    -0.87109375,
    -1.3369140625,
    -1.05859375,
    -0.09051513671875,
    -1.056640625,
    -0.41650390625,
    -2.2109375,
    -0.787109375,
    -0.331787109375,
    -1.0546875,
    -0.5849609375,
    -0.44775390625,
    -1.1552734375,
    0.1932373046875,
    -0.810546875,
    -1.033203125,
    -0.92578125,
    -1.19140625,
    -1.0419921875,
    -0.3544921875
  ],
  "router_probabilities": [
    0.010552885942161083,
    0.005038667004555464,
    0.007009172812104225,
    0.029625218361616135,
    0.005810808390378952,
    0.00854598730802536,
    0.0116014014929533,
    0.01828724890947342,
    0.012229613028466702,
    0.00955237727612257,
    0.0033564758487045765,
    0.02187628671526909,
    0.015197720378637314,
    0.005966060794889927,
    0.05940787121653557,
    0.0057599605061113834,
    0.00723873358219862,
    0.03484105318784714,
    0.007338380441069603,
    0.011310543864965439,
    0.0241853017359972,
    0.004394803196191788,
    0.012580910697579384,
    0.0077131204307079315,
    0.020854124799370766,
    0.027169039472937584,
    0.014145097695291042,
    0.010687712579965591,
    0.04102523997426033,
    0.005421560723334551,
    0.006636151112616062,
    0.002214166335761547,
    0.009589764289557934,
    0.018812552094459534,
    0.03877086192369461,
    0.0032851332798600197,
    0.019268086180090904,
    0.011113462969660759,
    0.011222523637115955,
    0.016577718779444695,
    0.00709179462864995,
    0.012146297842264175,
    0.050418805330991745,
    0.003833215916529298,
    0.014021321199834347,
    0.008800062350928783,
    0.011624082922935486,
    0.030604826286435127,
    0.011646809056401253,
    0.022090969607234,
    0.0036719958297908306,
    0.01524975523352623,
    0.024044005200266838,
    0.011669578030705452,
    0.018666153773665428,
    0.02141130343079567,
    0.010552885942161083,
    0.04064639285206795,
    0.014896495267748833,
    0.011923004873096943,
    0.013275119476020336,
    0.01017838716506958,
    0.011818671599030495,
    0.023504234850406647
  ],
  "selected_expert_ids": [
    14,
    42,
    28,
    57,
    34,
    17,
    47,
    3
  ],
  "effective_gate_weights": [
    0.05940787121653557,
    0.050418805330991745,
    0.04102523997426033,
    0.04064639285206795,
    0.03877086192369461,
    0.03484105318784714,
    0.030604826286435127,
    0.029625218361616135
  ],
  "topk_ranks": [
    0,
    1,
    2,
    3,
    4,
    5,
    6,
    7
  ],
  "top1_top2_gap": 0.008989065885543823,
  "routing_entropy": 3.9273741245269775,
  "sample_id": "layer_8_sample_039",
  "microbatch_id": null,
  "sequence_length": 13,
  "all_expert_count": 64,
  "selected_destination_ids": [
    14,
    42,
    28,
    57,
    34,
    17,
    47,
    3
  ],
  "expert_to_destination_map": {},
  "layer_name": "model.layers.8.mlp",
  "run_id": null,
  "mode": "real",
  "all_token_selected_expert_ids": [
    [
      22,
      7,
      29,
      32,
      60,
      1,
      59,
      33
    ],
    [
      32,
      53,
      31,
      18,
      47,
      23,
      43,
      51
    ],
    [
      24,
      51,
      14,
      2,
      3,
      36,
      48,
      52
    ],
    [
      6,
      14,
      49,
      52,
      24,
      57,
      55,
      3
    ],
    [
      52,
      55,
      57,
      14,
      63,
      3,
      6,
      42
    ],
    [
      18,
      14,
      28,
      4,
      17,
      47,
      40,
      32
    ],
    [
      14,
      49,
      57,
      24,
      55,
      58,
      36,
      34
    ],
    [
      14,
      36,
      57,
      34,
      52,
      11,
      63,
      58
    ],
    [
      17,
      28,
      14,
      0,
      47,
      11,
      18,
      4
    ],
    [
      14,
      57,
      55,
      49,
      12,
      63,
      3,
      52
    ],
    [
      28,
      17,
      14,
      42,
      47,
      39,
      41,
      13
    ],
    [
      14,
      42,
      28,
      57,
      34,
      17,
      47,
      3
    ],
    [
      14,
      10,
      30,
      29,
      35,
      50,
      18,
      1
    ]
  ]
}