{
  "layer_path": "model.layers.8.mlp",
  "layer_id": 8,
  "token_pos": 7,
  "target_token_id": 5204,
  "target_token_text": " ->",
  "next_token_id": 9933,
  "next_token_text": " regional",
  "router_logits": [
    -0.98486328125,
    -0.90478515625,
    -2.046875,
    0.040435791015625,
    -1.59375,
    -1.6259765625,
    -0.97509765625,
    -1.4833984375,
    -0.85498046875,
    0.240966796875,
    0.267822265625,
    -0.274658203125,
    -1.9755859375,
    -1.6376953125,
    -0.5009765625,
    -0.3154296875,
    0.5771484375,
    -1.609375,
    -0.2239990234375,
    -1.1083984375,
    -0.93798828125,
    0.1796875,
    -1.369140625,
    -1.2470703125,
    -1.1396484375,
    -2.056640625,
    -1.068359375,
    -0.34130859375,
    -0.9501953125,
    -0.705078125,
    0.42724609375,
    -1.33984375,
    -0.4716796875,
    -1.0625,
    -2.080078125,
    -0.27734375,
    -2.041015625,
    -0.221923828125,
    -1.130859375,
    -1.1708984375,
    -1.166015625,
    -1.3955078125,
    0.250244140625,
    -2.119140625,
    -1.296875,
    -0.7919921875,
    -2.259765625,
    -0.9375,
    -1.1962890625,
    -2.42578125,
    -0.047637939453125,
    -0.99365234375,
    -0.89794921875,
    -1.1640625,
    0.62548828125,
    -2.3515625,
    0.38916015625,
    -2.05859375,
    -0.30419921875,
    -1.2734375,
    -1.0751953125,
    -0.402587890625,
    -0.26171875,
    -2.515625
  ],
  "router_probabilities": [
    0.011220761574804783,
    0.012156255543231964,
    0.0038796854205429554,
    0.031282689422369,
    0.006103601772338152,
    0.005910039413720369,
    0.011330876499414444,
    0.006815712433308363,
    0.012777023948729038,
    0.03822905570268631,
    0.03926962614059448,
    0.02282761223614216,
    0.0041663614101707935,
    0.005841185338795185,
    0.018204202875494957,
    0.021915612742304802,
    0.053505126386880875,
    0.006008974276483059,
    0.024013832211494446,
    0.009916803799569607,
    0.011759256944060326,
    0.0359567366540432,
    0.00764069426804781,
    0.008632712066173553,
    0.009611695073544979,
    0.0038419822230935097,
    0.01032191887497902,
    0.02135573700070381,
    0.011616583913564682,
    0.014843334443867207,
    0.04605678468942642,
    0.007867854088544846,
    0.01874541863799095,
    0.0103825768455863,
    0.003752982709556818,
    0.022766390815377235,
    0.003902484430000186,
    0.02406371757388115,
    0.009696546010673046,
    0.009315974079072475,
    0.009361574426293373,
    0.007441862486302853,
    0.038585368543863297,
    0.0036092083901166916,
    0.008213293738663197,
    0.013607713393867016,
    0.0031357344705611467,
    0.01176500041037798,
    0.009082414209842682,
    0.0026560707483440638,
    0.0286453478038311,
    0.011122573167085648,
    0.012239639647305012,
    0.009379875846207142,
    0.056155089288949966,
    0.0028607004787772894,
    0.044335655868053436,
    0.0038344855420291424,
    0.02216312475502491,
    0.008408065885305405,
    0.010251599363982677,
    0.020086362957954407,
    0.02312490902841091,
    0.0024278450291603804
  ],
  "selected_expert_ids": [
    54,
    16,
    30,
    56,
    10,
    42,
    9,
    21
  ],
  "effective_gate_weights": [
    0.056155089288949966,
    0.053505126386880875,
    0.04605678468942642,
    0.044335655868053436,
    0.03926962614059448,
    0.038585368543863297,
    0.03822905570268631,
    0.0359567366540432
  ],
  "topk_ranks": [
    0,
    1,
    2,
    3,
    4,
    5,
    6,
    7
  ],
  "top1_top2_gap": 0.002649962902069092,
  "routing_entropy": 3.8667454719543457,
  "sample_id": "layer_8_sample_022",
  "microbatch_id": null,
  "sequence_length": 9,
  "all_expert_count": 64,
  "selected_destination_ids": [
    54,
    16,
    30,
    56,
    10,
    42,
    9,
    21
  ],
  "expert_to_destination_map": {},
  "layer_name": "model.layers.8.mlp",
  "run_id": null,
  "mode": "real",
  "all_token_selected_expert_ids": [
    [
      22,
      7,
      29,
      32,
      60,
      1,
      59,
      58
    ],
    [
      52,
      62,
      6,
      51,
      57,
      3,
      44,
      38
    ],
    [
      30,
      16,
      29,
      3,
      32,
      62,
      18,
      54
    ],
    [
      62,
      44,
      51,
      42,
      3,
      38,
      33,
      11
    ],
    [
      62,
      57,
      52,
      51,
      55,
      12,
      42,
      3
    ],
    [
      54,
      16,
      3,
      62,
      56,
      30,
      42,
      18
    ],
    [
      20,
      57,
      6,
      51,
      52,
      55,
      62,
      63
    ],
    [
      54,
      16,
      30,
      56,
      10,
      42,
      9,
      21
    ],
    [
      24,
      20,
      57,
      6,
      51,
      49,
      52,
      12
    ]
  ]
}