{
  "layer_path": "model.layers.8.mlp",
  "layer_id": 8,
  "token_pos": 5,
  "target_token_id": 984,
  "target_token_text": " because",
  "next_token_id": 253,
  "next_token_text": " the",
  "router_logits": [
    0.1806640625,
    -0.51220703125,
    -1.2177734375,
    0.9765625,
    0.67822265625,
    -1.1826171875,
    -1.580078125,
    -1.099609375,
    -0.2108154296875,
    -0.7802734375,
    0.68115234375,
    -0.217041015625,
    -2.650390625,
    -1.001953125,
    -0.60791015625,
    -1.2177734375,
    -1.244140625,
    -0.49365234375,
    0.458984375,
    -1.3203125,
    -1.3857421875,
    0.19775390625,
    -1.3056640625,
    -1.56640625,
    -1.361328125,
    -2.1484375,
    -1.0986328125,
    -0.87744140625,
    -0.0599365234375,
    -0.83642578125,
    -0.381591796875,
    -0.9453125,
    -0.2080078125,
    -0.322265625,
    -2.216796875,
    0.59912109375,
    -1.3310546875,
    -1.0283203125,
    -0.5810546875,
    -0.693359375,
    -0.46826171875,
    -1.205078125,
    -0.51025390625,
    -0.3427734375,
    -1.3076171875,
    -1.39453125,
    -1.3349609375,
    -0.91357421875,
    -1.0830078125,
    -2.484375,
    0.6728515625,
    -1.0390625,
    -1.07421875,
    -0.89404296875,
    -0.54443359375,
    -2.66015625,
    -0.71826171875,
    -2.6640625,
    -0.52978515625,
    -0.8994140625,
    -0.6513671875,
    -0.65478515625,
    -1.0244140625,
    -2.5234375
  ],
  "router_probabilities": [
    0.03247373551130295,
    0.016241351142525673,
    0.008020447567105293,
    0.07197581231594086,
    0.05340958759188652,
    0.008307430893182755,
    0.005582794547080994,
    0.009026441723108292,
    0.021954063326120377,
    0.012422312051057816,
    0.05356629192829132,
    0.021817808970808983,
    0.0019143478712067008,
    0.009952408261597157,
    0.0147590646520257,
    0.008020447567105293,
    0.007811734452843666,
    0.01654551737010479,
    0.042894862592220306,
    0.007238797843456268,
    0.006780327297747135,
    0.03303347900509834,
    0.007345615420490503,
    0.005659645888954401,
    0.0069479006342589855,
    0.0031623966060578823,
    0.0090352613478899,
    0.011272050440311432,
    0.0255294106900692,
    0.011743992567062378,
    0.018507497385144234,
    0.010532388463616371,
    0.022015787661075592,
    0.019638696685433388,
    0.0029534404166042805,
    0.04934757947921753,
    0.007161453366279602,
    0.009693419560790062,
    0.015160797163844109,
    0.013550294563174248,
    0.016970999538898468,
    0.00812291819602251,
    0.016273105517029762,
    0.01924005337059498,
    0.007331282831728458,
    0.006720995996147394,
    0.007133533246815205,
    0.01087203063070774,
    0.009177545085549355,
    0.0022600628435611725,
    0.053123489022254944,
    0.009589849039912224,
    0.009258562698960304,
    0.011086461134254932,
    0.015726294368505478,
    0.0018957440042868257,
    0.013217027299106121,
    0.0018883532611653209,
    0.015958353877067566,
    0.011027074418962002,
    0.014131416566669941,
    0.0140831982716918,
    0.009731358848512173,
    0.0021734812762588263
  ],
  "selected_expert_ids": [
    3,
    10,
    4,
    50,
    35,
    18,
    21,
    0
  ],
  "effective_gate_weights": [
    0.07197581231594086,
    0.05356629192829132,
    0.05340958759188652,
    0.053123489022254944,
    0.04934757947921753,
    0.042894862592220306,
    0.03303347900509834,
    0.03247373551130295
  ],
  "topk_ranks": [
    0,
    1,
    2,
    3,
    4,
    5,
    6,
    7
  ],
  "top1_top2_gap": 0.018409520387649536,
  "routing_entropy": 3.8387932777404785,
  "sample_id": "layer_8_sample_010",
  "microbatch_id": null,
  "sequence_length": 7,
  "all_expert_count": 64,
  "selected_destination_ids": [
    3,
    10,
    4,
    50,
    35,
    18,
    21,
    0
  ],
  "expert_to_destination_map": {},
  "layer_name": "model.layers.8.mlp",
  "run_id": null,
  "mode": "real",
  "all_token_selected_expert_ids": [
    [
      22,
      7,
      29,
      32,
      60,
      1,
      59,
      33
    ],
    [
      6,
      3,
      49,
      57,
      62,
      32,
      52,
      55
    ],
    [
      3,
      57,
      55,
      62,
      38,
      6,
      42,
      63
    ],
    [
      3,
      11,
      17,
      34,
      28,
      4,
      36,
      38
    ],
    [
      3,
      11,
      36,
      17,
      34,
      8,
      42,
      28
    ],
    [
      3,
      10,
      4,
      50,
      35,
      18,
      21,
      0
    ],
    [
      3,
      53,
      8,
      11,
      4,
      0,
      42,
      31
    ]
  ]
}