{
  "layer_path": "model.layers.8.mlp",
  "layer_id": 8,
  "token_pos": 5,
  "target_token_id": 407,
  "target_token_text": " by",
  "next_token_id": 4886,
  "next_token_text": " moving",
  "router_logits": [
    0.1966552734375,
    -0.6318359375,
    -1.0634765625,
    0.7802734375,
    -0.50537109375,
    -1.0712890625,
    -1.681640625,
    -1.6181640625,
    -0.329345703125,
    -0.86572265625,
    0.5517578125,
    -0.2998046875,
    -2.373046875,
    -0.56298828125,
    -0.56494140625,
    -1.19921875,
    -0.85693359375,
    -0.34765625,
    0.6279296875,
    -1.7216796875,
    -1.564453125,
    -0.0155029296875,
    -1.2470703125,
    -1.4970703125,
    -1.04296875,
    -1.845703125,
    -1.0107421875,
    -1.42578125,
    0.052947998046875,
    -1.1455078125,
    -0.302001953125,
    -1.0126953125,
    -0.345458984375,
    -0.72216796875,
    -2.41796875,
    0.256591796875,
    -1.611328125,
    -1.109375,
    -0.951171875,
    -1.591796875,
    -0.416748046875,
    -1.103515625,
    -0.38671875,
    -0.9892578125,
    -1.0107421875,
    -1.388671875,
    -1.5390625,
    -0.471435546875,
    -1.330078125,
    -2.57421875,
    0.5126953125,
    -0.9736328125,
    -0.71142578125,
    -0.99267578125,
    -0.324951171875,
    -2.818359375,
    -1.0166015625,
    -2.419921875,
    -0.6552734375,
    -1.2529296875,
    -0.59375,
    -0.5458984375,
    -0.71044921875,
    -2.3515625
  ],
  "router_probabilities": [
    0.036415617913007736,
    0.015902981162071228,
    0.010328074917197227,
    0.06527544558048248,
    0.018046854063868523,
    0.010247701779007912,
    0.00556614063680172,
    0.005930915009230375,
    0.021520301699638367,
    0.012586437165737152,
    0.05194057524204254,
    0.022165518254041672,
    0.002787919482216239,
    0.01703643426299095,
    0.017003191635012627,
    0.00901710893958807,
    0.012697548605501652,
    0.02112983912229538,
    0.05605157092213631,
    0.0053476798348128796,
    0.006258179899305105,
    0.029454289004206657,
    0.008595786988735199,
    0.00669440533965826,
    0.010542068630456924,
    0.00472392188385129,
    0.010887336917221546,
    0.007189065683633089,
    0.031541068106889725,
    0.009514668956398964,
    0.02211686596274376,
    0.010866092517971992,
    0.02117631956934929,
    0.014529404230415821,
    0.0026654524262994528,
    0.038664981722831726,
    0.005971597507596016,
    0.0098647465929389,
    0.011555604636669159,
    0.006089376285672188,
    0.019719233736395836,
    0.00992271862924099,
    0.02032036893069744,
    0.011123774573206902,
    0.010887336917221546,
    0.007460859604179859,
    0.006419113837182522,
    0.018669793382287025,
    0.007911080494523048,
    0.0022798823192715645,
    0.04995076358318329,
    0.011298948898911476,
    0.014686323702335358,
    0.011085819453001022,
    0.021615082398056984,
    0.0017860082443803549,
    0.010823729448020458,
    0.0026602514553815126,
    0.015534588135778904,
    0.008545568212866783,
    0.016520341858267784,
    0.01733008585870266,
    0.014700673520565033,
    0.002848464297130704
  ],
  "selected_expert_ids": [
    3,
    18,
    10,
    50,
    35,
    0,
    28,
    21
  ],
  "effective_gate_weights": [
    0.06527544558048248,
    0.05605157092213631,
    0.05194057524204254,
    0.04995076358318329,
    0.038664981722831726,
    0.036415617913007736,
    0.031541068106889725,
    0.029454289004206657
  ],
  "topk_ranks": [
    0,
    1,
    2,
    3,
    4,
    5,
    6,
    7
  ],
  "top1_top2_gap": 0.009223874658346176,
  "routing_entropy": 3.878801107406616,
  "sample_id": "layer_8_sample_009",
  "microbatch_id": null,
  "sequence_length": 7,
  "all_expert_count": 64,
  "selected_destination_ids": [
    3,
    18,
    10,
    50,
    35,
    0,
    28,
    21
  ],
  "expert_to_destination_map": {},
  "layer_name": "model.layers.8.mlp",
  "run_id": null,
  "mode": "real",
  "all_token_selected_expert_ids": [
    [
      22,
      7,
      29,
      32,
      60,
      1,
      59,
      33
    ],
    [
      3,
      6,
      55,
      49,
      57,
      38,
      32,
      52
    ],
    [
      3,
      17,
      28,
      36,
      42,
      38,
      8,
      24
    ],
    [
      53,
      3,
      8,
      23,
      0,
      42,
      18,
      2
    ],
    [
      3,
      55,
      57,
      63,
      6,
      42,
      54,
      25
    ],
    [
      3,
      18,
      10,
      50,
      35,
      0,
      28,
      21
    ],
    [
      3,
      17,
      42,
      28,
      56,
      54,
      47,
      8
    ]
  ]
}