{
  "layer_path": "model.layers.8.mlp",
  "layer_id": 8,
  "token_pos": 5,
  "target_token_id": 19414,
  "target_token_text": " engineers",
  "next_token_id": 4080,
  "next_token_text": " measured",
  "router_logits": [
    -2.71875,
    -2.546875,
    -2.197265625,
    -0.180908203125,
    -2.16796875,
    -0.0421142578125,
    -0.5146484375,
    -1.0849609375,
    -0.91552734375,
    -1.494140625,
    -3.20703125,
    -0.6748046875,
    0.0850830078125,
    -1.0830078125,
    -0.74169921875,
    -1.712890625,
    -1.22265625,
    -2.236328125,
    -1.4306640625,
    -0.916015625,
    -0.5712890625,
    -2.66796875,
    -1.2978515625,
    -2.216796875,
    -1.3330078125,
    -0.76904296875,
    -0.72607421875,
    -1.283203125,
    -2.091796875,
    -1.9541015625,
    -1.962890625,
    -1.9462890625,
    -1.0029296875,
    -0.7822265625,
    -1.0478515625,
    -3.162109375,
    -0.90576171875,
    -1.138671875,
    -0.5107421875,
    -1.5166015625,
    -2.484375,
    -0.77685546875,
    0.50244140625,
    -1.90625,
    -1.240234375,
    -1.53125,
    -0.84619140625,
    -1.0048828125,
    -1.6240234375,
    0.437255859375,
    -2.73828125,
    -0.884765625,
    -0.393798828125,
    -2.099609375,
    -1.3291015625,
    0.33837890625,
    -1.9013671875,
    0.408447265625,
    -1.25,
    -1.0478515625,
    -0.955078125,
    -1.6044921875,
    -1.1796875,
    0.0460205078125
  ],
  "router_probabilities": [
    0.0025588811840862036,
    0.003038746537640691,
    0.004310502205044031,
    0.032375819981098175,
    0.0044386545196175575,
    0.037196170538663864,
    0.02318885363638401,
    0.013109788298606873,
    0.015530296601355076,
    0.008707454428076744,
    0.001570334774442017,
    0.019757147878408432,
    0.04224149510264397,
    0.013135417364537716,
    0.018478738144040108,
    0.006996635813266039,
    0.011423399671912193,
    0.004145369865000248,
    0.00927809253334999,
    0.015522714704275131,
    0.021911924704909325,
    0.0026921802200376987,
    0.010595913976430893,
    0.004227129742503166,
    0.010229873470962048,
    0.0179803054779768,
    0.01876973733305931,
    0.010752270929515362,
    0.0047899652272462845,
    0.005497088190168142,
    0.005448985379189253,
    0.005540201906114817,
    0.01423054002225399,
    0.017744816839694977,
    0.013605423271656036,
    0.0016424854984506965,
    0.015682702884078026,
    0.012424224987626076,
    0.02327961102128029,
    0.008514055982232094,
    0.0032347284723073244,
    0.01784038357436657,
    0.0641203299164772,
    0.005766527261584997,
    0.011224351823329926,
    0.008390247821807861,
    0.016645314171910286,
    0.014202773571014404,
    0.007646871265023947,
    0.06007392704486847,
    0.002509387908503413,
    0.01601545885205269,
    0.026167578995227814,
    0.004752689506858587,
    0.010269912891089916,
    0.05441821739077568,
    0.0057947528548538685,
    0.05836797133088112,
    0.011115272529423237,
    0.013605423271656036,
    0.01492804940789938,
    0.007797692436724901,
    0.011924946680665016,
    0.0406232513487339
  ],
  "selected_expert_ids": [
    42,
    49,
    57,
    55,
    12,
    63,
    5,
    3
  ],
  "effective_gate_weights": [
    0.0641203299164772,
    0.06007392704486847,
    0.05836797133088112,
    0.05441821739077568,
    0.04224149510264397,
    0.0406232513487339,
    0.037196170538663864,
    0.032375819981098175
  ],
  "topk_ranks": [
    0,
    1,
    2,
    3,
    4,
    5,
    6,
    7
  ],
  "top1_top2_gap": 0.004046402871608734,
  "routing_entropy": 3.822970151901245,
  "sample_id": "layer_8_sample_007",
  "microbatch_id": null,
  "sequence_length": 7,
  "all_expert_count": 64,
  "selected_destination_ids": [
    42,
    49,
    57,
    55,
    12,
    63,
    5,
    3
  ],
  "expert_to_destination_map": {},
  "layer_name": "model.layers.8.mlp",
  "run_id": null,
  "mode": "real",
  "all_token_selected_expert_ids": [
    [
      22,
      7,
      29,
      32,
      60,
      1,
      59,
      33
    ],
    [
      38,
      47,
      28,
      42,
      32,
      3,
      18,
      17
    ],
    [
      23,
      53,
      18,
      3,
      38,
      42,
      8,
      15
    ],
    [
      3,
      55,
      6,
      57,
      49,
      52,
      42,
      63
    ],
    [
      50,
      18,
      21,
      10,
      35,
      3,
      1,
      42
    ],
    [
      42,
      49,
      57,
      55,
      12,
      63,
      5,
      3
    ],
    [
      42,
      18,
      28,
      11,
      17,
      47,
      14,
      5
    ]
  ]
}