{
  "layer_path": "model.layers.8.mlp",
  "layer_id": 8,
  "token_pos": 4,
  "target_token_id": 15296,
  "target_token_text": " preserved",
  "next_token_id": 3304,
  "next_token_text": " inside",
  "router_logits": [
    -0.92578125,
    -2.62890625,
    -1.69921875,
    -0.93212890625,
    -1.388671875,
    0.84521484375,
    -1.388671875,
    -1.7099609375,
    -0.232421875,
    -0.98291015625,
    -2.857421875,
    -0.462158203125,
    -1.4580078125,
    -1.7900390625,
    0.285400390625,
    0.86279296875,
    -1.228515625,
    0.55712890625,
    -0.1309814453125,
    -0.6708984375,
    -0.408447265625,
    -2.361328125,
    -1.5029296875,
    -1.068359375,
    -0.966796875,
    -0.4169921875,
    -0.87890625,
    -1.244140625,
    0.2060546875,
    -2.228515625,
    -2.041015625,
    -1.615234375,
    -1.1240234375,
    -0.2132568359375,
    0.374267578125,
    -3.234375,
    -0.276611328125,
    -1.35546875,
    -0.210693359375,
    -0.8583984375,
    -0.7314453125,
    -1.0888671875,
    0.1925048828125,
    -1.1796875,
    -1.40234375,
    -1.0966796875,
    -0.38427734375,
    -0.90576171875,
    -0.92041015625,
    -0.43115234375,
    -2.69140625,
    -0.446044921875,
    -0.9072265625,
    -1.8408203125,
    -0.99853515625,
    -1.216796875,
    0.6474609375,
    -0.59423828125,
    -0.4267578125,
    -1.3154296875,
    -1.228515625,
    -1.0361328125,
    -0.08050537109375,
    -0.82275390625
  ],
  "router_probabilities": [
    0.011185809969902039,
    0.002037087455391884,
    0.005161403678357601,
    0.011115031316876411,
    0.007041037082672119,
    0.06573569774627686,
    0.007041037082672119,
    0.005106254946440458,
    0.022376367822289467,
    0.01056468766182661,
    0.0016209387686103582,
    0.01778346486389637,
    0.006569379940629005,
    0.004713299684226513,
    0.037555795162916183,
    0.06690142303705215,
    0.008264023810625076,
    0.04928186535835266,
    0.02476535737514496,
    0.014433166943490505,
    0.01876474730670452,
    0.0026620570570230484,
    0.006280801258981228,
    0.009699437767267227,
    0.010736298747360706,
    0.01860508695244789,
    0.011722628958523273,
    0.008135901764035225,
    0.03469105809926987,
    0.0030401647090911865,
    0.00366713828407228,
    0.005613604094833136,
    0.009174278937280178,
    0.0228093471378088,
    0.041046060621738434,
    0.0011118800612166524,
    0.02140909619629383,
    0.007278745528310537,
    0.022867893800139427,
    0.011965516954660416,
    0.01358521357178688,
    0.009502549655735493,
    0.034224167466163635,
    0.008677554316818714,
    0.006945427507162094,
    0.0094285998493433,
    0.019223816692829132,
    0.011412001214921474,
    0.011246051639318466,
    0.018343491479754448,
    0.001913666375912726,
    0.018072335049510002,
    0.011395297013223171,
    0.004479927942156792,
    0.010400897823274136,
    0.008361437357962132,
    0.05394085869193077,
    0.015583131462335587,
    0.01842428185045719,
    0.00757609261199832,
    0.008264023810625076,
    0.010017108172178268,
    0.02604750171303749,
    0.012399713508784771
  ],
  "selected_expert_ids": [
    15,
    5,
    56,
    17,
    34,
    14,
    28,
    42
  ],
  "effective_gate_weights": [
    0.06690142303705215,
    0.06573569774627686,
    0.05394085869193077,
    0.04928186535835266,
    0.041046060621738434,
    0.037555795162916183,
    0.03469105809926987,
    0.034224167466163635
  ],
  "topk_ranks": [
    0,
    1,
    2,
    3,
    4,
    5,
    6,
    7
  ],
  "top1_top2_gap": 0.001165725290775299,
  "routing_entropy": 3.82865834236145,
  "sample_id": "layer_8_sample_004",
  "microbatch_id": null,
  "sequence_length": 6,
  "all_expert_count": 64,
  "selected_destination_ids": [
    15,
    5,
    56,
    17,
    34,
    14,
    28,
    42
  ],
  "expert_to_destination_map": {},
  "layer_name": "model.layers.8.mlp",
  "run_id": null,
  "mode": "real",
  "all_token_selected_expert_ids": [
    [
      22,
      7,
      29,
      32,
      60,
      1,
      59,
      33
    ],
    [
      2,
      49,
      24,
      53,
      32,
      6,
      14,
      23
    ],
    [
      55,
      49,
      5,
      57,
      63,
      12,
      6,
      24
    ],
    [
      18,
      31,
      5,
      15,
      32,
      40,
      10,
      13
    ],
    [
      15,
      5,
      56,
      17,
      34,
      14,
      28,
      42
    ],
    [
      56,
      15,
      17,
      5,
      18,
      28,
      0,
      14
    ]
  ]
}