{
  "layer_path": "model.layers.8.mlp",
  "layer_id": 8,
  "token_pos": 4,
  "target_token_id": 27,
  "target_token_text": ":",
  "next_token_id": 1509,
  "next_token_text": " pass",
  "router_logits": [
    -1.2138671875,
    -0.91650390625,
    -0.6611328125,
    0.677734375,
    -2.208984375,
    -1.3251953125,
    -0.697265625,
    -1.580078125,
    -1.2041015625,
    -1.263671875,
    -0.80908203125,
    -1.75390625,
    -1.1962890625,
    -1.27734375,
    -1.015625,
    -1.1904296875,
    1.013671875,
    -1.427734375,
    -0.376708984375,
    -1.6728515625,
    -1.283203125,
    -0.71435546875,
    -1.978515625,
    -1.453125,
    -1.0703125,
    -2.25,
    -0.76171875,
    -1.02734375,
    -1.072265625,
    -0.72412109375,
    0.52978515625,
    -1.3125,
    0.209716796875,
    -0.68408203125,
    -2.650390625,
    -1.099609375,
    -1.7705078125,
    -0.44384765625,
    -1.1376953125,
    -1.400390625,
    -0.638671875,
    -0.7470703125,
    -1.7099609375,
    -2.046875,
    -0.7216796875,
    -0.79296875,
    -2.39453125,
    -1.4541015625,
    -0.90625,
    -1.0234375,
    -1.62109375,
    -0.796875,
    -0.50634765625,
    -1.27734375,
    0.7607421875,
    -1.7900390625,
    -1.7529296875,
    -1.16796875,
    -1.234375,
    -1.486328125,
    -0.87890625,
    -0.77783203125,
    -0.256591796875,
    -1.9609375
  ],
  "router_probabilities": [
    0.01014766376465559,
    0.013661843724548817,
    0.017636626958847046,
    0.06727879494428635,
    0.0037513896822929382,
    0.009078558534383774,
    0.01701074279844761,
    0.0070359488017857075,
    0.0102472472935915,
    0.009654642082750797,
    0.015211149118840694,
    0.005913301836699247,
    0.010327617637813091,
    0.009523543529212475,
    0.012372616678476334,
    0.010388309136033058,
    0.0941399559378624,
    0.00819378811866045,
    0.023439010605216026,
    0.006412563845515251,
    0.009467904455959797,
    0.016722502186894417,
    0.004723712336272001,
    0.00798836164176464,
    0.011714158579707146,
    0.0036006364971399307,
    0.015948934480547905,
    0.012228471226990223,
    0.011691301129758358,
    0.016559990122914314,
    0.0580262690782547,
    0.00919454824179411,
    0.04213283956050873,
    0.017236489802598953,
    0.002412636298686266,
    0.01137594785541296,
    0.005815942771732807,
    0.021917009726166725,
    0.010950831696391106,
    0.008420928381383419,
    0.01803724654018879,
    0.016184279695153236,
    0.0061789583414793015,
    0.004411592148244381,
    0.0166004691272974,
    0.015458236448466778,
    0.0031160912476480007,
    0.00798056460916996,
    0.013802650384604931,
    0.012276331894099712,
    0.006753202993422747,
    0.01539797056466341,
    0.020589126273989677,
    0.009523543529212475,
    0.07310178875923157,
    0.005703452043235302,
    0.005919080227613449,
    0.010624280199408531,
    0.009941676631569862,
    0.007727478165179491,
    0.014185275882482529,
    0.01569400355219841,
    0.026430506259202957,
    0.004807480610907078
  ],
  "selected_expert_ids": [
    16,
    54,
    3,
    30,
    32,
    62,
    18,
    37
  ],
  "effective_gate_weights": [
    0.0941399559378624,
    0.07310178875923157,
    0.06727879494428635,
    0.0580262690782547,
    0.04213283956050873,
    0.026430506259202957,
    0.023439010605216026,
    0.021917009726166725
  ],
  "topk_ranks": [
    0,
    1,
    2,
    3,
    4,
    5,
    6,
    7
  ],
  "top1_top2_gap": 0.02103816717863083,
  "routing_entropy": 3.8051445484161377,
  "sample_id": "layer_8_sample_027",
  "microbatch_id": null,
  "sequence_length": 6,
  "all_expert_count": 64,
  "selected_destination_ids": [
    16,
    54,
    3,
    30,
    32,
    62,
    18,
    37
  ],
  "expert_to_destination_map": {},
  "layer_name": "model.layers.8.mlp",
  "run_id": null,
  "mode": "real",
  "all_token_selected_expert_ids": [
    [
      22,
      7,
      29,
      32,
      60,
      1,
      59,
      58
    ],
    [
      3,
      16,
      44,
      51,
      32,
      54,
      60,
      6
    ],
    [
      3,
      52,
      51,
      57,
      16,
      54,
      48,
      62
    ],
    [
      3,
      51,
      54,
      16,
      52,
      57,
      6,
      62
    ],
    [
      16,
      54,
      3,
      30,
      32,
      62,
      18,
      37
    ],
    [
      54,
      6,
      3,
      37,
      51,
      16,
      32,
      62
    ]
  ]
}