{
  "layer_path": "model.layers.8.mlp",
  "layer_id": 8,
  "token_pos": 6,
  "target_token_id": 253,
  "target_token_text": " the",
  "next_token_id": 5024,
  "next_token_text": " edge",
  "router_logits": [
    0.029388427734375,
    -2.3515625,
    -0.4716796875,
    -1.2841796875,
    -2.044921875,
    -0.364990234375,
    -1.1044921875,
    -1.375,
    0.06024169921875,
    -0.5400390625,
    -2.849609375,
    -0.96240234375,
    -2.244140625,
    -1.166015625,
    -0.399169921875,
    0.41162109375,
    -1.421875,
    -1.66015625,
    -0.09454345703125,
    -1.3095703125,
    -2.060546875,
    -1.7666015625,
    -0.91796875,
    1.34375,
    -1.072265625,
    -2.185546875,
    -0.82470703125,
    -1.341796875,
    -1.57421875,
    -1.8359375,
    -1.9072265625,
    -1.197265625,
    -1.1572265625,
    -0.8603515625,
    -2.576171875,
    -3.271484375,
    -2.337890625,
    -1.2744140625,
    -1.24609375,
    -1.0810546875,
    -1.111328125,
    -0.9423828125,
    -0.87451171875,
    -1.494140625,
    -0.9921875,
    -1.3544921875,
    -1.7841796875,
    -1.3251953125,
    -1.2431640625,
    -2.89453125,
    -2.5390625,
    -1.0205078125,
    -1.3076171875,
    1.078125,
    -1.0751953125,
    -2.87890625,
    1.103515625,
    -3.708984375,
    -0.1146240234375,
    -1.1630859375,
    -1.1240234375,
    -0.92041015625,
    -1.2783203125,
    -3.447265625
  ],
  "router_probabilities": [
    0.03412916511297226,
    0.0031556719914078712,
    0.020678287371993065,
    0.009175934828817844,
    0.004288093186914921,
    0.02300642989575863,
    0.010982155799865723,
    0.008379296399652958,
    0.035198576748371124,
    0.019311966374516487,
    0.0019177537178620696,
    0.012658913619816303,
    0.003513537347316742,
    0.010326860472559929,
    0.02223336324095726,
    0.050018105655908585,
    0.007995580323040485,
    0.006300365552306175,
    0.03015107288956642,
    0.008945885114371777,
    0.004221612121909857,
    0.005664181895554066,
    0.013234078884124756,
    0.1270415186882019,
    0.011341838166117668,
    0.0037255596835166216,
    0.014527696184813976,
    0.00866218563169241,
    0.006865749601274729,
    0.005284756422042847,
    0.004921126179397106,
    0.010009136982262135,
    0.01041802391409874,
    0.014018983580172062,
    0.0025208396837115288,
    0.0012576936278492212,
    0.0031991121359169483,
    0.009265982545912266,
    0.009532148949801922,
    0.011242590844631195,
    0.010907338932156563,
    0.012914893217384815,
    0.013821871019899845,
    0.007438158616423607,
    0.012287425808608532,
    0.008552911691367626,
    0.005565485917031765,
    0.00880719255656004,
    0.009560116566717625,
    0.0018335110507905483,
    0.0026161440182477236,
    0.011944323778152466,
    0.00896337442100048,
    0.09740611165761948,
    0.011308658868074417,
    0.0018623846117407084,
    0.09991098195314407,
    0.000812028010841459,
    0.029551660642027855,
    0.010357160121202469,
    0.010769742541015148,
    0.013201807625591755,
    0.009229857474565506,
    0.0010549552971497178
  ],
  "selected_expert_ids": [
    23,
    56,
    53,
    15,
    8,
    0,
    18,
    58
  ],
  "effective_gate_weights": [
    0.1270415186882019,
    0.09991098195314407,
    0.09740611165761948,
    0.050018105655908585,
    0.035198576748371124,
    0.03412916511297226,
    0.03015107288956642,
    0.029551660642027855
  ],
  "topk_ranks": [
    0,
    1,
    2,
    3,
    4,
    5,
    6,
    7
  ],
  "top1_top2_gap": 0.02713053673505783,
  "routing_entropy": 3.571305513381958,
  "sample_id": "layer_8_sample_005",
  "microbatch_id": null,
  "sequence_length": 8,
  "all_expert_count": 64,
  "selected_destination_ids": [
    23,
    56,
    53,
    15,
    8,
    0,
    18,
    58
  ],
  "expert_to_destination_map": {},
  "layer_name": "model.layers.8.mlp",
  "run_id": null,
  "mode": "real",
  "all_token_selected_expert_ids": [
    [
      22,
      7,
      29,
      32,
      60,
      1,
      59,
      33
    ],
    [
      45,
      37,
      34,
      38,
      6,
      5,
      58,
      59
    ],
    [
      21,
      35,
      50,
      10,
      58,
      1,
      18,
      32
    ],
    [
      53,
      23,
      56,
      18,
      58,
      31,
      15,
      2
    ],
    [
      55,
      63,
      12,
      57,
      58,
      5,
      49,
      52
    ],
    [
      56,
      28,
      17,
      15,
      18,
      58,
      5,
      42
    ],
    [
      23,
      56,
      53,
      15,
      8,
      0,
      18,
      58
    ],
    [
      34,
      56,
      6,
      55,
      57,
      63,
      58,
      20
    ]
  ]
}