{
  "layer_path": "model.layers.8.mlp",
  "layer_id": 8,
  "token_pos": 5,
  "target_token_id": 6888,
  "target_token_text": " discovered",
  "next_token_id": 247,
  "next_token_text": " a",
  "router_logits": [
    -0.54248046875,
    -1.517578125,
    -1.5048828125,
    -0.5244140625,
    -0.6982421875,
    0.1673583984375,
    -1.4482421875,
    -0.8212890625,
    0.0195159912109375,
    -0.6982421875,
    -1.056640625,
    -0.278076171875,
    -1.9541015625,
    -0.87744140625,
    1.111328125,
    -0.62841796875,
    -1.228515625,
    0.693359375,
    0.48681640625,
    -0.8876953125,
    -0.7802734375,
    -1.34765625,
    -1.2236328125,
    -1.0830078125,
    -0.9658203125,
    -1.09765625,
    -0.9248046875,
    -1.0048828125,
    0.7978515625,
    -1.3671875,
    -1.17578125,
    -0.89990234375,
    -0.5361328125,
    -0.89599609375,
    -0.646484375,
    -1.494140625,
    -0.81884765625,
    -1.19140625,
    -0.50390625,
    -0.5263671875,
    -0.57177734375,
    -0.95654296875,
    -0.4111328125,
    -0.369384765625,
    -1.0595703125,
    -1.298828125,
    -0.027191162109375,
    -0.18603515625,
    -1.2138671875,
    -1.3876953125,
    -0.96337890625,
    -0.62451171875,
    -0.54541015625,
    -1.1376953125,
    -1.1064453125,
    -2.375,
    -0.4521484375,
    -1.681640625,
    0.170166015625,
    -0.6982421875,
    -0.53857421875,
    -0.87841796875,
    -0.48095703125,
    -1.8447265625
  ],
  "router_probabilities": [
    0.01590608060359955,
    0.005999065935611725,
    0.0060757119208574295,
    0.016196059063076973,
    0.013611837290227413,
    0.03234761580824852,
    0.006429776549339294,
    0.012035888619720936,
    0.027901986613869667,
    0.013611837290227413,
    0.009511877782642841,
    0.02072013169527054,
    0.0038770728278905153,
    0.011378669179975986,
    0.08313868194818497,
    0.014596240594983101,
    0.008009804412722588,
    0.05473707616329193,
    0.044522665441036224,
    0.011262590996921062,
    0.012539812363684177,
    0.00711016682907939,
    0.008049010299146175,
    0.009264354594051838,
    0.010416192933917046,
    0.00912963505834341,
    0.010852302424609661,
    0.010017154738307,
    0.06076618656516075,
    0.006972643546760082,
    0.008443532511591911,
    0.011125942692160606,
    0.01600736938416958,
    0.011169488541781902,
    0.01433490589261055,
    0.006141330115497112,
    0.012065309099853039,
    0.008312627673149109,
    0.016531633213162422,
    0.01616445556282997,
    0.015446842648088932,
    0.010513277724385262,
    0.01813872531056404,
    0.01891200989484787,
    0.00948405172675848,
    0.007465959060937166,
    0.026628734543919563,
    0.022717755287885666,
    0.008127999491989613,
    0.006831106264144182,
    0.010441654361784458,
    0.014653367921710014,
    0.01585954800248146,
    0.008771314285695553,
    0.00904974527657032,
    0.0025451306719332933,
    0.017409805208444595,
    0.005091341212391853,
    0.03243856504559517,
    0.013611837290227413,
    0.015968335792422295,
    0.011367563158273697,
    0.01691540889441967,
    0.004325186833739281
  ],
  "selected_expert_ids": [
    14,
    28,
    17,
    18,
    58,
    5,
    8,
    46
  ],
  "effective_gate_weights": [
    0.08313868194818497,
    0.06076618656516075,
    0.05473707616329193,
    0.044522665441036224,
    0.03243856504559517,
    0.03234761580824852,
    0.027901986613869667,
    0.026628734543919563
  ],
  "topk_ranks": [
    0,
    1,
    2,
    3,
    4,
    5,
    6,
    7
  ],
  "top1_top2_gap": 0.022372495383024216,
  "routing_entropy": 3.897019863128662,
  "sample_id": "layer_8_sample_011",
  "microbatch_id": null,
  "sequence_length": 7,
  "all_expert_count": 64,
  "selected_destination_ids": [
    14,
    28,
    17,
    18,
    58,
    5,
    8,
    46
  ],
  "expert_to_destination_map": {},
  "layer_name": "model.layers.8.mlp",
  "run_id": null,
  "mode": "real",
  "all_token_selected_expert_ids": [
    [
      22,
      7,
      29,
      32,
      60,
      1,
      59,
      33
    ],
    [
      38,
      14,
      6,
      34,
      5,
      57,
      52,
      62
    ],
    [
      18,
      50,
      21,
      35,
      10,
      1,
      30,
      42
    ],
    [
      53,
      18,
      23,
      14,
      42,
      58,
      56,
      31
    ],
    [
      52,
      57,
      55,
      49,
      12,
      63,
      14,
      6
    ],
    [
      14,
      28,
      17,
      18,
      58,
      5,
      8,
      46
    ],
    [
      53,
      23,
      14,
      58,
      18,
      56,
      42,
      0
    ]
  ]
}