{
  "layer_path": "model.layers.8.mlp",
  "layer_id": 8,
  "token_pos": 7,
  "target_token_id": 7887,
  "target_token_text": " threshold",
  "next_token_id": 27,
  "next_token_text": ":",
  "router_logits": [
    -2.4765625,
    -1.98828125,
    -2.072265625,
    0.75048828125,
    -2.275390625,
    -1.3818359375,
    -0.1575927734375,
    -1.3408203125,
    -0.79248046875,
    -2.056640625,
    -2.537109375,
    0.151123046875,
    -0.8681640625,
    -2.0625,
    -0.67822265625,
    -2.857421875,
    0.10540771484375,
    -1.681640625,
    -2.3203125,
    -1.060546875,
    -0.2198486328125,
    -2.251953125,
    -1.11328125,
    -1.552734375,
    -0.982421875,
    -1.1767578125,
    -0.9541015625,
    -0.9228515625,
    -1.8935546875,
    -1.662109375,
    -1.34375,
    -2.392578125,
    -1.310546875,
    -0.5888671875,
    -0.31982421875,
    -2.59375,
    -0.395263671875,
    -0.322265625,
    -0.845703125,
    -1.31640625,
    -2.361328125,
    -1.4375,
    -0.95068359375,
    -2.171875,
    -0.8583984375,
    -0.31494140625,
    -1.1640625,
    -1.6259765625,
    -1.2939453125,
    -1.2294921875,
    -2.5,
    -0.03753662109375,
    -0.259033203125,
    -1.244140625,
    0.87939453125,
    -0.73828125,
    -1.9873046875,
    0.1485595703125,
    -0.9658203125,
    -1.095703125,
    -1.0341796875,
    -1.265625,
    -0.9072265625,
    -0.35888671875
  ],
  "router_probabilities": [
    0.0030288544949144125,
    0.004935557954013348,
    0.0045379772782325745,
    0.07634291797876358,
    0.00370378908701241,
    0.009051323868334293,
    0.030788900330662727,
    0.009430288337171078,
    0.01631796360015869,
    0.004609439987689257,
    0.0028509083203971386,
    0.04192448407411575,
    0.015128538943827152,
    0.004582510329782963,
    0.01829310692846775,
    0.002069537527859211,
    0.040051043033599854,
    0.0067066955380141735,
    0.0035410895943641663,
    0.012480908073484898,
    0.028930557891726494,
    0.0037916218861937523,
    0.011839787475764751,
    0.00762942573055625,
    0.01349507924169302,
    0.011111595667898655,
    0.013882727362215519,
    0.01432341244071722,
    0.005425946321338415,
    0.0068389736115932465,
    0.009402700699865818,
    0.00329421809874475,
    0.00972014106810093,
    0.020002949982881546,
    0.026178089901804924,
    0.002693918999284506,
    0.0242758821696043,
    0.02611425518989563,
    0.015472184866666794,
    0.00966335367411375,
    0.0033987879287451506,
    0.008561256341636181,
    0.013930258341133595,
    0.004107736051082611,
    0.01527700200676918,
    0.02630622312426567,
    0.011253559961915016,
    0.007090603467077017,
    0.009882857091724873,
    0.010540814138948917,
    0.002958690980449319,
    0.03471633791923523,
    0.027818849310278893,
    0.010387533344328403,
    0.08684644103050232,
    0.01722678914666176,
    0.004940380342304707,
    0.04181715101003647,
    0.013720989227294922,
    0.012049749493598938,
    0.012814370915293694,
    0.010166743770241737,
    0.014548973180353642,
    0.025175223127007484
  ],
  "selected_expert_ids": [
    54,
    3,
    11,
    57,
    16,
    51,
    6,
    20
  ],
  "effective_gate_weights": [
    0.08684644103050232,
    0.07634291797876358,
    0.04192448407411575,
    0.04181715101003647,
    0.040051043033599854,
    0.03471633791923523,
    0.030788900330662727,
    0.028930557891726494
  ],
  "topk_ranks": [
    0,
    1,
    2,
    3,
    4,
    5,
    6,
    7
  ],
  "top1_top2_gap": 0.010503523051738739,
  "routing_entropy": 3.8000264167785645,
  "sample_id": "layer_8_sample_026",
  "microbatch_id": null,
  "sequence_length": 9,
  "all_expert_count": 64,
  "selected_destination_ids": [
    54,
    3,
    11,
    57,
    16,
    51,
    6,
    20
  ],
  "expert_to_destination_map": {},
  "layer_name": "model.layers.8.mlp",
  "run_id": null,
  "mode": "real",
  "all_token_selected_expert_ids": [
    [
      22,
      7,
      29,
      32,
      60,
      1,
      59,
      33
    ],
    [
      3,
      6,
      54,
      16,
      51,
      57,
      52,
      44
    ],
    [
      16,
      6,
      3,
      54,
      61,
      51,
      11,
      8
    ],
    [
      51,
      3,
      54,
      57,
      52,
      34,
      63,
      6
    ],
    [
      54,
      16,
      3,
      30,
      21,
      50,
      9,
      10
    ],
    [
      54,
      3,
      57,
      51,
      20,
      16,
      6,
      36
    ],
    [
      54,
      16,
      3,
      37,
      11,
      9,
      40,
      20
    ],
    [
      54,
      3,
      11,
      57,
      16,
      51,
      6,
      20
    ],
    [
      54,
      3,
      30,
      50,
      10,
      35,
      16,
      32
    ]
  ]
}