{
  "layer_path": "model.layers.8.mlp",
  "layer_id": 8,
  "token_pos": 6,
  "target_token_id": 2926,
  "target_token_text": " story",
  "next_token_id": 273,
  "next_token_text": " of",
  "router_logits": [
    -1.8046875,
    -2.984375,
    -0.68896484375,
    -1.310546875,
    -0.6943359375,
    -0.26123046875,
    -0.2144775390625,
    -0.3251953125,
    -0.6552734375,
    -1.4169921875,
    -3.548828125,
    -0.9111328125,
    -1.4951171875,
    -1.7177734375,
    0.4306640625,
    -1.5634765625,
    -1.732421875,
    -0.7177734375,
    -1.44140625,
    -0.359130859375,
    -0.432861328125,
    -3.01171875,
    -0.87646484375,
    -0.457763671875,
    -1.236328125,
    0.42919921875,
    -1.279296875,
    -0.9814453125,
    -1.4287109375,
    -2.318359375,
    -2.515625,
    -1.5830078125,
    -1.6435546875,
    -0.69873046875,
    0.276123046875,
    -3.677734375,
    0.77490234375,
    -1.34375,
    -0.167236328125,
    -0.5546875,
    -1.1689453125,
    -0.77734375,
    -1.4033203125,
    -1.087890625,
    -1.4775390625,
    -1.3212890625,
    0.86279296875,
    -1.5205078125,
    -0.8681640625,
    1.125,
    -3.26171875,
    -0.08673095703125,
    -0.845703125,
    -1.9130859375,
    -1.5673828125,
    -0.5830078125,
    -1.9521484375,
    0.288818359375,
    -0.728515625,
    -1.326171875,
    -1.40625,
    -1.45703125,
    -0.75,
    -0.307861328125
  ],
  "router_probabilities": [
    0.004895058460533619,
    0.0015046175103634596,
    0.01493860688060522,
    0.008023437112569809,
    0.014858584851026535,
    0.022912515327334404,
    0.024009177461266518,
    0.021492809057235718,
    0.015450483188033104,
    0.007213263772428036,
    0.0008556324755772948,
    0.011962550692260265,
    0.006671178620308638,
    0.005339544266462326,
    0.04576766490936279,
    0.006230379454791546,
    0.005261898040771484,
    0.014514385722577572,
    0.007039291318506002,
    0.020775675773620605,
    0.019298983737826347,
    0.001464033150114119,
    0.012384540401399136,
    0.018824327737092972,
    0.008641581982374191,
    0.045700669288635254,
    0.008278128691017628,
    0.01115032285451889,
    0.007129226811230183,
    0.0029286874923855066,
    0.002404371974989772,
    0.006109872832894325,
    0.005750915501266718,
    0.014793431386351585,
    0.0392141155898571,
    0.0007521491497755051,
    0.06457427144050598,
    0.007761408109217882,
    0.025170620530843735,
    0.01708543300628662,
    0.009243941865861416,
    0.013675009831786156,
    0.007312559988349676,
    0.010024409741163254,
    0.006789482664316893,
    0.007937708869576454,
    0.07050662487745285,
    0.006503925658762455,
    0.01248776912689209,
    0.09164420515298843,
    0.0011401900555938482,
    0.027280790731310844,
    0.012771429494023323,
    0.004392189439386129,
    0.006206089165061712,
    0.016608355566859245,
    0.004223926924169064,
    0.039715126156806946,
    0.014359304681420326,
    0.007899045012891293,
    0.007291167508810759,
    0.006930157076567411,
    0.014054094441235065,
    0.021868612617254257
  ],
  "selected_expert_ids": [
    49,
    46,
    36,
    14,
    25,
    57,
    34,
    51
  ],
  "effective_gate_weights": [
    0.09164420515298843,
    0.07050662487745285,
    0.06457427144050598,
    0.04576766490936279,
    0.045700669288635254,
    0.039715126156806946,
    0.0392141155898571,
    0.027280790731310844
  ],
  "topk_ranks": [
    0,
    1,
    2,
    3,
    4,
    5,
    6,
    7
  ],
  "top1_top2_gap": 0.021137580275535583,
  "routing_entropy": 3.741307020187378,
  "sample_id": null,
  "microbatch_id": null,
  "sequence_length": 8,
  "all_expert_count": 64,
  "selected_destination_ids": [
    49,
    46,
    36,
    14,
    25,
    57,
    34,
    51
  ],
  "expert_to_destination_map": {},
  "layer_name": "model.layers.8.mlp",
  "run_id": null,
  "mode": "real",
  "all_token_selected_expert_ids": [
    [
      22,
      7,
      29,
      32,
      60,
      1,
      59,
      33
    ],
    [
      49,
      6,
      32,
      38,
      51,
      61,
      36,
      5
    ],
    [
      2,
      18,
      15,
      32,
      38,
      51,
      28,
      33
    ],
    [
      49,
      55,
      12,
      57,
      52,
      63,
      14,
      6
    ],
    [
      31,
      18,
      40,
      10,
      60,
      32,
      13,
      35
    ],
    [
      23,
      31,
      18,
      40,
      7,
      14,
      46,
      2
    ],
    [
      49,
      46,
      36,
      14,
      25,
      57,
      34,
      51
    ],
    [
      2,
      40,
      18,
      0,
      14,
      28,
      4,
      17
    ]
  ]
}